{"classes": [0, 1, 2], "dtrees": [{"children_left": [1, 2, 3, 4, 5, 6, -1, 8, -1, 10, -1, -1, 13, 14, 15, 16, 17, -1, -1, 20, -1, -1, 23, -1, -1, -1, 27, 28, 29, 30, -1, -1, -1, 34, -1, 36, -1, -1, 39, 40, 41, -1, -1, -1, 45, -1, 47, -1, -1, 50, 51, -1, 53, 54, 55, 56, -1, -1, 59, -1, -1, 62, -1, -1, 65, -1, 67, 68, -1, -1, 71, -1, -1, 74, 75, -1, -1, 78, 79, 80, 81, -1, -1, -1, 85, -1, 87, -1, -1, 90, 91, -1, 93, -1, -1, -1, 97, -1, 99, 100, 101, -1, -1, 104, 105, 106, 107, -1, -1, 110, -1, -1, -1, -1, 115, 116, -1, 118, -1, -1, 121, -1, -1, 124, 125, 126, 127, 128, 129, 130, 131, -1, -1, -1, 135, -1, -1, 138, -1, -1, 141, 142, -1, 144, -1, -1, -1, 148, 149, -1, -1, 152, -1, 154, -1, -1, 157, 158, 159, 160, 161, -1, -1, -1, 165, 166, 167, -1, -1, -1, 171, -1, 173, -1, -1, 176, 177, -1, -1, 180, 181, 182, -1, -1, -1, -1, 187, 188, 189, 190, 191, -1, -1, -1, 195, 196, -1, -1, 199, -1, -1, 202, 203, 204, -1, -1, -1, 208, 209, -1, -1, -1, 213, 214, -1, 216, -1, -1, 219, -1, 221, 222, -1, -1, -1, 226, 227, 228, 229, 230, -1, -1, 233, -1, -1, 236, 237, -1, -1, 240, -1, 242, -1, -1, 245, 246, 247, 248, 249, -1, -1, 252, -1, -1, 255, -1, 257, -1, -1, 260, 261, -1, -1, 264, -1, -1, 267, -1, -1, 270, 271, 272, -1, 274, -1, 276, 277, -1, -1, 280, -1, -1, 283, 284, 285, 286, -1, -1, 289, -1, -1, 292, 293, -1, -1, 296, -1, -1, 299, -1, -1, -1, 303, 304, 305, 306, -1, 308, 309, -1, 311, -1, -1, 314, 315, -1, 317, -1, -1, 320, 321, 322, -1, -1, 325, -1, -1, 328, -1, 330, -1, -1, 333, 334, 335, 336, -1, -1, -1, 340, 341, 342, -1, -1, 345, -1, -1, 348, 349, 350, -1, -1, 353, -1, -1, 356, 357, -1, -1, 360, -1, -1, 363, 364, 365, -1, 367, -1, 369, -1, -1, 372, 373, -1, -1, 376, -1, -1, 379, -1, -1, 382, 383, 384, -1, 386, -1, -1, -1, 390, -1, -1, 393, 394, 395, 396, 397, -1, 399, -1, -1, 402, -1, -1, 405, -1, 407, -1, 409, 410, 411, -1, -1, 414, -1, -1, -1, 418, 419, -1, -1, -1, 423, 424, -1, -1, 427, -1, 429, -1, -1], "children_right": [302, 123, 96, 49, 12, 7, -1, 9, -1, 11, -1, -1, 26, 25, 22, 19, 18, -1, -1, 21, -1, -1, 24, -1, -1, -1, 38, 33, 32, 31, -1, -1, -1, 35, -1, 37, -1, -1, 44, 43, 42, -1, -1, -1, 46, -1, 48, -1, -1, 73, 52, -1, 64, 61, 58, 57, -1, -1, 60, -1, -1, 63, -1, -1, 66, -1, 70, 69, -1, -1, 72, -1, -1, 77, 76, -1, -1, 89, 84, 83, 82, -1, -1, -1, 86, -1, 88, -1, -1, 95, 92, -1, 94, -1, -1, -1, 98, -1, 114, 103, 102, -1, -1, 113, 112, 109, 108, -1, -1, 111, -1, -1, -1, -1, 120, 117, -1, 119, -1, -1, 122, -1, -1, 225, 156, 147, 140, 137, 134, 133, 132, -1, -1, -1, 136, -1, -1, 139, -1, -1, 146, 143, -1, 145, -1, -1, -1, 151, 150, -1, -1, 153, -1, 155, -1, -1, 186, 175, 164, 163, 162, -1, -1, -1, 170, 169, 168, -1, -1, -1, 172, -1, 174, -1, -1, 179, 178, -1, -1, 185, 184, 183, -1, -1, -1, -1, 212, 201, 194, 193, 192, -1, -1, -1, 198, 197, -1, -1, 200, -1, -1, 207, 206, 205, -1, -1, -1, 211, 210, -1, -1, -1, 218, 215, -1, 217, -1, -1, 220, -1, 224, 223, -1, -1, -1, 269, 244, 235, 232, 231, -1, -1, 234, -1, -1, 239, 238, -1, -1, 241, -1, 243, -1, -1, 266, 259, 254, 251, 250, -1, -1, 253, -1, -1, 256, -1, 258, -1, -1, 263, 262, -1, -1, 265, -1, -1, 268, -1, -1, 301, 282, 273, -1, 275, -1, 279, 278, -1, -1, 281, -1, -1, 298, 291, 288, 287, -1, -1, 290, -1, -1, 295, 294, -1, -1, 297, -1, -1, 300, -1, -1, -1, 392, 381, 332, 307, -1, 313, 310, -1, 312, -1, -1, 319, 316, -1, 318, -1, -1, 327, 324, 323, -1, -1, 326, -1, -1, 329, -1, 331, -1, -1, 362, 339, 338, 337, -1, -1, -1, 347, 344, 343, -1, -1, 346, -1, -1, 355, 352, 351, -1, -1, 354, -1, -1, 359, 358, -1, -1, 361, -1, -1, 378, 371, 366, -1, 368, -1, 370, -1, -1, 375, 374, -1, -1, 377, -1, -1, 380, -1, -1, 389, 388, 385, -1, 387, -1, -1, -1, 391, -1, -1, 422, 417, 404, 401, 398, -1, 400, -1, -1, 403, -1, -1, 406, -1, 408, -1, 416, 413, 412, -1, -1, 415, -1, -1, -1, 421, 420, -1, -1, -1, 426, 425, -1, -1, 428, -1, 430, -1, -1], "threshold": [0.3018285036087036, 0.22015249729156494, 1.499999996212864e-06, 0.12613199651241302, 0.06397049874067307, 0.05869000032544136, -2.0, 0.06084899976849556, -2.0, 0.06216750107705593, -2.0, -2.0, 0.07581000030040741, 0.07437650114297867, 0.07144000008702278, 0.06765850260853767, 0.06514449790120125, -2.0, -2.0, 0.06973149999976158, -2.0, -2.0, 0.07323449850082397, -2.0, -2.0, -2.0, 0.09612900018692017, 0.08047899976372719, 0.07871200144290924, 0.07695699855685234, -2.0, -2.0, -2.0, 0.08737599849700928, -2.0, 0.0883135013282299, -2.0, -2.0, 0.1072700023651123, 0.10647499933838844, 0.0998149998486042, -2.0, -2.0, -2.0, 0.11056399717926979, -2.0, 0.11142950132489204, -2.0, -2.0, 0.1792289987206459, 0.1271355003118515, -2.0, 0.15641599893569946, 0.15131250023841858, 0.1485615000128746, 0.13008350133895874, -2.0, -2.0, 0.14976099878549576, -2.0, -2.0, 0.15373899787664413, -2.0, -2.0, 0.15851449966430664, -2.0, 0.16375750303268433, 0.16016949713230133, -2.0, -2.0, 0.16619300097227097, -2.0, -2.0, 0.18424049764871597, 0.1822969987988472, -2.0, -2.0, 0.20176299661397934, 0.19304300099611282, 0.19154149293899536, 0.18741200119256973, -2.0, -2.0, -2.0, 0.19597800076007843, -2.0, 0.1974949985742569, -2.0, -2.0, 0.216948501765728, 0.20415150374174118, -2.0, 0.20798400044441223, -2.0, -2.0, -2.0, 0.08984550088644028, -2.0, 0.031870000064373016, 1.5499999790336005e-05, 4.499999931795173e-06, -2.0, -2.0, 0.013199999928474426, 0.005810000002384186, 0.0006529999955091625, 0.00029399999766610563, -2.0, -2.0, 0.0028700000839307904, -2.0, -2.0, -2.0, -2.0, 0.1739414930343628, 0.13059400022029877, -2.0, 0.12262799963355064, -2.0, -2.0, 0.19581050425767899, -2.0, -2.0, 4.999999987376214e-07, 0.2650800049304962, 0.2502650022506714, 0.24022050201892853, 0.23704300075769424, 0.23166350275278091, 0.22985199838876724, 0.22238700091838837, -2.0, -2.0, -2.0, 0.23440200090408325, -2.0, -2.0, 0.23878250271081924, -2.0, -2.0, 0.24686549603939056, 0.24157050251960754, -2.0, 0.24343150109052658, -2.0, -2.0, -2.0, 0.25661149621009827, 0.2531080096960068, -2.0, -2.0, 0.2597135007381439, -2.0, 0.26242800056934357, -2.0, -2.0, 0.3615585118532181, 0.3164054900407791, 0.2737405002117157, 0.27114300429821014, 0.2674275040626526, -2.0, -2.0, -2.0, 0.2869955003261566, 0.28176750242710114, 0.2783135026693344, -2.0, -2.0, -2.0, 0.2932029962539673, -2.0, 0.3004765063524246, -2.0, -2.0, 0.32370351254940033, 0.320639505982399, -2.0, -2.0, 0.3567114919424057, 0.3518635034561157, 0.34869299829006195, -2.0, -2.0, -2.0, -2.0, 0.6618579924106598, 0.4652695059776306, 0.39825600385665894, 0.39319999516010284, 0.3854825049638748, -2.0, -2.0, -2.0, 0.4457555115222931, 0.41982199251651764, -2.0, -2.0, 0.460208997130394, -2.0, -2.0, 0.49073049426078796, 0.48229600489139557, 0.47163650393486023, -2.0, -2.0, -2.0, 0.6298220157623291, 0.5194840133190155, -2.0, -2.0, -2.0, 0.7520119845867157, 0.6921214759349823, -2.0, 0.7142449915409088, -2.0, -2.0, 0.7849070131778717, -2.0, 1.0001579821109772, 0.8557760119438171, -2.0, -2.0, -2.0, 0.40341849625110626, 0.2676369994878769, 0.24336150288581848, 0.0006385000015143305, 2.500000027794158e-05, -2.0, -2.0, 0.23136299848556519, -2.0, -2.0, 0.25178900361061096, 0.001708500029053539, -2.0, -2.0, 0.260576993227005, -2.0, 0.26407550275325775, -2.0, -2.0, 0.38895049691200256, 0.09839550033211708, 0.03735500015318394, 0.37592199444770813, 0.27562999725341797, -2.0, -2.0, 0.0003419999993639067, -2.0, -2.0, 0.3044065088033676, -2.0, 0.06709849834442139, -2.0, -2.0, 0.1866369992494583, 0.14510449767112732, -2.0, -2.0, 0.3401679992675781, -2.0, -2.0, 0.00045249999675434083, -2.0, -2.0, 1.6171464920043945, 0.44766899943351746, 2.3999999939405825e-05, -2.0, 0.4120979905128479, -2.0, 0.4294399917125702, 0.4212909936904907, -2.0, -2.0, 0.007164000067859888, -2.0, -2.0, 1.023087501525879, 0.5821545124053955, 0.5489835143089294, 0.4605095088481903, -2.0, -2.0, 0.008178000105544925, -2.0, -2.0, 0.0008059999963734299, 1.3500000022759195e-05, -2.0, -2.0, 0.02295299991965294, -2.0, -2.0, 1.153698980808258, -2.0, -2.0, -2.0, 8.53160810470581, 0.9430265128612518, 0.40141700208187103, 0.08677700161933899, -2.0, 0.13288449496030807, 0.9865005016326904, -2.0, 2.128414511680603, -2.0, -2.0, 0.17770999670028687, 1.5365794897079468, -2.0, 3.0426734685897827, -2.0, -2.0, 2.27720308303833, 0.2805970013141632, 1.7941074967384338, -2.0, -2.0, 0.35977600514888763, -2.0, -2.0, 0.21372900158166885, -2.0, 2.7000300884246826, -2.0, -2.0, 2.86796498298645, 0.4339970052242279, 1.576454520225525, 0.416921004652977, -2.0, -2.0, -2.0, 0.5807540118694305, 0.39293399453163147, 0.5973549783229828, -2.0, -2.0, 0.4748380035161972, -2.0, -2.0, 0.9833219945430756, 0.6596784889698029, 0.5563994944095612, -2.0, -2.0, 0.7633790075778961, -2.0, -2.0, 1.880460500717163, 1.7210054993629456, -2.0, -2.0, 0.7441985011100769, -2.0, -2.0, 0.7596870064735413, 0.5940825045108795, 3.348973035812378, -2.0, 3.8683760166168213, -2.0, 0.5435254871845245, -2.0, -2.0, 0.6823610067367554, 0.628853976726532, -2.0, -2.0, 0.7128355205059052, -2.0, -2.0, 5.689624309539795, -2.0, -2.0, 1.3289735317230225, 1.16821950674057, 1.8216819763183594, -2.0, 1.0538569688796997, -2.0, -2.0, -2.0, 1.2498035430908203, -2.0, -2.0, 22.533841133117676, 0.8404045104980469, 0.39625050127506256, 0.3042674958705902, 0.2153405025601387, -2.0, 13.173837661743164, -2.0, -2.0, 14.866153240203857, -2.0, -2.0, 9.380502700805664, -2.0, 9.96479320526123, -2.0, 17.283827781677246, 0.5220054984092712, 11.948742389678955, -2.0, -2.0, 13.12710952758789, -2.0, -2.0, -2.0, 1.6225685477256775, 1.0964944958686829, -2.0, -2.0, -2.0, 0.5077800154685974, 29.74320125579834, -2.0, -2.0, 28.619285583496094, -2.0, 0.9000985026359558, -2.0, -2.0], "feature": [0, 1, 0, 1, 1, 1, -2, 1, -2, 1, -2, -2, 1, 1, 1, 1, 1, -2, -2, 1, -2, -2, 1, -2, -2, -2, 1, 1, 1, 1, -2, -2, -2, 1, -2, 1, -2, -2, 1, 1, 1, -2, -2, -2, 1, -2, 1, -2, -2, 1, 1, -2, 1, 1, 1, 1, -2, -2, 1, -2, -2, 1, -2, -2, 1, -2, 1, 1, -2, -2, 1, -2, -2, 1, 1, -2, -2, 1, 1, 1, 1, -2, -2, -2, 1, -2, 1, -2, -2, 1, 1, -2, 1, -2, -2, -2, 1, -2, 0, 0, 0, -2, -2, 0, 0, 0, 0, -2, -2, 0, -2, -2, -2, -2, 1, 1, -2, 0, -2, -2, 1, -2, -2, 0, 1, 1, 1, 1, 1, 1, 1, -2, -2, -2, 1, -2, -2, 1, -2, -2, 1, 1, -2, 1, -2, -2, -2, 1, 1, -2, -2, 1, -2, 1, -2, -2, 1, 1, 1, 1, 1, -2, -2, -2, 1, 1, 1, -2, -2, -2, 1, -2, 1, -2, -2, 1, 1, -2, -2, 1, 1, 1, -2, -2, -2, -2, 1, 1, 1, 1, 1, -2, -2, -2, 1, 1, -2, -2, 1, -2, -2, 1, 1, 1, -2, -2, -2, 1, 1, -2, -2, -2, 1, 1, -2, 1, -2, -2, 1, -2, 1, 1, -2, -2, -2, 1, 1, 1, 0, 0, -2, -2, 1, -2, -2, 1, 0, -2, -2, 1, -2, 1, -2, -2, 1, 0, 0, 1, 1, -2, -2, 0, -2, -2, 1, -2, 0, -2, -2, 0, 0, -2, -2, 1, -2, -2, 0, -2, -2, 1, 1, 0, -2, 1, -2, 1, 1, -2, -2, 0, -2, -2, 1, 1, 1, 1, -2, -2, 0, -2, -2, 0, 0, -2, -2, 0, -2, -2, 1, -2, -2, -2, 0, 1, 1, 1, -2, 1, 0, -2, 0, -2, -2, 1, 0, -2, 0, -2, -2, 0, 1, 0, -2, -2, 1, -2, -2, 1, -2, 0, -2, -2, 0, 1, 0, 1, -2, -2, -2, 0, 0, 1, -2, -2, 0, -2, -2, 0, 1, 1, -2, -2, 1, -2, -2, 0, 0, -2, -2, 1, -2, -2, 1, 1, 0, -2, 0, -2, 1, -2, -2, 1, 1, -2, -2, 1, -2, -2, 0, -2, -2, 1, 1, 0, -2, 1, -2, -2, -2, 0, -2, -2, 0, 1, 1, 1, 1, -2, 0, -2, -2, 0, -2, -2, 0, -2, 0, -2, 0, 1, 0, -2, -2, 0, -2, -2, -2, 1, 1, -2, -2, -2, 1, 0, -2, -2, 0, -2, 1, -2, -2], "classes": [0, 1, 2], "value": [[7955.303656337026, 8067.3738299103115, 7997.595710489208], [2179.697819314632, 6508.602917988854, 6063.43914951494], [652.7225774717167, 3748.851266391079, 926.068792879662], [296.6920806689623, 3335.683072869789, 735.1882687434343], [90.98557140514839, 1850.1074586352656, 174.47672909326891], [0.0, 451.2104863980194, 5.965016379257062], [0.0, 356.8270762229811, 0.0], [0.0, 94.38341017503951, 5.965016379257062], [0.0, 31.300620721314083, 4.473762284442796], [0.0, 63.08278945372527, 1.4912540948142654], [0.0, 26.003592599245543, 1.4912540948142654], [0.0, 37.079196854479754, 0.0], [90.98557140514839, 1398.8969722372167, 168.51171271401182], [31.64715527135596, 222.95672913797685, 52.193893318499306], [0.0, 199.84242460531388, 50.70263922368504], [0.0, 144.46440332914244, 46.22887693924224], [0.0, 74.63994172005667, 8.947524568885592], [0.0, 22.632756521565568, 8.947524568885592], [0.0, 52.007185198491065, 0.0], [0.0, 69.82446160908526, 37.28135237035664], [0.0, 39.48693690996544, 25.351319611842513], [0.0, 30.33752469911979, 11.930032758514123], [0.0, 55.37802127617104, 4.473762284442796], [0.0, 29.855976688022658, 0.0], [0.0, 25.522044588148404, 4.473762284442796], [31.64715527135596, 23.114304532662707, 1.4912540948142654], [59.33841613379243, 1175.9402430992266, 116.31781939551276], [0.0, 440.61643015388216, 16.403795042956922], [0.0, 82.82625790870813, 10.438778663699857], [0.0, 61.63814542043385, 4.473762284442796], [0.0, 26.485140610342683, 4.473762284442796], [0.0, 35.1530048100912, 0.0], [0.0, 21.18811248827415, 5.965016379257062], [0.0, 357.7901722451752, 5.965016379257062], [0.0, 161.80013172863949, 0.0], [0.0, 195.9900405165367, 5.965016379257062], [0.0, 20.70656447717701, 2.982508189628531], [0.0, 175.2834760393595, 2.982508189628531], [59.338416133792435, 735.323812945333, 99.91402435255583], [35.603049680275454, 264.3698580923311, 56.667655602942105], [23.73536645351697, 240.77400554857124, 50.70263922368504], [7.91178881783899, 69.82446160908526, 22.36881142221398], [15.82357763567798, 170.94954393948535, 28.333827801471042], [11.867683226758485, 23.595852543759847, 5.965016379257062], [23.73536645351697, 470.9539548530019, 43.24636874961371], [0.0, 104.0143703969823, 0.0], [23.73536645351697, 366.93958445602084, 43.24636874961371], [0.0, 19.743468454982732, 10.438778663699857], [23.73536645351697, 347.1961160010383, 32.807590085913844], [205.70650926381379, 1485.5756142347088, 560.7115396501636], [170.10345958353832, 974.6531744606127, 265.44322887693875], [11.867683226758485, 17.81727641059417, 13.421286853328388], [158.23577635677984, 956.8358980500184, 252.02194202361048], [75.16199376947041, 605.3058499491035, 137.19537672291244], [75.16199376947041, 519.108755962715, 134.21286853328394], [55.38252172487294, 467.5831187753215, 114.82656530069849], [0.0, 47.19170508751967, 5.965016379257062], [55.38252172487294, 420.3914136878023, 108.86154892144143], [19.779472044597476, 51.52563718739392, 19.386303232585448], [15.82357763567798, 19.261920443885586, 2.982508189628531], [3.955894408919495, 32.26371674350836, 16.40379504295692], [0.0, 86.19709398638808, 2.982508189628531], [0.0, 34.18990878789692, 2.982508189628531], [0.0, 52.00718519849108, 0.0], [83.07378258730941, 351.5300481009122, 114.82656530069849], [19.779472044597476, 30.337524699119797, 25.351319611842513], [63.294310542711926, 321.192523401793, 89.47524568885595], [3.955894408919495, 104.4959184080795, 29.825081896285308], [3.955894408919495, 31.300620721314075, 13.421286853328388], [0.0, 73.19529768676523, 16.40379504295692], [59.33841613379243, 216.6966049937141, 59.65016379257063], [31.64715527135596, 38.042292876674026, 5.965016379257062], [27.691260862436465, 178.65431211703955, 53.685147413313565], [35.603049680275454, 510.92243977406343, 295.26831077322424], [0.0, 58.748857353851015, 56.667655602942105], [0.0, 38.523840887771165, 19.38630323258545], [0.0, 20.22501646607987, 37.28135237035664], [35.603049680275454, 452.1735824202127, 238.600655170282], [11.867683226758485, 245.1079376484454, 99.91402435255583], [11.867683226758485, 116.05307067441093, 56.667655602942105], [3.955894408919495, 99.68043829710808, 37.28135237035664], [3.955894408919495, 42.37622497654828, 25.351319611842513], [0.0, 57.3042133205596, 11.930032758514123], [7.91178881783899, 16.372632377302754, 19.386303232585448], [0.0, 129.05486697403376, 43.2463687496137], [0.0, 49.11789713190823, 8.947524568885592], [0.0, 79.93696984212524, 34.29884418072811], [0.0, 20.70656447717701, 14.912540948142654], [0.0, 59.23040536494816, 19.38630323258545], [23.73536645351697, 207.06564477177128, 138.68663081772667], [23.73536645351697, 166.6156118396112, 129.73910624884113], [15.82357763567798, 34.18990878789691, 38.7726064651709], [7.91178881783899, 132.42570305171387, 90.96649978367023], [0.0, 36.11610083228547, 11.930032758514123], [7.91178881783899, 96.30960221942811, 79.0364670251561], [0.0, 40.45003293215973, 8.947524568885592], [356.0304968027547, 413.16819352134576, 190.88052413622577], [0.0, 75.60303774225098, 0.0], [356.03049680275484, 337.5651557790961, 190.88052413622574], [197.79472044597478, 260.03592599245684, 119.30032758514129], [71.20609936055091, 40.45003293215972, 13.421286853328388], [23.73536645351697, 25.040496577051265, 2.982508189628531], [47.47073290703394, 15.409536355108475, 10.438778663699857], [126.58862108542384, 219.58589306029683, 105.87904073181289], [126.58862108542384, 186.35908029459387, 98.42277025774156], [71.20609936055091, 157.94774763986243, 79.0364670251561], [63.29431054271192, 88.60483404187379, 40.263860559985176], [23.73536645351697, 73.67684569786236, 28.333827801471045], [39.55894408919495, 14.927988344011336, 11.930032758514123], [7.91178881783899, 69.34291359798812, 38.7726064651709], [3.955894408919495, 42.85777298764542, 32.807590085913844], [3.955894408919495, 26.485140610342683, 5.965016379257062], [55.38252172487294, 28.41133265473124, 19.38630323258545], [0.0, 33.22681276570264, 7.456270474071327], [158.23577635677984, 77.52922978663956, 71.58019655108477], [142.41219872110182, 45.747061054228254, 40.263860559985176], [27.691260862436465, 16.372632377302754, 23.860065517028247], [114.72093785866537, 29.37442867692552, 16.403795042956922], [47.47073290703394, 14.927988344011334, 4.473762284442796], [67.25020495163142, 14.446440332914198, 11.930032758514123], [15.82357763567798, 31.78216873241121, 31.31633599109958], [3.955894408919495, 16.372632377302754, 11.930032758514123], [11.867683226758485, 15.409536355108479, 19.38630323258545], [1526.975241842919, 2759.751651597676, 5137.370356635216], [356.0304968027548, 1391.1922040596621, 3134.616107299578], [51.42662731595343, 421.3545097099974, 408.6036219791083], [23.73536645351697, 289.4103546693822, 319.12837629025233], [19.779472044597476, 205.6210007384799, 193.8630323258543], [11.867683226758485, 167.09715985070827, 175.96798318808322], [11.867683226758485, 118.46081072989669, 110.35280301625569], [11.867683226758485, 98.23579426381669, 99.91402435255583], [7.91178881783899, 25.040496577051258, 31.316335991099578], [3.955894408919495, 73.19529768676526, 68.59768836145624], [0.0, 20.22501646607987, 10.438778663699857], [0.0, 48.63634912081109, 65.61518017182769], [0.0, 26.485140610342683, 44.73762284442798], [0.0, 22.151208510468425, 20.877557327399717], [7.91178881783899, 38.523840887771165, 17.895049137771185], [7.91178881783899, 16.854180388399893, 7.456270474071327], [0.0, 21.66966049937129, 10.438778663699857], [3.955894408919495, 83.78935393090241, 125.26534396439834], [3.955894408919495, 56.34111729836532, 98.42277025774156], [0.0, 14.446440332914195, 34.29884418072811], [3.955894408919495, 41.89467696545115, 64.12392607701344], [3.955894408919495, 16.372632377302754, 17.895049137771185], [0.0, 25.522044588148404, 46.22887693924224], [0.0, 27.448236632536958, 26.842573706656786], [27.691260862436465, 131.9441550406166, 89.47524568885596], [27.691260862436465, 61.15659740933671, 37.28135237035664], [7.91178881783899, 29.37442867692552, 7.456270474071327], [19.779472044597476, 31.782168732411222, 29.82508189628532], [0.0, 70.78755763127953, 52.193893318499306], [0.0, 24.558948565954122, 13.42128685332839], [0.0, 46.228609065325394, 38.77260646517092], [0.0, 21.18811248827415, 23.860065517028254], [0.0, 25.040496577051268, 14.912540948142654], [304.6038694868013, 969.8376943496451, 2726.012485320463], [118.67683226758483, 481.5480110971393, 963.350145250019], [27.691260862436465, 275.4454623475652, 550.2727609864638], [0.0, 53.45182923178248, 134.21286853328394], [0.0, 42.85777298764542, 87.98399159404168], [0.0, 14.927988344011334, 46.228876939242234], [0.0, 27.929784643634104, 41.75511465479944], [0.0, 10.594056244137077, 46.228876939242234], [27.691260862436465, 221.99363311578267, 416.05989245317943], [11.867683226758485, 83.30780591980525, 102.89653254218436], [0.0, 54.8964732650739, 79.0364670251561], [0.0, 31.782168732411215, 34.29884418072811], [0.0, 23.11430453266271, 44.737622844427975], [11.867683226758485, 28.411332654731243, 23.860065517028247], [15.82357763567798, 138.68582719597663, 313.1633599109952], [0.0, 22.632756521565568, 83.5102293095989], [15.82357763567798, 116.05307067441095, 229.65313060139667], [15.82357763567798, 32.74526475460549, 59.65016379257064], [0.0, 83.30780591980526, 170.0029668088262], [90.98557140514839, 206.10254874957687, 413.0773842635509], [39.55894408919495, 29.855976688022658, 64.12392607701344], [7.91178881783899, 17.81727641059417, 32.807590085913844], [31.64715527135596, 12.038700277428498, 31.316335991099574], [51.426627315953446, 176.2465720615539, 348.9534581865378], [35.60304968027546, 161.31858371754242, 322.110884479881], [35.60304968027546, 140.61201924036519, 262.4607206873103], [19.779472044597476, 123.75783885196513, 235.61814698065356], [15.82357763567798, 16.854180388399893, 26.84257370665678], [0.0, 20.70656447717701, 59.65016379257064], [15.82357763567798, 14.927988344011336, 26.842573706656786], [185.92703721921632, 488.2896832524981, 1762.6623400704489], [158.23577635677984, 429.05927788755076, 1413.7088818839197], [67.25020495163142, 218.6227970381026, 882.8224241300483], [27.691260862436465, 107.38520647466237, 320.61963038506667], [19.779472044597476, 90.04947807516525, 302.7245812472954], [19.779472044597476, 69.34291359798814, 201.31930279992562], [0.0, 20.70656447717701, 101.40527844737008], [7.91178881783899, 17.335728399497036, 17.895049137771185], [39.55894408919495, 111.23759056343953, 562.2027937449785], [23.73536645351697, 77.0476817755424, 438.4287038753939], [23.73536645351697, 41.413128954354, 202.81055689473988], [0.0, 35.63455282118833, 235.6181469806535], [15.82357763567798, 34.18990878789691, 123.77408986958407], [11.867683226758485, 29.37442867692552, 74.56270474071329], [3.955894408919495, 4.815480110971399, 49.21138512887077], [90.98557140514839, 210.43648084945102, 530.8864577538783], [47.47073290703394, 50.080993154102515, 80.52772111997037], [11.867683226758485, 34.67145679899406, 58.15890969775637], [11.867683226758485, 13.483344310719918, 22.36881142221398], [0.0, 21.188112488274147, 35.79009827554238], [35.603049680275454, 15.409536355108472, 22.368811422213984], [43.51483849811445, 160.35548769534805, 450.3587366339079], [19.779472044597476, 152.1691715066966, 414.5686383583653], [11.867683226758485, 27.9297846436341, 128.24785215402687], [7.91178881783899, 124.23938686306231, 286.3207862043386], [23.73536645351697, 8.186316188651379, 35.79009827554238], [27.691260862436465, 59.230405364948155, 348.9534581865377], [0.0, 18.29882442169131, 171.49422090364038], [0.0, 8.667864199748518, 61.1414178873849], [0.0, 9.630960221942797, 110.35280301625569], [0.0, 3.3708360776799795, 59.65016379257064], [0.0, 6.26012414426282, 50.70263922368504], [27.691260862436465, 40.93158094325686, 177.45923728289745], [23.73536645351697, 10.594056244137075, 32.807590085913844], [3.955894408919495, 30.337524699119797, 144.65164719698373], [3.955894408919495, 16.372632377302757, 101.4052784473701], [3.955894408919495, 6.741672155359958, 46.22887693924225], [0.0, 9.630960221942798, 55.17640150812783], [0.0, 13.964892321817057, 43.24636874961371], [1170.9447450401685, 1368.5594475380944, 2002.7542493355415], [763.4876209214624, 681.87198371355, 820.1897521478484], [292.73618626004276, 187.80372432788536, 190.8805241362258], [63.294310542711926, 95.34650619723384, 74.5627047407133], [3.955894408919495, 44.78396503203398, 20.877557327399717], [0.0, 25.040496577051265, 8.947524568885592], [3.955894408919495, 19.743468454982732, 11.930032758514123], [59.33841613379243, 50.562541165199654, 53.685147413313565], [35.603049680275454, 24.558948565954122, 13.42128685332839], [23.73536645351697, 26.003592599245543, 40.26386055998518], [229.4418757173308, 92.45721813065099, 116.31781939551276], [122.63272667650435, 30.337524699119797, 35.790098275542384], [55.38252172487294, 14.446440332914197, 28.333827801471045], [67.25020495163142, 15.891084366205613, 7.456270474071327], [106.80914904082638, 62.11969343153098, 80.52772111997037], [31.64715527135596, 31.300620721314083, 43.2463687496137], [75.16199376947041, 30.81907271021694, 37.28135237035664], [39.55894408919495, 17.81727641059417, 10.438778663699857], [35.603049680275454, 13.001796299622777, 26.84257370665678], [470.7514346614204, 494.06825938566436, 629.3092280116203], [371.85407443843286, 449.28429435363086, 571.1503183138636], [348.1187079849159, 380.9044767778376, 459.3062612027931], [245.26545335300884, 327.93419555715315, 405.62111378947964], [229.44187571733082, 304.8198910244904, 340.00593361765215], [0.0, 26.485140610342683, 37.28135237035664], [229.44187571733084, 278.3347504141482, 302.7245812472955], [15.82357763567798, 23.114304532662707, 65.6151801718277], [0.0, 11.557152266331359, 37.28135237035664], [15.82357763567798, 11.557152266331357, 28.333827801471045], [102.85325463190688, 52.97028122068535, 53.68514741331357], [15.82357763567798, 18.298824421691315, 16.40379504295692], [87.0296769962289, 34.67145679899405, 37.28135237035664], [39.55894408919495, 20.225016466079868, 26.84257370665678], [47.47073290703395, 14.446440332914195, 10.438778663699857], [23.73536645351697, 68.37981757579382, 111.84405711106996], [7.91178881783899, 33.22681276570263, 74.56270474071329], [7.91178881783899, 15.891084366205614, 44.737622844427975], [0.0, 17.335728399497032, 29.825081896285308], [15.82357763567798, 35.1530048100912, 37.28135237035664], [7.91178881783899, 20.22501646607987, 16.403795042956922], [7.91178881783899, 14.92798834401133, 20.87755732739972], [98.8973602229874, 44.78396503203398, 58.15890969775638], [7.91178881783899, 20.22501646607987, 17.89504913777119], [90.9855714051484, 24.558948565954125, 40.26386055998517], [407.45712411870835, 686.6874638245199, 1182.5644971877125], [340.2069191670769, 672.7225715027035, 1179.5819889980855], [3.955894408919495, 101.12508233039951, 187.89801594659727], [0.0, 14.927988344011336, 50.70263922368504], [3.955894408919495, 86.1970939863881, 137.19537672291244], [3.955894408919495, 18.298824421691315, 14.912540948142654], [0.0, 67.89826956469668, 122.28283577476982], [0.0, 31.30062072131407, 83.5102293095989], [0.0, 10.112508233039936, 40.26386055998517], [0.0, 21.18811248827415, 43.24636874961371], [0.0, 36.59764884338261, 38.77260646517092], [0.0, 15.891084366205614, 22.36881142221398], [0.0, 20.70656447717701, 16.40379504295692], [336.25102475815737, 571.5974891723041, 991.6839730514904], [332.29513034923787, 513.3301798295493, 948.4376043018764], [189.8829316281358, 246.0710336706398, 386.2348105568944], [102.85325463190689, 204.65790471628532, 289.30329439396706], [27.691260862436465, 40.45003293215973, 28.333827801471045], [75.1619937694704, 164.20787178412533, 260.96946659249596], [87.02967699622889, 41.41312895435401, 96.9315161629273], [3.955894408919495, 26.485140610342683, 58.15890969775637], [83.0737825873094, 14.927988344011334, 38.77260646517091], [142.41219872110182, 267.2591461589139, 562.2027937449778], [15.82357763567798, 78.49232580883385, 181.93299956734018], [15.82357763567798, 29.37442867692552, 47.7201310340565], [0.0, 49.11789713190824, 134.21286853328394], [126.58862108542385, 188.76682035007954, 380.26979417763744], [83.07378258730941, 78.97387381993096, 137.1953767229124], [43.51483849811445, 109.79294653014807, 243.07441745472502], [3.955894408919495, 58.26730934275388, 43.2463687496137], [0.0, 32.7452647546055, 14.912540948142654], [3.955894408919495, 25.522044588148404, 28.333827801471045], [67.25020495163143, 13.964892321817054, 2.982508189628531], [5775.605837022411, 1558.7709119214794, 1934.156560974085], [3089.5535333661046, 1307.4028501287548, 1756.6973236911904], [2515.9488440727837, 1204.3515757539608, 1703.0121762778783], [1432.0337760288523, 664.5362553140518, 669.5730885716057], [3.955894408919495, 32.74526475460549, 0.0], [1428.077881619933, 631.7909905594478, 669.5730885716061], [63.294310542711926, 42.85777298764542, 77.54521293034183], [15.82357763567798, 18.298824421691315, 7.456270474071327], [47.47073290703394, 24.558948565954125, 70.0889424562705], [11.867683226758485, 17.335728399497032, 32.80759008591384], [35.603049680275454, 7.2232201664571, 37.28135237035664], [1364.783571077221, 588.9332175718016, 592.0278756412637], [197.79472044597478, 64.5274334870167, 31.316335991099578], [138.4563043121824, 25.522044588148404, 10.438778663699857], [59.33841613379243, 39.005388898868304, 20.877557327399714], [15.82357763567798, 20.70656447717701, 10.438778663699857], [43.51483849811445, 18.29882442169131, 10.438778663699857], [1166.9888506312482, 524.4057840847837, 560.7115396501638], [613.1636333825219, 312.0431111909474, 395.18233512578], [166.14756517461885, 148.79833542901673, 117.80907349032701], [150.32398753894083, 122.7947428297709, 108.86154892144143], [15.82357763567798, 26.003592599245543, 8.947524568885592], [447.01606820790346, 163.24477576193104, 277.37326163545316], [324.3833415313986, 114.1268786300224, 158.0729340503121], [122.63272667650436, 49.11789713190823, 119.30032758514129], [553.8252172487296, 212.3626728938396, 165.52920452438335], [19.779472044597476, 22.15120851046843, 22.36881142221398], [534.0457452041323, 190.2114643833711, 143.16039310216945], [106.80914904082638, 17.81727641059417, 8.947524568885592], [427.2365961633059, 172.39418797277668, 134.2128685332839], [1083.9150680439393, 539.8153204398927, 1033.4390877062897], [470.75143466142043, 355.8639802007865, 697.9069163730771], [7.91178881783899, 48.15480110971396, 83.5102293095989], [3.955894408919495, 29.855976688022665, 73.07145064589903], [3.955894408919495, 19.261920443885597, 31.316335991099574], [0.0, 10.594056244137077, 41.75511465479944], [3.955894408919495, 18.298824421691315, 10.438778663699857], [462.8396458435814, 307.70917909107305, 614.3966870634777], [142.41219872110182, 67.41672155359954, 116.31781939551276], [31.64715527135596, 26.485140610342683, 61.1414178873849], [23.73536645351697, 12.520248288525636, 29.82508189628532], [7.91178881783899, 13.964892321817056, 31.316335991099578], [110.76504344974587, 40.93158094325687, 55.17640150812784], [79.1178881783899, 18.78037243278845, 25.351319611842513], [31.64715527135596, 22.151208510468432, 29.82508189628531], [320.42744712247924, 240.29245753747404, 498.07886766796423], [39.55894408919495, 65.00898149811384, 158.0729340503121], [15.82357763567798, 43.8208690098397, 64.12392607701344], [3.955894408919495, 23.595852543759847, 52.19389331849931], [11.867683226758485, 20.225016466079865, 11.930032758514123], [23.73536645351697, 21.18811248827415, 93.94900797329876], [7.91178881783899, 8.667864199748518, 61.141417887384904], [15.82357763567798, 12.520248288525638, 32.807590085913844], [280.86850303328436, 175.28347603935958, 340.0059336176522], [197.79472044597475, 119.905454763188, 178.95049137771176], [134.50040990326283, 92.93876614174806, 161.05544223994056], [63.294310542711926, 26.96668862143983, 17.89504913777119], [83.07378258730938, 55.37802127617104, 161.05544223994053], [43.51483849811445, 45.265513043131115, 129.73910624884113], [39.55894408919495, 10.112508233039936, 31.316335991099578], [613.1636333825218, 183.95134023910813, 335.53217133320925], [526.1339563862931, 152.6507195177938, 232.6356387910251], [229.4418757173308, 106.42211045246805, 155.09042586068355], [83.0737825873094, 14.446440332914195, 25.351319611842513], [146.36809313002132, 91.97567011955377, 129.73910624884113], [11.867683226758485, 13.483344310719916, 31.316335991099578], [134.50040990326286, 78.4923258088338, 98.42277025774156], [122.63272667650436, 55.85956928726818, 70.0889424562705], [11.867683226758485, 22.632756521565568, 28.333827801471045], [296.69208066896226, 46.228609065325394, 77.54521293034182], [170.10345958353835, 20.70656447717701, 28.333827801471053], [71.20609936055092, 9.630960221942798, 17.895049137771185], [98.89736022298737, 11.075604255234216, 10.438778663699857], [126.58862108542384, 25.522044588148407, 49.21138512887077], [43.51483849811444, 11.557152266331359, 37.28135237035664], [83.0737825873094, 13.964892321817056, 11.930032758514123], [87.02967699622891, 31.300620721314075, 102.89653254218436], [31.64715527135596, 22.15120851046843, 68.59768836145622], [55.38252172487293, 9.149412210845657, 34.29884418072811], [573.6046892933268, 103.05127437478811, 53.68514741331357], [296.6920806689623, 72.71374967566811, 49.211385128870766], [237.35366453516983, 52.00718519849107, 14.912540948142652], [59.338416133792435, 22.15120851046842, 5.965016379257062], [178.0152484013773, 29.855976688022658, 8.947524568885592], [83.07378258730941, 16.372632377302757, 7.456270474071327], [94.94146581406787, 13.483344310719916, 1.4912540948142654], [59.338416133792435, 20.70656447717701, 34.29884418072811], [276.9126086243647, 30.337524699119797, 4.473762284442796], [59.338416133792435, 14.927988344011334, 2.982508189628531], [217.57419249057233, 15.409536355108472, 1.4912540948142654], [2686.0523036563213, 251.3680617927083, 177.45923728289753], [1432.0337760288528, 208.5102888050624, 171.49422090364047], [937.5469749139187, 180.58050416142814, 150.6166635762408], [359.98639121167434, 78.01077779773668, 93.94900797329876], [209.66240367273332, 52.97028122068535, 34.29884418072811], [90.98557140514838, 21.18811248827415, 29.825081896285308], [118.67683226758486, 31.78216873241121, 4.473762284442796], [75.1619937694704, 12.520248288525634, 2.982508189628531], [43.51483849811445, 19.261920443885593, 1.4912540948142654], [150.32398753894083, 25.04049657705126, 59.65016379257064], [87.0296769962289, 14.446440332914191, 44.73762284442797], [63.29431054271193, 10.594056244137075, 14.912540948142654], [577.5605837022465, 102.56972636369093, 56.6676556029421], [23.73536645351697, 20.706564477177004, 10.438778663699857], [553.8252172487295, 81.86316188651381, 46.22887693924224], [59.338416133792435, 17.335728399497036, 5.965016379257062], [494.48680111493746, 64.52743348701668, 40.263860559985176], [395.5894408919498, 42.37622497654828, 28.333827801471053], [225.48598130841128, 17.817276410594175, 7.456270474071327], [118.67683226758486, 6.260124144262818, 7.456270474071327], [106.80914904082637, 11.557152266331357, 0.0], [170.1034595835383, 24.55894856595413, 20.877557327399717], [63.29431054271193, 17.817276410594175, 10.438778663699857], [106.80914904082638, 6.741672155359959, 10.438778663699857], [98.89736022298736, 22.15120851046843, 11.930032758514123], [494.48680111493724, 27.929784643634093, 20.877557327399717], [328.3392359403182, 24.077400554856986, 19.38630323258545], [217.57419249057224, 14.446440332914195, 7.456270474071327], [110.76504344974585, 9.630960221942798, 11.930032758514123], [166.1475651746188, 3.8523840887771192, 1.4912540948142654], [1254.0185276274763, 42.857772987645426, 5.965016379257062], [324.3833415313988, 30.337524699119804, 0.0], [185.92703721921637, 22.151208510468436, 0.0], [138.45630431218234, 8.186316188651379, 0.0], [929.6351860960799, 12.520248288525636, 5.965016379257062], [189.88293162813585, 7.223220166457098, 5.965016379257062], [739.7522544679454, 5.297028122068539, 0.0], [284.82439744220375, 5.297028122068539, 0.0], [454.9278570257423, 0.0, 0.0]]}, {"children_left": [1, 2, 3, 4, 5, -1, 7, 8, 9, -1, -1, -1, 13, -1, -1, 16, 17, 18, -1, 20, 21, -1, -1, -1, 25, -1, -1, 28, 29, 30, -1, -1, 33, 34, 35, -1, -1, 38, -1, -1, 41, -1, 43, -1, -1, -1, 47, 48, 49, 50, 51, 52, 53, -1, -1, 56, -1, -1, 59, 60, -1, -1, -1, 64, 65, 66, -1, -1, 69, -1, -1, 72, 73, -1, -1, -1, -1, 78, 79, 80, -1, -1, -1, 84, 85, 86, 87, -1, -1, 90, -1, -1, -1, 94, 95, -1, 97, -1, -1, 100, -1, -1, 103, 104, 105, -1, -1, -1, 109, -1, 111, -1, -1, 114, 115, 116, 117, 118, 119, -1, 121, 122, -1, -1, -1, -1, 127, 128, -1, -1, 131, 132, 133, -1, -1, -1, 137, 138, -1, -1, 141, -1, -1, 144, -1, -1, 147, 148, 149, 150, 151, 152, -1, -1, 155, -1, -1, 158, 159, -1, -1, 162, -1, -1, 165, 166, -1, 168, -1, -1, 171, 172, -1, -1, 175, -1, -1, -1, 179, 180, 181, 182, 183, -1, -1, 186, -1, -1, 189, 190, -1, -1, 193, -1, -1, 196, -1, -1, 199, -1, 201, 202, -1, 204, -1, -1, -1, 208, 209, 210, 211, 212, 213, 214, -1, -1, 217, -1, -1, -1, 221, 222, -1, 224, -1, -1, -1, 228, -1, 230, -1, 232, -1, -1, -1, 236, 237, 238, 239, 240, -1, -1, 243, -1, -1, 246, 247, 248, -1, -1, 251, -1, -1, 254, 255, -1, -1, 258, -1, -1, 261, 262, 263, -1, -1, 266, -1, 268, -1, -1, 271, -1, -1, 274, -1, -1, 277, 278, 279, 280, -1, 282, 283, 284, 285, -1, 287, -1, -1, 290, 291, -1, -1, 294, -1, -1, 297, 298, -1, 300, -1, -1, 303, -1, 305, -1, -1, -1, 309, 310, 311, -1, -1, 314, 315, 316, -1, -1, 319, 320, -1, -1, -1, 324, 325, -1, -1, 328, -1, 330, -1, -1, 333, 334, 335, 336, 337, -1, -1, -1, -1, -1, 343, 344, -1, -1, 347, 348, -1, -1, 351, -1, -1, 354, 355, -1, 357, 358, -1, -1, -1, 362, 363, -1, -1, -1, 367, 368, 369, -1, 371, -1, -1, 374, 375, 376, -1, 378, -1, 380, 381, -1, -1, -1, 385, -1, -1, 388, -1, -1, 391, 392, -1, -1, 395, -1, 397, -1, 399, -1, -1], "children_right": [276, 113, 46, 15, 6, -1, 12, 11, 10, -1, -1, -1, 14, -1, -1, 27, 24, 19, -1, 23, 22, -1, -1, -1, 26, -1, -1, 45, 32, 31, -1, -1, 40, 37, 36, -1, -1, 39, -1, -1, 42, -1, 44, -1, -1, -1, 102, 77, 76, 63, 58, 55, 54, -1, -1, 57, -1, -1, 62, 61, -1, -1, -1, 71, 68, 67, -1, -1, 70, -1, -1, 75, 74, -1, -1, -1, -1, 83, 82, 81, -1, -1, -1, 93, 92, 89, 88, -1, -1, 91, -1, -1, -1, 99, 96, -1, 98, -1, -1, 101, -1, -1, 108, 107, 106, -1, -1, -1, 110, -1, 112, -1, -1, 207, 146, 143, 126, 125, 120, -1, 124, 123, -1, -1, -1, -1, 130, 129, -1, -1, 136, 135, 134, -1, -1, -1, 140, 139, -1, -1, 142, -1, -1, 145, -1, -1, 178, 177, 164, 157, 154, 153, -1, -1, 156, -1, -1, 161, 160, -1, -1, 163, -1, -1, 170, 167, -1, 169, -1, -1, 174, 173, -1, -1, 176, -1, -1, -1, 198, 195, 188, 185, 184, -1, -1, 187, -1, -1, 192, 191, -1, -1, 194, -1, -1, 197, -1, -1, 200, -1, 206, 203, -1, 205, -1, -1, -1, 235, 234, 227, 220, 219, 216, 215, -1, -1, 218, -1, -1, -1, 226, 223, -1, 225, -1, -1, -1, 229, -1, 231, -1, 233, -1, -1, -1, 273, 260, 245, 242, 241, -1, -1, 244, -1, -1, 253, 250, 249, -1, -1, 252, -1, -1, 257, 256, -1, -1, 259, -1, -1, 270, 265, 264, -1, -1, 267, -1, 269, -1, -1, 272, -1, -1, 275, -1, -1, 366, 353, 308, 281, -1, 307, 296, 289, 286, -1, 288, -1, -1, 293, 292, -1, -1, 295, -1, -1, 302, 299, -1, 301, -1, -1, 304, -1, 306, -1, -1, -1, 332, 313, 312, -1, -1, 323, 318, 317, -1, -1, 322, 321, -1, -1, -1, 327, 326, -1, -1, 329, -1, 331, -1, -1, 342, 341, 340, 339, 338, -1, -1, -1, -1, -1, 346, 345, -1, -1, 350, 349, -1, -1, 352, -1, -1, 361, 356, -1, 360, 359, -1, -1, -1, 365, 364, -1, -1, -1, 390, 373, 370, -1, 372, -1, -1, 387, 384, 377, -1, 379, -1, 383, 382, -1, -1, -1, 386, -1, -1, 389, -1, -1, 394, 393, -1, -1, 396, -1, 398, -1, 400, -1, -1], "threshold": [0.3197055011987686, 0.21279099583625793, 0.09943750128149986, 0.06296999752521515, 0.05474649928510189, -2.0, 0.05870799906551838, 0.05785599909722805, 0.05589050054550171, -2.0, -2.0, -2.0, 0.06072250008583069, -2.0, -2.0, 0.07144400104880333, 0.06866800040006638, 0.06514449790120125, -2.0, 0.06765250116586685, 0.06626900285482407, -2.0, -2.0, -2.0, 0.06986299902200699, -2.0, -2.0, 5.999999984851456e-06, 0.07581000030040741, 0.07423599809408188, -2.0, -2.0, 0.09615850076079369, 0.09143799915909767, 0.08919600024819374, -2.0, -2.0, 0.09418249875307083, -2.0, -2.0, 0.09724649786949158, -2.0, 0.0979899987578392, -2.0, -2.0, -2.0, 0.005338999908417463, 0.1791679933667183, 0.00020699999731732532, 0.12834849953651428, 0.10541700199246407, 0.10282149910926819, 0.10027449950575829, -2.0, -2.0, 0.10408749803900719, -2.0, -2.0, 4.999999987376214e-07, 0.10670549795031548, -2.0, -2.0, -2.0, 0.16929949820041656, 0.15642650425434113, 0.13095949590206146, -2.0, -2.0, 0.1580360010266304, -2.0, -2.0, 0.1777390018105507, 0.17117450386285782, -2.0, -2.0, -2.0, -2.0, 0.18429650366306305, 0.18299300223588943, 0.18080700188875198, -2.0, -2.0, -2.0, 0.1982240006327629, 3.5000000480067683e-06, 0.18694449961185455, 0.18557849526405334, -2.0, -2.0, 0.1893250048160553, -2.0, -2.0, -2.0, 0.20999199897050858, 0.20085299760103226, -2.0, 0.20518049597740173, -2.0, -2.0, 0.2112564966082573, -2.0, -2.0, 0.16616550087928772, 0.14204100519418716, 0.11648949980735779, -2.0, -2.0, -2.0, 0.02973650023341179, -2.0, 0.09140149876475334, -2.0, -2.0, 4.999999987376214e-07, 0.26145750284194946, 0.2565624862909317, 0.22319450229406357, 0.2210185006260872, 0.2152319997549057, -2.0, 0.21916499733924866, 0.21681949496269226, -2.0, -2.0, -2.0, -2.0, 0.2284879982471466, 0.2261279970407486, -2.0, -2.0, 0.2406964972615242, 0.23837650567293167, 0.23166350275278091, -2.0, -2.0, -2.0, 0.24535400420427322, 0.24239850044250488, -2.0, -2.0, 0.2531080096960068, -2.0, -2.0, 0.2596150040626526, -2.0, -2.0, 0.39825600385665894, 0.3933800011873245, 0.3166720122098923, 0.2893190085887909, 0.2832089960575104, 0.28117649257183075, -2.0, -2.0, 0.28648748993873596, -2.0, -2.0, 0.29495349526405334, 0.29218949377536774, -2.0, -2.0, 0.2972875088453293, -2.0, -2.0, 0.3297314941883087, 0.3204035013914108, -2.0, 0.3261304944753647, -2.0, -2.0, 0.3809729963541031, 0.37696999311447144, -2.0, -2.0, 0.3886599987745285, -2.0, -2.0, -2.0, 0.6945795118808746, 0.6304635107517242, 0.4661175012588501, 0.42950500547885895, 0.41982199251651764, -2.0, -2.0, 0.4351080060005188, -2.0, -2.0, 0.49089398980140686, 0.4811740070581436, -2.0, -2.0, 0.5198144912719727, -2.0, -2.0, 0.6609749794006348, -2.0, -2.0, 0.7152405083179474, -2.0, 1.0009049773216248, 0.7569395005702972, -2.0, 0.8209640085697174, -2.0, -2.0, -2.0, 0.3935284912586212, 0.3888469934463501, 0.1515519991517067, 0.0005404999828897417, 0.3729104995727539, 4.799999987881165e-05, 0.2676304876804352, -2.0, -2.0, 0.33193451166152954, -2.0, -2.0, -2.0, 0.11237950250506401, 0.0008755000017117709, -2.0, 0.0013760000001639128, -2.0, -2.0, -2.0, 0.257018506526947, -2.0, 0.2011919990181923, -2.0, 0.26223449409008026, -2.0, -2.0, -2.0, 1.2515380382537842, 0.06462100148200989, 0.4307839870452881, 0.000247500000114087, 0.4108999967575073, -2.0, -2.0, 0.0035020000068470836, -2.0, -2.0, 0.5319460034370422, 0.0035825000377371907, 0.4659460037946701, -2.0, -2.0, 0.009664000011980534, -2.0, -2.0, 0.8014459908008575, 2.1500000002561137e-05, -2.0, -2.0, 2.89999998130952e-05, -2.0, -2.0, 0.24765349924564362, 0.48440100252628326, 0.1136074997484684, -2.0, -2.0, 0.081215500831604, -2.0, 0.12512550130486488, -2.0, -2.0, 0.2838664948940277, -2.0, -2.0, 1.607725977897644, -2.0, -2.0, 10.194221019744873, 0.9430265128612518, 0.401031494140625, 0.08689599856734276, -2.0, 0.3944685012102127, 0.28468500077724457, 3.3246763944625854, 0.10631800070405006, -2.0, 0.19282949715852737, -2.0, -2.0, 0.22476299852132797, 0.13554050028324127, -2.0, -2.0, 4.779525518417358, -2.0, -2.0, 3.965144991874695, 0.2954305112361908, -2.0, 0.3070414960384369, -2.0, -2.0, 0.3172289878129959, -2.0, 0.3499014973640442, -2.0, -2.0, -2.0, 2.8526060581207275, 0.43265700340270996, 1.2618814706802368, -2.0, -2.0, 0.6627039909362793, 0.4736744910478592, 0.3886770009994507, -2.0, -2.0, 0.6155554950237274, 0.5855970084667206, -2.0, -2.0, -2.0, 0.8506714999675751, 0.7523905038833618, -2.0, -2.0, 0.7217479944229126, -2.0, 2.075654983520508, -2.0, -2.0, 0.5883910059928894, 8.413320541381836, 6.931641101837158, 0.540354996919632, 5.750866889953613, -2.0, -2.0, -2.0, -2.0, -2.0, 0.6956930160522461, 4.608016014099121, -2.0, -2.0, 5.419451475143433, 3.8657439947128296, -2.0, -2.0, 0.7849864959716797, -2.0, -2.0, 1.5081194639205933, 1.0280759930610657, -2.0, 1.1747829914093018, 3.668502449989319, -2.0, -2.0, -2.0, 2.059936046600342, 1.728539526462555, -2.0, -2.0, -2.0, 23.38512420654297, 0.36453600227832794, 0.2342344969511032, -2.0, 0.29931649565696716, -2.0, -2.0, 0.9838320016860962, 17.73682975769043, 0.4689739942550659, -2.0, 0.5325914919376373, -2.0, 14.58553695678711, 0.6943694949150085, -2.0, -2.0, -2.0, 19.91136360168457, -2.0, -2.0, 1.2600584626197815, -2.0, -2.0, 0.4999304860830307, 30.33088493347168, -2.0, -2.0, 28.804617881774902, -2.0, 0.9000985026359558, -2.0, 1.5862774848937988, -2.0, -2.0], "feature": [0, 1, 1, 1, 1, -2, 1, 1, 1, -2, -2, -2, 1, -2, -2, 1, 1, 1, -2, 1, 1, -2, -2, -2, 1, -2, -2, 0, 1, 1, -2, -2, 1, 1, 1, -2, -2, 1, -2, -2, 1, -2, 1, -2, -2, -2, 0, 1, 0, 1, 1, 1, 1, -2, -2, 1, -2, -2, 0, 1, -2, -2, -2, 1, 1, 1, -2, -2, 1, -2, -2, 1, 1, -2, -2, -2, -2, 1, 1, 1, -2, -2, -2, 1, 0, 1, 1, -2, -2, 1, -2, -2, -2, 1, 1, -2, 1, -2, -2, 1, -2, -2, 1, 1, 1, -2, -2, -2, 0, -2, 0, -2, -2, 0, 1, 1, 1, 1, 1, -2, 1, 1, -2, -2, -2, -2, 1, 1, -2, -2, 1, 1, 1, -2, -2, -2, 1, 1, -2, -2, 1, -2, -2, 1, -2, -2, 1, 1, 1, 1, 1, 1, -2, -2, 1, -2, -2, 1, 1, -2, -2, 1, -2, -2, 1, 1, -2, 1, -2, -2, 1, 1, -2, -2, 1, -2, -2, -2, 1, 1, 1, 1, 1, -2, -2, 1, -2, -2, 1, 1, -2, -2, 1, -2, -2, 1, -2, -2, 1, -2, 1, 1, -2, 1, -2, -2, -2, 1, 1, 0, 0, 1, 0, 1, -2, -2, 1, -2, -2, -2, 0, 0, -2, 0, -2, -2, -2, 1, -2, 0, -2, 0, -2, -2, -2, 1, 0, 1, 0, 1, -2, -2, 0, -2, -2, 1, 0, 1, -2, -2, 0, -2, -2, 1, 0, -2, -2, 0, -2, -2, 0, 1, 0, -2, -2, 0, -2, 0, -2, -2, 0, -2, -2, 1, -2, -2, 0, 1, 1, 1, -2, 1, 1, 0, 1, -2, 1, -2, -2, 1, 1, -2, -2, 0, -2, -2, 0, 1, -2, 1, -2, -2, 1, -2, 1, -2, -2, -2, 0, 1, 0, -2, -2, 1, 0, 0, -2, -2, 1, 1, -2, -2, -2, 0, 1, -2, -2, 1, -2, 0, -2, -2, 1, 0, 0, 1, 0, -2, -2, -2, -2, -2, 1, 0, -2, -2, 0, 0, -2, -2, 1, -2, -2, 1, 0, -2, 1, 0, -2, -2, -2, 1, 0, -2, -2, -2, 0, 1, 1, -2, 1, -2, -2, 1, 0, 1, -2, 1, -2, 0, 1, -2, -2, -2, 0, -2, -2, 1, -2, -2, 1, 0, -2, -2, 0, -2, 1, -2, 1, -2, -2], "classes": [0, 1, 2], "value": [[8054.201016560014, 8020.182124822834, 8106.457259410651], [2084.7563535005647, 6445.03858052403, 6185.721985289731], [470.75143466142026, 3620.2779474281697, 879.8399159404188], [19.779472044597476, 1254.9141169191655, 85.00148340441316], [0.0, 471.91705087519625, 4.473762284442796], [0.0, 313.969303235336, 0.0], [0.0, 157.94774763986234, 4.473762284442796], [0.0, 84.75244995309666, 4.473762284442796], [0.0, 57.78576133165674, 1.4912540948142654], [0.0, 22.632756521565565, 1.4912540948142654], [0.0, 35.15300481009119, 0.0], [0.0, 26.96668862143983, 2.982508189628531], [0.0, 73.19529768676526, 0.0], [0.0, 25.522044588148404, 0.0], [0.0, 47.67325309861682, 0.0], [19.779472044597476, 782.9970660439499, 80.52772111997037], [0.0, 165.17096780631957, 46.22887693924224], [0.0, 121.35009879647949, 20.87755732739972], [0.0, 34.189908787896904, 13.42128685332839], [0.0, 87.16019000858235, 7.456270474071327], [0.0, 62.60124144262813, 1.4912540948142654], [0.0, 27.44823663253696, 1.4912540948142654], [0.0, 35.15300481009119, 0.0], [0.0, 24.558948565954125, 5.965016379257062], [0.0, 43.8208690098397, 25.351319611842513], [0.0, 21.66966049937129, 19.38630323258545], [0.0, 22.151208510468425, 5.965016379257062], [19.779472044597476, 617.8260982376293, 34.29884418072811], [15.82357763567798, 577.8576133165669, 26.84257370665678], [11.867683226758485, 73.67684569786239, 1.4912540948142654], [0.0, 43.8208690098397, 0.0], [11.867683226758485, 29.855976688022658, 1.4912540948142654], [3.955894408919495, 504.1807676187035, 25.351319611842513], [0.0, 432.9116619763277, 20.877557327399714], [0.0, 326.9710995349585, 19.386303232585448], [0.0, 270.1484342254966, 10.438778663699857], [0.0, 56.82266530946246, 8.947524568885592], [0.0, 105.94056244137097, 1.4912540948142654], [0.0, 55.85956928726818, 0.0], [0.0, 50.0809931541025, 1.4912540948142654], [3.955894408919495, 71.26910564237667, 4.473762284442796], [3.955894408919495, 19.26192044388559, 1.4912540948142654], [0.0, 52.007185198491065, 2.982508189628531], [0.0, 21.669660499371286, 2.982508189628531], [0.0, 30.337524699119797, 0.0], [3.955894408919495, 39.96848492106258, 7.456270474071327], [450.97196261682285, 2365.363830509175, 794.8384325360054], [257.13313657976727, 2228.122647346509, 724.7494900797341], [221.5300868994918, 1695.530547073073, 430.9724334013221], [209.66240367273326, 1661.3406382851747, 398.1648433154084], [43.51483849811445, 726.1744007344863, 140.1778849125409], [7.91178881783899, 139.64892321817098, 56.6676556029421], [0.0, 88.60483404187381, 25.351319611842513], [0.0, 16.85418038839989, 14.912540948142652], [0.0, 71.75065365347383, 10.438778663699857], [7.91178881783899, 51.04408917629679, 31.316335991099578], [0.0, 25.040496577051265, 23.860065517028247], [7.91178881783899, 26.003592599245543, 7.456270474071327], [35.603049680275454, 586.525477516316, 83.5102293095989], [31.64715527135596, 564.8558170169443, 74.5627047407133], [0.0, 39.48693690996545, 0.0], [31.64715527135596, 525.3688801069784, 74.5627047407133], [3.955894408919495, 21.66966049937129, 8.947524568885592], [166.14756517461885, 935.1662375506467, 257.9869584028676], [162.19167076569934, 780.1077779773667, 238.60065517028224], [106.80914904082637, 577.3760653054696, 140.17788491254095], [27.691260862436465, 39.00538889886831, 13.42128685332839], [79.1178881783899, 538.3706764066008, 126.75659805921262], [55.38252172487294, 202.73171267189693, 98.42277025774156], [27.691260862436465, 29.855976688022658, 11.930032758514123], [27.691260862436465, 172.87573598387405, 86.49273749922742], [3.955894408919495, 155.05845957327952, 19.386303232585455], [0.0, 131.94415504061658, 14.912540948142656], [0.0, 24.07740055485698, 5.965016379257062], [0.0, 107.86675448575947, 8.947524568885592], [3.955894408919495, 23.114304532662707, 4.473762284442796], [11.867683226758485, 34.18990878789692, 32.807590085913844], [35.603049680275454, 532.5921002734348, 293.7770566784099], [3.955894408919495, 74.15839370895954, 68.59768836145622], [3.955894408919495, 53.45182923178249, 31.316335991099578], [0.0, 18.29882442169131, 20.877557327399714], [3.955894408919495, 35.1530048100912, 10.438778663699857], [0.0, 20.70656447717701, 37.281352370356636], [31.647155271355963, 458.4337065644762, 225.1793683169538], [23.73536645351697, 252.33115781490267, 90.96649978367023], [11.867683226758485, 230.17994930443407, 82.01897521478463], [3.955894408919495, 43.82086900983971, 26.84257370665678], [3.955894408919495, 27.448236632536968, 5.965016379257062], [0.0, 16.372632377302754, 20.877557327399717], [7.91178881783899, 186.35908029459395, 55.17640150812784], [0.0, 41.41312895435401, 5.965016379257062], [7.91178881783899, 144.94595134023947, 49.211385128870766], [11.867683226758485, 22.15120851046843, 8.947524568885592], [7.91178881783899, 206.10254874957678, 134.2128685332839], [7.91178881783899, 156.98465161766813, 117.80907349032702], [3.955894408919495, 29.37442867692552, 34.29884418072811], [3.955894408919495, 127.61022294074239, 83.5102293095989], [3.955894408919495, 70.78755763127954, 32.807590085913844], [0.0, 56.822665309462465, 50.70263922368504], [0.0, 49.11789713190824, 16.403795042956922], [0.0, 22.632756521565565, 7.456270474071327], [0.0, 26.485140610342683, 8.947524568885592], [193.83882603705527, 137.24118316268522, 70.0889424562705], [138.4563043121823, 65.00898149811384, 34.29884418072811], [51.42662731595344, 43.8208690098397, 29.82508189628531], [23.73536645351697, 16.372632377302754, 20.877557327399714], [27.691260862436465, 27.44823663253696, 8.947524568885592], [87.02967699622891, 21.188112488274143, 4.473762284442796], [55.38252172487293, 72.23220166457098, 35.79009827554238], [3.955894408919495, 19.261920443885593, 17.89504913777119], [51.42662731595344, 52.97028122068535, 17.895049137771185], [31.64715527135596, 23.59585254375985, 5.965016379257062], [19.779472044597476, 29.37442867692552, 11.930032758514123], [1614.0049188391479, 2824.7606330957906, 5305.8820693492435], [470.75143466142026, 1443.1993892581581, 3309.0928363928483], [59.338416133792435, 461.80454264215615, 480.1838185301931], [43.51483849811445, 424.2437977765797, 454.8324989183505], [23.73536645351697, 114.12687863002238, 89.47524568885596], [11.867683226758485, 88.12328603077667, 83.5102293095989], [7.91178881783899, 20.70656447717701, 31.31633599109958], [3.955894408919495, 67.41672155359956, 52.193893318499306], [3.955894408919495, 46.71015707642254, 23.86006551702825], [0.0, 23.59585254375985, 8.947524568885592], [3.955894408919495, 23.114304532662707, 14.912540948142654], [0.0, 20.70656447717701, 28.333827801471045], [11.867683226758485, 26.003592599245543, 5.965016379257062], [19.779472044597476, 310.1169191465586, 365.35725322949475], [7.91178881783899, 42.85777298764542, 83.5102293095989], [0.0, 28.41133265473124, 38.77260646517092], [7.91178881783899, 14.446440332914195, 44.737622844427975], [11.867683226758485, 267.259146158914, 281.8470239198958], [3.955894408919495, 129.05486697403376, 96.9315161629273], [3.955894408919495, 96.79115023052523, 90.96649978367023], [3.955894408919495, 31.782168732411215, 14.912540948142656], [0.0, 65.00898149811384, 76.05395883552757], [0.0, 32.26371674350836, 5.965016379257062], [7.91178881783899, 138.2042791848795, 184.91550775696874], [3.955894408919495, 35.63455282118833, 77.54521293034182], [0.0, 13.964892321817054, 38.772606465170895], [3.955894408919495, 21.669660499371286, 38.77260646517091], [3.955894408919495, 102.56972636369099, 107.37029482662716], [3.955894408919495, 72.71374967566811, 64.12392607701344], [0.0, 29.855976688022658, 43.2463687496137], [15.82357763567798, 37.560744865576886, 25.351319611842513], [11.867683226758485, 16.854180388399893, 16.40379504295692], [3.955894408919495, 20.70656447717701, 8.947524568885592], [411.4130185276278, 981.3948466159728, 2828.9090178626448], [209.66240367273332, 598.0826297826455, 1324.2336361950622], [193.83882603705533, 579.7838053609543, 1309.32109524692], [51.42662731595344, 304.8198910244903, 587.5541133568204], [11.867683226758485, 158.42929565095957, 331.05840904876646], [11.867683226758485, 136.27808714049095, 253.51319611842473], [7.91178881783899, 117.49771470770236, 237.1094010754679], [3.955894408919495, 18.780372432788454, 16.403795042956922], [0.0, 22.15120851046843, 77.54521293034182], [0.0, 9.630960221942797, 41.755114654799435], [0.0, 12.520248288525636, 35.79009827554238], [39.55894408919495, 146.3905953735309, 256.49570430805335], [31.64715527135596, 24.558948565954125, 58.158909697756364], [15.82357763567798, 13.001796299622775, 22.36881142221398], [15.82357763567798, 11.557152266331357, 35.79009827554238], [7.91178881783899, 121.83164680757666, 198.33679461029718], [0.0, 17.817276410594175, 14.912540948142656], [7.91178881783899, 104.0143703969824, 183.42425366215454], [142.41219872110184, 274.963914336468, 721.7669818901057], [55.38252172487293, 47.67325309861681, 117.80907349032701], [7.91178881783899, 11.557152266331356, 49.21138512887076], [47.47073290703394, 36.11610083228547, 68.59768836145624], [23.73536645351697, 21.66966049937129, 49.21138512887077], [23.73536645351697, 14.446440332914191, 19.386303232585455], [87.02967699622887, 227.29066123785114, 603.9579083997779], [83.07378258730938, 201.2870686386053, 493.6051053835217], [79.11788817838989, 179.13586012813673, 483.16632671982177], [3.955894408919495, 22.15120851046843, 10.438778663699857], [3.955894408919495, 26.003592599245543, 110.35280301625568], [3.955894408919495, 11.557152266331354, 64.12392607701342], [0.0, 14.446440332914197, 46.22887693924224], [15.82357763567798, 18.298824421691315, 14.912540948142656], [201.7506148548943, 383.3122168333228, 1504.6753816675853], [185.92703721921632, 333.71277169031816, 1197.4770381358537], [138.45630431218237, 315.89549527972406, 1113.9668088262576], [71.20609936055091, 115.08997465221661, 587.5541133568207], [23.73536645351697, 56.34111729836532, 304.21583534210976], [23.73536645351697, 41.413128954354, 198.33679461029706], [0.0, 14.92798834401133, 105.87904073181288], [47.47073290703394, 58.748857353851015, 283.33827801471], [19.779472044597476, 11.075604255234218, 35.790098275542384], [27.691260862436465, 47.67325309861681, 247.5481797391678], [67.25020495163143, 200.8055206275083, 526.412695469435], [31.64715527135596, 54.41492525397677, 93.94900797329876], [11.867683226758485, 39.48693690996545, 59.65016379257064], [19.779472044597476, 14.927988344011338, 34.29884418072811], [35.603049680275454, 146.3905953735311, 432.4636874961366], [23.73536645351697, 29.855976688022658, 143.16039310216948], [11.867683226758485, 116.53461868550811, 289.3032943939671], [47.47073290703394, 17.81727641059417, 83.5102293095989], [39.55894408919495, 7.223220166457098, 44.737622844427975], [7.91178881783899, 10.594056244137079, 38.77260646517092], [15.82357763567798, 49.59944514300537, 307.1983435317384], [0.0, 2.4077400554856996, 70.0889424562705], [15.82357763567798, 47.19170508751967, 237.1094010754677], [15.82357763567798, 30.819072710216936, 198.33679461029698], [11.867683226758485, 13.001796299622777, 71.58019655108477], [3.955894408919495, 17.81727641059417, 126.7565980592126], [3.955894408919495, 9.149412210845657, 56.6676556029421], [0.0, 8.667864199748518, 70.0889424562705], [0.0, 16.372632377302754, 38.77260646517091], [1143.2534841777322, 1381.5612438377184, 1996.7892329562844], [668.5461551073944, 649.6082669700414, 803.7859571048912], [617.1195277914411, 638.5326627148071, 782.9083997774918], [573.6046892933272, 556.1879528171949, 656.151801718278], [142.41219872110187, 225.3644691934626, 247.54817973916775], [142.4121987211018, 213.32576891603404, 207.2843191791826], [94.94146581406788, 135.7965391293939, 98.42277025774156], [63.29431054271193, 50.56254116519965, 28.333827801471045], [31.64715527135596, 85.23399796419382, 70.0889424562705], [47.47073290703394, 77.52922978663955, 108.86154892144143], [19.779472044597476, 65.97207752030815, 80.52772111997037], [27.691260862436465, 11.557152266331356, 28.333827801471042], [0.0, 12.038700277428498, 40.263860559985176], [431.1924905722254, 330.82348362373546, 408.60362197910825], [375.8099688473523, 315.41394726862706, 381.7610482724518], [51.42662731595344, 16.854180388399897, 28.333827801471053], [324.3833415313988, 298.5597668802275, 353.42722047098044], [3.955894408919495, 22.632756521565575, 50.70263922368503], [320.4274471224794, 275.92701035866236, 302.72458124729536], [55.38252172487293, 15.409536355108475, 26.84257370665678], [43.51483849811444, 82.34470989761097, 126.7565980592126], [35.603049680275454, 17.817276410594168, 25.351319611842513], [7.91178881783899, 64.5274334870167, 101.4052784473701], [0.0, 33.22681276570264, 29.825081896285308], [7.91178881783899, 31.30062072131408, 71.58019655108475], [0.0, 13.483344310719914, 44.737622844427975], [7.91178881783899, 17.817276410594168, 26.84257370665678], [51.42662731595343, 11.075604255234214, 20.877557327399717], [474.7073290703398, 731.9529768676528, 1193.003275851412], [423.2807017543862, 690.0582999022014, 1185.5470053773404], [241.30955894408933, 506.5885076741899, 867.9098831819053], [3.955894408919495, 90.04947807516525, 113.33531120588422], [0.0, 38.042292876674026, 34.29884418072811], [0.0, 14.927988344011336, 17.89504913777119], [0.0, 23.114304532662707, 16.40379504295692], [3.955894408919495, 52.007185198491065, 79.03646702515609], [0.0, 19.261920443885593, 43.24636874961371], [3.955894408919495, 32.74526475460549, 35.79009827554238], [237.35366453516977, 416.53902959902547, 754.5745719760203], [106.80914904082638, 145.42749935133668, 219.2143519376968], [87.02967699622891, 91.97567011955383, 117.80907349032702], [19.779472044597476, 33.22681276570264, 56.66765560294211], [67.25020495163142, 58.748857353851015, 61.141417887384904], [19.779472044597476, 53.45182923178248, 101.4052784473701], [0.0, 13.001796299622773, 38.77260646517091], [19.779472044597476, 40.45003293215972, 62.63267198219917], [130.54451549434336, 271.111530247691, 535.3602200383209], [63.29431054271193, 204.65790471628526, 426.49867111687917], [11.867683226758485, 51.52563718739393, 64.12392607701344], [51.426627315953446, 153.13226752889102, 362.3747450398659], [67.25020495163142, 66.45362553140527, 108.86154892144143], [0.0, 9.630960221942798, 41.75511465479944], [67.25020495163142, 56.82266530946246, 67.10643426664197], [181.97114281029678, 183.46979222801107, 317.6371221954382], [181.97114281029678, 151.20607548450235, 255.004450213239], [71.20609936055091, 34.67145679899405, 64.12392607701344], [3.955894408919495, 14.446440332914197, 31.316335991099578], [67.25020495163142, 20.225016466079868, 32.80759008591385], [110.76504344974587, 116.53461868550805, 190.88052413622583], [43.51483849811445, 22.151208510468436, 20.87755732739972], [67.25020495163142, 94.38341017503947, 170.00296680882624], [3.955894408919495, 30.337524699119804, 65.6151801718277], [63.29431054271192, 64.04588547591955, 104.38778663699863], [0.0, 32.263716743508354, 62.63267198219917], [0.0, 18.29882442169131, 20.87755732739972], [0.0, 13.964892321817056, 41.755114654799435], [51.42662731595344, 41.89467696545114, 7.456270474071327], [7.91178881783899, 22.632756521565568, 5.965016379257062], [43.51483849811444, 19.261920443885593, 1.4912540948142654], [5969.444663059463, 1575.143544298784, 1920.7352741207576], [3342.730775536949, 1378.6719557711383, 1805.9087088200617], [2816.596819150662, 1254.9141169191628, 1750.732307311934], [1610.0490244302289, 691.9844919465902, 718.7844737004772], [0.0, 32.7452647546055, 0.0], [1610.0490244302293, 659.239227191984, 718.7844737004775], [1503.2398753894033, 645.2743348701674, 706.8544409419629], [712.0609936055088, 381.38602478893444, 311.67210581618104], [549.8693228398103, 272.5561742809824, 181.93299956734026], [11.867683226758485, 17.817276410594175, 11.930032758514123], [538.0016396130517, 254.73889787038848, 170.00296680882613], [257.13313657976715, 96.79115023052528, 56.667655602942105], [280.8685030332842, 157.94774763986243, 113.33531120588422], [162.19167076569934, 108.82985050795381, 129.73910624884113], [71.20609936055091, 65.49052950921099, 95.44026206811303], [27.691260862436465, 9.149412210845657, 38.77260646517091], [43.51483849811445, 56.34111729836532, 56.667655602942105], [90.9855714051484, 43.33932099874256, 34.29884418072811], [31.64715527135596, 11.07560425523422, 25.351319611842513], [59.338416133792435, 32.263716743508354, 8.947524568885592], [791.1788817838982, 263.888310081234, 395.1823351257797], [478.66322347925933, 202.25016466079958, 314.65461400580966], [79.1178881783899, 14.927988344011338, 11.930032758514123], [399.5453353008694, 187.32217631678827, 302.7245812472955], [39.55894408919495, 25.522044588148404, 61.1414178873849], [359.98639121167434, 161.80013172863957, 241.58316335991054], [312.5156583046403, 61.63814542043386, 80.52772111997037], [51.42662731595343, 13.964892321817057, 40.26386055998518], [261.0890309886867, 47.67325309861682, 40.26386055998517], [162.19167076569934, 21.18811248827415, 11.930032758514123], [98.89736022298737, 26.485140610342683, 28.333827801471045], [106.80914904082638, 13.964892321817054, 11.930032758514123], [1206.5477947204442, 562.9296249725545, 1031.9478336114764], [526.1339563862931, 356.82707622298096, 672.5555967612348], [7.91178881783899, 45.747061054228254, 80.52772111997037], [7.91178881783899, 20.22501646607987, 62.63267198219917], [0.0, 25.522044588148404, 17.89504913777119], [518.2221675684543, 311.0800151687534, 592.0278756412636], [371.85407443843286, 204.65790471628517, 326.58464676432385], [106.80914904082638, 30.337524699119797, 58.15890969775637], [31.64715527135596, 14.927988344011338, 46.22887693924224], [75.1619937694704, 15.409536355108475, 11.930032758514123], [265.0449253976063, 174.3203800171653, 268.4257370665673], [193.83882603705533, 144.94595134023945, 244.56567154953908], [193.83882603705536, 131.4626070295195, 205.79306508436824], [0.0, 13.483344310719914, 38.77260646517091], [71.20609936055092, 29.374428676925522, 23.860065517028254], [146.36809313002135, 106.42211045246809, 265.4432288769389], [15.82357763567798, 30.337524699119797, 99.91402435255583], [11.867683226758485, 16.372632377302754, 28.33382780147105], [3.955894408919495, 13.964892321817057, 71.58019655108475], [130.54451549434333, 76.08458575334808, 165.52920452438337], [7.91178881783899, 20.70656447717701, 67.10643426664197], [122.63272667650435, 55.37802127617104, 98.42277025774156], [63.29431054271193, 44.302417020936836, 71.58019655108477], [59.33841613379243, 11.075604255234216, 26.84257370665678], [680.4138383341528, 206.1025487495768, 359.3922368502375], [213.61829808165277, 106.90365846356518, 178.95049137771173], [166.1475651746188, 91.01257409735952, 170.0029668088261], [162.19167076569929, 79.4554218310281, 132.72161443846963], [142.41219872110184, 66.93517354250241, 90.96649978367022], [87.0296769962289, 56.34111729836532, 73.07145064589903], [55.38252172487293, 10.594056244137077, 17.895049137771185], [19.779472044597476, 12.52024828852564, 41.755114654799435], [3.955894408919495, 11.557152266331359, 37.281352370356636], [47.47073290703394, 15.891084366205614, 8.947524568885592], [466.7955402525008, 99.19889028601088, 180.441745472526], [265.0449253976062, 35.63455282118833, 53.68514741331357], [94.9414658140679, 18.29882442169131, 32.807590085913844], [170.10345958353827, 17.335728399497036, 20.877557327399714], [201.7506148548943, 63.564337464822415, 126.75659805921262], [63.294310542711926, 27.9297846436341, 62.63267198219917], [47.47073290703394, 9.630960221942795, 26.842573706656776], [15.82357763567798, 18.29882442169131, 35.79009827554238], [138.45630431218234, 35.634552821188336, 64.12392607701342], [59.338416133792435, 17.335728399497036, 11.930032758514123], [79.1178881783899, 18.298824421691315, 52.193893318499306], [526.1339563862933, 123.7578388519652, 55.17640150812783], [237.35366453516986, 79.45542183102809, 49.21138512887077], [23.73536645351697, 26.966688621439822, 28.333827801471042], [213.61829808165277, 52.488733209588204, 20.877557327399717], [146.36809313002135, 30.81907271021693, 10.438778663699857], [59.338416133792435, 18.780372432788454, 5.965016379257062], [87.0296769962289, 12.038700277428497, 4.473762284442796], [67.25020495163143, 21.669660499371286, 10.438778663699857], [288.78029185112325, 44.302417020936836, 5.965016379257062], [162.19167076569934, 30.337524699119797, 5.965016379257062], [102.85325463190689, 13.483344310719916, 1.4912540948142654], [59.338416133792435, 16.854180388399897, 4.473762284442796], [126.58862108542385, 13.964892321817054, 0.0], [2626.713887522529, 196.47158852763394, 114.82656530069848], [1289.6215773077517, 159.3923916731539, 111.84405711106994], [288.7802918511232, 61.156597409336726, 38.77260646517092], [174.05935399245783, 18.298824421691315, 20.877557327399714], [114.72093785866538, 42.857772987645426, 17.895049137771185], [43.51483849811445, 25.040496577051265, 2.982508189628531], [71.20609936055092, 17.81727641059417, 14.912540948142654], [1000.8412854566312, 98.2357942638167, 73.07145064589903], [700.1933103787501, 87.64173801967952, 47.7201310340565], [545.9134284308908, 62.60124144262813, 31.316335991099578], [185.9270372192163, 10.112508233039938, 7.456270474071327], [359.9863912116744, 52.488733209588204, 23.860065517028254], [71.20609936055091, 13.964892321817057, 13.42128685332839], [288.78029185112325, 38.523840887771165, 10.438778663699857], [193.83882603705536, 21.18811248827415, 4.473762284442796], [90.98557140514836, 11.557152266331357, 2.982508189628531], [102.85325463190686, 9.630960221942798, 1.4912540948142654], [94.9414658140679, 17.335728399497032, 5.965016379257062], [154.2798819478603, 25.04049657705126, 16.40379504295692], [51.42662731595343, 17.335728399497032, 4.473762284442796], [102.8532546319069, 7.704768177554239, 11.930032758514123], [300.64797507788177, 10.594056244137077, 25.351319611842513], [122.63272667650436, 6.741672155359958, 4.473762284442796], [178.0152484013773, 3.8523840887771192, 20.877557327399714], [1337.0923102147854, 37.07919685447975, 2.982508189628531], [340.20691916707665, 23.59585254375985, 0.0], [162.19167076569934, 16.854180388399893, 0.0], [178.01524840137736, 6.741672155359958, 0.0], [996.8853910477112, 13.483344310719916, 2.982508189628531], [205.7065092638137, 6.741672155359958, 2.982508189628531], [791.1788817838984, 6.741672155359959, 0.0], [261.08903098868683, 5.2970281220685385, 0.0], [530.0898507952126, 1.4446440332914197, 0.0], [320.42744712247935, 0.0, 0.0], [209.6624036727333, 1.4446440332914197, 0.0]]}, {"children_left": [1, 2, 3, 4, 5, 6, -1, 8, -1, 10, 11, -1, -1, 14, -1, -1, 17, 18, 19, -1, 21, -1, -1, 24, -1, -1, 27, 28, 29, -1, -1, -1, 33, 34, 35, -1, -1, 38, -1, -1, 41, -1, 43, -1, -1, 46, 47, 48, 49, 50, -1, 52, -1, -1, 55, 56, -1, -1, 59, -1, -1, -1, 63, -1, 65, -1, -1, 68, 69, -1, 71, -1, 73, -1, 75, -1, -1, 78, 79, -1, -1, 82, 83, -1, 85, -1, -1, 88, -1, 90, -1, -1, 93, -1, 95, 96, 97, -1, -1, 100, 101, -1, -1, -1, 105, -1, 107, 108, -1, -1, -1, 112, 113, 114, 115, 116, 117, 118, -1, -1, 121, -1, 123, -1, -1, 126, 127, 128, -1, -1, -1, 132, 133, -1, -1, -1, -1, 138, 139, -1, 141, -1, 143, 144, -1, -1, 147, -1, -1, 150, 151, 152, -1, -1, -1, 156, 157, -1, 159, -1, -1, -1, 163, 164, 165, -1, 167, -1, 169, 170, -1, -1, 173, -1, -1, 176, 177, 178, -1, -1, -1, 182, 183, 184, -1, -1, 187, -1, -1, 190, -1, 192, -1, -1, 195, 196, -1, -1, 199, 200, -1, -1, 203, -1, 205, -1, -1, 208, 209, 210, 211, 212, -1, -1, 215, -1, 217, -1, -1, 220, -1, 222, 223, 224, -1, -1, -1, -1, 229, 230, 231, -1, 233, -1, -1, 236, 237, -1, -1, 240, 241, -1, -1, -1, 245, 246, 247, -1, -1, 250, -1, -1, 253, 254, 255, -1, -1, -1, 259, 260, -1, -1, 263, -1, -1, 266, 267, 268, 269, 270, 271, -1, -1, 274, -1, -1, 277, -1, 279, -1, -1, 282, -1, 284, 285, -1, -1, 288, -1, -1, 291, 292, -1, -1, -1, -1, 297, 298, 299, 300, -1, 302, 303, 304, -1, 306, 307, -1, -1, -1, 311, -1, 313, 314, -1, -1, 317, -1, -1, 320, 321, -1, 323, 324, -1, -1, 327, -1, -1, 330, -1, 332, 333, -1, -1, -1, 337, 338, 339, 340, -1, 342, -1, -1, -1, 346, -1, 348, 349, 350, -1, -1, 353, -1, -1, 356, 357, -1, -1, -1, 361, -1, 363, 364, 365, -1, -1, 368, 369, -1, -1, -1, 373, 374, -1, 376, -1, -1, 379, 380, -1, -1, -1, 384, -1, 386, 387, -1, 389, -1, -1, 392, -1, -1, 395, 396, 397, 398, -1, 400, -1, -1, 403, 404, 405, 406, -1, -1, 409, -1, -1, 412, -1, 414, -1, -1, -1, 418, -1, -1, 421, 422, -1, 424, -1, -1, 427, -1, -1], "children_right": [296, 111, 92, 45, 16, 7, -1, 9, -1, 13, 12, -1, -1, 15, -1, -1, 26, 23, 20, -1, 22, -1, -1, 25, -1, -1, 32, 31, 30, -1, -1, -1, 40, 37, 36, -1, -1, 39, -1, -1, 42, -1, 44, -1, -1, 67, 62, 61, 54, 51, -1, 53, -1, -1, 58, 57, -1, -1, 60, -1, -1, -1, 64, -1, 66, -1, -1, 77, 70, -1, 72, -1, 74, -1, 76, -1, -1, 81, 80, -1, -1, 87, 84, -1, 86, -1, -1, 89, -1, 91, -1, -1, 94, -1, 104, 99, 98, -1, -1, 103, 102, -1, -1, -1, 106, -1, 110, 109, -1, -1, -1, 207, 162, 137, 136, 125, 120, 119, -1, -1, 122, -1, 124, -1, -1, 131, 130, 129, -1, -1, -1, 135, 134, -1, -1, -1, -1, 149, 140, -1, 142, -1, 146, 145, -1, -1, 148, -1, -1, 155, 154, 153, -1, -1, -1, 161, 158, -1, 160, -1, -1, -1, 194, 175, 166, -1, 168, -1, 172, 171, -1, -1, 174, -1, -1, 181, 180, 179, -1, -1, -1, 189, 186, 185, -1, -1, 188, -1, -1, 191, -1, 193, -1, -1, 198, 197, -1, -1, 202, 201, -1, -1, 204, -1, 206, -1, -1, 265, 228, 219, 214, 213, -1, -1, 216, -1, 218, -1, -1, 221, -1, 227, 226, 225, -1, -1, -1, -1, 244, 235, 232, -1, 234, -1, -1, 239, 238, -1, -1, 243, 242, -1, -1, -1, 252, 249, 248, -1, -1, 251, -1, -1, 258, 257, 256, -1, -1, -1, 262, 261, -1, -1, 264, -1, -1, 295, 290, 281, 276, 273, 272, -1, -1, 275, -1, -1, 278, -1, 280, -1, -1, 283, -1, 287, 286, -1, -1, 289, -1, -1, 294, 293, -1, -1, -1, -1, 394, 383, 336, 301, -1, 319, 310, 305, -1, 309, 308, -1, -1, -1, 312, -1, 316, 315, -1, -1, 318, -1, -1, 329, 322, -1, 326, 325, -1, -1, 328, -1, -1, 331, -1, 335, 334, -1, -1, -1, 360, 345, 344, 341, -1, 343, -1, -1, -1, 347, -1, 355, 352, 351, -1, -1, 354, -1, -1, 359, 358, -1, -1, -1, 362, -1, 372, 367, 366, -1, -1, 371, 370, -1, -1, -1, 378, 375, -1, 377, -1, -1, 382, 381, -1, -1, -1, 385, -1, 391, 388, -1, 390, -1, -1, 393, -1, -1, 420, 417, 402, 399, -1, 401, -1, -1, 416, 411, 408, 407, -1, -1, 410, -1, -1, 413, -1, 415, -1, -1, -1, 419, -1, -1, 426, 423, -1, 425, -1, -1, 428, -1, -1], "threshold": [0.3069864958524704, 0.20534949749708176, 6.500000154119334e-06, 0.12009549885988235, 0.06397899985313416, 0.05472399853169918, -2.0, 0.05612049996852875, -2.0, 0.05870399996638298, 0.057675499469041824, -2.0, -2.0, 0.060618000105023384, -2.0, -2.0, 0.07124599814414978, 0.0684254989027977, 0.06541899964213371, -2.0, 0.06739100068807602, -2.0, -2.0, 0.06996049731969833, -2.0, -2.0, 0.07581549882888794, 0.07424899935722351, 0.07273199781775475, -2.0, -2.0, -2.0, 0.09615850076079369, 0.08222699910402298, 0.0812699981033802, -2.0, -2.0, 0.09143799915909767, -2.0, -2.0, 0.0979899987578392, -2.0, 0.10739600285887718, -2.0, -2.0, 0.17874350398778915, 0.17395300418138504, 0.17233049869537354, 0.14351850003004074, 0.12175099924206734, -2.0, 0.12521149963140488, -2.0, -2.0, 0.14595049619674683, 0.1444074958562851, -2.0, -2.0, 0.15737900137901306, -2.0, -2.0, -2.0, 0.1750900000333786, -2.0, 0.17715100198984146, -2.0, -2.0, 0.18736949563026428, 0.18080700188875198, -2.0, 0.1822969987988472, -2.0, 0.18424149602651596, -2.0, 0.1857829988002777, -2.0, -2.0, 0.19155599921941757, 0.18969350308179855, -2.0, -2.0, 0.19903450459241867, 0.19304300099611282, -2.0, 0.19515150040388107, -2.0, -2.0, 0.20072149485349655, -2.0, 0.2030934989452362, -2.0, -2.0, 0.08993550017476082, -2.0, 0.16273999959230423, 0.12444700300693512, 0.10523800179362297, -2.0, -2.0, 0.031870000064373016, 0.15106650441884995, -2.0, -2.0, -2.0, 0.0004964999970979989, -2.0, 0.07292550057172775, 0.18126749992370605, -2.0, -2.0, -2.0, 4.999999987376214e-07, 0.37053050100803375, 0.25651299953460693, 0.2545659989118576, 0.22319450229406357, 0.2099585011601448, 0.20785850286483765, -2.0, -2.0, 0.21195100247859955, -2.0, 0.21391799300909042, -2.0, -2.0, 0.22887899726629257, 0.22674249857664108, 0.224761500954628, -2.0, -2.0, -2.0, 0.25169000029563904, 0.24597400426864624, -2.0, -2.0, -2.0, -2.0, 0.33720600605010986, 0.2590555101633072, -2.0, 0.2614544928073883, -2.0, 0.26673199236392975, 0.2639165073633194, -2.0, -2.0, 0.2699970006942749, -2.0, -2.0, 0.3500254899263382, 0.34639500081539154, 0.3429034948348999, -2.0, -2.0, -2.0, 0.3646650016307831, 0.3551290035247803, -2.0, 0.3599424958229065, -2.0, -2.0, -2.0, 0.6285834908485413, 0.4641660004854202, 0.3753160089254379, -2.0, 0.3816010057926178, -2.0, 0.41982199251651764, 0.4091545045375824, -2.0, -2.0, 0.4451180100440979, -2.0, -2.0, 0.4952464997768402, 0.4871799945831299, 0.4757719933986664, -2.0, -2.0, -2.0, 0.5669130086898804, 0.5317755043506622, 0.5024929940700531, -2.0, -2.0, 0.5409195125102997, -2.0, -2.0, 0.5864930152893066, -2.0, 0.610846996307373, -2.0, -2.0, 0.6940470039844513, 0.6659224927425385, -2.0, -2.0, 0.753915011882782, 0.7150480151176453, -2.0, -2.0, 0.8254460096359253, -2.0, 0.9750530123710632, -2.0, -2.0, 0.38351400196552277, 0.2694159895181656, 0.24568749964237213, 0.22029300034046173, 0.005601000040769577, -2.0, -2.0, 0.0006369999900925905, -2.0, 0.2340730056166649, -2.0, -2.0, 0.25178900361061096, -2.0, 0.038050999864935875, 0.2641335129737854, 0.0005480000108946115, -2.0, -2.0, -2.0, -2.0, 0.3145664930343628, 0.0014519999967887998, 0.2915264964103699, -2.0, 0.30221299827098846, -2.0, -2.0, 0.015610499773174524, 0.0064470001962035894, -2.0, -2.0, 0.29526349902153015, 0.2853794991970062, -2.0, -2.0, -2.0, 0.3341730087995529, 0.0012069999938830733, 8.24999988253694e-05, -2.0, -2.0, 0.32477349042892456, -2.0, -2.0, 0.35804200172424316, 0.34949299693107605, 0.04456399939954281, -2.0, -2.0, -2.0, 0.004105999832972884, 0.00012600000263773836, -2.0, -2.0, 0.0508200004696846, -2.0, -2.0, 1.609094500541687, 0.9655974805355072, 0.0003635000030044466, 9.949999730451964e-05, 3.4500000765547156e-05, 0.5604524910449982, -2.0, -2.0, 6.049999865354039e-05, -2.0, -2.0, 0.00017250000382773578, -2.0, 0.0002494999935152009, -2.0, -2.0, 0.000627999979769811, -2.0, 0.5265620052814484, 0.12893350422382355, -2.0, -2.0, 0.5765469968318939, -2.0, -2.0, 1.2535760402679443, 1.069548487663269, -2.0, -2.0, -2.0, -2.0, 9.129294395446777, 0.9429084956645966, 0.4020549952983856, 0.07839999720454216, -2.0, 2.338552951812744, 0.2542705088853836, 0.1060585007071495, -2.0, 1.9062514901161194, 0.17770999670028687, -2.0, -2.0, -2.0, 0.26955750584602356, -2.0, 0.9813884794712067, 0.3153965026140213, -2.0, -2.0, 0.34636901319026947, -2.0, -2.0, 0.332394003868103, 2.543322443962097, -2.0, 3.796196460723877, 0.2995619922876358, -2.0, -2.0, 4.186261415481567, -2.0, -2.0, 0.3477249890565872, -2.0, 0.3844375014305115, 4.500041484832764, -2.0, -2.0, -2.0, 2.7868064641952515, 0.4687564969062805, 1.8036324977874756, 0.48909200727939606, -2.0, 0.42673249542713165, -2.0, -2.0, -2.0, 0.4837464988231659, -2.0, 0.8259179890155792, 0.6596784889698029, 0.5953559875488281, -2.0, -2.0, 0.7921964824199677, -2.0, -2.0, 0.864513486623764, 0.6653499901294708, -2.0, -2.0, -2.0, 0.42934049665927887, -2.0, 0.5717079937458038, 0.49293750524520874, 4.551525831222534, -2.0, -2.0, 0.5445034801959991, 0.5170564949512482, -2.0, -2.0, -2.0, 4.620945453643799, 0.674223005771637, -2.0, 0.7874729931354523, -2.0, -2.0, 0.7819284796714783, 0.628853976726532, -2.0, -2.0, -2.0, 0.8269335031509399, -2.0, 4.132886648178101, 1.5961475372314453, -2.0, 2.4957040548324585, -2.0, -2.0, 5.8449180126190186, -2.0, -2.0, 23.63277530670166, 0.9083400070667267, 10.877126216888428, 9.70041275024414, -2.0, 10.087472438812256, -2.0, -2.0, 0.715038001537323, 0.39897099137306213, 0.27411949634552, 0.21535750478506088, -2.0, -2.0, 0.34818948805332184, -2.0, -2.0, 13.189400672912598, -2.0, 0.5628489851951599, -2.0, -2.0, -2.0, 1.3271675109863281, -2.0, -2.0, 39.31907844543457, 28.253811836242676, -2.0, 0.6679145097732544, -2.0, -2.0, 56.898420333862305, -2.0, -2.0], "feature": [0, 1, 0, 1, 1, 1, -2, 1, -2, 1, 1, -2, -2, 1, -2, -2, 1, 1, 1, -2, 1, -2, -2, 1, -2, -2, 1, 1, 1, -2, -2, -2, 1, 1, 1, -2, -2, 1, -2, -2, 1, -2, 1, -2, -2, 1, 1, 1, 1, 1, -2, 1, -2, -2, 1, 1, -2, -2, 1, -2, -2, -2, 1, -2, 1, -2, -2, 1, 1, -2, 1, -2, 1, -2, 1, -2, -2, 1, 1, -2, -2, 1, 1, -2, 1, -2, -2, 1, -2, 1, -2, -2, 1, -2, 1, 1, 1, -2, -2, 0, 1, -2, -2, -2, 0, -2, 0, 1, -2, -2, -2, 0, 1, 1, 1, 1, 1, 1, -2, -2, 1, -2, 1, -2, -2, 1, 1, 1, -2, -2, -2, 1, 1, -2, -2, -2, -2, 1, 1, -2, 1, -2, 1, 1, -2, -2, 1, -2, -2, 1, 1, 1, -2, -2, -2, 1, 1, -2, 1, -2, -2, -2, 1, 1, 1, -2, 1, -2, 1, 1, -2, -2, 1, -2, -2, 1, 1, 1, -2, -2, -2, 1, 1, 1, -2, -2, 1, -2, -2, 1, -2, 1, -2, -2, 1, 1, -2, -2, 1, 1, -2, -2, 1, -2, 1, -2, -2, 1, 1, 1, 1, 0, -2, -2, 0, -2, 1, -2, -2, 1, -2, 0, 1, 0, -2, -2, -2, -2, 1, 0, 1, -2, 1, -2, -2, 0, 0, -2, -2, 1, 1, -2, -2, -2, 1, 0, 0, -2, -2, 1, -2, -2, 1, 1, 0, -2, -2, -2, 0, 0, -2, -2, 0, -2, -2, 1, 1, 0, 0, 0, 1, -2, -2, 0, -2, -2, 0, -2, 0, -2, -2, 0, -2, 1, 0, -2, -2, 1, -2, -2, 1, 1, -2, -2, -2, -2, 0, 1, 1, 1, -2, 0, 1, 1, -2, 0, 1, -2, -2, -2, 1, -2, 0, 1, -2, -2, 1, -2, -2, 1, 0, -2, 0, 1, -2, -2, 0, -2, -2, 1, -2, 1, 0, -2, -2, -2, 0, 1, 0, 0, -2, 1, -2, -2, -2, 1, -2, 0, 1, 1, -2, -2, 1, -2, -2, 1, 1, -2, -2, -2, 1, -2, 1, 1, 0, -2, -2, 1, 1, -2, -2, -2, 0, 1, -2, 1, -2, -2, 1, 1, -2, -2, -2, 0, -2, 0, 0, -2, 0, -2, -2, 0, -2, -2, 0, 1, 0, 0, -2, 0, -2, -2, 1, 1, 1, 1, -2, -2, 1, -2, -2, 0, -2, 1, -2, -2, -2, 1, -2, -2, 0, 0, -2, 1, -2, -2, 0, -2, -2], "classes": [0, 1, 2], "value": [[8050.245122151094, 8041.370237311146, 8042.333333333622], [2203.4331857681486, 6420.479631958093, 6051.509116756433], [549.8693228398101, 3507.1141648203347, 775.4521293034197], [265.0449253976062, 3187.366285451877, 618.8704493479203], [67.25020495163142, 1754.2794044269294, 140.17788491254095], [0.0, 443.987266231562, 5.965016379257062], [0.0, 284.11332654731365, 0.0], [0.0, 159.87393968425107, 5.965016379257062], [0.0, 21.669660499371286, 4.473762284442796], [0.0, 138.2042791848796, 1.4912540948142654], [0.0, 48.15480110971395, 1.4912540948142654], [0.0, 25.040496577051265, 0.0], [0.0, 23.114304532662707, 1.4912540948142654], [0.0, 90.04947807516523, 0.0], [0.0, 22.15120851046843, 0.0], [0.0, 67.8982695646967, 0.0], [67.25020495163142, 1310.2921381953404, 134.2128685332839], [0.0, 134.8334431071995, 44.737622844427975], [0.0, 85.71554597529098, 14.912540948142654], [0.0, 20.70656447717701, 11.930032758514123], [0.0, 65.00898149811384, 2.982508189628531], [0.0, 42.37622497654828, 0.0], [0.0, 22.632756521565568, 2.982508189628531], [0.0, 49.11789713190823, 29.82508189628531], [0.0, 26.966688621439822, 22.36881142221398], [0.0, 22.15120851046843, 7.456270474071327], [67.25020495163142, 1175.4586950881312, 89.47524568885596], [15.82357763567798, 84.7524499530967, 8.947524568885592], [0.0, 56.341117298365326, 0.0], [0.0, 23.59585254375985, 0.0], [0.0, 32.74526475460549, 0.0], [15.82357763567798, 28.411332654731236, 8.947524568885592], [51.42662731595344, 1090.7062451350284, 80.52772111997037], [7.91178881783899, 443.98726623156205, 13.42128685332839], [7.91178881783899, 132.42570305171384, 2.982508189628531], [0.0, 111.71913857453666, 2.982508189628531], [7.91178881783899, 20.706564477177004, 0.0], [0.0, 311.5615631798503, 10.438778663699857], [0.0, 198.39778057202258, 10.438778663699857], [0.0, 113.1637826078281, 0.0], [43.51483849811445, 646.718978903458, 67.10643426664197], [15.82357763567798, 39.96848492106259, 8.947524568885592], [27.691260862436465, 606.7504939823956, 58.15890969775638], [19.779472044597476, 257.6281859369711, 38.77260646517092], [7.91178881783899, 349.12230804542634, 19.386303232585455], [197.7947204459749, 1433.0868810251166, 478.6925644353786], [181.97114281029687, 1058.442528391518, 286.3207862043386], [178.01524840137736, 979.468654571584, 277.373261635453], [178.01524840137736, 962.1329261720866, 257.9869584028675], [43.51483849811445, 442.06107418717335, 117.80907349032702], [3.955894408919495, 39.48693690996545, 23.86006551702825], [39.55894408919495, 402.57413727720854, 93.94900797329875], [15.82357763567798, 70.78755763127954, 4.473762284442796], [23.73536645351697, 331.7865796459299, 89.47524568885596], [134.50040990326283, 520.0718519849098, 140.17788491254095], [51.42662731595344, 49.11789713190823, 16.40379504295692], [23.73536645351697, 18.29882442169131, 1.4912540948142654], [27.691260862436465, 30.819072710216936, 14.912540948142652], [83.0737825873094, 470.9539548530019, 123.77408986958409], [15.82357763567798, 229.2168532822397, 53.68514741331358], [67.25020495163143, 241.7371015707655, 70.0889424562705], [0.0, 17.335728399497036, 19.38630323258545], [3.955894408919495, 78.97387381993096, 8.947524568885592], [0.0, 28.892880665828372, 0.0], [3.955894408919495, 50.08099315410251, 8.947524568885592], [3.955894408919495, 23.595852543759847, 5.965016379257062], [0.0, 26.485140610342683, 2.982508189628531], [15.82357763567798, 374.64435263357484, 192.37177823104005], [0.0, 118.46081072989661, 96.9315161629273], [0.0, 19.26192044388559, 26.84257370665678], [0.0, 99.19889028601091, 70.0889424562705], [0.0, 20.70656447717701, 2.982508189628531], [0.0, 78.49232580883383, 67.10643426664197], [0.0, 25.040496577051265, 32.807590085913844], [0.0, 53.45182923178249, 34.29884418072811], [0.0, 28.89288066582838, 7.456270474071327], [0.0, 24.558948565954125, 26.84257370665678], [15.82357763567798, 256.1835419036797, 95.44026206811301], [3.955894408919495, 58.267309342753876, 10.438778663699857], [3.955894408919495, 36.59764884338261, 8.947524568885592], [0.0, 21.669660499371286, 1.4912540948142654], [11.867683226758485, 197.91623256092527, 85.00148340441316], [0.0, 117.01616669660524, 46.22887693924224], [0.0, 20.70656447717701, 14.912540948142654], [0.0, 96.30960221942809, 31.316335991099578], [0.0, 42.376224976548286, 8.947524568885592], [0.0, 53.933377242879615, 22.368811422213984], [11.867683226758485, 80.90006586431953, 38.77260646517091], [7.91178881783899, 18.780372432788447, 10.438778663699857], [3.955894408919495, 62.11969343153099, 28.333827801471053], [0.0, 32.263716743508354, 11.930032758514123], [3.955894408919495, 29.855976688022665, 16.40379504295692], [284.8243974422038, 319.74787936850134, 156.5816799554979], [0.0, 65.97207752030813, 0.0], [284.8243974422038, 253.77580184819425, 156.58167995549778], [201.75061485489425, 125.20248288525663, 87.9839915940417], [47.47073290703394, 53.93337724287962, 49.21138512887077], [39.55894408919495, 24.558948565954125, 20.877557327399714], [7.91178881783899, 29.37442867692552, 28.333827801471042], [154.2798819478603, 71.26910564237672, 38.77260646517091], [55.38252172487293, 48.63634912081109, 22.368811422213987], [23.73536645351697, 28.411332654731236, 17.89504913777119], [31.64715527135596, 20.22501646607987, 4.473762284442796], [98.89736022298739, 22.632756521565565, 16.403795042956922], [83.07378258730941, 128.5733189629366, 68.59768836145622], [3.955894408919495, 37.079196854479754, 14.912540948142656], [79.1178881783899, 91.49412210845665, 53.685147413313565], [71.20609936055092, 58.267309342753876, 26.84257370665678], [19.779472044597476, 24.077400554856986, 19.38630323258545], [51.42662731595344, 34.18990878789691, 7.456270474071327], [7.91178881783899, 33.22681276570263, 26.84257370665678], [1653.5638629283433, 2913.3654671376407, 5276.056987452957], [383.72175766519115, 1537.1012514221056, 3292.6890413498872], [213.6182980816528, 1090.2246971239315, 1612.0456764942085], [39.55894408919495, 507.07005568528666, 514.4826627109214], [39.55894408919495, 484.43729916372126, 507.02639223685014], [7.91178881783899, 194.0638484721481, 153.5991717658693], [0.0, 43.8208690098397, 62.63267198219917], [0.0, 28.89288066582838, 25.35131961184252], [0.0, 14.927988344011334, 37.281352370356636], [7.91178881783899, 150.24297946230803, 90.96649978367023], [0.0, 29.855976688022665, 7.456270474071327], [7.91178881783899, 120.38700277428522, 83.5102293095989], [0.0, 19.261920443885593, 22.368811422213984], [7.91178881783899, 101.12508233039955, 61.141417887384904], [31.64715527135596, 290.3734506915763, 353.4272204709807], [3.955894408919495, 43.8208690098397, 98.42277025774156], [0.0, 31.782168732411215, 52.193893318499306], [0.0, 15.409536355108479, 31.316335991099578], [0.0, 16.372632377302754, 20.87755732739972], [3.955894408919495, 12.038700277428497, 46.22887693924224], [27.691260862436465, 246.5525816817369, 255.00445021323893], [15.82357763567798, 228.7353052711426, 228.16187650658225], [15.82357763567798, 172.87573598387394, 195.35428642066856], [0.0, 55.85956928726818, 32.807590085913844], [11.867683226758485, 17.817276410594175, 26.84257370665678], [0.0, 22.632756521565568, 7.456270474071327], [174.05935399245786, 583.1546414386352, 1097.5630137833014], [83.07378258730941, 441.09797816497905, 821.6810062426623], [11.867683226758485, 12.520248288525638, 23.860065517028254], [71.20609936055094, 428.5777298764536, 797.820940725634], [0.0, 22.632756521565565, 23.860065517028247], [71.20609936055094, 405.94497335488836, 773.9608752086056], [0.0, 26.966688621439825, 79.03646702515609], [0.0, 15.891084366205618, 29.825081896285308], [0.0, 11.075604255234218, 49.21138512887077], [71.20609936055094, 378.97828473344873, 694.924408183449], [3.955894408919495, 27.9297846436341, 13.42128685332839], [67.25020495163143, 351.048500089815, 681.5031213301204], [90.98557140514839, 142.05666327365665, 275.88200754063854], [63.29431054271192, 48.63634912081109, 98.42277025774156], [27.691260862436465, 36.59764884338261, 73.07145064589903], [23.73536645351697, 21.18811248827415, 44.73762284442798], [3.955894408919495, 15.409536355108475, 28.333827801471042], [35.603049680275454, 12.038700277428497, 25.35131961184252], [27.691260862436465, 93.4203141528452, 177.45923728289742], [11.867683226758485, 59.7119533760453, 137.1953767229124], [0.0, 29.374428676925522, 46.22887693924224], [11.867683226758485, 30.337524699119804, 90.96649978367023], [11.867683226758485, 12.038700277428498, 35.79009827554238], [0.0, 18.298824421691315, 55.17640150812783], [15.82357763567798, 33.70836077679978, 40.263860559985176], [170.10345958353832, 446.8765542981449, 1680.643364855666], [126.58862108542387, 391.9800810330716, 1307.829841152108], [67.25020495163143, 189.72991637227392, 778.4346374930486], [0.0, 7.223220166457099, 64.12392607701342], [67.25020495163143, 182.50669620581672, 714.3107114160347], [3.955894408919495, 21.18811248827415, 28.333827801471045], [63.29431054271193, 161.31858371754242, 685.9768836145633], [47.47073290703394, 94.38341017503953, 360.88349094505196], [7.91178881783899, 70.30600962018241, 255.0044502132391], [39.55894408919495, 24.077400554856986, 105.87904073181289], [15.82357763567798, 66.9351735425024, 325.0933926695094], [3.955894408919495, 34.18990878789691, 202.81055689473985], [11.867683226758485, 32.74526475460549, 122.28283577476982], [59.33841613379243, 202.25016466079975, 529.395203659064], [35.603049680275454, 55.85956928726818, 107.37029482662716], [0.0, 42.37622497654828, 76.05395883552757], [0.0, 27.44823663253696, 41.75511465479945], [0.0, 14.92798834401133, 34.2988441807281], [35.603049680275454, 13.483344310719916, 31.316335991099578], [23.73536645351697, 146.3905953735309, 422.02490883243667], [23.73536645351697, 83.78935393090245, 289.30329439396695], [3.955894408919495, 46.2286090653254, 165.5292045243834], [0.0, 18.298824421691318, 37.28135237035665], [3.955894408919495, 27.929784643634104, 128.24785215402687], [19.779472044597476, 37.560744865576886, 123.77408986958409], [11.867683226758485, 15.409536355108477, 25.35131961184252], [7.91178881783899, 22.151208510468425, 98.42277025774156], [0.0, 62.60124144262813, 132.72161443846966], [0.0, 13.964892321817056, 19.386303232585455], [0.0, 48.63634912081109, 113.33531120588422], [0.0, 26.485140610342683, 76.05395883552757], [0.0, 22.15120851046843, 37.28135237035664], [43.51483849811444, 54.8964732650739, 372.8135237035659], [23.73536645351697, 14.446440332914195, 105.87904073181288], [15.82357763567798, 4.333932099874259, 67.10643426664195], [7.91178881783899, 10.112508233039938, 38.77260646517092], [19.779472044597476, 40.45003293215972, 266.93448297175314], [0.0, 13.483344310719916, 125.26534396439835], [0.0, 3.8523840887771192, 70.0889424562705], [0.0, 9.630960221942798, 55.17640150812784], [19.779472044597476, 26.966688621439822, 141.6691390073552], [11.867683226758485, 9.630960221942798, 46.22887693924225], [7.91178881783899, 17.33572839949704, 95.44026206811303], [0.0, 8.18631618865138, 53.68514741331357], [7.91178881783899, 9.149412210845659, 41.75511465479945], [1269.8421052631547, 1376.2642157156533, 1983.3679461029576], [751.6199376947037, 648.1636229367493, 700.8894245627062], [336.25102475815714, 251.8496098038054, 204.30181098955413], [130.5445154943433, 157.94774763986246, 104.38778663699863], [94.94146581406788, 54.89647326507391, 44.73762284442798], [19.779472044597476, 32.74526475460549, 23.86006551702825], [75.1619937694704, 22.15120851046843, 20.877557327399714], [35.603049680275454, 103.05127437478808, 59.65016379257064], [0.0, 39.96848492106258, 20.877557327399717], [35.603049680275454, 63.08278945372527, 38.77260646517091], [7.91178881783899, 38.042292876674026, 16.403795042956922], [27.691260862436465, 25.040496577051265, 22.368811422213987], [205.70650926381376, 93.90186216394234, 99.91402435255583], [79.1178881783899, 19.26192044388559, 20.87755732739972], [126.58862108542384, 74.63994172005667, 79.0364670251561], [122.63272667650436, 56.82266530946246, 61.1414178873849], [55.38252172487294, 42.37622497654828, 40.263860559985176], [31.64715527135596, 26.966688621439822, 14.912540948142656], [23.73536645351697, 15.409536355108475, 25.351319611842513], [67.25020495163142, 14.446440332914197, 20.87755732739972], [3.955894408919495, 17.81727641059417, 17.89504913777119], [415.3689129365473, 396.31401313294583, 496.5876135731499], [94.94146581406788, 149.27988344011396, 210.2668273688111], [3.955894408919495, 60.67504939823957, 77.54521293034183], [3.955894408919495, 30.337524699119793, 26.842573706656786], [0.0, 30.337524699119797, 50.70263922368504], [0.0, 11.557152266331356, 31.316335991099578], [0.0, 18.780372432788447, 19.38630323258545], [90.98557140514838, 88.60483404187383, 132.72161443846966], [67.25020495163143, 30.337524699119797, 40.26386055998518], [19.779472044597476, 16.854180388399893, 25.351319611842513], [47.47073290703394, 13.483344310719918, 14.912540948142654], [23.73536645351697, 58.267309342753876, 92.4577538784845], [19.779472044597476, 32.7452647546055, 43.24636874961371], [7.91178881783899, 15.409536355108475, 28.333827801471045], [11.867683226758485, 17.33572839949703, 14.912540948142656], [3.955894408919495, 25.522044588148397, 49.21138512887077], [320.42744712247924, 247.03412969283397, 286.3207862043387], [142.41219872110182, 81.86316188651381, 65.6151801718277], [90.98557140514839, 39.968484921062576, 25.351319611842516], [39.55894408919495, 21.18811248827415, 17.895049137771185], [51.42662731595343, 18.78037243278845, 7.456270474071327], [51.42662731595343, 41.894676965451154, 40.26386055998517], [19.779472044597476, 28.89288066582838, 23.860065517028247], [31.64715527135596, 13.001796299622775, 16.403795042956922], [178.01524840137728, 165.17096780631962, 220.70560603251107], [51.42662731595344, 83.30780591980528, 116.31781939551276], [47.47073290703394, 71.75065365347383, 68.59768836145624], [35.603049680275454, 54.41492525397676, 26.84257370665678], [11.867683226758485, 17.335728399497036, 41.755114654799435], [3.955894408919495, 11.557152266331357, 47.7201310340565], [126.58862108542384, 81.86316188651384, 104.38778663699861], [47.47073290703395, 35.1530048100912, 70.0889424562705], [15.82357763567798, 22.15120851046843, 34.29884418072811], [31.64715527135596, 13.001796299622775, 35.79009827554238], [79.1178881783899, 46.71015707642254, 34.29884418072812], [63.29431054271192, 24.558948565954122, 13.421286853328388], [15.82357763567798, 22.151208510468432, 20.877557327399717], [518.2221675684542, 728.1005927788768, 1282.478521540268], [458.883751434662, 715.0987964792528, 1279.4960133506388], [458.8837514346619, 636.606470670419, 1210.8983249891837], [71.20609936055094, 194.06384847214827, 357.90098275542306], [59.338416133792435, 149.27988344011385, 225.1793683169537], [55.382521724872944, 109.79294653014809, 192.37177823103997], [47.47073290703394, 67.89826956469668, 101.4052784473701], [7.91178881783899, 41.89467696545114, 90.96649978367023], [3.955894408919495, 39.48693690996544, 32.807590085913844], [0.0, 18.78037243278845, 20.87755732739972], [3.955894408919495, 20.70656447717701, 11.930032758514123], [11.867683226758485, 44.78396503203398, 132.72161443846963], [0.0, 15.891084366205616, 67.10643426664197], [11.867683226758485, 28.89288066582838, 65.6151801718277], [11.867683226758485, 16.854180388399897, 20.87755732739972], [0.0, 12.0387002774285, 44.737622844427975], [387.6776520741108, 442.5426221982706, 852.9973422337622], [43.51483849811445, 15.891084366205614, 25.35131961184252], [344.1628135759962, 426.651537832065, 827.6460226219197], [87.0296769962289, 205.62100073847972, 368.33976141912336], [39.55894408919495, 168.06025587290236, 277.373261635453], [47.47073290703394, 37.560744865576886, 90.96649978367022], [257.1331365797672, 221.03053709358832, 459.306261202793], [87.0296769962289, 43.8208690098397, 89.47524568885596], [170.10345958353832, 177.20966808374823, 369.8310155139372], [0.0, 78.4923258088338, 68.59768836145624], [0.0, 53.93337724287963, 59.65016379257063], [0.0, 31.30062072131408, 16.403795042956922], [0.0, 22.632756521565568, 43.2463687496137], [0.0, 24.558948565954125, 8.947524568885592], [59.338416133792435, 13.001796299622775, 2.982508189628531], [5846.811936382961, 1620.8906053530125, 1990.824216577029], [3338.7748811280317, 1381.5612438377227, 1811.8737251993196], [2749.346614199033, 1274.1760373630489, 1764.1535941652617], [1617.9608132480682, 738.2131010119151, 697.9069163730775], [0.0, 28.41133265473124, 0.0], [1617.9608132480676, 709.801768357184, 697.9069163730775], [854.47319232661, 426.6515378320649, 453.34124482353593], [447.0160682079034, 200.80552062750812, 143.1603931021694], [0.0, 21.66966049937129, 11.930032758514123], [447.0160682079033, 179.13586012813676, 131.2303603436554], [431.19249057222527, 153.13226752889096, 102.89653254218436], [209.66240367273326, 54.8964732650739, 22.368811422213987], [221.53008689949175, 98.23579426381666, 80.52772111997037], [15.82357763567798, 26.003592599245543, 28.333827801471042], [407.4571241187084, 225.8460172045598, 310.18085172136705], [3.955894408919495, 22.15120851046843, 17.895049137771185], [403.50122970978884, 203.6948086940912, 292.28580258359545], [269.00081980652584, 104.4959184080795, 165.52920452438343], [71.20609936055092, 34.67145679899405, 71.58019655108475], [197.79472044597478, 69.82446160908525, 93.94900797329875], [134.50040990326286, 99.19889028601098, 126.7565980592126], [102.85325463190688, 60.19350138714244, 62.63267198219917], [31.64715527135596, 39.005388898868304, 64.12392607701344], [763.4876209214625, 283.15023052511924, 244.56567154953913], [447.0160682079034, 207.54719278286814, 183.42425366215448], [63.294310542711926, 15.409536355108477, 4.473762284442796], [383.7217576651913, 192.13765642775957, 178.95049137771173], [185.92703721921632, 65.97207752030813, 71.58019655108475], [158.23577635677978, 48.6363491208111, 44.73762284442797], [27.691260862436465, 17.335728399497036, 26.842573706656776], [197.79472044597486, 126.16557890745094, 107.37029482662716], [7.91178881783899, 20.70656447717701, 22.36881142221398], [189.88293162813582, 105.45901443027383, 85.00148340441315], [316.47155271355973, 75.60303774225098, 61.141417887384904], [126.58862108542384, 14.446440332914191, 13.42128685332839], [189.8829316281358, 61.15659740933671, 47.720131034056514], [102.85325463190686, 49.11789713190823, 32.80759008591385], [43.51483849811446, 29.374428676925522, 22.368811422213987], [59.33841613379243, 19.743468454982732, 10.438778663699857], [87.0296769962289, 12.038700277428495, 14.912540948142656], [1131.3858009509736, 535.9629363511146, 1066.2466777922023], [454.92785702574236, 338.52825180128974, 705.3631868471491], [27.691260862436465, 80.90006586431954, 125.26534396439835], [27.691260862436465, 55.37802127617104, 117.80907349032702], [19.779472044597476, 16.372632377302757, 22.36881142221398], [7.91178881783899, 39.005388898868304, 95.44026206811303], [3.955894408919495, 12.038700277428495, 50.70263922368503], [3.955894408919495, 26.966688621439815, 44.73762284442798], [0.0, 25.522044588148404, 7.456270474071327], [427.23659616330576, 257.6281859369715, 580.0978428827494], [55.382521724872944, 12.038700277428495, 14.912540948142656], [371.8540744384328, 245.58948565954276, 565.1853019346066], [83.0737825873094, 98.7173422749138, 208.77557327399705], [55.38252172487293, 62.11969343153098, 98.42277025774156], [15.82357763567798, 43.8208690098397, 82.01897521478463], [39.55894408919495, 18.298824421691315, 16.40379504295692], [27.691260862436465, 36.59764884338261, 110.35280301625569], [3.955894408919495, 21.18811248827415, 68.59768836145624], [23.73536645351697, 15.409536355108475, 41.75511465479945], [288.7802918511232, 146.87214338462812, 356.409728660609], [245.26545335300872, 131.94415504061664, 340.0059336176521], [170.10345958353835, 82.82625790870807, 167.02045861919765], [75.16199376947041, 49.11789713190824, 172.98547499845475], [43.51483849811445, 14.927988344011336, 16.40379504295692], [676.4579439252335, 197.43468454982826, 360.8834909450518], [15.82357763567798, 26.485140610342683, 49.211385128870766], [660.6343662895557, 170.9495439394853, 311.67210581618116], [221.5300868994918, 67.41672155359954, 150.61666357624077], [170.10345958353832, 28.89288066582838, 62.63267198219917], [102.85325463190686, 13.964892321817054, 20.877557327399717], [67.25020495163142, 14.927988344011334, 41.755114654799435], [51.42662731595344, 38.523840887771165, 87.9839915940417], [47.47073290703395, 25.522044588148397, 50.70263922368503], 