{"classes": [0, 1, 2], "dtrees": [{"children_left": [1, 2, 3, 4, 5, 6, -1, -1, 9, 10, 11, 12, 13, -1, -1, 16, -1, -1, 19, -1, -1, 22, 23, 24, -1, -1, -1, 28, 29, -1, -1, 32, -1, -1, 35, 36, 37, -1, -1, -1, -1, 42, -1, 44, 45, -1, 47, -1, -1, -1, 51, 52, 53, 54, -1, 56, -1, -1, 59, -1, 61, -1, -1, 64, 65, 66, 67, 68, -1, -1, 71, -1, -1, -1, -1, 76, 77, 78, 79, -1, -1, -1, 83, 84, -1, -1, 87, -1, -1, -1, 91, 92, 93, -1, -1, -1, -1, 98, 99, 100, 101, 102, 103, -1, -1, 106, 107, 108, -1, -1, -1, 112, 113, -1, -1, -1, 117, 118, 119, -1, -1, 122, -1, 124, -1, -1, -1, 128, -1, 130, 131, -1, 133, 134, -1, -1, -1, 138, 139, -1, -1, -1, 143, 144, 145, 146, 147, 148, -1, -1, 151, -1, -1, -1, 155, 156, 157, -1, -1, 160, -1, -1, 163, -1, 165, -1, -1, 168, 169, -1, -1, 172, 173, -1, -1, -1, 177, 178, -1, 180, 181, 182, -1, -1, 185, -1, -1, -1, 189, 190, 191, -1, -1, 194, -1, -1, 197, -1, 199, 200, -1, -1, -1, 204, 205, 206, -1, 208, -1, 210, 211, 212, -1, -1, -1, 216, -1, 218, -1, -1, 221, 222, 223, 224, 225, -1, -1, -1, 229, 230, -1, -1, 233, -1, -1, 236, 237, 238, -1, -1, 241, -1, -1, 244, -1, -1, 247, 248, 249, -1, -1, -1, 253, -1, -1, -1, 257, 258, 259, 260, 261, -1, 263, 264, 265, -1, 267, -1, -1, 270, -1, 272, -1, -1, 275, 276, -1, -1, -1, 280, 281, -1, 283, -1, -1, 286, 287, 288, 289, -1, -1, -1, 293, 294, -1, -1, 297, -1, -1, 300, 301, -1, -1, 304, 305, -1, -1, -1, 309, 310, -1, 312, 313, -1, 315, 316, -1, -1, 319, -1, -1, 322, 323, -1, 325, -1, -1, -1, 329, 330, -1, 332, 333, -1, 335, -1, -1, -1, 339, 340, -1, 342, -1, -1, 345, -1, 347, 348, -1, -1, -1, 352, 353, 354, -1, -1, -1, 358, 359, -1, -1, -1, 363, 364, 365, 366, 367, -1, -1, 370, 371, -1, -1, -1, 375, -1, -1, 378, 379, 380, -1, -1, -1, 384, -1, 386, -1, -1, 389, 390, -1, 392, -1, -1, 395, -1, 397, -1, -1], "children_right": [256, 97, 50, 41, 8, 7, -1, -1, 34, 21, 18, 15, 14, -1, -1, 17, -1, -1, 20, -1, -1, 27, 26, 25, -1, -1, -1, 31, 30, -1, -1, 33, -1, -1, 40, 39, 38, -1, -1, -1, -1, 43, -1, 49, 46, -1, 48, -1, -1, -1, 90, 63, 58, 55, -1, 57, -1, -1, 60, -1, 62, -1, -1, 75, 74, 73, 70, 69, -1, -1, 72, -1, -1, -1, -1, 89, 82, 81, 80, -1, -1, -1, 86, 85, -1, -1, 88, -1, -1, -1, 96, 95, 94, -1, -1, -1, -1, 203, 142, 127, 116, 105, 104, -1, -1, 111, 110, 109, -1, -1, -1, 115, 114, -1, -1, -1, 126, 121, 120, -1, -1, 123, -1, 125, -1, -1, -1, 129, -1, 137, 132, -1, 136, 135, -1, -1, -1, 141, 140, -1, -1, -1, 176, 167, 154, 153, 150, 149, -1, -1, 152, -1, -1, -1, 162, 159, 158, -1, -1, 161, -1, -1, 164, -1, 166, -1, -1, 171, 170, -1, -1, 175, 174, -1, -1, -1, 188, 179, -1, 187, 184, 183, -1, -1, 186, -1, -1, -1, 196, 193, 192, -1, -1, 195, -1, -1, 198, -1, 202, 201, -1, -1, -1, 255, 220, 207, -1, 209, -1, 215, 214, 213, -1, -1, -1, 217, -1, 219, -1, -1, 246, 235, 228, 227, 226, -1, -1, -1, 232, 231, -1, -1, 234, -1, -1, 243, 240, 239, -1, -1, 242, -1, -1, 245, -1, -1, 252, 251, 250, -1, -1, -1, 254, -1, -1, -1, 362, 351, 308, 279, 262, -1, 274, 269, 266, -1, 268, -1, -1, 271, -1, 273, -1, -1, 278, 277, -1, -1, -1, 285, 282, -1, 284, -1, -1, 299, 292, 291, 290, -1, -1, -1, 296, 295, -1, -1, 298, -1, -1, 303, 302, -1, -1, 307, 306, -1, -1, -1, 328, 311, -1, 321, 314, -1, 318, 317, -1, -1, 320, -1, -1, 327, 324, -1, 326, -1, -1, -1, 338, 331, -1, 337, 334, -1, 336, -1, -1, -1, 344, 341, -1, 343, -1, -1, 346, -1, 350, 349, -1, -1, -1, 357, 356, 355, -1, -1, -1, 361, 360, -1, -1, -1, 388, 377, 374, 369, 368, -1, -1, 373, 372, -1, -1, -1, 376, -1, -1, 383, 382, 381, -1, -1, -1, 385, -1, 387, -1, -1, 394, 391, -1, 393, -1, -1, 396, -1, 398, -1, -1], "threshold": [0.3687025010585785, 0.21259750425815582, 0.13637050241231918, 4.999999987376214e-07, 0.062126001343131065, 0.06081249937415123, -2.0, -2.0, 0.13089650124311447, 0.07667100057005882, 0.07438850030303001, 0.07094549760222435, 0.06839149817824364, -2.0, -2.0, 0.07322400063276291, -2.0, -2.0, 0.07539800181984901, -2.0, -2.0, 0.09615850076079369, 0.08922050148248672, 0.08737599849700928, -2.0, -2.0, -2.0, 0.09838049858808517, 0.09755399823188782, -2.0, -2.0, 0.10529999807476997, -2.0, -2.0, 0.13431400060653687, 0.13356699794530869, 0.13228650391101837, -2.0, -2.0, -2.0, -2.0, 0.08993550017476082, -2.0, 0.1281530037522316, 0.10553149878978729, -2.0, 0.1201465018093586, -2.0, -2.0, -2.0, 0.011474499944597483, 0.14361150562763214, 0.1400810033082962, 0.13778749853372574, -2.0, 0.1387775018811226, -2.0, -2.0, 0.1410445049405098, -2.0, 0.14246149361133575, -2.0, -2.0, 0.17813150584697723, 2.500000027794158e-05, 0.17676450312137604, 0.1716884970664978, 0.1698939949274063, -2.0, -2.0, 0.17506500333547592, -2.0, -2.0, -2.0, -2.0, 0.0013630000175908208, 0.18736249953508377, 0.18528450280427933, 0.18429650366306305, -2.0, -2.0, -2.0, 0.19157349318265915, 0.18935750424861908, -2.0, -2.0, 0.19304300099611282, -2.0, -2.0, -2.0, 0.19313950091600418, 0.17660249769687653, 0.06865650042891502, -2.0, -2.0, -2.0, -2.0, 4.999999987376214e-07, 0.3541560024023056, 0.3207410126924515, 0.2563214898109436, 0.21860499680042267, 0.21560800075531006, -2.0, -2.0, 0.2472424954175949, 0.24405450373888016, 0.24131549894809723, -2.0, -2.0, -2.0, 0.2540290057659149, 0.25127750635147095, -2.0, -2.0, -2.0, 0.316276490688324, 0.2626975029706955, 0.25897350907325745, -2.0, -2.0, 0.2655709981918335, -2.0, 0.2787505090236664, -2.0, -2.0, -2.0, 0.32370351254940033, -2.0, 0.3416775017976761, 0.3292119950056076, -2.0, 0.3373675048351288, 0.331680491566658, -2.0, -2.0, -2.0, 0.34961050748825073, 0.3450320065021515, -2.0, -2.0, -2.0, 0.5310019850730896, 0.4697044938802719, 0.3995579928159714, 0.39511850476264954, 0.37366800010204315, 0.3648715019226074, -2.0, -2.0, 0.38523849844932556, -2.0, -2.0, -2.0, 0.4452195018529892, 0.41963300108909607, 0.4091545045375824, -2.0, -2.0, 0.43202200531959534, -2.0, -2.0, 0.45145750045776367, -2.0, 0.4620419889688492, -2.0, -2.0, 0.49089398980140686, 0.4811740070581436, -2.0, -2.0, 0.518858015537262, 0.5004875063896179, -2.0, -2.0, -2.0, 0.6285015046596527, 0.5412890017032623, -2.0, 0.6134874820709229, 0.5837930142879486, 0.560756504535675, -2.0, -2.0, 0.596050500869751, -2.0, -2.0, -2.0, 0.7546910047531128, 0.6935455203056335, 0.6763969957828522, -2.0, -2.0, 0.7152405083179474, -2.0, -2.0, 0.8011009991168976, -2.0, 1.0009270310401917, 0.8812375068664551, -2.0, -2.0, -2.0, 1.5996739864349365, 0.26445651054382324, 1.1500000255182385e-05, -2.0, 0.22162500023841858, -2.0, 0.2436394989490509, 0.027304500341415405, 0.23245500028133392, -2.0, -2.0, -2.0, 0.2498839944601059, -2.0, 0.2582235038280487, -2.0, -2.0, 0.8765349984169006, 0.39940600097179413, 0.35777799785137177, 0.34679050743579865, 7.999999797903001e-05, -2.0, -2.0, -2.0, 0.37592199444770813, 0.0508200004696846, -2.0, -2.0, 0.0007010000117588788, -2.0, -2.0, 0.7902545034885406, 0.4689069986343384, 0.14265049993991852, -2.0, -2.0, 0.6291659772396088, -2.0, -2.0, 0.8305845260620117, -2.0, -2.0, 1.0816199779510498, 1.0026935338974, 0.006500000134110451, -2.0, -2.0, -2.0, 1.2571940422058105, -2.0, -2.0, -2.0, 9.015937328338623, 0.9771294891834259, 0.40131449699401855, 0.22512150555849075, 0.5246835052967072, -2.0, 0.1897919997572899, 0.1425665020942688, 0.08638500049710274, -2.0, 2.414559006690979, -2.0, -2.0, 1.5365794897079468, -2.0, 0.17088500410318375, -2.0, -2.0, 1.861977994441986, 1.1145824790000916, -2.0, -2.0, -2.0, 0.5697154998779297, 0.41592399775981903, -2.0, 0.3158619999885559, -2.0, -2.0, 3.858482003211975, 0.3027694970369339, 0.2859265059232712, 0.2638299912214279, -2.0, -2.0, -2.0, 0.33474449813365936, 0.3126865029335022, -2.0, -2.0, 0.3495450019836426, -2.0, -2.0, 0.2800074964761734, 0.24896449595689774, -2.0, -2.0, 6.69995903968811, 5.088577508926392, -2.0, -2.0, -2.0, 2.784177541732788, 0.41334499418735504, -2.0, 0.9870180189609528, 0.4772364944219589, -2.0, 0.7274969816207886, 0.6646499931812286, -2.0, -2.0, 0.825826495885849, -2.0, -2.0, 2.4318184852600098, 0.46060849726200104, -2.0, 1.5178405046463013, -2.0, -2.0, -2.0, 0.5710304975509644, 3.114261031150818, -2.0, 0.5423359870910645, 3.614165425300598, -2.0, 0.4995969980955124, -2.0, -2.0, -2.0, 0.6933494806289673, 3.8187124729156494, -2.0, 6.253710031509399, -2.0, -2.0, 0.7396154999732971, -2.0, 0.901526004076004, 0.7988735139369965, -2.0, -2.0, -2.0, 2.4312444925308228, 1.6222774982452393, 0.9102680087089539, -2.0, -2.0, -2.0, 6.670790910720825, 4.590833425521851, -2.0, -2.0, -2.0, 23.67380714416504, 0.507330983877182, 17.002443313598633, 10.404019832611084, 0.3237224966287613, -2.0, -2.0, 13.740396976470947, 11.47027063369751, -2.0, -2.0, -2.0, 0.3698570132255554, -2.0, -2.0, 13.192302703857422, 0.8822945058345795, 11.06484603881836, -2.0, -2.0, -2.0, 0.715038001537323, -2.0, 0.9139010012149811, -2.0, -2.0, 39.31907844543457, 0.4561839997768402, -2.0, 0.8041979968547821, -2.0, -2.0, 50.44776916503906, -2.0, 69.78850173950195, -2.0, -2.0], "feature": [0, 1, 1, 0, 1, 1, -2, -2, 1, 1, 1, 1, 1, -2, -2, 1, -2, -2, 1, -2, -2, 1, 1, 1, -2, -2, -2, 1, 1, -2, -2, 1, -2, -2, 1, 1, 1, -2, -2, -2, -2, 1, -2, 1, 1, -2, 1, -2, -2, -2, 0, 1, 1, 1, -2, 1, -2, -2, 1, -2, 1, -2, -2, 1, 0, 1, 1, 1, -2, -2, 1, -2, -2, -2, -2, 0, 1, 1, 1, -2, -2, -2, 1, 1, -2, -2, 1, -2, -2, -2, 1, 1, 0, -2, -2, -2, -2, 0, 1, 1, 1, 1, 1, -2, -2, 1, 1, 1, -2, -2, -2, 1, 1, -2, -2, -2, 1, 1, 1, -2, -2, 1, -2, 1, -2, -2, -2, 1, -2, 1, 1, -2, 1, 1, -2, -2, -2, 1, 1, -2, -2, -2, 1, 1, 1, 1, 1, 1, -2, -2, 1, -2, -2, -2, 1, 1, 1, -2, -2, 1, -2, -2, 1, -2, 1, -2, -2, 1, 1, -2, -2, 1, 1, -2, -2, -2, 1, 1, -2, 1, 1, 1, -2, -2, 1, -2, -2, -2, 1, 1, 1, -2, -2, 1, -2, -2, 1, -2, 1, 1, -2, -2, -2, 1, 1, 0, -2, 1, -2, 1, 0, 1, -2, -2, -2, 1, -2, 1, -2, -2, 1, 1, 1, 1, 0, -2, -2, -2, 1, 0, -2, -2, 0, -2, -2, 1, 1, 0, -2, -2, 1, -2, -2, 1, -2, -2, 1, 1, 0, -2, -2, -2, 1, -2, -2, -2, 0, 1, 1, 1, 0, -2, 1, 1, 1, -2, 0, -2, -2, 0, -2, 1, -2, -2, 0, 0, -2, -2, -2, 0, 0, -2, 1, -2, -2, 0, 1, 1, 1, -2, -2, -2, 1, 1, -2, -2, 1, -2, -2, 1, 1, -2, -2, 0, 0, -2, -2, -2, 0, 1, -2, 0, 0, -2, 0, 0, -2, -2, 0, -2, -2, 0, 1, -2, 0, -2, -2, -2, 1, 0, -2, 1, 0, -2, 1, -2, -2, -2, 1, 0, -2, 0, -2, -2, 1, -2, 1, 1, -2, -2, -2, 0, 1, 0, -2, -2, -2, 0, 0, -2, -2, -2, 0, 1, 0, 0, 1, -2, -2, 0, 0, -2, -2, -2, 1, -2, -2, 0, 1, 0, -2, -2, -2, 1, -2, 1, -2, -2, 0, 1, -2, 1, -2, -2, 0, -2, 0, -2, -2], "classes": [0, 1, 2], "value": [[8302.755644090132, 7992.856989053397, 8064.551980657987], [2412.8007968127554, 6541.051976792231, 6099.592585704348], [460.15272244355884, 3645.1310883824226, 741.1557869939867], [148.04913678618857, 2219.2769105010984, 216.66852643977415], [88.02921646746348, 2063.0913332137898, 156.89789845638813], [0.0, 408.0047849751749, 1.4942656995846506], [0.0, 380.61223757401484, 0.0], [0.0, 27.392547401160353, 1.4942656995846506], [88.02921646746348, 1655.0865482385898, 155.4036327568035], [72.02390438247012, 1536.3855095002195, 135.97817866220308], [20.0066401062417, 267.6780509201098, 34.368111090446966], [0.0, 221.06266323743367, 28.391048292108362], [0.0, 163.87471339992376, 26.89678259252371], [0.0, 120.14275175947509, 10.459859897092555], [0.0, 43.731961640449015, 16.436922695431154], [0.0, 57.18794983751028, 1.4942656995846506], [0.0, 32.67882847857727, 0.0], [0.0, 24.50912135893296, 1.4942656995846506], [20.0066401062417, 46.61538768267644, 5.977062798338602], [16.00531208499336, 23.067408337819256, 2.988531399169301], [4.00132802124834, 23.54797934485715, 2.988531399169301], [52.017264276228424, 1268.7074585800904, 101.61006757175619], [4.00132802124834, 451.2561756085856, 16.436922695431157], [4.00132802124834, 282.57575213828443, 16.436922695431157], [4.00132802124834, 235.96036445560844, 7.471328497923253], [0.0, 46.61538768267641, 8.965594197507905], [0.0, 168.68042347030274, 0.0], [48.01593625498008, 817.4512829714771, 85.17314487632505], [8.00265604249668, 53.823952788244966, 16.436922695431157], [4.00132802124834, 32.67882847857727, 7.471328497923253], [4.00132802124834, 21.145124309667647, 8.965594197507905], [40.0132802124834, 763.6273301832302, 68.73622218089393], [12.003984063745019, 182.6169826744018, 25.40251689293906], [28.009296148738382, 581.0103475088205, 43.333705287954885], [16.00531208499336, 118.70103873836149, 19.42545409460046], [16.00531208499336, 70.16336702753358, 17.93118839501581], [4.00132802124834, 50.94052674601755, 11.954125596677205], [4.00132802124834, 24.02855035189505, 5.977062798338602], [0.0, 26.91197639412245, 5.977062798338602], [12.003984063745019, 19.22284028151604, 5.977062798338602], [0.0, 48.53767171082802, 1.4942656995846506], [60.0199203187251, 156.1855772873173, 59.77062798338604], [0.0, 73.52736407679885, 0.0], [60.019920318725106, 82.65821321051891, 59.77062798338605], [56.018592297476765, 57.18794983751027, 55.28783088463209], [32.01062416998672, 20.183982295591843, 13.448391296261855], [24.007968127490038, 37.0039675419184, 41.83943958837023], [4.00132802124834, 23.547979344857154, 20.91971979418511], [20.006640106241697, 13.455988197061224, 20.91971979418511], [4.00132802124834, 25.47026337300876, 4.482797098753952], [312.1035856573705, 1425.8541778814943, 524.4872605542131], [192.06374501992022, 1328.2982634527934, 475.1764924679194], [64.02124833997344, 140.32673405506677, 59.77062798338604], [20.0066401062417, 74.96907709791259, 35.86237679003162], [20.0066401062417, 25.950834380046658, 13.448391296261855], [0.0, 49.01824271786593, 22.41398549376976], [0.0, 23.06740833781924, 19.425454094600457], [0.0, 25.950834380046654, 2.988531399169301], [44.014608233731735, 65.35765695715457, 23.90825119335441], [24.00796812749004, 17.300556253364437, 8.965594197507905], [20.006640106241697, 48.05710070379012, 14.942656995846505], [4.00132802124834, 25.950834380046658, 2.988531399169301], [16.00531208499336, 22.106266323743444, 11.954125596677205], [128.04249667994688, 1187.9715293977185, 415.4058644845331], [84.02788844621514, 631.4703032478021, 150.92083565804958], [60.019920318725106, 597.3497617481099, 130.00111586386456], [52.017264276228424, 579.5686344877066, 125.51831876511062], [52.017264276228424, 500.2744183264507, 112.06992746884877], [48.01593625498008, 482.9738620730865, 101.61006757175626], [4.00132802124834, 17.30055625336443, 10.459859897092555], [0.0, 79.29421616125371, 13.448391296261853], [0.0, 55.26566580935868, 7.471328497923253], [0.0, 24.028550351895042, 5.977062798338602], [8.00265604249668, 17.781127260402336, 4.482797098753952], [24.00796812749004, 34.12054149969099, 20.91971979418511], [44.01460823373174, 556.5012261498864, 264.4850288264828], [44.01460823373174, 527.6669657276118, 264.4850288264828], [12.003984063745019, 142.2490180832184, 107.58713037009484], [12.003984063745019, 118.70103873836142, 70.23048788047859], [4.00132802124834, 93.23077536535277, 68.73622218089395], [8.00265604249668, 25.47026337300876, 1.4942656995846506], [0.0, 23.54797934485715, 37.35664248961627], [32.01062416998672, 385.417947644394, 156.8978984563881], [8.00265604249668, 61.032517893813484, 4.482797098753952], [8.00265604249668, 29.31483142931196, 4.482797098753952], [0.0, 31.717686464501476, 0.0], [24.007968127490038, 324.38542975058124, 152.4151013576342], [8.00265604249668, 22.106266323743444, 22.413985493769758], [16.00531208499336, 302.2791634268381, 130.00111586386456], [0.0, 28.834260422274063, 0.0], [120.03984063745021, 97.55591442869382, 49.310768086293486], [108.03585657370519, 66.79936997826829, 34.36811109044697], [52.01726427622842, 41.32910660525949, 28.391048292108366], [16.00531208499336, 22.58683733078135, 17.93118839501581], [36.01195219123506, 18.742269274478144, 10.459859897092555], [56.018592297476765, 25.47026337300876, 5.977062798338602], [12.003984063745019, 30.756544450425668, 14.942656995846505], [1952.648074369195, 2895.9208884103873, 5358.436798710421], [492.16334661354574, 1504.667823035712, 3235.0852396007563], [212.0703851261619, 959.7003010546995, 1264.1487818486166], [88.02921646746348, 797.7478716829213, 989.2038931250372], [56.018592297476765, 422.4219151863117, 434.83131857913367], [4.00132802124834, 67.76051199234409, 43.33370528795487], [0.0, 28.83426042227407, 31.379579691277666], [4.00132802124834, 38.926251570069994, 11.954125596677205], [52.017264276228424, 354.6614031939685, 391.49761329117877], [44.01460823373174, 274.88661602567794, 331.7269853077924], [44.01460823373174, 252.29977869489684, 283.9104829210834], [36.01195219123506, 222.98494726558513, 270.4620916248215], [8.00265604249668, 29.314831429311962, 13.448391296261855], [0.0, 22.586837330781343, 47.81650238670882], [8.00265604249668, 79.77478716829161, 59.770627983386035], [8.00265604249668, 52.38223976713127, 44.82797098753953], [0.0, 35.08168351376679, 25.402516892939065], [8.00265604249668, 17.300556253364437, 19.425454094600457], [0.0, 27.39254740116035, 14.942656995846505], [32.01062416998672, 375.3259564965981, 554.3725745459061], [28.00929614873838, 360.90882628546126, 517.0159320562901], [0.0, 39.887393584145805, 77.70181637840184], [0.0, 19.222840281516035, 26.896782592523714], [0.0, 20.66455330262974, 50.80503378587813], [28.00929614873838, 321.021432701316, 439.3141156778879], [0.0, 21.14512430966765, 10.459859897092555], [28.00929614873838, 299.87630839164865, 428.85425578079526], [8.00265604249668, 80.73592918236736, 141.95524146054166], [20.006640106241697, 219.1403792092821, 286.8990143202527], [4.00132802124834, 14.417130211137026, 37.35664248961628], [124.04116865869855, 161.95242937177227, 274.94488872357545], [44.014608233731735, 13.455988197061227, 25.40251689293906], [80.0265604249668, 148.49644117471115, 249.5423718306363], [28.00929614873838, 86.02221025978427, 155.40363275680355], [8.00265604249668, 31.237115457463567, 32.873845390862314], [20.0066401062417, 54.78509480232078, 122.5297873659413], [16.00531208499336, 35.56225452080469, 70.23048788047858], [4.00132802124834, 12.014275175947523, 34.368111090446966], [12.003984063745019, 23.547979344857154, 35.862376790031625], [4.00132802124834, 19.222840281516042, 52.29929948546278], [52.01726427622842, 62.4742309149272, 94.13873907383297], [52.01726427622842, 32.67882847857727, 55.28783088463209], [28.00929614873838, 20.18398229559184, 26.896782592523714], [24.007968127490038, 12.494846182985425, 28.391048292108366], [0.0, 29.795402436349853, 38.85090818920092], [280.0929614873837, 544.9675219809768, 1970.9364577521644], [236.07835325365198, 360.90882628546115, 1199.8953567664769], [136.04515272244356, 266.7169089060337, 963.8013762320995], [72.02390438247012, 140.80730506210472, 397.4746760895174], [44.01460823373174, 128.3124588791194, 375.06069059574736], [40.0132802124834, 66.79936997826827, 189.7717438472504], [16.00531208499336, 35.081683513766784, 113.56419316843342], [24.007968127490038, 31.71768646450148, 76.2075506788172], [4.00132802124834, 61.513088900851386, 185.28894674849647], [0.0, 34.12054149969097, 85.17314487632508], [4.00132802124834, 27.39254740116035, 100.11580187217159], [28.00929614873838, 12.494846182985427, 22.41398549376976], [64.02124833997344, 125.90960384392993, 566.3267001425833], [12.003984063745019, 80.73592918236736, 361.6122992994856], [12.003984063745019, 34.12054149969098, 144.94377285971098], [0.0, 16.81998524632653, 65.74769078172464], [12.003984063745019, 17.300556253364437, 79.19608207798647], [0.0, 46.61538768267643, 216.66852643977404], [0.0, 24.989692365970853, 98.62153617258693], [0.0, 21.625695316705542, 118.04699026718735], [52.01726427622842, 45.17367466156271, 204.71440084309702], [32.01062416998672, 10.572562154833824, 40.345173888785574], [20.0066401062417, 34.601112506728875, 164.3692269543115], [20.0066401062417, 19.222840281516042, 80.69034777757112], [0.0, 15.378272225212829, 83.67887917674041], [100.03320053120851, 94.19191737942855, 236.0939805343745], [68.02257636122178, 39.887393584145805, 79.19608207798649], [20.006640106241697, 22.58683733078135, 47.81650238670884], [48.015936254980076, 17.300556253364434, 31.379579691277666], [32.01062416998672, 54.304523795282854, 156.89789845638822], [24.007968127490038, 38.92625157006999, 137.4724443617878], [12.003984063745019, 19.222840281516035, 49.310768086293486], [12.003984063745019, 19.703411288553944, 88.16167627549436], [8.00265604249668, 15.37827222521283, 19.425454094600457], [44.014608233731735, 184.0586956955154, 771.0411009856797], [4.00132802124834, 104.76447953426232, 280.92195152191397], [4.00132802124834, 15.858843232250731, 64.25342508213998], [0.0, 88.90563630201169, 216.66852643977404], [0.0, 68.72165400641988, 180.8061496497425], [0.0, 41.80967761229741, 89.655941975079], [0.0, 21.625695316705546, 56.782096584216745], [0.0, 20.183982295591843, 32.873845390862314], [0.0, 26.911976394122462, 91.15020767466368], [0.0, 9.611420140758023, 44.82797098753954], [0.0, 17.300556253364434, 46.32223668712418], [0.0, 20.18398229559184, 35.86237679003162], [40.013280212483394, 79.29421616125369, 490.11914946376623], [12.003984063745019, 36.042825527842595, 309.31299981402265], [12.003984063745019, 20.183982295591846, 134.48391296261852], [4.00132802124834, 10.572562154833822, 83.67887917674044], [8.00265604249668, 9.611420140758018, 50.80503378587813], [0.0, 15.858843232250731, 174.829086851404], [0.0, 6.247423091492713, 104.59859897092551], [0.0, 9.61142014075802, 70.23048788047859], [28.00929614873838, 43.25139063341113, 180.80614964974254], [24.007968127490038, 10.572562154833824, 43.333705287954885], [4.00132802124834, 32.678828478577266, 137.47244436178778], [0.0, 18.742269274478137, 97.12727047300226], [0.0, 12.494846182985425, 38.85090818920092], [0.0, 6.247423091492715, 58.27636228380139], [4.00132802124834, 13.936559204099128, 40.34517388878557], [1460.484727755647, 1391.2530653747658, 2123.351559109797], [1372.455511288183, 1377.7970771777027, 2121.8572934102135], [336.1115537848604, 197.51468389257664, 204.71440084309694], [20.0066401062417, 43.251390633411106, 7.471328497923253], [316.1049136786187, 154.26329325916583, 197.2430723451737], [96.03187250996017, 24.509121358932955, 31.379579691277662], [220.07304116865865, 129.75417190023302, 165.86349265389615], [56.01859229747676, 67.27994098530621, 74.71328497923254], [12.003984063745019, 44.21253264748691, 34.368111090446966], [4.00132802124834, 24.028550351895046, 20.919719794185106], [8.00265604249668, 20.183982295591843, 13.448391296261855], [44.014608233731735, 23.067408337819256, 40.345173888785574], [164.0544488711819, 62.47423091492718, 91.15020767466366], [72.02390438247012, 18.74226927447814, 13.448391296261853], [92.03054448871183, 43.73196164044901, 77.70181637840184], [16.00531208499336, 16.339414239288637, 38.850908189200915], [76.02523240371846, 27.392547401160368, 38.85090818920093], [1036.3439575033212, 1180.2823932851138, 1917.1428925671182], [1008.334661354583, 1059.178499511553, 1839.4410761887136], [516.1713147410356, 437.3196164044867, 682.8794247101863], [296.0982735723771, 320.5408616942779, 469.19942966958075], [288.09561752988037, 296.03174033534526, 416.90013018411764], [40.0132802124834, 65.35765695715457, 121.0355216663567], [248.08233731739696, 230.6740833781914, 295.8646085177607], [8.00265604249668, 24.509121358932955, 52.29929948546279], [220.0730411686586, 116.77875471020968, 213.6799950406048], [120.03984063745021, 58.149091851586086, 70.23048788047858], [108.03585657370519, 41.32910660525951, 52.29929948546278], [12.003984063745019, 16.81998524632653, 17.93118839501581], [100.03320053120851, 58.629662858623995, 143.44950716012642], [8.00265604249668, 21.625695316705546, 59.77062798338605], [92.03054448871183, 37.0039675419184, 83.67887917674041], [492.16334661354557, 621.8588831070442, 1156.5616514785202], [396.1314741035855, 576.2046374384421, 1077.3655694005347], [48.01593625498008, 147.53529916063525, 297.3588742173454], [24.00796812749004, 133.11816894949834, 248.04810613105155], [24.00796812749004, 14.417130211137028, 49.31076808629348], [348.1155378486054, 428.66933827780457, 780.0066951831884], [224.07436918990695, 304.6820184620276, 437.819849978303], [124.04116865869855, 123.98731981577824, 342.18684520488506], [96.03187250996017, 45.65424566860061, 79.19608207798649], [60.0199203187251, 27.39254740116036, 28.39104829210836], [36.01195219123506, 18.261698267440238, 50.80503378587814], [28.009296148738382, 121.10389377355088, 77.70181637840182], [28.00929614873838, 68.72165400641991, 55.28783088463209], [4.00132802124834, 41.809677612297406, 40.34517388878557], [4.00132802124834, 23.547979344857144, 19.425454094600457], [0.0, 18.261698267440238, 20.91971979418511], [24.00796812749004, 26.91197639412246, 14.942656995846505], [0.0, 52.38223976713126, 22.41398549376976], [0.0, 27.392547401160364, 14.942656995846505], [0.0, 24.989692365970857, 7.471328497923253], [88.02921646746348, 13.455988197061227, 1.4942656995846506], [5889.954847277477, 1451.8050122615473, 1964.9593949538278], [3345.110225763622, 1254.2903283689545, 1796.1073709007599], [2756.915006640114, 1158.6566979684058, 1749.7851342136341], [1612.5351925630846, 627.6257351914985, 709.776207302709], [356.11819389110207, 236.44093546264622, 192.76027524641964], [100.03320053120851, 17.781127260402332, 4.482797098753952], [256.08499335989353, 218.65980820224394, 188.2774781476657], [220.0730411686585, 141.7684470761805, 112.06992746884875], [72.02390438247012, 69.20222501345779, 77.70181637840184], [4.00132802124834, 19.222840281516035, 0.0], [68.02257636122178, 49.97938473194174, 77.70181637840184], [44.01460823373174, 33.63997049265307, 29.885313991693014], [24.00796812749004, 16.339414239288633, 47.81650238670882], [148.04913678618854, 72.5662220627231, 34.36811109044697], [80.0265604249668, 24.509121358932948, 2.988531399169301], [68.02257636122178, 48.05710070379014, 31.37957969127767], [24.00796812749004, 29.31483142931196, 28.39104829210837], [44.01460823373174, 18.74226927447814, 2.988531399169301], [36.01195219123506, 76.89136112606415, 76.2075506788172], [36.01195219123506, 41.32910660525951, 34.368111090446966], [12.003984063745019, 20.183982295591846, 26.896782592523707], [24.007968127490038, 21.14512430966764, 7.471328497923253], [0.0, 35.562254520804686, 41.839439588370226], [1256.4169986719808, 391.18479972884865, 517.0159320562899], [80.0265604249668, 38.4456805630321, 82.18461347715578], [16.00531208499336, 10.572562154833825, 34.368111090446966], [64.02124833997344, 27.873118408198263, 47.816502386708834], [20.006640106241697, 12.975417190023325, 31.37957969127767], [44.01460823373174, 14.89770121817493, 16.436922695431157], [1176.390438247014, 352.73911916581704, 434.8313185791338], [760.252324037185, 244.61064258229055, 339.1983138057157], [440.14608233731707, 93.7113463723906, 128.50685016427994], [260.08632138114194, 78.81364515421578, 85.17314487632508], [204.06772908366523, 53.34338178120706, 38.85090818920093], [56.01859229747676, 25.47026337300875, 46.322236687124175], [180.0597609561753, 14.897701218174928, 43.33370528795488], [320.10624169986704, 150.8992962099004, 210.6914636414355], [68.02257636122178, 61.51308890085139, 80.69034777757112], [44.014608233731735, 15.37827222521283, 31.379579691277662], [24.00796812749004, 46.134816675638525, 49.31076808629349], [252.08366533864526, 89.38620730904952, 130.00111586386458], [88.02921646746348, 22.10626632374345, 19.425454094600457], [164.05444887118188, 67.27994098530621, 110.57566176926412], [416.13811420982734, 108.12847658352761, 95.63300477341758], [40.0132802124834, 35.56225452080468, 29.885313991693014], [20.0066401062417, 14.89770121817493, 8.965594197507903], [20.0066401062417, 20.66455330262974, 20.91971979418511], [376.1248339973439, 72.56622206272307, 65.74769078172464], [300.0996015936252, 50.45995573897966, 37.35664248961628], [132.04382470119523, 37.0039675419184, 26.896782592523714], [168.05577689243026, 13.455988197061224, 10.459859897092553], [76.02523240371846, 22.10626632374344, 28.391048292108366], [1144.379814077027, 531.030962776877, 1040.008926910917], [444.1474103585656, 313.3322965887096, 681.3851590106011], [0.0, 14.897701218174925, 41.839439588370226], [444.1474103585656, 298.43459537053485, 639.5457194222308], [132.0438247011952, 127.8318878720815, 282.41621722149887], [48.01593625498008, 31.23711545746357, 25.402516892939065], [84.02788844621514, 96.59477241461808, 257.0137003285596], [68.02257636122178, 51.421097753055456, 140.46097576095713], [36.01195219123506, 35.08168351376679, 122.52978736594136], [32.01062416998672, 16.339414239288633, 17.931188395015806], [16.00531208499336, 45.173674661562714, 116.55272456760271], [0.0, 12.014275175947523, 53.79356518504744], [16.00531208499336, 33.15939948561516, 62.75915938255534], [312.10358565737033, 170.60270749845418, 357.12950220073157], [304.10092961487356, 154.7438642662036, 315.2900626123611], [24.007968127490038, 28.353689415236165, 22.413985493769765], [280.0929614873836, 126.39017485096775, 292.87607711859135], [140.0464807436919, 60.55194688677558, 107.58713037009481], [140.0464807436919, 65.83822796419248, 185.28894674849647], [8.00265604249668, 15.858843232250731, 41.839439588370226], [700.2324037184595, 217.69866618816832, 358.62376790031635], [200.06640106241687, 107.16733456945178, 174.82908685140396], [76.02523240371846, 12.014275175947526, 7.471328497923253], [124.04116865869855, 95.15305939350432, 167.3577583534807], [120.03984063745021, 85.54163925274632, 122.5297873659413], [0.0, 15.85884323225073, 23.90825119335441], [120.03984063745021, 69.68279602049569, 98.6215361725869], [92.03054448871183, 41.32910660525951, 89.65594197507903], [28.00929614873838, 28.353689415236165, 8.965594197507903], [4.00132802124834, 9.61142014075802, 44.82797098753952], [500.1660026560426, 110.53133161871709, 183.79468104891183], [308.1022576361221, 40.848535598221616, 53.793565185047434], [72.02390438247012, 17.300556253364437, 26.89678259252371], [236.07835325365193, 23.547979344857144, 26.896782592523717], [164.05444887118193, 11.53370416890962, 13.448391296261855], [72.02390438247012, 12.014275175947525, 13.448391296261857], [192.06374501992022, 69.68279602049569, 130.00111586386453], [8.00265604249668, 16.81998524632653, 52.29929948546278], [184.06108897742357, 52.86281077416916, 77.70181637840183], [120.03984063745021, 38.4456805630321, 71.72475358006324], [64.02124833997344, 12.494846182985425, 16.436922695431157], [56.018592297476765, 25.950834380046658, 55.28783088463208], [64.02124833997344, 14.417130211137028, 5.977062798338602], [588.1952191235063, 95.63363040054227, 46.32223668712418], [204.06772908366526, 52.382239767131246, 29.885313991693017], [108.03585657370519, 36.52339653488048, 23.908251193354406], [32.01062416998672, 19.703411288553937, 7.4713284979232535], [76.02523240371846, 16.81998524632653, 16.436922695431157], [96.03187250996017, 15.858843232250734, 5.977062798338602], [384.1274900398405, 43.251390633411106, 16.436922695431157], [244.08100929614855, 37.96510955599418, 11.954125596677205], [192.06374501992025, 20.183982295591836, 7.471328497923253], [52.017264276228424, 17.781127260402343, 4.482797098753952], [140.04648074369186, 5.286281077416912, 4.482797098753952], [2544.8446215139516, 197.51468389257641, 168.85202405306535], [1360.4515272244385, 169.64156548437856, 162.87496125472677], [612.203187250996, 98.03648543573173, 107.58713037009484], [400.13280212483374, 73.52736407679889, 92.64447337424834], [112.03718459495353, 24.98969236597085, 40.34517388878558], [48.01593625498008, 11.533704168909624, 8.965594197507903], [64.02124833997344, 13.45598819706123, 31.379579691277666], [288.0956175298804, 48.53767171082804, 52.2992994854628], [224.07436918990697, 31.23711545746358, 31.379579691277662], [104.03452855245685, 15.85884323225073, 22.41398549376976], [120.03984063745021, 15.378272225212825, 8.965594197507905], [64.02124833997344, 17.300556253364437, 20.91971979418511], [212.07038512616194, 24.509121358932944, 14.942656995846505], [152.0504648074369, 12.494846182985421, 5.977062798338602], [60.0199203187251, 12.01427517594752, 8.965594197507905], [748.2483399734401, 71.60508004864727, 55.2878308846321], [328.1088977423638, 41.32910660525951, 31.37957969127767], [196.06507304116863, 29.795402436349857, 28.391048292108366], [140.04648074369192, 13.45598819706123, 14.942656995846505], [56.01859229747676, 16.339414239288637, 13.448391296261855], [132.0438247011952, 11.533704168909624, 2.988531399169301], [420.1394422310754, 30.27597344338777, 23.908251193354413], [152.0504648074369, 11.533704168909622, 0.0], [268.08897742363854, 18.74226927447814, 23.90825119335441], [72.02390438247012, 8.65027812668222, 10.459859897092553], [196.06507304116857, 10.091991147795923, 13.448391296261855], [1184.3930942895108, 27.873118408198252, 5.977062798338602], [568.1885790172641, 24.989692365970857, 5.977062798338602], [124.04116865869855, 12.494846182985425, 0.0], [444.1474103585655, 12.494846182985427, 5.977062798338602], [268.0889774236386, 7.208565105568517, 0.0], [176.05843293492688, 5.286281077416911, 5.977062798338602], [616.2045152722443, 2.8834260422274065, 0.0], [168.0557768924302, 2.4028550351895053, 0.0], [448.14873837981395, 0.480571007037901, 0.0], [188.06241699867184, 0.480571007037901, 0.0], [260.08632138114194, 0.0, 0.0]]}, {"children_left": [1, 2, 3, 4, 5, 6, -1, 8, -1, 10, -1, -1, 13, -1, 15, 16, 17, -1, -1, 20, -1, -1, 23, 24, 25, -1, -1, -1, -1, 30, 31, 32, 33, 34, 35, -1, -1, 38, -1, -1, 41, 42, -1, -1, 45, -1, -1, 48, 49, 50, -1, -1, 53, -1, -1, 56, 57, -1, -1, 60, -1, -1, 63, 64, 65, -1, -1, -1, 69, -1, -1, 72, 73, 74, -1, 76, -1, 78, -1, -1, -1, -1, 83, -1, 85, -1, 87, 88, -1, -1, -1, 92, 93, 94, 95, -1, 97, -1, -1, 100, 101, 102, -1, 104, -1, -1, 107, -1, -1, 110, 111, 112, -1, 114, -1, -1, -1, 118, 119, -1, -1, 122, -1, 124, -1, -1, 127, 128, 129, 130, -1, -1, 133, -1, 135, 136, -1, -1, -1, 140, -1, 142, 143, 144, -1, -1, -1, 148, 149, -1, -1, 152, -1, -1, 155, 156, 157, 158, 159, -1, -1, 162, -1, -1, 165, -1, 167, -1, -1, -1, 171, 172, 173, -1, -1, 176, -1, -1, 179, -1, 181, -1, 183, -1, -1, 186, 187, 188, 189, 190, 191, 192, -1, -1, -1, -1, 197, 198, -1, -1, -1, 202, 203, 204, 205, -1, -1, 208, -1, -1, 211, -1, -1, 214, 215, -1, 217, -1, -1, 220, -1, 222, -1, -1, 225, 226, 227, 228, -1, -1, 231, 232, -1, -1, 235, -1, -1, 238, -1, 240, 241, -1, -1, 244, -1, -1, 247, 248, -1, -1, -1, -1, 253, 254, 255, 256, 257, -1, 259, -1, -1, 262, 263, 264, -1, -1, 267, 268, 269, -1, -1, -1, 273, -1, 275, -1, -1, 278, 279, 280, 281, -1, -1, -1, -1, 286, 287, -1, 289, -1, -1, 292, 293, -1, -1, -1, 297, 298, 299, -1, 301, -1, -1, 304, 305, 306, 307, -1, -1, 310, -1, -1, -1, 314, 315, 316, -1, -1, -1, 320, -1, -1, 323, 324, 325, -1, 327, -1, -1, 330, -1, -1, 333, 334, -1, -1, 337, 338, -1, -1, -1, 342, -1, 344, 345, -1, 347, -1, -1, 350, 351, 352, -1, -1, -1, -1, 357, 358, 359, 360, -1, 362, -1, -1, 365, -1, -1, 368, 369, 370, -1, -1, -1, 374, -1, -1, 377, 378, -1, 380, -1, 382, -1, -1, 385, -1, 387, -1, -1], "children_right": [252, 91, 82, 29, 12, 7, -1, 9, -1, 11, -1, -1, 14, -1, 22, 19, 18, -1, -1, 21, -1, -1, 28, 27, 26, -1, -1, -1, -1, 71, 62, 47, 40, 37, 36, -1, -1, 39, -1, -1, 44, 43, -1, -1, 46, -1, -1, 55, 52, 51, -1, -1, 54, -1, -1, 59, 58, -1, -1, 61, -1, -1, 68, 67, 66, -1, -1, -1, 70, -1, -1, 81, 80, 75, -1, 77, -1, 79, -1, -1, -1, -1, 84, -1, 86, -1, 90, 89, -1, -1, -1, 185, 126, 99, 96, -1, 98, -1, -1, 109, 106, 103, -1, 105, -1, -1, 108, -1, -1, 117, 116, 113, -1, 115, -1, -1, -1, 121, 120, -1, -1, 123, -1, 125, -1, -1, 154, 139, 132, 131, -1, -1, 134, -1, 138, 137, -1, -1, -1, 141, -1, 147, 146, 145, -1, -1, -1, 151, 150, -1, -1, 153, -1, -1, 170, 169, 164, 161, 160, -1, -1, 163, -1, -1, 166, -1, 168, -1, -1, -1, 178, 175, 174, -1, -1, 177, -1, -1, 180, -1, 182, -1, 184, -1, -1, 251, 224, 201, 196, 195, 194, 193, -1, -1, -1, -1, 200, 199, -1, -1, -1, 213, 210, 207, 206, -1, -1, 209, -1, -1, 212, -1, -1, 219, 216, -1, 218, -1, -1, 221, -1, 223, -1, -1, 246, 237, 230, 229, -1, -1, 234, 233, -1, -1, 236, -1, -1, 239, -1, 243, 242, -1, -1, 245, -1, -1, 250, 249, -1, -1, -1, -1, 356, 341, 296, 261, 258, -1, 260, -1, -1, 277, 266, 265, -1, -1, 272, 271, 270, -1, -1, -1, 274, -1, 276, -1, -1, 285, 284, 283, 282, -1, -1, -1, -1, 291, 288, -1, 290, -1, -1, 295, 294, -1, -1, -1, 322, 303, 300, -1, 302, -1, -1, 313, 312, 309, 308, -1, -1, 311, -1, -1, -1, 319, 318, 317, -1, -1, -1, 321, -1, -1, 332, 329, 326, -1, 328, -1, -1, 331, -1, -1, 336, 335, -1, -1, 340, 339, -1, -1, -1, 343, -1, 349, 346, -1, 348, -1, -1, 355, 354, 353, -1, -1, -1, -1, 376, 367, 364, 361, -1, 363, -1, -1, 366, -1, -1, 373, 372, 371, -1, -1, -1, 375, -1, -1, 384, 379, -1, 381, -1, 383, -1, -1, 386, -1, 388, -1, -1], "threshold": [0.3018285036087036, 0.21265099942684174, 0.03065249975770712, 0.09416399896144867, 0.06765850260853767, 0.06080099940299988, -2.0, 0.0630204975605011, -2.0, 0.06555550172924995, -2.0, -2.0, 0.06973149999976158, -2.0, 0.07823149859905243, 0.07413899898529053, 0.0714769996702671, -2.0, -2.0, 0.07581000030040741, -2.0, -2.0, 0.08998500183224678, 0.08917349949479103, 0.08222699910402298, -2.0, -2.0, -2.0, -2.0, 0.1981390044093132, 9.500000032858225e-06, 0.11899850144982338, 0.10443500056862831, 0.10124499723315239, 0.09943750128149986, -2.0, -2.0, 0.10218600183725357, -2.0, -2.0, 0.10668449848890305, 0.10534049943089485, -2.0, -2.0, 0.10762400180101395, -2.0, -2.0, 0.193013496696949, 0.1822969987988472, 0.16018299758434296, -2.0, -2.0, 0.18424049764871597, -2.0, -2.0, 0.19548000395298004, 0.19436050206422806, -2.0, -2.0, 0.1968884989619255, -2.0, -2.0, 0.16830900311470032, 0.14906950294971466, 0.12877299636602402, -2.0, -2.0, -2.0, 0.18168800324201584, -2.0, -2.0, 0.2108049988746643, 8.449999950244091e-05, 0.1996849998831749, -2.0, 0.20246899873018265, -2.0, 0.20402850210666656, -2.0, -2.0, -2.0, -2.0, 0.09563899785280228, -2.0, 0.13082700222730637, -2.0, 0.17439300566911697, 0.1823435053229332, -2.0, -2.0, -2.0, 2.5000000505315256e-06, 0.2826800048351288, 0.21889200061559677, 0.21518749743700027, -2.0, 0.21681949496269226, -2.0, -2.0, 0.2303915023803711, 0.22516349703073502, 0.22106999903917313, -2.0, 0.22330550104379654, -2.0, -2.0, 0.22763100266456604, -2.0, -2.0, 0.26473648846149445, 0.26269200444221497, 0.23216550052165985, -2.0, 0.2463744953274727, -2.0, -2.0, -2.0, 0.26888149976730347, 0.26646900177001953, -2.0, -2.0, 0.27159298956394196, -2.0, 0.2744230031967163, -2.0, -2.0, 0.38113901019096375, 0.31690850853919983, 0.2890174984931946, 0.2856464982032776, -2.0, -2.0, 0.2917564958333969, -2.0, 0.3114214986562729, 0.308555006980896, -2.0, -2.0, -2.0, 0.32181400060653687, -2.0, 0.3423195034265518, 0.3389595001935959, 0.32542699575424194, -2.0, -2.0, -2.0, 0.34911200404167175, 0.34497401118278503, -2.0, -2.0, 0.3536210060119629, -2.0, -2.0, 0.6389180123806, 0.6221959888935089, 0.49472948908805847, 0.4697420001029968, 0.39838600158691406, -2.0, -2.0, 0.4812375009059906, -2.0, -2.0, 0.500885009765625, -2.0, 0.5172665119171143, -2.0, -2.0, -2.0, 0.7518759965896606, 0.6935629844665527, 0.6675494909286499, -2.0, -2.0, 0.7152405083179474, -2.0, -2.0, 0.8086659908294678, -2.0, 0.8841319978237152, -2.0, 1.00753253698349, -2.0, -2.0, 1.562776505947113, 0.41126449406147003, 0.2713025063276291, 0.017197000794112682, 0.00355600006878376, 0.0009424999880138785, 0.24564800411462784, -2.0, -2.0, -2.0, -2.0, 0.11002350226044655, 0.05059649981558323, -2.0, -2.0, -2.0, 0.36635199189186096, 0.1582619994878769, 0.010487500112503767, 0.2836815118789673, -2.0, -2.0, 0.015734999906271696, -2.0, -2.0, 0.2266175001859665, -2.0, -2.0, 0.003959000110626221, 3.400000059627928e-05, -2.0, 0.00027150000096298754, -2.0, -2.0, 0.018327499739825726, -2.0, 0.08573449775576591, -2.0, -2.0, 1.024758517742157, 0.5227625072002411, 0.4268909990787506, 0.008424499770626426, -2.0, -2.0, 0.46126098930835724, 0.44734950363636017, -2.0, -2.0, 0.0006425000028684735, -2.0, -2.0, 0.5336939990520477, -2.0, 0.004383500199764967, 0.8072184920310974, -2.0, -2.0, 0.09799449890851974, -2.0, -2.0, 1.2382050156593323, 1.0895444750785828, -2.0, -2.0, -2.0, -2.0, 9.21103286743164, 0.9360605180263519, 0.4020549952983856, 0.12390900030732155, 0.08910249918699265, -2.0, 1.3698949813842773, -2.0, -2.0, 2.3379215002059937, 0.18065399676561356, 1.341143548488617, -2.0, -2.0, 0.34164799749851227, 0.3274189978837967, 0.6860274970531464, -2.0, -2.0, -2.0, 0.3513660132884979, -2.0, 0.7219450175762177, -2.0, -2.0, 0.2848000079393387, 6.684033155441284, 0.260686993598938, 0.2244340032339096, -2.0, -2.0, -2.0, -2.0, 4.283102512359619, 0.31916549801826477, -2.0, 0.344823494553566, -2.0, -2.0, 7.3026063442230225, 0.3546534925699234, -2.0, -2.0, -2.0, 3.742320418357849, 0.470833495259285, 0.5634905099868774, -2.0, 0.37815049290657043, -2.0, -2.0, 1.292356014251709, 0.8115164935588837, 0.6965309977531433, 0.6155554950237274, -2.0, -2.0, 0.834357500076294, -2.0, -2.0, -2.0, 3.265966534614563, 2.8599319458007812, 1.8511459827423096, -2.0, -2.0, -2.0, 0.5493169724941254, -2.0, -2.0, 0.588857501745224, 0.5101989805698395, 0.4384704977273941, -2.0, 6.0394439697265625, -2.0, -2.0, 0.5450239777565002, -2.0, -2.0, 0.6935819983482361, 0.6388354897499084, -2.0, -2.0, 6.680694341659546, 0.8102740049362183, -2.0, -2.0, -2.0, 0.5077790021896362, -2.0, 2.2200134992599487, 1.1160899996757507, -2.0, 1.3269625306129456, -2.0, -2.0, 1.653371512889862, 1.2273555397987366, 3.9011850357055664, -2.0, -2.0, -2.0, -2.0, 19.880574226379395, 0.4802345037460327, 13.086516857147217, 0.2709770053625107, -2.0, 0.36496399343013763, -2.0, -2.0, 17.110764503479004, -2.0, -2.0, 13.166772842407227, 11.502888679504395, 0.6203519999980927, -2.0, -2.0, -2.0, 0.9717249870300293, -2.0, -2.0, 39.09754753112793, 22.662694931030273, -2.0, 27.595510482788086, -2.0, 31.525267601013184, -2.0, -2.0, 0.8067840039730072, -2.0, 63.6311092376709, -2.0, -2.0], "feature": [0, 1, 0, 1, 1, 1, -2, 1, -2, 1, -2, -2, 1, -2, 1, 1, 1, -2, -2, 1, -2, -2, 1, 1, 1, -2, -2, -2, -2, 1, 0, 1, 1, 1, 1, -2, -2, 1, -2, -2, 1, 1, -2, -2, 1, -2, -2, 1, 1, 1, -2, -2, 1, -2, -2, 1, 1, -2, -2, 1, -2, -2, 1, 1, 1, -2, -2, -2, 1, -2, -2, 1, 0, 1, -2, 1, -2, 1, -2, -2, -2, -2, 1, -2, 1, -2, 0, 1, -2, -2, -2, 0, 1, 1, 1, -2, 1, -2, -2, 1, 1, 1, -2, 1, -2, -2, 1, -2, -2, 1, 1, 1, -2, 1, -2, -2, -2, 1, 1, -2, -2, 1, -2, 1, -2, -2, 1, 1, 1, 1, -2, -2, 1, -2, 1, 1, -2, -2, -2, 1, -2, 1, 1, 1, -2, -2, -2, 1, 1, -2, -2, 1, -2, -2, 1, 1, 1, 1, 1, -2, -2, 1, -2, -2, 1, -2, 1, -2, -2, -2, 1, 1, 1, -2, -2, 1, -2, -2, 1, -2, 1, -2, 1, -2, -2, 1, 1, 1, 0, 0, 0, 1, -2, -2, -2, -2, 0, 0, -2, -2, -2, 1, 0, 0, 1, -2, -2, 0, -2, -2, 0, -2, -2, 0, 0, -2, 0, -2, -2, 0, -2, 0, -2, -2, 1, 1, 1, 0, -2, -2, 1, 1, -2, -2, 0, -2, -2, 1, -2, 0, 1, -2, -2, 0, -2, -2, 1, 1, -2, -2, -2, -2, 0, 1, 1, 1, 1, -2, 0, -2, -2, 0, 1, 0, -2, -2, 1, 1, 0, -2, -2, -2, 1, -2, 0, -2, -2, 1, 0, 1, 1, -2, -2, -2, -2, 0, 1, -2, 1, -2, -2, 0, 1, -2, -2, -2, 0, 0, 1, -2, 0, -2, -2, 0, 1, 1, 1, -2, -2, 0, -2, -2, -2, 0, 0, 0, -2, -2, -2, 1, -2, -2, 1, 1, 1, -2, 0, -2, -2, 1, -2, -2, 1, 1, -2, -2, 0, 1, -2, -2, -2, 0, -2, 0, 1, -2, 1, -2, -2, 1, 1, 0, -2, -2, -2, -2, 0, 1, 0, 1, -2, 1, -2, -2, 0, -2, -2, 0, 0, 1, -2, -2, -2, 1, -2, -2, 0, 0, -2, 0, -2, 0, -2, -2, 1, -2, 0, -2, -2], "classes": [0, 1, 2], "value": [[7762.576361221618, 8027.45810156008, 8158.690719731803], [1968.6533864541884, 6468.005183722481, 6036.8334263218], [440.14608233731747, 3614.855114939018, 736.6729898952333], [292.09694555112867, 3504.8043543273443, 670.9252991135087], [24.00796812749004, 1133.186434595392, 49.310768086293486], [0.0, 559.3846521921143, 5.977062798338602], [0.0, 410.4076400103645, 0.0], [0.0, 148.97701218174907, 5.977062798338602], [0.0, 40.36796459118371, 4.482797098753952], [0.0, 108.60904759056551, 1.4942656995846506], [0.0, 51.421097753055456, 1.4942656995846506], [0.0, 57.18794983751029, 0.0], [24.00796812749004, 573.8017824032518, 43.33370528795487], [0.0, 39.406822577107896, 19.425454094600457], [24.00796812749004, 534.3949598261429, 23.908251193354413], [16.00531208499336, 164.35528440696166, 14.942656995846505], [0.0, 83.13878421755683, 2.988531399169301], [0.0, 37.484538548956294, 2.988531399169301], [0.0, 45.65424566860062, 0.0], [16.00531208499336, 81.21650018940528, 11.954125596677205], [16.00531208499336, 39.88739358414579, 5.977062798338602], [0.0, 41.32910660525952, 5.977062798338602], [8.00265604249668, 370.03967541918126, 8.965594197507905], [8.00265604249668, 283.05632314532215, 8.965594197507903], [4.00132802124834, 259.5083438004653, 7.471328497923253], [4.00132802124834, 86.50278126682211, 1.4942656995846506], [0.0, 173.00556253364388, 5.977062798338602], [4.00132802124834, 23.547979344857154, 1.4942656995846506], [0.0, 86.98335227386002, 0.0], [268.08897742363854, 2371.617919732102, 621.614531027215], [264.0876494023902, 2167.3752417410187, 500.5790093608585], [204.06772908366523, 2023.2039396296493, 431.8427871799645], [48.01593625498008, 648.2902884941288, 86.66741057590971], [32.01062416998672, 253.26092070897255, 49.31076808629347], [8.00265604249668, 171.08327850549216, 26.89678259252371], [8.00265604249668, 128.79302988615729, 13.448391296261853], [0.0, 42.29024861933531, 13.448391296261857], [24.00796812749004, 82.17764220348106, 22.41398549376976], [16.00531208499336, 25.47026337300876, 2.988531399169301], [8.00265604249668, 56.70737883047238, 19.42545409460046], [16.00531208499336, 395.0293677851519, 37.35664248961627], [0.0, 67.2799409853062, 1.4942656995846506], [0.0, 25.95083438004665, 1.4942656995846506], [0.0, 41.32910660525951, 0.0], [16.00531208499336, 327.7494267998466, 35.862376790031625], [0.0, 22.106266323743448, 13.448391296261857], [16.00531208499336, 305.6431604761033, 22.41398549376976], [156.05179282868525, 1374.9136511354745, 345.17537660405407], [156.05179282868525, 1268.2268875730547, 331.72698530779223], [136.04515272244356, 1111.0801682716497, 254.02516892939008], [116.03851261620187, 784.7724544928993, 194.25454094600428], [20.0066401062417, 326.30771377873265, 59.770627983386056], [20.0066401062417, 157.14671930139323, 77.70181637840184], [0.0, 15.37827222521283, 29.88531399169301], [20.0066401062417, 141.76844707618054, 47.816502386708834], [0.0, 106.68676356241396, 13.448391296261855], [0.0, 59.11023386566186, 2.988531399169301], [0.0, 27.39254740116036, 2.988531399169301], [0.0, 31.717686464501462, 0.0], [0.0, 47.576529696752246, 10.459859897092553], [0.0, 20.664553302629752, 10.459859897092555], [0.0, 26.911976394122455, 0.0], [60.019920318725106, 144.17130211137007, 68.73622218089395], [44.01460823373174, 86.98335227386006, 61.264893682970694], [36.01195219123506, 67.76051199234409, 35.862376790031625], [12.003984063745019, 33.15939948561517, 31.37957969127767], [24.007968127490038, 34.60111250672888, 4.482797098753952], [8.00265604249668, 19.22284028151604, 25.40251689293906], [16.00531208499336, 57.18794983751028, 7.471328497923253], [0.0, 20.664553302629738, 2.988531399169301], [16.00531208499336, 36.5233965348805, 4.482797098753952], [4.00132802124834, 204.24267799110697, 121.0355216663566], [4.00132802124834, 178.77241461809845, 116.55272456760265], [4.00132802124834, 151.37986721693838, 109.08139606967941], [0.0, 16.81998524632653, 19.425454094600457], [4.00132802124834, 134.55988197061197, 89.65594197507902], [0.0, 36.52339653488048, 13.448391296261853], [4.00132802124834, 98.03648543573172, 76.20755067881719], [4.00132802124834, 20.66455330262974, 29.88531399169301], [0.0, 77.37193213310206, 46.32223668712418], [0.0, 27.392547401160357, 7.471328497923253], [0.0, 25.470263373008756, 4.482797098753952], [148.0491367861885, 110.05076061167921, 65.74769078172464], [0.0, 24.989692365970853, 0.0], [148.04913678618854, 85.0610682457084, 65.74769078172464], [12.003984063745019, 22.586837330781353, 25.402516892939065], [136.04515272244353, 62.47423091492721, 40.345173888785574], [72.02390438247012, 43.25139063341112, 32.873845390862314], [60.0199203187251, 23.06740833781924, 19.425454094600457], [12.003984063745019, 20.183982295591843, 13.448391296261857], [64.02124833997344, 19.222840281516042, 7.471328497923253], [1528.5073041168696, 2853.150068784032, 5300.160436426622], [400.1328021248337, 1604.1460214925673, 3326.235447275421], [32.01062416998672, 647.3291464800532, 679.8908933110159], [4.00132802124834, 71.12450904160939, 40.34517388878558], [0.0, 24.989692365970846, 22.41398549376976], [4.00132802124834, 46.13481667563853, 17.931188395015806], [0.0, 24.028550351895053, 5.977062798338602], [4.00132802124834, 22.106266323743448, 11.954125596677205], [28.00929614873838, 576.2046374384412, 639.5457194222304], [12.003984063745019, 94.19191737942855, 138.96671006137248], [0.0, 56.707378830472386, 59.770627983386056], [0.0, 16.339414239288637, 29.88531399169302], [0.0, 40.36796459118371, 29.885313991693017], [0.0, 19.22284028151603, 10.459859897092553], [0.0, 21.14512430966764, 19.425454094600457], [12.003984063745019, 37.484538548956294, 79.19608207798649], [0.0, 17.78112726040234, 47.81650238670883], [12.003984063745019, 19.703411288553937, 31.379579691277666], [16.00531208499336, 482.0127200590107, 500.57900936085883], [16.00531208499336, 346.4916960743243, 319.77285971111525], [16.00531208499336, 322.46314572242954, 310.8072655136074], [0.0, 24.028550351895056, 11.954125596677205], [16.00531208499336, 298.43459537053485, 298.85313991693016], [8.00265604249668, 138.88502103395308, 161.38069555514218], [8.00265604249668, 159.5495743365826, 137.47244436178775], [0.0, 24.028550351895046, 8.965594197507905], [0.0, 135.52102398468784, 180.80614964974242], [0.0, 28.353689415236172, 65.74769078172463], [0.0, 15.37827222521283, 26.89678259252371], [0.0, 12.975417190023325, 38.85090818920092], [0.0, 107.16733456945187, 115.05845886801806], [0.0, 29.314831429311972, 19.42545409460046], [0.0, 77.85250314014004, 95.63300477341764], [0.0, 14.89770121817493, 32.87384539086232], [0.0, 62.95480192196509, 62.759159382555346], [368.1221779548472, 956.8168750124734, 2646.3445539644126], [168.05577689243026, 457.5035987000781, 911.5020767466358], [32.01062416998672, 175.4084175688332, 361.6122992994854], [4.00132802124834, 22.586837330781343, 74.71328497923255], [4.00132802124834, 11.533704168909624, 38.85090818920093], [0.0, 11.053133161871722, 35.862376790031625], [28.00929614873838, 152.82158023805204, 286.8990143202527], [12.003984063745019, 21.625695316705542, 17.93118839501581], [16.00531208499336, 131.19588492134676, 268.96782592523675], [16.00531208499336, 104.28390852722447, 230.1169177360359], [16.00531208499336, 90.34734932312537, 179.31188395015783], [0.0, 13.93655920409913, 50.80503378587812], [0.0, 26.911976394122462, 38.85090818920092], [136.04515272244353, 282.09518113124653, 549.8897774471526], [40.0132802124834, 23.547979344857147, 40.345173888785574], [96.03187250996015, 258.5472017863897, 509.5446035583672], [16.00531208499336, 96.594772414618, 216.66852643977418], [16.00531208499336, 84.09992623163265, 170.34628975265002], [4.00132802124834, 17.300556253364437, 50.80503378587814], [12.003984063745019, 66.7993699782683, 119.541255966772], [0.0, 12.494846182985425, 46.322236687124175], [80.0265604249668, 161.95242937177218, 292.87607711859124], [48.01593625498008, 31.237115457463574, 44.82797098753952], [16.00531208499336, 17.781127260402336, 16.436922695431157], [32.01062416998672, 13.45598819706123, 28.391048292108362], [32.01062416998672, 130.7153139143089, 248.0481061310516], [0.0, 33.63997049265308, 28.391048292108366], [32.01062416998672, 97.07534342165599, 219.65705783894333], [200.0664010624169, 499.3132763123751, 1734.8424772177877], [172.05710491367856, 409.44649799628866, 1322.4251441324186], [148.04913678618854, 393.5876547640382, 1283.5742359432172], [136.04515272244356, 226.34894431485057, 851.7314487632509], [80.0265604249668, 178.7724146180986, 732.1901927964791], [36.01195219123506, 46.134816675638525, 156.8978984563882], [44.01460823373174, 132.6375979424605, 575.2922943400913], [56.01859229747676, 47.57652969675223, 119.54125596677201], [28.00929614873838, 29.795402436349868, 38.85090818920092], [28.00929614873838, 17.78112726040234, 80.6903477775711], [12.003984063745019, 167.238710449189, 431.8427871799646], [0.0, 18.261698267440238, 19.425454094600457], [12.003984063745019, 148.97701218174885, 412.41733308536413], [4.00132802124834, 16.33941423928863, 86.66741057590974], [8.00265604249668, 132.6375979424604, 325.74992250945377], [24.007968127490038, 15.858843232250733, 38.85090818920092], [28.009296148738382, 89.86677831608746, 412.41733308536436], [12.003984063745019, 34.60111250672887, 239.0825119335438], [12.003984063745019, 17.78112726040233, 98.62153617258694], [4.00132802124834, 3.844568056303208, 56.78209658421674], [8.00265604249668, 13.936559204099128, 41.839439588370226], [0.0, 16.819985246326535, 140.46097576095707], [0.0, 3.3639970492653077, 64.25342508214], [0.0, 13.455988197061226, 76.2075506788172], [16.00531208499336, 55.26566580935865, 173.3348211518193], [12.003984063745019, 16.819985246326535, 35.86237679003162], [4.00132802124834, 38.445680563032084, 137.47244436178772], [0.0, 8.650278126682219, 56.78209658421674], [4.00132802124834, 29.795402436349868, 80.6903477775711], [0.0, 14.89770121817493, 44.82797098753954], [4.00132802124834, 14.89770121817493, 35.86237679003162], [1128.3745019920339, 1249.0040472915375, 1973.924989151336], [1064.35325365206, 1230.7423490240967, 1969.4421920525822], [640.2124833997347, 635.7954423111433, 832.3059946686503], [296.0982735723771, 195.11182885738722, 265.97929452606746], [216.0717131474103, 141.76844707618045, 140.4609757609571], [116.03851261620187, 116.29818370317187, 109.0813960696795], [116.03851261620187, 94.67248838646645, 76.20755067881719], [36.01195219123506, 55.26566580935864, 47.816502386708834], [80.0265604249668, 39.40682257710788, 28.391048292108373], [0.0, 21.62569531670554, 32.873845390862314], [100.03320053120851, 25.470263373008763, 31.379579691277662], [80.0265604249668, 53.343381781207064, 125.5183187651106], [40.0132802124834, 32.67882847857727, 89.65594197507903], [28.00929614873838, 12.014275175947525, 38.85090818920092], [12.003984063745019, 20.66455330262974, 50.80503378587814], [40.0132802124834, 20.664553302629738, 35.86237679003162], [344.11420982735694, 440.68361345375183, 566.3267001425827], [188.06241699867186, 314.77400960982334, 392.9918789907634], [172.05710491367853, 275.36718703271583, 315.29006261236134], [76.02523240371846, 176.85013058994699, 197.24307234517377], [0.0, 25.950834380046654, 14.942656995846505], [76.02523240371846, 150.89929620990048, 182.30041534932724], [96.03187250996017, 98.51705644276964, 118.04699026718738], [36.01195219123506, 15.858843232250731, 11.954125596677205], [60.019920318725106, 82.65821321051892, 106.09286467051017], [16.00531208499336, 39.40682257710788, 77.70181637840183], [4.00132802124834, 23.06740833781925, 49.310768086293486], [12.003984063745019, 16.339414239288637, 28.391048292108362], [156.05179282868522, 125.90960384392989, 173.3348211518193], [36.01195219123506, 54.30452379528287, 74.71328497923257], [8.00265604249668, 12.494846182985427, 32.873845390862314], [28.00929614873838, 41.809677612297406, 41.83943958837023], [12.003984063745019, 12.49484618298542, 17.93118839501581], [16.00531208499336, 29.314831429311962, 23.90825119335441], [120.03984063745021, 71.6050800486473, 98.62153617258693], [44.014608233731735, 13.455988197061226, 19.42545409460046], [76.02523240371846, 58.14909185158607, 79.19608207798649], [12.003984063745019, 29.795402436349857, 34.368111090446966], [64.02124833997344, 28.353689415236154, 44.82797098753952], [424.14077025232393, 594.9469067129208, 1137.13619738392], [412.13678618857887, 534.3949598261428, 1102.7680862934728], [84.02788844621514, 207.60667504037258, 370.57789349699345], [0.0, 31.237115457463563, 79.1960820779865], [0.0, 12.975417190023327, 50.80503378587813], [0.0, 18.261698267440238, 28.39104829210836], [84.02788844621514, 176.36955958290903, 291.3818114190066], [44.01460823373174, 72.08565105568518, 64.25342508214001], [12.003984063745019, 43.25139063341111, 40.34517388878558], [32.01062416998672, 28.83426042227406, 23.908251193354413], [40.0132802124834, 104.28390852722441, 227.12838633686667], [32.01062416998672, 28.353689415236165, 46.322236687124175], [8.00265604249668, 75.93021911198835, 180.80614964974257], [328.10889774236375, 326.7882847857705, 732.1901927964786], [52.017264276228424, 12.975417190023323, 11.954125596677203], [276.0916334661353, 313.81286759574726, 720.2360671998011], [68.02257636122178, 151.37986721693838, 339.19831380571566], [48.015936254980076, 117.25932571724759, 297.3588742173454], [20.006640106241697, 34.12054149969099, 41.83943958837023], [208.06905710491358, 162.43300037881005, 381.03775339408605], [172.0571049136786, 85.54163925274632, 248.04810613105167], [36.01195219123506, 76.8913611260642, 132.98964726303385], [12.003984063745019, 60.551946886775596, 34.368111090446966], [8.00265604249668, 36.04282552784259, 28.391048292108366], [8.00265604249668, 20.183982295591843, 10.459859897092553], [0.0, 15.858843232250731, 17.93118839501581], [4.00132802124834, 24.509121358932948, 5.977062798338602], [64.02124833997344, 18.261698267440234, 4.482797098753952], [5793.922974767532, 1559.4529178380424, 2121.8572934102162], [3281.0889774236484, 1343.195964670975, 1972.4307234517494], [2536.8419654714544, 1211.0389377355411, 1896.2231727729318], [1460.484727755647, 678.0856909304814, 765.0640381873411], [28.009296148738382, 82.65821321051901, 50.80503378587814], [4.00132802124834, 38.44568056303209, 0.0], [24.007968127490038, 44.21253264748691, 50.80503378587813], [0.0, 22.106266323743448, 23.90825119335441], [24.00796812749004, 22.10626632374344, 26.89678259252371], [1432.4754316069086, 595.4274777199581, 714.259004401463], [744.2470119521921, 348.413980102476, 469.19942966958064], [148.04913678618854, 40.3679645911837, 23.908251193354413], [120.03984063745021, 25.95083438004667, 8.965594197507905], [28.00929614873838, 14.41713021113703, 14.942656995846507], [596.1978751660027, 308.04601551129275, 445.29117847622626], [352.11686586985377, 230.6740833781915, 319.77285971111525], [336.11155378486046, 210.97067208963773, 265.97929452606746], [108.03585657370519, 72.08565105568516, 132.98964726303387], [228.0756972111552, 138.88502103395322, 132.98964726303385], [16.00531208499336, 19.703411288553944, 53.79356518504743], [244.08100929614852, 77.37193213310206, 125.51831876511056], [76.02523240371846, 15.378272225212829, 7.4713284979232535], [168.0557768924302, 61.99365990788928, 118.04699026718737], [120.03984063745021, 24.02855035189505, 46.32223668712419], [48.01593625498008, 37.965109555994204, 71.72475358006325], [688.2284196547153, 247.01349761747997, 245.0595747318824], [240.0796812749002, 132.63759794246045, 106.09286467051021], [216.07171314741026, 106.68676356241396, 77.70181637840183], [192.06374501992022, 86.98335227386009, 56.782096584216745], [104.03452855245685, 63.9159439360409, 46.32223668712419], [88.02921646746348, 23.06740833781925, 10.459859897092553], [24.00796812749004, 19.70341128855394, 20.91971979418511], [24.007968127490038, 25.95083438004665, 28.391048292108366], [448.1487383798139, 114.37589967502022, 138.96671006137242], [188.06241699867186, 68.72165400641991, 77.70181637840184], [84.02788844621514, 19.703411288553937, 11.954125596677203], [104.03452855245685, 49.01824271786595, 65.74769078172464], [4.00132802124834, 21.14512430966764, 20.91971979418511], [100.03320053120851, 27.87311840819826, 44.82797098753953], [260.08632138114194, 45.65424566860063, 61.264893682970694], [220.0730411686586, 35.081683513766784, 38.85090818920092], [116.03851261620187, 22.586837330781357, 29.88531399169301], [104.03452855245685, 12.494846182985423, 8.965594197507903], [40.0132802124834, 10.57256215483382, 22.41398549376976], [1076.3572377158052, 532.9532468050286, 1131.1591345855813], [612.2031872509963, 409.4464979962887, 824.8346661707268], [120.03984063745021, 50.940526746017554, 79.19608207798649], [24.007968127490038, 26.431405387084556, 40.345173888785574], [96.03187250996017, 24.50912135893295, 38.85090818920093], [44.01460823373174, 11.053133161871722, 28.391048292108366], [52.01726427622842, 13.455988197061224, 10.459859897092555], [492.1633466135458, 358.5059712502718, 745.6385840927409], [124.04116865869855, 156.18557728731736, 318.2785940115305], [96.03187250996017, 143.21016009729416, 297.3588742173454], [88.02921646746348, 123.98731981577828, 212.18572934102016], [60.0199203187251, 96.11420140758014, 186.78321244808117], [28.009296148738382, 27.873118408198263, 25.40251689293907], [8.00265604249668, 19.22284028151604, 85.17314487632507], [0.0, 9.611420140758021, 52.29929948546279], [8.00265604249668, 9.61142014075802, 32.873845390862314], [28.00929614873838, 12.975417190023323, 20.91971979418511], [368.1221779548471, 202.3203939629555, 427.3599900812105], [348.1155378486053, 169.64156548437862, 355.63523650114723], [264.08764940239024, 149.93815419582475, 315.2900626123612], [172.05710491367856, 65.8382279641925, 135.97817866220313], [92.03054448871183, 84.09992623163268, 179.31188395015795], [84.02788844621514, 19.70341128855394, 40.345173888785574], [20.0066401062417, 32.67882847857727, 71.72475358006322], [8.00265604249668, 15.378272225212825, 14.942656995846505], [12.003984063745019, 17.30055625336443, 56.78209658421673], [464.1540504648072, 123.50674880874035, 306.32446841485324], [136.04515272244353, 70.1633670275336, 167.35775835348073], [112.03718459495353, 41.329106605259504, 106.09286467051018], [12.003984063745019, 19.703411288553944, 38.85090818920092], [100.03320053120851, 21.625695316705546, 67.2419564813093], [36.01195219123506, 12.97541719002333, 40.34517388878558], [64.02124833997344, 8.650278126682219, 26.89678259252371], [24.00796812749004, 28.834260422274067, 61.2648936829707], [8.00265604249668, 16.819985246326535, 16.436922695431157], [16.00531208499336, 12.014275175947525, 44.82797098753952], [328.10889774236364, 53.34338178120707, 138.96671006137245], [180.0597609561752, 19.222840281516042, 34.36811109044698], [76.02523240371846, 10.572562154833824, 22.41398549376976], [104.03452855245685, 8.650278126682219, 11.954125596677203], [148.0491367861885, 34.12054149969098, 104.59859897092551], [120.03984063745021, 20.183982295591836, 64.25342508214], [56.01859229747676, 11.053133161871722, 47.81650238670883], [64.02124833997344, 9.130849133720119, 16.436922695431154], [28.009296148738382, 13.93655920409913, 40.345173888785574], [744.2470119521917, 132.15702693542258, 76.20755067881717], [20.0066401062417, 21.145124309667644, 10.459859897092555], [724.2403718459499, 111.01190262575497, 65.74769078172466], [232.07702523240366, 54.30452379528287, 35.862376790031625], [128.04249667994688, 16.81998524632654, 11.954125596677205], [104.03452855245685, 37.484538548956294, 23.90825119335441], [20.0066401062417, 14.897701218174932, 19.425454094600457], [84.02788844621514, 22.586837330781343, 4.482797098753952], [492.16334661354585, 56.70737883047238, 29.885313991693017], [340.1128818061088, 46.13481667563853, 28.391048292108366], [288.0956175298803, 36.52339653488049, 11.954125596677203], [100.03320053120851, 17.300556253364437, 7.4713284979232535], [188.06241699867192, 19.22284028151604, 4.482797098753952], [52.017264276228424, 9.61142014075802, 16.436922695431157], [152.05046480743692, 10.57256215483382, 1.4942656995846506], [2512.8339973439647, 216.25695316705472, 149.426569958465], [1064.3532536520602, 158.58843232250703, 135.9781786622032], [452.1500664010625, 94.6724883864665, 98.62153617258691], [196.06507304116852, 55.265665809358644, 67.2419564813093], [72.02390438247012, 14.897701218174934, 7.4713284979232535], [124.04116865869855, 40.367964591183686, 59.770627983386035], [24.007968127490038, 13.455988197061226, 37.35664248961626], [100.03320053120851, 26.911976394122462, 22.41398549376976], [256.08499335989364, 39.40682257710789, 31.379579691277666], [192.06374501992025, 26.431405387084546, 14.942656995846505], [64.02124833997344, 12.975417190023329, 16.436922695431157], [612.203187250996, 63.915943936040904, 37.35664248961627], [296.0982735723771, 43.731961640449015, 20.919719794185113], [248.08233731739688, 28.83426042227406, 13.448391296261857], [100.03320053120851, 12.014275175947525, 10.459859897092555], [148.0491367861886, 16.81998524632653, 2.988531399169301], [48.01593625498008, 14.897701218174934, 7.471328497923253], [316.10491367861863, 20.183982295591843, 16.436922695431157], [204.06772908366526, 15.378272225212829, 4.482797098753952], [112.03718459495353, 4.805710070379011, 11.954125596677203], [1448.4807436919018, 57.668520844548176, 13.448391296261853], [844.2802124834004, 52.38223976713125, 13.448391296261853], [204.06772908366526, 19.222840281516035, 7.471328497923253], [640.2124833997344, 33.15939948561517, 5.977062798338602], [296.098273572377, 10.572562154833825, 1.4942656995846506], [344.1142098273571, 22.58683733078135, 4.482797098753952], [164.0544488711819, 14.417130211137032, 4.482797098753952], [180.05976095617524, 8.169707119644317, 0.0], [604.2005312084993, 5.286281077416912, 0.0], [128.04249667994688, 4.8057100703790105, 0.0], [476.1580345285522, 0.480571007037901, 0.0], [172.05710491367853, 0.480571007037901, 0.0], [304.1009296148737, 0.0, 0.0]]}, {"children_left": [1, 2, 3, 4, 5, 6, 7, -1, 9, -1, -1, 12, 13, -1, -1, 16, 17, 18, -1, -1, 21, -1, -1, 24, 25, -1, -1, -1, 29, -1, 31, 32, 33, 34, -1, -1, 37, -1, -1, -1, -1, 42, 43, 44, 45, 46, 47, -1, -1, 50, -1, -1, 53, 54, -1, -1, -1, -1, 59, 60, -1, -1, 63, 64, 65, -1, -1, -1, -1, 70, 71, 72, 73, 74, -1, -1, -1, -1, -1, 80, 81, 82, -1, -1, 85, 86, -1, -1, -1, 90, -1, 92, -1, 94, -1, -1, 97, -1, 99, 100, 101, -1, 103, 104, -1, -1, -1, 108, -1, -1, 111, 112, 113, -1, -1, 116, -1, 118, -1, -1, 121, -1, -1, 124, 125, 126, 127, 128, 129, 130, 131, -1, -1, 134, -1, -1, -1, 138, -1, 140, 141, -1, -1, 144, -1, -1, 147, -1, 149, 150, -1, 152, -1, -1, 155, -1, -1, 158, 159, -1, 161, 162, -1, 164, -1, -1, -1, 168, 169, -1, 171, -1, 173, -1, -1, 176, -1, -1, 179, 180, 181, 182, 183, 184, -1, -1, -1, 188, 189, -1, -1, 192, -1, -1, 195, -1, 197, -1, -1, 200, 201, -1, -1, 204, 205, 206, -1, -1, 209, -1, -1, 212, -1, 214, -1, -1, 217, 218, 219, -1, -1, 222, 223, -1, 225, -1, -1, -1, -1, 230, 231, 232, 233, -1, -1, 236, -1, 238, 239, -1, -1, 242, -1, 244, -1, -1, 247, -1, 249, 250, -1, -1, -1, 254, 255, 256, 257, 258, -1, 260, -1, -1, -1, -1, 265, 266, -1, 268, 269, -1, -1, 272, -1, -1, 275, -1, 277, -1, -1, 280, -1, 282, -1, -1, 285, 286, 287, 288, 289, -1, 291, 292, 293, 294, -1, -1, -1, 298, 299, -1, -1, 302, -1, -1, 305, 306, -1, -1, 309, -1, -1, 312, 313, -1, -1, 316, 317, 318, -1, -1, -1, 322, -1, 324, 325, -1, -1, -1, 329, 330, 331, -1, -1, -1, 335, 336, -1, -1, 339, 340, 341, 342, -1, -1, 345, -1, -1, 348, 349, -1, -1, -1, 353, 354, -1, -1, 357, -1, 359, -1, -1, 362, 363, 364, -1, -1, -1, 368, 369, 370, -1, -1, -1, -1, 375, 376, 377, 378, -1, -1, -1, 382, 383, -1, -1, 386, 387, 388, -1, -1, -1, -1, 393, 394, -1, -1, 397, 398, -1, -1, 401, -1, -1], "children_right": [284, 123, 96, 41, 28, 11, 8, -1, 10, -1, -1, 15, 14, -1, -1, 23, 20, 19, -1, -1, 22, -1, -1, 27, 26, -1, -1, -1, 30, -1, 40, 39, 36, 35, -1, -1, 38, -1, -1, -1, -1, 69, 58, 57, 52, 49, 48, -1, -1, 51, -1, -1, 56, 55, -1, -1, -1, -1, 62, 61, -1, -1, 68, 67, 66, -1, -1, -1, -1, 79, 78, 77, 76, 75, -1, -1, -1, -1, -1, 89, 84, 83, -1, -1, 88, 87, -1, -1, -1, 91, -1, 93, -1, 95, -1, -1, 98, -1, 110, 107, 102, -1, 106, 105, -1, -1, -1, 109, -1, -1, 120, 115, 114, -1, -1, 117, -1, 119, -1, -1, 122, -1, -1, 229, 178, 157, 146, 137, 136, 133, 132, -1, -1, 135, -1, -1, -1, 139, -1, 143, 142, -1, -1, 145, -1, -1, 148, -1, 154, 151, -1, 153, -1, -1, 156, -1, -1, 167, 160, -1, 166, 163, -1, 165, -1, -1, -1, 175, 170, -1, 172, -1, 174, -1, -1, 177, -1, -1, 216, 199, 194, 187, 186, 185, -1, -1, -1, 191, 190, -1, -1, 193, -1, -1, 196, -1, 198, -1, -1, 203, 202, -1, -1, 211, 208, 207, -1, -1, 210, -1, -1, 213, -1, 215, -1, -1, 228, 221, 220, -1, -1, 227, 224, -1, 226, -1, -1, -1, -1, 253, 246, 235, 234, -1, -1, 237, -1, 241, 240, -1, -1, 243, -1, 245, -1, -1, 248, -1, 252, 251, -1, -1, -1, 279, 264, 263, 262, 259, -1, 261, -1, -1, -1, -1, 274, 267, -1, 271, 270, -1, -1, 273, -1, -1, 276, -1, 278, -1, -1, 281, -1, 283, -1, -1, 374, 361, 328, 311, 290, -1, 304, 297, 296, 295, -1, -1, -1, 301, 300, -1, -1, 303, -1, -1, 308, 307, -1, -1, 310, -1, -1, 315, 314, -1, -1, 321, 320, 319, -1, -1, -1, 323, -1, 327, 326, -1, -1, -1, 334, 333, 332, -1, -1, -1, 338, 337, -1, -1, 352, 347, 344, 343, -1, -1, 346, -1, -1, 351, 350, -1, -1, -1, 356, 355, -1, -1, 358, -1, 360, -1, -1, 367, 366, 365, -1, -1, -1, 373, 372, 371, -1, -1, -1, -1, 392, 381, 380, 379, -1, -1, -1, 385, 384, -1, -1, 391, 390, 389, -1, -1, -1, -1, 396, 395, -1, -1, 400, 399, -1, -1, 402, -1, -1], "threshold": [0.3500460088253021, 0.21195600181818008, 6.500000154119334e-06, 0.13874400407075882, 0.09663999825716019, 0.06765850260853767, 0.06081249937415123, -2.0, 0.06217200122773647, -2.0, -2.0, 0.07149100303649902, 0.06910699978470802, -2.0, -2.0, 0.08222699910402298, 0.07498950138688087, 0.07362600043416023, -2.0, -2.0, 0.0759189985692501, -2.0, -2.0, 0.08922050148248672, 0.08737599849700928, -2.0, -2.0, -2.0, 0.0979899987578392, -2.0, 0.13778149336576462, 0.13635550439357758, 0.13431750237941742, 0.11392899975180626, -2.0, -2.0, 0.1353754997253418, -2.0, -2.0, -2.0, -2.0, 0.17287050187587738, 0.15642650425434113, 0.15500899404287338, 0.14595049619674683, 0.14205550402402878, 0.14072800427675247, -2.0, -2.0, 0.14356700330972672, -2.0, -2.0, 0.1538970023393631, 0.15021300315856934, -2.0, -2.0, -2.0, -2.0, 0.15919750183820724, 0.1580360010266304, -2.0, -2.0, 0.1716654971241951, 0.16884350031614304, 0.16377900540828705, -2.0, -2.0, -2.0, -2.0, 0.188679501414299, 0.18603800237178802, 0.18472450226545334, 0.1822590008378029, 0.17428449541330338, -2.0, -2.0, -2.0, -2.0, -2.0, 0.19801850616931915, 0.19235649704933167, 0.19052650034427643, -2.0, -2.0, 0.19627399742603302, 0.1939845010638237, -2.0, -2.0, -2.0, 0.1994590014219284, -2.0, 0.20176299661397934, -2.0, 0.20406749844551086, -2.0, -2.0, 0.08564100041985512, -2.0, 0.0052819999400526285, 0.0007069999992381781, 2.8500000553322025e-05, -2.0, 0.00022499999613501132, 0.17530149966478348, -2.0, -2.0, -2.0, 0.16876649856567383, -2.0, -2.0, 0.18740849941968918, 0.13636349886655807, 0.11648949980735779, -2.0, -2.0, 0.161871999502182, -2.0, 0.17720050364732742, -2.0, -2.0, 0.20262149721384048, -2.0, -2.0, 0.0035120000829920173, 0.3484039902687073, 4.999999987376214e-07, 0.31909799575805664, 0.2398195043206215, 0.23704399913549423, 0.223239503800869, 0.21870850026607513, -2.0, -2.0, 0.224931001663208, -2.0, -2.0, -2.0, 0.24124999344348907, -2.0, 0.3102319985628128, 0.24300549924373627, -2.0, -2.0, 0.31268399953842163, -2.0, -2.0, 0.3229524940252304, -2.0, 0.33963701128959656, 0.32591401040554047, -2.0, 0.3297480046749115, -2.0, -2.0, 0.34409649670124054, -2.0, -2.0, 0.26899251341819763, 6.500000154119334e-06, -2.0, 0.0005879999953322113, 3.650000144261867e-05, -2.0, 0.24687249958515167, -2.0, -2.0, -2.0, 0.31734499335289, 0.285911500453949, -2.0, 3.0000000151630957e-05, -2.0, 0.000514000013936311, -2.0, -2.0, 2.949999998236308e-05, -2.0, -2.0, 4.999999987376214e-07, 0.5773515105247498, 0.5272410213947296, 0.39838600158691406, 0.392315998673439, 0.38812850415706635, -2.0, -2.0, -2.0, 0.4295009970664978, 0.4220540076494217, -2.0, -2.0, 0.49089398980140686, -2.0, -2.0, 0.5437940061092377, -2.0, 0.563850998878479, -2.0, -2.0, 0.630152016878128, 0.6050865054130554, -2.0, -2.0, 0.7646590173244476, 0.6940470039844513, 0.6675494909286499, -2.0, -2.0, 0.7165665030479431, -2.0, -2.0, 0.8254460096359253, -2.0, 0.9984129965305328, -2.0, -2.0, 1.1997655034065247, 0.3728249967098236, 0.3606099933385849, -2.0, -2.0, 0.9369919896125793, 0.3898475021123886, -2.0, 0.572334498167038, -2.0, -2.0, -2.0, -2.0, 0.40313199162483215, 0.13413700461387634, 0.007274500094354153, 0.0053250000346452, -2.0, -2.0, 0.009210499934852123, -2.0, 0.0190049996599555, 0.01439599972218275, -2.0, -2.0, 0.02609150018543005, -2.0, 0.05614800006151199, -2.0, -2.0, 0.18029949814081192, -2.0, 0.32693400979042053, 0.2631009966135025, -2.0, -2.0, -2.0, 0.9379144906997681, 0.5257689952850342, 0.2550265043973923, 0.12764950096607208, 0.41884949803352356, -2.0, 0.43683500587940216, -2.0, -2.0, -2.0, -2.0, 0.18501850217580795, 0.560604989528656, -2.0, 0.6307024955749512, 0.07183950021862984, -2.0, -2.0, 0.023220499977469444, -2.0, -2.0, 0.2394689992070198, -2.0, 0.2973574995994568, -2.0, -2.0, 1.1000375151634216, -2.0, 1.411745011806488, -2.0, -2.0, 10.296330451965332, 0.9430265128612518, 2.731501579284668, 0.4012164920568466, 0.09025200083851814, -2.0, 1.9191234707832336, 0.21088550239801407, 1.4629915356636047, 0.1412855014204979, -2.0, -2.0, -2.0, 0.33988000452518463, 1.5177379846572876, -2.0, -2.0, 0.35162200033664703, -2.0, -2.0, 2.27720308303833, 2.0929930210113525, -2.0, -2.0, 0.2977920025587082, -2.0, -2.0, 0.4641900062561035, 0.5745725035667419, -2.0, -2.0, 0.4622189998626709, 1.5707465410232544, 0.8827250003814697, -2.0, -2.0, -2.0, 0.48399150371551514, -2.0, 2.2783409357070923, 1.3296154737472534, -2.0, -2.0, -2.0, 0.22402050346136093, 6.104798078536987, 0.16458600014448166, -2.0, -2.0, -2.0, 0.2592165023088455, 4.978672027587891, -2.0, -2.0, 0.5663399994373322, 0.4030120074748993, 0.365106001496315, 0.34767650067806244, -2.0, -2.0, 0.39049749076366425, -2.0, -2.0, 8.567679405212402, 0.4372749924659729, -2.0, -2.0, -2.0, 0.6739389896392822, 0.609048992395401, -2.0, -2.0, 0.719509482383728, -2.0, 6.868130445480347, -2.0, -2.0, 2.5158854722976685, 1.5031994581222534, 1.1179394721984863, -2.0, -2.0, -2.0, 1.6771495342254639, 1.1745290160179138, 1.0524739623069763, -2.0, -2.0, -2.0, -2.0, 23.445218086242676, 0.3837520033121109, 0.28572849929332733, 0.21532300114631653, -2.0, -2.0, -2.0, 12.787199020385742, 11.112475872039795, -2.0, -2.0, 20.227517127990723, 0.715985506772995, 0.501068502664566, -2.0, -2.0, -2.0, -2.0, 0.49093499779701233, 0.41846999526023865, -2.0, -2.0, 0.9000985026359558, 0.6461630165576935, -2.0, -2.0, 39.00418663024902, -2.0, -2.0], "feature": [0, 1, 0, 1, 1, 1, 1, -2, 1, -2, -2, 1, 1, -2, -2, 1, 1, 1, -2, -2, 1, -2, -2, 1, 1, -2, -2, -2, 1, -2, 1, 1, 1, 1, -2, -2, 1, -2, -2, -2, -2, 1, 1, 1, 1, 1, 1, -2, -2, 1, -2, -2, 1, 1, -2, -2, -2, -2, 1, 1, -2, -2, 1, 1, 1, -2, -2, -2, -2, 1, 1, 1, 1, 1, -2, -2, -2, -2, -2, 1, 1, 1, -2, -2, 1, 1, -2, -2, -2, 1, -2, 1, -2, 1, -2, -2, 1, -2, 0, 0, 0, -2, 0, 1, -2, -2, -2, 1, -2, -2, 1, 1, 1, -2, -2, 1, -2, 1, -2, -2, 1, -2, -2, 0, 1, 0, 1, 1, 1, 1, 1, -2, -2, 1, -2, -2, -2, 1, -2, 1, 1, -2, -2, 1, -2, -2, 1, -2, 1, 1, -2, 1, -2, -2, 1, -2, -2, 1, 0, -2, 0, 0, -2, 1, -2, -2, -2, 1, 1, -2, 0, -2, 0, -2, -2, 0, -2, -2, 0, 1, 1, 1, 1, 1, -2, -2, -2, 1, 1, -2, -2, 1, -2, -2, 1, -2, 1, -2, -2, 1, 1, -2, -2, 1, 1, 1, -2, -2, 1, -2, -2, 1, -2, 1, -2, -2, 1, 1, 1, -2, -2, 1, 1, -2, 1, -2, -2, -2, -2, 1, 0, 0, 0, -2, -2, 0, -2, 0, 0, -2, -2, 0, -2, 0, -2, -2, 0, -2, 1, 1, -2, -2, -2, 1, 1, 0, 0, 1, -2, 1, -2, -2, -2, -2, 0, 1, -2, 1, 0, -2, -2, 0, -2, -2, 0, -2, 0, -2, -2, 1, -2, 1, -2, -2, 0, 1, 0, 1, 1, -2, 0, 1, 0, 1, -2, -2, -2, 1, 0, -2, -2, 1, -2, -2, 0, 0, -2, -2, 1, -2, -2, 0, 1, -2, -2, 1, 0, 0, -2, -2, -2, 1, -2, 0, 0, -2, -2, -2, 1, 0, 1, -2, -2, -2, 1, 0, -2, -2, 1, 1, 1, 1, -2, -2, 1, -2, -2, 0, 1, -2, -2, -2, 1, 1, -2, -2, 1, -2, 0, -2, -2, 0, 1, 1, -2, -2, -2, 1, 1, 1, -2, -2, -2, -2, 0, 1, 1, 1, -2, -2, -2, 0, 0, -2, -2, 0, 1, 1, -2, -2, -2, -2, 1, 1, -2, -2, 1, 1, -2, -2, 0, -2, -2], "classes": [0, 1, 2], "value": [[8014.66002656026, 8029.380385588304, 8058.574917859645], [2220.7370517928343, 6529.998843630338, 6069.707271712655], [512.1699867197872, 3642.7282333472035, 735.178724195648], [232.07702523240366, 3271.7274159139783, 593.2234827351068], [120.03984063745021, 2114.5124309668386, 170.34628975264988], [20.006640106241697, 1136.06986063762, 52.29929948546279], [0.0, 540.6423829176357, 4.482797098753952], [0.0, 401.7573618836825, 0.0], [0.0, 138.88502103395317, 4.482797098753952], [0.0, 19.70341128855395, 4.482797098753952], [0.0, 119.1816097453993, 0.0], [20.006640106241697, 595.4274777199581, 47.816502386708834], [0.0, 66.7993699782683, 25.402516892939058], [0.0, 30.27597344338776, 5.977062798338602], [0.0, 36.52339653488048, 19.425454094600457], [20.006640106241697, 528.6281077416872, 22.41398549376976], [20.006640106241697, 205.68439101222071, 16.436922695431157], [0.0, 60.55194688677559, 1.4942656995846506], [0.0, 37.00396754191839, 0.0], [0.0, 23.547979344857154, 1.4942656995846506], [20.006640106241697, 145.13244412544577, 14.942656995846505], [12.003984063745019, 21.14512430966764, 2.988531399169301], [8.00265604249668, 123.98731981577826, 11.954125596677205], [0.0, 322.94371672946755, 5.977062798338602], [0.0, 157.1467193013933, 5.977062798338602], [0.0, 117.25932571724773, 0.0], [0.0, 39.8873935841458, 5.977062798338602], [0.0, 165.7969974280753, 0.0], [100.03320053120851, 978.4425703291811, 118.04699026718735], [4.00132802124834, 25.95083438004665, 10.459859897092555], [96.03187250996017, 952.4917359491332, 107.58713037009481], [96.03187250996017, 923.6574755268579, 107.58713037009481], [88.02921646746348, 892.900931076431, 98.62153617258691], [88.02921646746348, 842.9215463444874, 98.62153617258691], [28.00929614873838, 418.5773471300087, 49.310768086293486], [60.019920318725106, 424.34419921446363, 49.31076808629349], [0.0, 49.97938473194175, 0.0], [0.0, 24.509121358932962, 0.0], [0.0, 25.470263373008752, 0.0], [8.00265604249668, 30.756544450425668, 8.965594197507905], [0.0, 28.834260422274067, 0.0], [112.03718459495353, 1157.2149849472892, 422.8771929824564], [88.02921646746348, 611.7668919592478, 174.82908685140393], [36.01195219123506, 355.1419742010064, 86.66741057590974], [36.01195219123506, 320.06029068724007, 86.66741057590974], [28.00929614873838, 133.5987399565362, 40.345173888785574], [4.00132802124834, 56.22680782343447, 17.93118839501581], [4.00132802124834, 33.159399485615175, 14.942656995846507], [0.0, 23.067408337819252, 2.988531399169301], [24.007968127490038, 77.37193213310206, 22.413985493769758], [16.00531208499336, 25.95083438004666, 5.977062798338602], [8.00265604249668, 51.42109775305544, 16.436922695431157], [8.00265604249668, 186.46155073070491, 46.322236687124175], [0.0, 162.4330003788101, 34.368111090446966], [0.0, 104.28390852722441, 14.942656995846505], [0.0, 58.14909185158608, 19.42545409460046], [8.00265604249668, 24.02855035189505, 11.954125596677205], [0.0, 35.08168351376678, 0.0], [52.01726427622842, 256.6249177582381, 88.16167627549439], [32.01062416998671, 48.53767171082804, 34.368111090446966], [20.006640106241697, 23.067408337819252, 13.448391296261857], [12.003984063745019, 25.47026337300876, 20.91971979418511], [20.006640106241697, 208.08724604741042, 53.79356518504744], [12.003984063745019, 186.461550730705, 52.2992994854628], [8.00265604249668, 153.30215124509013, 37.35664248961628], [8.00265604249668, 72.56622206272309, 23.90825119335441], [0.0, 80.73592918236737, 13.448391296261855], [4.00132802124834, 33.159399485615175, 14.942656995846505], [8.00265604249668, 21.625695316705546, 1.4942656995846506], [24.007968127490038, 545.4480929880141, 248.04810613105172], [8.00265604249668, 222.50437625854715, 124.02405306552596], [8.00265604249668, 189.34497677293223, 83.67887917674041], [0.0, 164.35528440696152, 80.69034777757112], [0.0, 133.5987399565362, 52.29929948546278], [0.0, 18.26169826744024, 13.448391296261855], [0.0, 115.33704168909611, 38.85090818920093], [0.0, 30.756544450425665, 28.391048292108355], [8.00265604249668, 24.989692365970853, 2.988531399169301], [0.0, 33.15939948561518, 40.34517388878557], [16.00531208499336, 322.9437167294675, 124.02405306552593], [0.0, 144.17130211137, 31.379579691277673], [0.0, 52.86281077416917, 4.482797098753952], [0.0, 22.586837330781357, 4.482797098753952], [0.0, 30.275973443387763, 0.0], [0.0, 91.30849133720116, 26.896782592523717], [0.0, 63.43537292900299, 23.908251193354417], [0.0, 23.547979344857154, 11.954125596677205], [0.0, 39.8873935841458, 11.954125596677203], [0.0, 27.873118408198263, 2.988531399169301], [16.00531208499336, 178.77241461809857, 92.6444733742483], [8.00265604249668, 20.183982295591843, 13.448391296261853], [8.00265604249668, 158.58843232250692, 79.19608207798649], [0.0, 27.873118408198266, 2.988531399169301], [8.00265604249668, 130.71531391430892, 76.20755067881717], [8.00265604249668, 27.873118408198255, 22.413985493769758], [0.0, 102.84219550611076, 53.79356518504745], [280.0929614873836, 371.0008174332572, 141.9552414605417], [0.0, 69.68279602049567, 0.0], [280.09296148738366, 301.3180214127623, 141.95524146054174], [68.02257636122178, 150.8992962099005, 52.29929948546279], [68.02257636122178, 101.88105349203495, 43.33370528795488], [28.00929614873838, 21.145124309667644, 16.436922695431157], [40.0132802124834, 80.7359291823674, 26.89678259252371], [12.003984063745019, 52.38223976713125, 10.459859897092555], [12.003984063745019, 26.431405387084556, 8.965594197507905], [0.0, 25.950834380046658, 1.4942656995846506], [28.00929614873838, 28.35368941523617, 16.436922695431157], [0.0, 49.01824271786593, 8.965594197507903], [0.0, 19.22284028151604, 7.471328497923253], [0.0, 29.795402436349857, 1.4942656995846506], [212.0703851261619, 150.41872520286267, 89.65594197507902], [192.0637450199202, 97.07534342165592, 74.71328497923254], [28.00929614873838, 41.3291066052595, 37.35664248961628], [20.006640106241697, 19.70341128855394, 26.896782592523717], [8.00265604249668, 21.625695316705542, 10.459859897092555], [164.0544488711819, 55.74623681639656, 37.35664248961627], [104.03452855245685, 21.625695316705542, 13.448391296261855], [60.019920318725106, 34.12054149969099, 23.90825119335441], [24.007968127490038, 21.625695316705546, 13.448391296261857], [36.01195219123506, 12.494846182985425, 10.459859897092555], [20.006640106241697, 53.34338178120706, 14.942656995846507], [4.00132802124834, 30.756544450425668, 5.977062798338602], [16.00531208499336, 22.58683733078135, 8.965594197507905], [1708.5670650730451, 2887.2706102837183, 5334.528547517076], [800.2656042496687, 2145.2689754172684, 4269.117103713309], [384.1274900398404, 1186.5298163766047, 1491.2771681854879], [196.0650730411686, 928.9437566042734, 1217.826545161492], [72.02390438247012, 798.2284426899596, 953.3415163350068], [32.01062416998672, 267.6780509201096, 210.69146364143543], [16.00531208499336, 241.24664553302534, 203.2201351435122], [8.00265604249668, 116.77875471020988, 76.20755067881717], [4.00132802124834, 66.3187989712304, 64.25342508213998], [4.00132802124834, 50.459955738979644, 11.954125596677205], [8.00265604249668, 124.46789082281613, 127.01258446469521], [0.0, 16.819985246326535, 31.379579691277666], [8.00265604249668, 107.6479055764897, 95.6330047734176], [16.00531208499336, 26.43140538708456, 7.471328497923253], [40.0132802124834, 530.5503917698393, 742.6500526935712], [0.0, 11.53370416890962, 41.839439588370226], [40.0132802124834, 519.0166876009291, 700.8106131052012], [40.0132802124834, 477.20700998863185, 611.1546711301221], [0.0, 22.586837330781346, 13.448391296261855], [40.0132802124834, 454.6201726578508, 597.7062798338602], [0.0, 41.80967761229742, 89.65594197507905], [0.0, 15.858843232250731, 38.85090818920092], [0.0, 25.950834380046654, 50.80503378587814], [124.04116865869855, 130.7153139143088, 264.48502882648285], [44.01460823373174, 17.300556253364434, 35.862376790031625], [80.0265604249668, 113.41475766094442, 228.62265203645123], [28.00929614873838, 78.81364515421575, 156.8978984563882], [0.0, 13.45598819706123, 44.82797098753953], [28.00929614873838, 65.3576569571546, 112.06992746884879], [24.007968127490038, 18.261698267440238, 17.931188395015806], [4.00132802124834, 47.09595868971432, 94.13873907383297], [52.01726427622842, 34.601112506728875, 71.72475358006324], [44.014608233731735, 18.26169826744023, 37.35664248961627], [8.00265604249668, 16.33941423928863, 34.368111090446966], [188.0624169986719, 257.58605977231383, 273.4506230239907], [128.04249667994688, 110.05076061167911, 115.05845886801806], [28.00929614873838, 32.19825747153936, 8.965594197507903], [100.03320053120851, 77.85250314013996, 106.09286467051017], [84.02788844621514, 48.537671710828036, 67.2419564813093], [16.00531208499336, 17.78112726040233, 34.368111090446966], [68.02257636122178, 30.75654445042567, 32.87384539086232], [24.007968127490038, 18.74226927447814, 11.954125596677205], [44.01460823373174, 12.014275175947521, 20.919719794185113], [16.00531208499336, 29.31483142931197, 38.85090818920092], [60.0199203187251, 147.53529916063522, 158.3921641559729], [12.003984063745019, 89.38620730904958, 109.08139606967944], [8.00265604249668, 31.71768646450147, 22.413985493769758], [4.00132802124834, 57.66852084454816, 86.66741057590974], [0.0, 27.392547401160353, 20.919719794185113], [4.00132802124834, 30.275973443387763, 65.74769078172463], [0.0, 13.455988197061227, 34.368111090446966], [4.00132802124834, 16.819985246326535, 31.37957969127767], [48.015936254980076, 58.149091851586064, 49.31076808629349], [28.009296148738382, 26.91197639412245, 13.448391296261855], [20.0066401062417, 31.237115457463577, 35.86237679003162], [416.1381142098273, 958.7391590406241, 2777.8399355278693], [248.08233731739693, 559.8652231991516, 2048.638274130568], [212.07038512616194, 438.76132942560025, 1447.9434628975296], [200.06640106241693, 370.03967541918115, 1308.9767528361556], [76.02523240371846, 174.92784656179546, 469.1994296695808], [68.02257636122178, 154.26329325916586, 442.30264707705703], [68.02257636122178, 142.24901808321846, 385.52055049284013], [0.0, 12.014275175947523, 56.78209658421673], [8.00265604249668, 20.664553302629745, 26.89678259252371], [124.04116865869855, 195.11182885738697, 839.7773231665738], [4.00132802124834, 49.97938473194175, 273.4506230239909], [4.00132802124834, 42.77081962637322, 212.18572934102014], [0.0, 7.208565105568517, 61.264893682970694], [120.03984063745021, 145.1324441254456, 566.3267001425833], [108.03585657370519, 101.40048248499699, 349.6581737028083], [12.003984063745019, 43.73196164044903, 216.6685264397741], [12.003984063745019, 68.7216540064199, 138.96671006137245], [8.00265604249668, 30.756544450425665, 38.85090818920093], [4.00132802124834, 37.9651095559942, 100.11580187217156], [0.0, 22.106266323743448, 74.71328497923255], [4.00132802124834, 15.858843232250733, 25.402516892939065], [36.01195219123506, 121.10389377355088, 600.6948112330306], [0.0, 42.290248619335316, 137.4724443617878], [0.0, 20.664553302629745, 80.69034777757116], [0.0, 21.625695316705542, 56.782096584216745], [36.01195219123506, 78.81364515421578, 463.22236687124234], [20.0066401062417, 40.848535598221616, 315.29006261236145], [16.00531208499336, 24.028550351895053, 131.49538156344923], [12.003984063745019, 9.13084913372012, 89.65594197507905], [4.00132802124834, 14.897701218174928, 41.83943958837022], [4.00132802124834, 16.81998524632654, 183.79468104891183], [0.0, 5.766852084454812, 86.66741057590974], [4.00132802124834, 11.053133161871724, 97.12727047300226], [16.00531208499336, 37.96510955599419, 147.93230425888038], [12.003984063745019, 14.897701218174927, 25.402516892939058], [4.00132802124834, 23.067408337819252, 122.52978736594135], [0.0, 12.975417190023327, 74.71328497923254], [4.00132802124834, 10.091991147795918, 47.81650238670883], [168.0557768924303, 398.87393584145485, 729.2016613973101], [140.0464807436919, 373.4036724684464, 723.2245985989714], [36.01195219123506, 34.12054149969097, 43.33370528795488], [8.00265604249668, 19.22284028151604, 22.41398549376976], [28.00929614873838, 14.897701218174928, 20.91971979418511], [104.03452855245685, 339.283130968756, 679.8908933110166], [104.03452855245685, 308.0460155112928, 654.4883764180779], [0.0, 14.897701218174927, 56.78209658421673], [104.03452855245685, 293.148314293118, 597.7062798338607], [56.018592297476765, 179.25298562513663, 288.39328001983745], [48.01593625498008, 113.89532866798243, 309.3129998140226], [0.0, 31.237115457463567, 25.40251689293906], [28.00929614873838, 25.47026337300875, 5.977062798338602], [908.3014608233743, 742.0016348665232, 1065.4114438038562], [532.1766268260288, 337.84141794764236, 384.0262847932556], [432.1434262948205, 245.57178459636629, 254.02516892939022], [108.03585657370519, 41.809677612297406, 34.368111090446966], [60.0199203187251, 24.509121358932955, 31.379579691277662], [48.01593625498008, 17.300556253364434, 2.988531399169301], [324.10756972111534, 203.76210698406916, 219.65705783894327], [4.00132802124834, 17.781127260402332, 34.36811109044696], [320.106241699867, 185.98097972366696, 185.28894674849644], [108.03585657370519, 44.212532647486924, 29.885313991693017], [44.01460823373174, 28.834260422274067, 22.41398549376976], [64.02124833997344, 15.378272225212834, 7.471328497923253], [212.07038512616197, 141.76844707618045, 155.4036327568035], [12.003984063745019, 16.819985246326535, 46.32223668712418], [200.06640106241696, 124.94846182985405, 109.0813960696794], [60.019920318725106, 65.8382279641925, 50.805033785878145], [140.0464807436919, 59.11023386566189, 58.276362283801404], [100.03320053120851, 92.26963335127682, 130.00111586386453], [4.00132802124834, 24.02855035189505, 46.32223668712418], [96.03187250996017, 68.24108299938197, 83.67887917674041], [28.009296148738382, 46.13481667563853, 52.299299485462775], [28.00929614873838, 16.819985246326528, 22.413985493769758], [0.0, 29.314831429311972, 29.885313991693017], [68.02257636122178, 22.106266323743448, 31.379579691277662], [376.1248339973438, 404.1602169188718, 681.3851590106007], [312.1035856573702, 335.9191339194907, 648.5113136197385], [64.02124833997344, 138.88502103395314, 233.1054491352051], [64.02124833997344, 127.35131686504356, 194.25454094600425], [28.00929614873838, 101.40048248499706, 161.38069555514207], [0.0, 11.053133161871724, 41.839439588370226], [28.00929614873838, 90.34734932312533, 119.541255966772], [12.003984063745019, 25.47026337300876, 13.448391296261853], [16.00531208499336, 64.8770859501167, 106.0928646705102], [36.01195219123506, 25.950834380046658, 32.873845390862314], [0.0, 11.533704168909622, 38.85090818920092], [248.0823373173969, 197.03411288553866, 415.4058644845335], [220.0730411686586, 148.9770121817489, 312.3015312131919], [44.01460823373174, 21.625695316705546, 25.402516892939058], [176.05843293492694, 127.35131686504353, 286.89901432025266], [32.01062416998672, 49.979384731941735, 104.59859897092554], [4.00132802124834, 29.79540243634986, 77.70181637840183], [28.00929614873838, 20.18398229559184, 26.896782592523714], [144.04780876494024, 77.37193213310209, 182.3004153493272], [60.0199203187251, 29.31483142931197, 41.839439588370226], [84.02788844621514, 48.05710070379015, 140.46097576095707], [28.009296148738382, 48.05710070379014, 103.10433327134083], [0.0, 13.455988197061226, 46.32223668712418], [28.00929614873838, 34.60111250672887, 56.78209658421674], [8.00265604249668, 22.58683733078135, 28.391048292108366], [20.0066401062417, 12.014275175947523, 28.391048292108362], [64.02124833997344, 68.24108299938199, 32.873845390862314], [36.01195219123506, 24.50912135893295, 20.91971979418511], [28.00929614873838, 43.73196164044902, 11.954125596677205], [0.0, 24.509121358932948, 4.482797098753952], [28.00929614873838, 19.222840281516035, 7.4713284979232535], [5793.922974767528, 1499.381541958296, 1988.8676461471837], [3465.150066401073, 1332.6234025161325, 1870.8206558799939], [2856.9482071713232, 1199.0246625595887, 1820.0156220941149], [1360.4515272244382, 718.4536555216661, 1171.5043084743668], [912.3027888446226, 413.77163705962977, 470.6936953691655], [0.0, 28.353689415236165, 0.0], [912.3027888446225, 385.4179476443939, 470.6936953691653], [824.2735723771585, 307.56544450425486, 395.9804103899328], [252.08366533864532, 97.55591442869382, 50.805033785878145], [236.0783532536519, 77.85250314013999, 37.35664248961627], [68.02257636122178, 24.989692365970857, 23.908251193354413], [168.0557768924302, 52.86281077416916, 13.448391296261853], [16.00531208499336, 19.70341128855394, 13.448391296261857], [572.1899070385126, 210.00953007556203, 345.1753766040543], [316.1049136786186, 144.65187311840793, 258.5079660281443], [220.07304116865862, 120.623322766513, 225.634120637282], [96.03187250996017, 24.028550351895053, 32.873845390862314], [256.0849933598936, 65.35765695715459, 86.66741057590971], [92.03054448871183, 12.97541719002333, 5.977062798338602], [164.0544488711819, 52.38223976713125, 80.69034777757113], [88.02921646746348, 77.85250314013999, 74.71328497923254], [12.003984063745019, 37.003967541918406, 38.85090818920092], [12.003984063745019, 17.30055625336443, 16.436922695431154], [0.0, 19.703411288553948, 22.413985493769758], [76.02523240371846, 40.8485355982216, 35.862376790031625], [24.00796812749004, 24.02855035189505, 26.896782592523717], [52.017264276228424, 16.819985246326535, 8.965594197507903], [448.14873837981395, 304.68201846202726, 700.8106131052019], [100.03320053120851, 30.275973443387763, 56.782096584216745], [24.00796812749004, 17.300556253364434, 29.885313991693014], [76.02523240371846, 12.975417190023325, 26.896782592523717], [348.11553784860547, 274.40604501864004, 644.0285165209847], [20.0066401062417, 59.11023386566189, 104.59859897092556], [12.003984063745019, 37.003967541918385, 88.16167627549437], [12.003984063745019, 15.378272225212827, 47.81650238670883], [0.0, 21.625695316705546, 40.34517388878557], [8.00265604249668, 22.106266323743437, 16.436922695431154], [328.1088977423638, 215.2958111529786, 539.4299175500595], [44.01460823373174, 10.091991147795923, 22.413985493769758], [284.09428950863196, 205.20382000518288, 517.0159320562898], [272.09030544488695, 182.6169826744016, 443.79691277664165], [116.03851261620187, 121.58446478058873, 271.9563573244061], [156.05179282868525, 61.0325178938135, 171.8405554522346], [12.003984063745019, 22.586837330781346, 73.2190192796479], [1496.4966799468823, 480.5710070378976, 648.5113136197388], [88.02921646746348, 84.09992623163268, 91.1502076746637], [84.02788844621514, 55.26566580935868, 50.80503378587812], [40.0132802124834, 25.950834380046665, 38.85090818920092], [44.01460823373174, 29.31483142931197, 11.954125596677203], [4.00132802124834, 28.83426042227407, 40.34517388878557], [1408.467463479419, 396.47108080626566, 557.3611059450758], [156.05179282868522, 34.601112506728875, 10.459859897092553], [96.03187250996017, 15.378272225212827, 5.977062798338602], [60.0199203187251, 19.22284028151603, 4.482797098753952], [1252.4156706507329, 361.869968299537, 546.9012460479829], [716.2377158034536, 247.9746396315558, 346.66964230363914], [476.1580345285522, 132.63759794246033, 171.84055545223467], [288.0956175298804, 100.43934047092115, 130.0011158638645], [264.08764940239024, 80.2553581753294, 98.62153617258687], [24.007968127490038, 20.183982295591846, 31.379579691277666], [188.06241699867192, 32.19825747153937, 41.839439588370226], [132.0438247011952, 19.703411288553944, 19.425454094600457], [56.018592297476765, 12.494846182985427, 22.41398549376976], [240.0796812749002, 115.33704168909607, 174.82908685140387], [164.0544488711819, 104.76447953426238, 152.4151013576342], [20.0066401062417, 30.75654445042567, 40.345173888785574], [144.0478087649402, 74.00793508383677, 112.0699274688487], [76.02523240371846, 10.572562154833822, 22.413985493769758], [536.1779548472774, 113.89532866798245, 200.23160374434295], [284.094289508632, 44.212532647486924, 53.793565185047434], [108.03585657370519, 23.06740833781925, 29.88531399169301], [176.0584329349269, 21.145124309667647, 23.908251193354406], [252.08366533864532, 69.68279602049567, 146.43803855929565], [36.01195219123506, 10.572562154833822, 46.322236687124175], [216.07171314741026, 59.11023386566187, 100.11580187217157], [180.0597609561752, 41.329106605259504, 70.23048788047856], [36.01195219123506, 17.781127260402336, 29.88531399169302], [608.2018592297477, 133.5987399565363, 50.80503378587814], [232.0770252324036, 77.37193213310208, 37.35664248961627], [140.0464807436919, 53.823952788244966, 29.885313991693014], [104.03452855245685, 25.47026337300876, 13.448391296261853], [36.01195219123506, 28.353689415236165, 16.436922695431157], [92.03054448871183, 23.547979344857144, 7.471328497923253], [376.12483399734367, 56.22680782343447, 13.448391296261855], [264.0876494023902, 45.17367466156274, 13.448391296261853], [204.06772908366517, 29.314831429311976, 1.4942656995846506], [88.02921646746348, 18.74226927447814, 1.4942656995846506], [116.03851261620187, 10.572562154833822, 0.0], [60.019920318725106, 15.858843232250733, 11.954125596677205], [112.03718459495353, 11.053133161871722, 0.0], [2328.7729083665404, 166.75813944215108, 118.04699026718734], [1068.3545816733085, 127.83188787208147, 115.05845886801804], [252.0836653386453, 49.97938473194175, 50.80503378587814], [188.0624169986719, 28.834260422274063, 20.919719794185106], [80.0265604249668, 13.936559204099126, 16.436922695431157], [108.03585657370519, 14.897701218174927, 4.482797098753952], [64.02124833997344, 21.145124309667647, 29.885313991693017], [816.270916334662, 77.85250314013997, 64.25342508214], [256.08499335989364, 32.19825747153937, 35.86237679003162], [120.03984063745021, 10.57256215483382, 5.977062798338602], [136.04515272244353, 21.62569531670555, 29.88531399169301], [560.1859229747677, 45.65424566860063, 28.39104829210837], [456.15139442231066, 31.717686464501476, 17.93118839501581], [232.0770252324036, 20.18398229559184, 1.4942656995846506], [108.03585657370519, 6.727994098530616, 1.4942656995846506], [124.04116865869855, 13.455988197061227, 0.0], [224.07436918990683, 11.533704168909628, 16.436922695431157], [104.03452855245685, 13.93655920409913, 10.459859897092553], [1260.4183266932298, 38.92625157007, 2.988531399169301], [224.07436918990692, 22.58683733078135, 0.0], [124.04116865869855, 10.091991147795923, 0.0], [100.03320053120851, 12.494846182985425, 0.0], [1036.3439575033217, 16.339414239288633, 2.988531399169301], [372.12350597609526, 12.494846182985428, 2.988531399169301], [192.06374501992025, 3.363997049265307, 0.0], [180.0597609561752, 9.130849133720119, 2.988531399169301], [664.2204515272248, 3.844568056303209, 0.0], [176.0584329349269, 3.844568056303208, 0.0], [488.1620185922973, 0.0, 0.0]]}, {"children_left": [1, 2, 3, 4, 5, 6, -1, 8, 9, 10, -1, 12, -1, -1, -1, 16, 17, 18, -1, -1, -1, 22, 23, -1, -1, 26, -1, -1, 29, -1, 31, 32, 33, 34, -1, -1, 37, -1, -1, -1, 41, -1, -1, 44, 45, 46, 47, -1, 49, 50, -1, -1, 53, -1, -1, -1, 57, -1, -1, 60, 61, -1, 63, 64, -1, 66, -1, -1, -1, 70, 71, 72, 73, -1, -1, -1, 77, -1, -1, 80, 81, 82, -1, -1, 85, -1, -1, 88, -1, -1, 91, 92, -1, -1, 95, 96, -1, -1, 99, 100, -1, -1, 103, -1, 105, -1, 107, -1, 109, -1, -1, 112, 113, 114, 115, -1, 117, -1, 119, 120, 121, -1, -1, 124, -1, -1, -1, 128, 129, 130, 131, -1, 133, -1, -1, 136, -1, 138, -1, -1, -1, 142, 143, 144, 145, -1, -1, -1, -1, 150, 151, 152, -1, -1, 155, -1, -1, -1, 159, 160, 161, 162, -1, 164, 165, -1, -1, 168, -1, -1, 171, -1, -1, -1, 175, 176, 177, 178, 179, -1, -1, 182, -1, -1, 185, 186, -1, -1, 189, -1, -1, -1, 193, 194, 195, -1, -1, 198, -1, -1, 201, -1, 203, -1, -1, 206, 207, 208, 209, -1, -1, -1, 213, 214, -1, 216, -1, -1, 219, 220, 221, -1, 223, -1, -1, -1, 227, -1, 229, 230, -1, -1, 233, -1, -1, 236, 237, 238, 239, 240, -1, 242, -1, -1, -1, 246, 247, 248, -1, -1, 251, -1, -1, 254, -1, -1, 257, -1, 259, -1, -1, -1, 263, 264, 265, 266, -1, 268, 269, 270, 271, 272, -1, -1, 275, -1, -1, -1, -1, 280, 281, -1, 283, 284, -1, -1, 287, -1, -1, 290, 291, 292, -1, -1, -1, -1, 297, 298, 299, -1, -1, 302, 303, -1, -1, 306, 307, 308, -1, -1, -1, 312, 313, -1, -1, -1, 317, 318, 319, -1, 321, -1, -1, 324, -1, -1, 327, 328, -1, 330, -1, -1, 333, 334, -1, -1, -1, 338, 339, -1, 341, 342, 343, -1, -1, -1, 347, -1, -1, 350, -1, -1, 353, 354, 355, 356, 357, -1, -1, 360, -1, -1, -1, 364, 365, 366, 367, -1, -1, -1, -1, 372, -1, -1, 375, 376, 