{"classes": [0, 1, 2], "dtrees": [{"children_left": [1, 2, 3, 4, 5, 6, -1, 8, -1, 10, -1, -1, 13, 14, 15, 16, -1, 18, -1, -1, -1, 22, 23, 24, -1, -1, 27, -1, -1, 30, -1, 32, -1, -1, -1, 36, 37, 38, -1, 40, 41, 42, -1, -1, -1, 46, -1, -1, 49, 50, -1, -1, 53, 54, -1, 56, -1, -1, 59, -1, 61, -1, -1, 64, 65, 66, 67, 68, -1, -1, -1, -1, 73, 74, 75, -1, -1, -1, 79, -1, 81, -1, -1, -1, 85, -1, 87, 88, 89, -1, -1, 92, -1, 94, 95, -1, -1, -1, 99, 100, -1, -1, -1, 104, 105, 106, 107, 108, 109, -1, -1, 112, -1, -1, 115, 116, -1, -1, 119, -1, 121, -1, -1, 124, 125, -1, -1, 128, -1, 130, 131, 132, -1, -1, -1, -1, 137, 138, 139, 140, -1, -1, 143, -1, 145, -1, 147, -1, -1, 150, -1, 152, 153, -1, 155, -1, -1, 158, 159, -1, -1, 162, -1, -1, 165, 166, 167, 168, 169, -1, -1, -1, 173, -1, 175, -1, -1, 178, 179, 180, -1, -1, -1, 184, 185, -1, -1, -1, 189, 190, 191, -1, -1, -1, 195, -1, 197, -1, -1, 200, 201, 202, 203, 204, -1, -1, 207, -1, 209, -1, -1, 212, -1, -1, 215, 216, 217, 218, -1, -1, -1, 222, -1, -1, 225, 226, 227, -1, 229, -1, -1, 232, 233, -1, -1, 236, -1, -1, 239, -1, 241, -1, 243, -1, -1, 246, 247, 248, -1, 250, 251, 252, -1, -1, 255, -1, -1, -1, 259, 260, 261, 262, -1, -1, 265, -1, -1, 268, -1, -1, 271, -1, 273, -1, -1, -1, 277, 278, 279, 280, 281, -1, 283, 284, 285, -1, -1, 288, -1, -1, 291, 292, 293, -1, -1, 296, -1, -1, 299, -1, 301, -1, -1, 304, 305, 306, -1, -1, -1, 310, 311, 312, 313, -1, -1, -1, -1, 318, 319, 320, -1, -1, -1, 324, 325, -1, -1, 328, -1, -1, 331, 332, 333, -1, 335, 336, 337, -1, -1, 340, -1, -1, 343, 344, -1, -1, 347, -1, -1, 350, 351, -1, -1, -1, 355, 356, -1, -1, 359, -1, 361, -1, 363, -1, 365, -1, -1, 368, -1, 370, 371, 372, -1, -1, -1, 376, -1, -1, 379, 380, 381, 382, -1, -1, -1, 386, 387, 388, 389, -1, -1, -1, 393, 394, -1, -1, -1, 398, -1, -1, 401, 402, -1, -1, 405, -1, 407, -1, -1], "children_right": [276, 103, 84, 35, 12, 7, -1, 9, -1, 11, -1, -1, 34, 21, 20, 17, -1, 19, -1, -1, -1, 29, 26, 25, -1, -1, 28, -1, -1, 31, -1, 33, -1, -1, -1, 63, 48, 39, -1, 45, 44, 43, -1, -1, -1, 47, -1, -1, 52, 51, -1, -1, 58, 55, -1, 57, -1, -1, 60, -1, 62, -1, -1, 83, 72, 71, 70, 69, -1, -1, -1, -1, 78, 77, 76, -1, -1, -1, 80, -1, 82, -1, -1, -1, 86, -1, 98, 91, 90, -1, -1, 93, -1, 97, 96, -1, -1, -1, 102, 101, -1, -1, -1, 199, 136, 123, 114, 111, 110, -1, -1, 113, -1, -1, 118, 117, -1, -1, 120, -1, 122, -1, -1, 127, 126, -1, -1, 129, -1, 135, 134, 133, -1, -1, -1, -1, 164, 149, 142, 141, -1, -1, 144, -1, 146, -1, 148, -1, -1, 151, -1, 157, 154, -1, 156, -1, -1, 161, 160, -1, -1, 163, -1, -1, 188, 177, 172, 171, 170, -1, -1, -1, 174, -1, 176, -1, -1, 183, 182, 181, -1, -1, -1, 187, 186, -1, -1, -1, 194, 193, 192, -1, -1, -1, 196, -1, 198, -1, -1, 245, 214, 211, 206, 205, -1, -1, 208, -1, 210, -1, -1, 213, -1, -1, 224, 221, 220, 219, -1, -1, -1, 223, -1, -1, 238, 231, 228, -1, 230, -1, -1, 235, 234, -1, -1, 237, -1, -1, 240, -1, 242, -1, 244, -1, -1, 275, 258, 249, -1, 257, 254, 253, -1, -1, 256, -1, -1, -1, 270, 267, 264, 263, -1, -1, 266, -1, -1, 269, -1, -1, 272, -1, 274, -1, -1, -1, 378, 367, 330, 303, 282, -1, 290, 287, 286, -1, -1, 289, -1, -1, 298, 295, 294, -1, -1, 297, -1, -1, 300, -1, 302, -1, -1, 309, 308, 307, -1, -1, -1, 317, 316, 315, 314, -1, -1, -1, -1, 323, 322, 321, -1, -1, -1, 327, 326, -1, -1, 329, -1, -1, 354, 349, 334, -1, 342, 339, 338, -1, -1, 341, -1, -1, 346, 345, -1, -1, 348, -1, -1, 353, 352, -1, -1, -1, 358, 357, -1, -1, 360, -1, 362, -1, 364, -1, 366, -1, -1, 369, -1, 375, 374, 373, -1, -1, -1, 377, -1, -1, 400, 385, 384, 383, -1, -1, -1, 397, 392, 391, 390, -1, -1, -1, 396, 395, -1, -1, -1, 399, -1, -1, 404, 403, -1, -1, 406, -1, 408, -1, -1], "threshold": [0.3025844991207123, 0.20534949749708176, 0.00011550000272109173, 0.12451599910855293, 0.06455399841070175, 0.05869000032544136, -2.0, 0.06084899976849556, -2.0, 0.06206299923360348, -2.0, -2.0, 1.499999996212864e-06, 0.06996049731969833, 0.06822850182652473, 0.06577799841761589, -2.0, 0.06731550022959709, -2.0, -2.0, -2.0, 0.09663999825716019, 0.07581399753689766, 0.07424899935722351, -2.0, -2.0, 0.08049900084733963, -2.0, -2.0, 0.09768899902701378, -2.0, 0.10343950241804123, -2.0, -2.0, -2.0, 0.17226599901914597, 0.14067699760198593, 0.12559399753808975, -2.0, 0.13835600018501282, 0.13731099665164948, 0.13590549677610397, -2.0, -2.0, -2.0, 0.13964949548244476, -2.0, -2.0, 0.14385900646448135, 0.1420470029115677, -2.0, -2.0, 0.15012700110673904, 0.145346999168396, -2.0, 0.14890049397945404, -2.0, -2.0, 0.15166699886322021, -2.0, 0.15642650425434113, -2.0, -2.0, 0.20386800169944763, 0.18424149602651596, 0.18257100135087967, 0.18101900070905685, 0.17813150584697723, -2.0, -2.0, -2.0, -2.0, 0.19515150040388107, 0.19286150485277176, 0.19140899926424026, -2.0, -2.0, -2.0, 0.1968884989619255, -2.0, 0.20176299661397934, -2.0, -2.0, -2.0, 0.08564100041985512, -2.0, 0.06798750162124634, 0.13211049884557724, 0.11046149954199791, -2.0, -2.0, 0.0004800000024260953, -2.0, 0.013555499725043774, 0.16513899713754654, -2.0, -2.0, -2.0, 0.1707329973578453, 0.13740699738264084, -2.0, -2.0, -2.0, 4.999999987376214e-07, 0.26860249042510986, 0.22444399446249008, 0.21414050459861755, 0.20910099893808365, 0.2070850059390068, -2.0, -2.0, 0.2112245038151741, -2.0, -2.0, 0.2177179977297783, 0.21582549810409546, -2.0, -2.0, 0.2210185006260872, -2.0, 0.22295499593019485, -2.0, -2.0, 0.22877699881792068, 0.22701900452375412, -2.0, -2.0, 0.23228099942207336, -2.0, 0.2666444927453995, 0.2646099925041199, 0.2508450001478195, -2.0, -2.0, -2.0, -2.0, 0.3628229945898056, 0.3209105134010315, 0.2737340033054352, 0.2707595080137253, -2.0, -2.0, 0.27815499901771545, -2.0, 0.2815064936876297, -2.0, 0.28347499668598175, -2.0, -2.0, 0.3239170014858246, -2.0, 0.3416775017976761, 0.33010099828243256, -2.0, 0.3361700028181076, -2.0, -2.0, 0.3500254899263382, 0.34502899646759033, -2.0, -2.0, 0.3579320013523102, -2.0, -2.0, 0.6578719913959503, 0.4452195018529892, 0.39838600158691406, 0.39319999516010284, 0.3677600026130676, -2.0, -2.0, -2.0, 0.40359701216220856, -2.0, 0.4198229908943176, -2.0, -2.0, 0.4945099949836731, 0.4861840009689331, 0.45310549437999725, -2.0, -2.0, -2.0, 0.6274175047874451, 0.5263465046882629, -2.0, -2.0, -2.0, 0.7522670030593872, 0.7165065109729767, 0.6859720051288605, -2.0, -2.0, -2.0, 0.8351469933986664, -2.0, 1.00753253698349, -2.0, -2.0, 0.39042599499225616, 0.24198249727487564, 0.027251499705016613, 0.22333700209856033, 5.7499999456922524e-05, -2.0, -2.0, 7.250000271596946e-05, -2.0, 0.2313615009188652, -2.0, -2.0, 0.22692450135946274, -2.0, -2.0, 0.2676369994878769, 0.2603580057621002, 0.015950999688357115, 0.0009680000075604767, -2.0, -2.0, -2.0, 0.26407550275325775, -2.0, -2.0, 0.3161199986934662, 0.0012829999905079603, 1.7500000467407517e-05, -2.0, 0.28431200981140137, -2.0, -2.0, 0.015959500335156918, 0.007219000020995736, -2.0, -2.0, 0.15345800668001175, -2.0, -2.0, 0.32065249979496, -2.0, 6.500000154119334e-06, -2.0, 0.32687050104141235, -2.0, -2.0, 1.2515380382537842, 0.00015499999426538125, 0.4070034921169281, -2.0, 9.59999997576233e-05, 0.7546485066413879, 0.6307809948921204, -2.0, -2.0, 0.8726544976234436, -2.0, -2.0, -2.0, 0.8525409996509552, 0.20776449888944626, 0.44766899943351746, 0.40313199162483215, -2.0, -2.0, 0.4611094892024994, -2.0, -2.0, 0.5375699996948242, -2.0, -2.0, 0.0032465000404044986, -2.0, 0.9581094980239868, -2.0, -2.0, -2.0, 9.957606792449951, 0.9564709961414337, 2.338552951812744, 0.4012164920568466, 0.09334300085902214, -2.0, 0.17686549574136734, 0.14438900351524353, 0.11525150015950203, -2.0, -2.0, 1.2863995432853699, -2.0, -2.0, 0.24270449578762054, 0.21369749307632446, 0.195592999458313, -2.0, -2.0, 0.2284495010972023, -2.0, -2.0, 0.253542497754097, -2.0, 0.57344850897789, -2.0, -2.0, 0.4736744910478592, 0.3886820077896118, 0.6010179817676544, -2.0, -2.0, -2.0, 1.292356014251709, 1.0937604904174805, 0.9920420050621033, 0.8829364776611328, -2.0, -2.0, -2.0, -2.0, 0.5592440068721771, 0.49707549810409546, 1.8511459827423096, -2.0, -2.0, -2.0, 0.6769759953022003, 1.7670785188674927, -2.0, -2.0, 0.7612484991550446, -2.0, -2.0, 0.5837545096874237, 0.5098420083522797, 0.13027749955654144, -2.0, 0.4024115055799484, 0.246628999710083, 0.18719550222158432, -2.0, -2.0, 0.260686993598938, -2.0, -2.0, 0.43332649767398834, 0.4152815043926239, -2.0, -2.0, 5.09607195854187, -2.0, -2.0, 5.806368827819824, 0.5415520071983337, -2.0, -2.0, -2.0, 0.6933494806289673, 5.205331087112427, -2.0, -2.0, 0.7139165103435516, -2.0, 0.7574925124645233, -2.0, 0.8298069834709167, -2.0, 5.536309003829956, -2.0, -2.0, 0.6093659996986389, -2.0, 1.3289735317230225, 1.2085404992103577, 2.759339451789856, -2.0, -2.0, -2.0, 1.7774744629859924, -2.0, -2.0, 23.38512420654297, 0.33226700127124786, 15.621169090270996, 12.70042896270752, -2.0, -2.0, -2.0, 0.9811494946479797, 13.035210132598877, 0.5651060044765472, 11.075886249542236, -2.0, -2.0, -2.0, 18.510685920715332, 15.819572925567627, -2.0, -2.0, -2.0, 14.213533401489258, -2.0, -2.0, 0.5086509883403778, 27.973210334777832, -2.0, -2.0, 28.947487831115723, -2.0, 0.8930605053901672, -2.0, -2.0], "feature": [0, 1, 0, 1, 1, 1, -2, 1, -2, 1, -2, -2, 0, 1, 1, 1, -2, 1, -2, -2, -2, 1, 1, 1, -2, -2, 1, -2, -2, 1, -2, 1, -2, -2, -2, 1, 1, 1, -2, 1, 1, 1, -2, -2, -2, 1, -2, -2, 1, 1, -2, -2, 1, 1, -2, 1, -2, -2, 1, -2, 1, -2, -2, 1, 1, 1, 1, 1, -2, -2, -2, -2, 1, 1, 1, -2, -2, -2, 1, -2, 1, -2, -2, -2, 1, -2, 0, 1, 1, -2, -2, 0, -2, 0, 1, -2, -2, -2, 1, 1, -2, -2, -2, 0, 1, 1, 1, 1, 1, -2, -2, 1, -2, -2, 1, 1, -2, -2, 1, -2, 1, -2, -2, 1, 1, -2, -2, 1, -2, 1, 1, 1, -2, -2, -2, -2, 1, 1, 1, 1, -2, -2, 1, -2, 1, -2, 1, -2, -2, 1, -2, 1, 1, -2, 1, -2, -2, 1, 1, -2, -2, 1, -2, -2, 1, 1, 1, 1, 1, -2, -2, -2, 1, -2, 1, -2, -2, 1, 1, 1, -2, -2, -2, 1, 1, -2, -2, -2, 1, 1, 1, -2, -2, -2, 1, -2, 1, -2, -2, 1, 1, 0, 1, 0, -2, -2, 0, -2, 1, -2, -2, 1, -2, -2, 1, 1, 0, 0, -2, -2, -2, 1, -2, -2, 1, 0, 0, -2, 1, -2, -2, 0, 0, -2, -2, 0, -2, -2, 1, -2, 0, -2, 1, -2, -2, 1, 0, 1, -2, 0, 1, 1, -2, -2, 1, -2, -2, -2, 1, 0, 1, 1, -2, -2, 1, -2, -2, 1, -2, -2, 0, -2, 1, -2, -2, -2, 0, 1, 0, 1, 1, -2, 1, 1, 1, -2, -2, 0, -2, -2, 1, 1, 1, -2, -2, 1, -2, -2, 1, -2, 0, -2, -2, 0, 0, 1, -2, -2, -2, 0, 0, 0, 0, -2, -2, -2, -2, 1, 1, 0, -2, -2, -2, 1, 0, -2, -2, 1, -2, -2, 1, 1, 1, -2, 1, 1, 1, -2, -2, 1, -2, -2, 1, 1, -2, -2, 0, -2, -2, 0, 1, -2, -2, -2, 1, 0, -2, -2, 1, -2, 1, -2, 1, -2, 0, -2, -2, 0, -2, 1, 1, 0, -2, -2, -2, 1, -2, -2, 0, 1, 0, 0, -2, -2, -2, 1, 0, 1, 0, -2, -2, -2, 0, 0, -2, -2, -2, 0, -2, -2, 1, 0, -2, -2, 0, -2, 1, -2, -2], "classes": [0, 1, 2], "value": [[7900.3199224431255, 8071.3864554572865, 7981.406182246139], [2045.2011633543493, 6446.307452297513, 5977.093477048849], [502.53514299563705, 3517.307492299631, 755.7244626153723], [272.69348844724504, 3278.126725068968, 636.2423341386339], [58.43431895298108, 1907.6595063803338, 174.74261289723074], [0.0, 488.9703588143495, 2.9870532119184787], [0.0, 384.81099243969555, 0.0], [0.0, 104.15936637465492, 2.9870532119184787], [0.0, 31.826473058922343, 2.9870532119184787], [0.0, 72.33289331573265, 0.0], [0.0, 20.253210128405144, 0.0], [0.0, 52.07968318732747, 0.0], [58.43431895298107, 1418.6891475659465, 171.75555968531228], [46.74745516238487, 1398.4359374375404, 170.26203307935305], [0.0, 105.12380495219804, 34.351111937062505], [0.0, 79.08396335853436, 11.948212847673915], [0.0, 21.217648705948235, 8.961159635755436], [0.0, 57.8663146525861, 2.9870532119184787], [0.0, 35.202008080323196, 0.0], [0.0, 22.664306572262895, 2.9870532119184787], [0.0, 26.03984159366374, 22.40289908938859], [46.74745516238487, 1293.3121324853332, 135.91092114229076], [19.478106317660362, 591.6830673226929, 31.364058725144027], [19.478106317660362, 119.59038361534454, 7.467633029796197], [0.0, 83.90615624624982, 4.480579817877718], [19.478106317660362, 35.68422736909476, 2.9870532119184787], [0.0, 472.09268370734526, 23.89642569534783], [0.0, 109.46377855114197, 10.454686241714676], [0.0, 362.6289051562042, 13.441739453633154], [27.269348844724504, 701.6290651626116, 104.54686241714678], [3.895621263532073, 18.324332973318935, 8.961159635755436], [23.373727581192433, 683.3047321892916, 95.58570278139133], [0.0, 148.04132165286592, 31.364058725144027], [23.373727581192433, 535.2634105364189, 64.2216440562473], [11.686863790596218, 20.253210128405136, 1.4935266059592394], [214.25916949426392, 1370.4672186887874, 461.49972124140356], [183.09419938600735, 870.8880355214321, 238.9642569534779], [38.956212635320725, 317.7825113004506, 82.14396332775816], [11.686863790596218, 20.253210128405133, 0.0], [27.269348844724504, 297.52930117204556, 82.14396332775816], [27.269348844724504, 256.5406616264642, 62.72811745028805], [19.478106317660362, 232.9119164766584, 61.234590844328814], [19.478106317660362, 205.42541701668011, 47.79285139069566], [0.0, 27.486499459978393, 13.441739453633154], [7.791242527064146, 23.62874514980599, 1.4935266059592394], [0.0, 40.98863954558181, 19.41584587747011], [0.0, 19.77099083963359, 11.948212847673915], [0.0, 21.21764870594824, 7.467633029796197], [144.1379867506867, 553.1055242209674, 156.82029362572013], [38.95621263532073, 52.56190247609906, 8.961159635755436], [7.791242527064146, 22.664306572262888, 4.480579817877718], [31.16497010825658, 29.897595903836137, 4.480579817877718], [105.18177411536598, 500.54362174486636, 147.85913398996468], [19.478106317660362, 155.75683027321068, 31.364058725144027], [11.686863790596218, 31.82647305892234, 8.961159635755436], [7.791242527064146, 123.9303572142885, 22.40289908938859], [7.791242527064146, 91.1394455778231, 20.90937248342935], [0.0, 32.79091163646545, 1.4935266059592394], [85.7036677977056, 344.78679147165707, 116.49507526482063], [19.478106317660362, 18.806552262090488, 17.922319271510872], [66.22556148004523, 325.9802392095669, 98.57275599330976], [0.0, 79.56618264730587, 17.922319271510872], [66.22556148004523, 246.4140565622617, 80.65043672179888], [31.164970108256583, 499.5791831673236, 222.5354642879263], [15.582485054128291, 476.4326573062894, 218.0548844700486], [7.791242527064146, 173.11672466898648, 106.04038902310597], [7.791242527064146, 153.34573382935295, 64.2216440562473], [7.791242527064146, 117.66150646025818, 59.741064238369574], [3.895621263532073, 84.38837553502132, 26.88347890726631], [3.895621263532073, 33.273130925237, 32.857585331103266], [0.0, 35.68422736909476, 4.480579817877718], [0.0, 19.770990839633583, 41.8187449668587], [7.791242527064146, 303.3159326373044, 112.01449544694293], [3.895621263532073, 181.31445257810282, 49.2863779966549], [3.895621263532073, 136.9502780111203, 44.80579817877718], [3.895621263532073, 110.42821712868505, 29.870532119184787], [0.0, 26.522060882435294, 14.935266059592394], [0.0, 44.36417456698268, 4.480579817877718], [3.895621263532073, 122.00148005920222, 62.72811745028805], [0.0, 20.735429417176682, 23.89642569534783], [3.895621263532073, 101.26605064202563, 38.83169175494022], [3.895621263532073, 75.7084283371335, 22.40289908938859], [0.0, 25.557622304892185, 16.428792665551633], [15.582485054128291, 23.146525861034444, 4.480579817877718], [229.84165454839228, 239.1807672306885, 119.48212847673909], [0.0, 51.1152446097844, 0.0], [229.84165454839228, 188.0655226209043, 119.48212847673906], [116.86863790596222, 138.3969358774349, 85.13101653967665], [23.373727581192433, 32.3086923476939, 43.31227157281794], [19.478106317660362, 16.877675107004283, 11.948212847673915], [3.895621263532073, 15.431017240689629, 31.364058725144027], [93.49491032476972, 106.088243529741, 41.8187449668587], [0.0, 19.770990839633583, 8.961159635755436], [93.49491032476976, 86.31725269010755, 32.857585331103266], [74.01680400710939, 47.257490299611995, 17.922319271510872], [46.74745516238488, 17.842113684547382, 5.9741064238369574], [27.269348844724508, 29.415376615064584, 11.948212847673915], [19.478106317660362, 39.0597623904956, 14.935266059592394], [112.97301664243012, 49.66858674346975, 34.351111937062505], [85.7036677977056, 33.75535021400855, 10.454686241714676], [23.373727581192433, 19.288771550862034, 7.467633029796197], [62.329940216513165, 14.466578663146526, 2.9870532119184787], [27.26934884472451, 15.913236529461182, 23.89642569534783], [1542.666020358707, 2928.9999599984008, 5221.369014433477], [409.04023267086734, 1526.7062682507799, 3261.862107414964], [62.32994021651315, 608.5607424296966, 594.4235891717755], [19.478106317660362, 204.94319772790854, 164.28792665551617], [0.0, 92.10388415536612, 92.59864956947283], [0.0, 44.36417456698267, 32.857585331103266], [0.0, 17.842113684547382, 23.89642569534783], [0.0, 26.5220608824353, 8.961159635755436], [0.0, 47.73970958838354, 59.741064238369574], [0.0, 21.69986799471979, 35.844638543021745], [0.0, 26.03984159366375, 23.89642569534783], [19.478106317660362, 112.8393135725427, 71.68927708604348], [11.686863790596218, 41.95307812312492, 13.441739453633154], [3.895621263532073, 20.735429417176682, 8.961159635755436], [7.791242527064146, 21.217648705948243, 4.480579817877718], [7.791242527064146, 70.886235449418, 58.247537632410335], [0.0, 33.75535021400855, 38.83169175494022], [7.791242527064146, 37.130885235409394, 19.41584587747011], [7.791242527064146, 20.253210128405133, 7.467633029796197], [0.0, 16.877675107004283, 11.948212847673915], [42.85183389885279, 403.6175447017856, 430.1356625162598], [11.686863790596218, 31.344253770150797, 76.16985690392119], [0.0, 19.288771550862034, 40.32521836089946], [11.686863790596218, 12.055482219288775, 35.844638543021745], [31.164970108256583, 372.2732909316352, 353.96580561233884], [0.0, 42.435297411896464, 14.935266059592394], [31.164970108256583, 329.8379935197392, 339.0305395527465], [23.373727581192437, 307.6559062362481, 324.0952734931542], [23.373727581192437, 294.1537661506448, 289.74416155609185], [11.686863790596218, 174.08116324652948, 198.63903859257857], [11.686863790596218, 120.0726029041161, 91.10512296351357], [0.0, 13.502140085603425, 34.351111937062505], [7.791242527064146, 22.18208728349134, 14.935266059592394], [346.71029245435426, 918.1455258210451, 2667.43851824319], [171.40733559541124, 445.5706228249103, 975.2728736913798], [42.851833898852796, 291.7426697067871, 558.578950628754], [0.0, 24.11096443857754, 79.15691011583968], [0.0, 12.537701508060326, 37.338165148980984], [0.0, 11.573262930517222, 41.8187449668587], [42.851833898852796, 267.6317052682098, 479.42204051291463], [0.0, 33.273130925237, 31.364058725144027], [42.851833898852796, 234.35857434297313, 448.05798178777064], [0.0, 13.019920796831878, 47.79285139069566], [42.851833898852796, 221.3386535461414, 400.26513039707527], [3.895621263532073, 18.806552262090484, 16.428792665551633], [38.956212635320725, 202.53210128405095, 383.8363377315237], [128.5555016965584, 153.82795311812436, 416.6939230626267], [31.16497010825658, 8.679947197887916, 31.364058725144027], [97.39053158830183, 145.14800592023659, 385.32986433748283], [31.164970108256583, 68.95735829433177, 195.65198538066022], [23.373727581192437, 27.486499459978397, 64.2216440562473], [7.791242527064146, 41.47085883435339, 131.430341324413], [0.0, 23.62874514980599, 76.1698569039212], [7.791242527064146, 17.842113684547385, 55.260484420491856], [66.22556148004524, 76.190647625905, 189.67787895682324], [50.64307642591694, 24.593183727349086, 70.19575048008426], [23.373727581192437, 14.466578663146528, 20.90937248342935], [27.26934884472451, 10.126605064202572, 49.2863779966549], [15.582485054128291, 51.59746389855595, 119.48212847673915], [0.0, 34.719788791551665, 88.11806975159513], [15.582485054128291, 16.87767510700428, 31.364058725144027], [175.3029568589433, 472.5749029961169, 1692.165644551811], [148.03360801421877, 396.8664746589842, 1318.783993062003], [46.74745516238487, 181.31445257810282, 685.5287121352885], [19.478106317660362, 105.60602424096962, 310.6535340395212], [11.686863790596218, 89.21056842273693, 285.26358173821427], [7.791242527064146, 10.12660506420257, 71.68927708604349], [3.895621263532073, 79.08396335853436, 213.57430465217092], [7.791242527064146, 16.395455818232733, 25.38995230130707], [27.269348844724504, 75.7084283371335, 374.8751780957681], [0.0, 5.78663146525861, 62.72811745028805], [27.269348844724504, 69.92179687187486, 312.14706064548045], [23.373727581192433, 25.55762230489219, 131.430341324413], [3.895621263532073, 44.364174566982655, 180.71671932106779], [101.2861528518339, 215.55202208088255, 633.2552809267154], [66.22556148004523, 68.95735829433177, 222.5354642879263], [27.269348844724504, 61.72406896275852, 194.15845877470088], [11.686863790596218, 17.359894395775832, 32.857585331103266], [15.582485054128291, 44.36417456698267, 161.30087344359762], [38.95621263532073, 7.233289331573264, 28.377005513225548], [35.06059137178865, 146.5946637865512, 410.7198166387898], [19.478106317660362, 139.84359374374955, 374.8751780957682], [3.895621263532073, 30.379815192607705, 125.4562349005761], [15.582485054128291, 109.4637785511419, 249.41894319519272], [15.582485054128291, 6.751070042801713, 35.844638543021745], [27.269348844724508, 75.70842833713345, 373.38165148980886], [0.0, 27.486499459978386, 180.71671932106767], [0.0, 18.32433297331893, 143.37855417208687], [0.0, 11.09104364174567, 49.2863779966549], [0.0, 7.233289331573264, 94.09217617543203], [0.0, 9.162166486659467, 37.338165148980984], [27.269348844724508, 48.221928877155094, 192.66493216874173], [19.478106317660362, 24.593183727349096, 70.19575048008423], [7.791242527064146, 23.628745149805983, 122.46918168865761], [0.0, 8.197727909116363, 79.15691011583968], [7.791242527064146, 15.431017240689634, 43.31227157281794], [1133.6257876878358, 1402.293691747712, 1959.5069070185136], [615.5081596380674, 690.0558022320934, 690.0092919531663], [66.22556148004523, 160.57902316092614, 113.50802205290213], [35.06059137178865, 129.716988679547, 70.19575048008423], [31.164970108256583, 58.83075323012919, 40.32521836089946], [27.269348844724504, 19.770990839633587, 17.922319271510872], [3.895621263532073, 39.05976239049561, 22.40289908938859], [3.895621263532073, 70.886235449418, 29.870532119184787], [0.0, 32.79091163646547, 1.4935266059592394], [3.895621263532073, 38.09532381295253, 28.377005513225548], [3.895621263532073, 19.77099083963358, 8.961159635755436], [0.0, 18.324332973318935, 19.41584587747011], [31.164970108256583, 30.862034481379244, 43.31227157281794], [23.373727581192437, 16.39545581823273, 10.454686241714676], [7.791242527064146, 14.466578663146526, 32.857585331103266], [549.2825981580219, 529.4767790711602, 576.5012699002644], [190.88544191307156, 94.9971998879955, 112.01449544694289], [97.39053158830183, 60.75963038521542, 86.62454314563588], [42.8518338988528, 42.91751670066803, 67.20869726816578], [35.060591371788654, 27.486499459978393, 32.857585331103266], [7.791242527064146, 15.431017240689632, 34.351111937062505], [54.53869768944902, 17.842113684547382, 19.41584587747011], [93.49491032476976, 34.237569502780104, 25.38995230130707], [38.95621263532073, 21.699867994719778, 7.467633029796197], [54.538697689449016, 12.537701508060326, 17.922319271510872], [358.3971562449504, 434.47957918316473, 464.48677445332225], [97.39053158830183, 197.22768910756395, 204.61314501641556], [3.895621263532073, 87.76391055642223, 86.62454314563587], [0.0, 28.93315732629304, 47.79285139069566], [3.895621263532073, 58.830753230129226, 38.83169175494022], [3.895621263532073, 22.66430657226289, 19.41584587747011], [0.0, 36.1664466578663, 19.41584587747011], [93.49491032476975, 109.46377855114194, 117.98860187077983], [58.43431895298107, 43.39973598943957, 35.844638543021745], [23.373727581192433, 29.415376615064595, 23.89642569534783], [35.060591371788654, 13.984359374374979, 11.948212847673915], [35.06059137178865, 66.0640425617025, 82.14396332775817], [35.06059137178865, 44.84639385575424, 70.19575048008426], [0.0, 21.217648705948235, 11.948212847673915], [261.0066246566488, 237.25189007560238, 259.8736294369073], [66.22556148004523, 23.14652586103444, 31.364058725144027], [194.7810631766036, 214.10536421456808, 228.50957071176333], [7.791242527064146, 32.790911636465445, 17.922319271510872], [186.98982064953947, 181.31445257810273, 210.5872514402525], [3.895621263532073, 23.628745149805983, 17.922319271510872], [183.09419938600743, 157.6857074282968, 192.66493216874161], [518.1176280497652, 712.237889515586, 1269.4976150653486], [475.2657941509125, 673.1781271250879, 1259.042928823634], [46.74745516238486, 187.10108404336134, 312.14706064548034], [0.0, 12.537701508060325, 47.79285139069566], [46.74745516238487, 174.56338253530106, 264.3542092547849], [46.74745516238486, 159.61458458338313, 222.53546428792635], [27.269348844724504, 128.27033081323242, 185.19729913894554], [27.269348844724504, 112.83931357254285, 141.88502756612758], [0.0, 15.43101724068963, 43.31227157281794], [19.478106317660362, 31.3442537701508, 37.338165148980984], [19.478106317660362, 14.466578663146528, 16.428792665551633], [0.0, 16.877675107004286, 20.90937248342935], [0.0, 14.948797951918081, 41.8187449668587], [428.51833898852766, 486.0770430817203, 946.8958681781542], [389.562126353207, 415.67302692107455, 879.6871709099888], [385.66650508967496, 376.6132645305793, 807.9978938239456], [42.851833898852796, 92.10388415536615, 183.7037725329863], [35.060591371788654, 17.842113684547382, 35.844638543021745], [7.791242527064146, 74.26177047081879, 147.85913398996473], [342.81467119082225, 284.50938037521377, 624.2941212909599], [23.373727581192437, 18.806552262090484, 10.454686241714676], [319.4409436096298, 265.7028281131236, 613.8394350492454], [3.895621263532073, 39.05976239049562, 71.68927708604348], [3.895621263532073, 18.32433297331894, 25.38995230130707], [0.0, 20.73542941717669, 46.29932478473642], [38.956212635320725, 70.4040161606464, 67.20869726816576], [0.0, 14.466578663146532, 20.90937248342935], [38.956212635320725, 55.93743749749992, 46.29932478473642], [27.269348844724508, 22.664306572262884, 17.922319271510872], [11.686863790596218, 33.273130925237005, 28.377005513225548], [42.851833898852796, 39.05976239049563, 10.454686241714676], [5855.118759088761, 1625.0790031601864, 2004.3127051972906], [3509.9547584424254, 1450.515620624871, 1904.246422598022], [2874.96849248669, 1341.5340613624928, 1826.583039088142], [1355.676199709166, 793.732949317981, 1118.6514278634659], [857.0366779770562, 446.0528421136818, 464.48677445332214], [0.0, 27.4864994599784, 0.0], [857.0366779770562, 418.5663426537036, 464.48677445332225], [190.88544191307156, 76.19064762590502, 55.260484420491856], [38.956212635320725, 35.684227369094764, 29.870532119184787], [35.060591371788654, 14.948797951918076, 14.935266059592394], [3.895621263532073, 20.735429417176686, 14.935266059592394], [151.92922927775086, 40.50642025681028, 25.38995230130707], [89.59928906123767, 22.18208728349134, 5.9741064238369574], [62.329940216513165, 18.324332973318935, 19.41584587747011], [666.1512360639842, 342.3756950277995, 409.22629003283055], [101.28615285183389, 99.819392775711, 104.54686241714668], [85.7036677977056, 65.09960398415937, 41.8187449668587], [19.478106317660362, 24.110964438577543, 28.377005513225548], [66.22556148004524, 40.98863954558181, 13.441739453633154], [15.582485054128291, 34.719788791551665, 62.72811745028805], [0.0, 17.359894395775832, 37.338165148980984], [15.582485054128291, 17.35989439577584, 25.38995230130707], [564.8650832121501, 242.55630225208944, 304.6794276156842], [77.91242527064146, 12.055482219288775, 7.467633029796197], [486.95265794150856, 230.50082003280076, 297.21179458588813], [116.86863790596219, 58.8307532301292, 120.97565508269835], [370.08402003554664, 171.6700668026718, 176.23613950319006], [498.63952173210487, 347.6801072042863, 654.1646534101448], [148.0336080142188, 63.17072682907319, 103.05333581118748], [50.64307642591694, 33.755350214008544, 76.16985690392121], [7.791242527064146, 19.770990839633587, 40.32521836089946], [42.8518338988528, 13.984359374374977, 35.844638543021745], [97.39053158830183, 29.415376615064602, 26.88347890726631], [350.60591371788644, 284.509380375214, 551.1113175989576], [128.55550169655842, 160.09680387215448, 304.6794276156845], [124.65988043302636, 129.23476939077537, 249.4189431951928], [85.70366779770559, 118.14372574902976, 218.05488447004885], [85.70366779770559, 91.62166486659456, 194.15845877470105], [0.0, 26.52206088243528, 23.89642569534783], [38.95621263532072, 11.09104364174567, 31.364058725144027], [3.895621263532073, 30.862034481379254, 55.260484420491856], [222.05041202132807, 124.41257650305995, 246.43188998327423], [54.53869768944901, 53.52634105364216, 106.040389023106], [46.747455162384874, 42.917516700668024, 41.8187449668587], [42.8518338988528, 22.664306572262888, 29.870532119184787], [3.895621263532073, 20.25321012840513, 11.948212847673915], [7.791242527064146, 10.608824352974118, 64.2216440562473], [167.5117143318791, 70.88623544941798, 140.3915009601684], [105.18177411536594, 20.253210128405136, 46.29932478473642], [62.329940216513165, 11.573262930517224, 13.441739453633154], [42.851833898852796, 8.679947197887916, 32.857585331103266], [62.329940216513165, 50.633025321012845, 94.09217617543207], [19.478106317660362, 27.00428017120684, 58.247537632410335], [42.851833898852796, 23.628745149805983, 35.844638543021745], [1519.2922927775141, 547.8011120444802, 707.931611224677], [954.4272095653596, 432.0684827393071, 494.3573065725069], [911.5753756665063, 377.57770310812225, 412.2133432447491], [15.582485054128291, 18.806552262090488, 37.338165148980984], [895.992890612378, 358.77115084603196, 374.8751780957681], [716.794312489902, 269.5605824232959, 252.40599640711116], [167.5117143318791, 100.30161206448248, 70.19575048008426], [112.97301664243012, 34.71978879155164, 35.844638543021745], [54.538697689449, 65.58182327293093, 34.351111937062505], [549.2825981580218, 169.2589703588139, 182.21024592702707], [70.1211827435773, 11.091043641745673, 1.4935266059592394], [479.1614154144445, 158.1679267170685, 180.71671932106784], [179.1985781224753, 89.21056842273686, 122.46918168865759], [11.686863790596218, 34.237569502780104, 35.844638543021745], [11.686863790596218, 18.806552262090488, 11.948212847673915], [0.0, 15.431017240689632, 23.89642569534783], [167.51171433187918, 54.97299891995681, 86.62454314563587], [112.97301664243011, 34.237569502780104, 31.364058725144027], [54.53869768944901, 20.735429417176693, 55.260484420491856], [42.8518338988528, 54.49077963118524, 82.14396332775814], [15.582485054128291, 39.54198167926716, 56.754011026451096], [15.582485054128291, 18.32433297331893, 16.428792665551633], [0.0, 21.217648705948235, 40.32521836089946], [27.269348844724504, 14.948797951918078, 25.38995230130707], [564.86508321215, 115.73262930517205, 213.57430465217095], [261.00662465664885, 36.64866594663787, 38.83169175494022], [101.28615285183389, 22.182087283491327, 23.89642569534783], [159.72047180481496, 14.46657866314653, 14.935266059592394], [303.85845855550156, 79.08396335853428, 174.7426128972308], [23.373727581192437, 7.715508620344814, 38.83169175494022], [280.4847309743092, 71.36845473818947, 135.9109211422907], [89.59928906123768, 13.502140085603425, 20.90937248342935], [190.8854419130716, 57.86631465258611, 115.0015486588614], [46.74745516238487, 16.395455818232733, 58.247537632410335], [144.1379867506867, 41.4708588343534, 56.754011026451096], [42.8518338988528, 27.968718748749946, 26.88347890726631], [101.2861528518339, 13.502140085603429, 29.870532119184787], [634.986265955728, 108.98155926237044, 77.66338350988043], [35.060591371788654, 25.075403016120646, 14.935266059592394], [599.925674583939, 83.90615624624984, 62.72811745028805], [362.2927775084826, 61.241849673986955, 59.741064238369574], [299.96283729196955, 49.66858674346974, 25.38995230130707], [93.49491032476975, 28.93315732629304, 17.922319271510872], [206.46792696719987, 20.73542941717669, 7.467633029796197], [62.329940216513165, 11.573262930517222, 34.351111937062505], [237.63289707545647, 22.664306572262888, 2.9870532119184787], [74.01680400710937, 11.573262930517222, 2.9870532119184787], [163.616093068347, 11.09104364174567, 0.0], [2345.164000646321, 174.56338253530095, 100.06628259926902], [1149.2082727419647, 142.25469018760725, 97.07922938735055], [175.3029568589433, 47.25749029961197, 25.38995230130707], [74.01680400710937, 35.20200808032321, 17.922319271510872], [46.74745516238487, 13.502140085603425, 7.467633029796197], [27.269348844724508, 21.699867994719785, 10.454686241714676], [101.28615285183388, 12.055482219288772, 7.467633029796197], [973.9053158830194, 94.99719988799552, 71.68927708604349], [673.9424785910488, 82.94171766870674, 58.247537632410335], [245.42413960252065, 40.988639545581826, 31.364058725144027], [210.36354823073196, 23.14652586103444, 25.38995230130707], [89.59928906123768, 7.233289331573265, 14.935266059592394], [120.76425916949425, 15.913236529461178, 10.454686241714676], [35.060591371788654, 17.842113684547385, 5.9741064238369574], [428.51833898852755, 41.953078123124925, 26.88347890726631], [307.75407981903356, 25.557622304892195, 7.467633029796197], [210.36354823073194, 13.984359374374979, 2.9870532119184787], [97.39053158830181, 11.573262930517224, 4.480579817877718], [120.7642591694943, 16.395455818232737, 19.41584587747011], [299.9628372919695, 12.055482219288773, 13.441739453633154], [132.45112296009052, 9.644385775431019, 2.9870532119184787], [167.51171433187915, 2.4110964438577542, 10.454686241714676], [1195.955727904349, 32.3086923476939, 2.9870532119184787], [315.54532234609775, 23.14652586103444, 0.0], [116.8686379059622, 12.055482219288775, 0.0], [198.67668444013572, 11.09104364174567, 0.0], [880.4104055582499, 9.16216648665947, 2.9870532119184787], [163.61609306834703, 4.8221928877155085, 2.9870532119184787], [716.7943124899019, 4.339973598943958, 0.0], [233.73727581192432, 4.339973598943958, 0.0], [483.05703667797667, 0.0, 0.0]]}, {"children_left": [1, 2, 3, 4, 5, 6, -1, 8, -1, -1, 11, 12, 13, -1, -1, 16, 17, -1, -1, -1, 21, 22, 23, -1, 25, -1, -1, 28, 29, -1, -1, 32, -1, -1, 35, -1, 37, 38, -1, -1, 41, -1, -1, 44, -1, 46, -1, -1, 49, 50, 51, 52, 53, 54, 55, -1, -1, -1, -1, 60, 61, 62, -1, -1, -1, 66, 67, -1, -1, -1, -1, 72, 73, 74, 75, -1, -1, -1, -1, 80, 81, 82, 83, -1, -1, 86, -1, -1, -1, 90, 91, 92, -1, -1, 95, -1, -1, -1, 99, 100, -1, 102, 103, -1, -1, -1, 107, 108, -1, -1, -1, 112, 113, 114, 115, -1, 117, -1, 119, -1, -1, 122, 123, 124, 125, 126, -1, -1, 129, -1, -1, 132, 133, -1, -1, 136, -1, -1, 139, -1, -1, -1, 143, 144, -1, 146, 147, -1, 149, -1, -1, 152, 153, 154, -1, -1, 157, -1, -1, 160, -1, 162, -1, -1, 165, 166, 167, 168, 169, -1, -1, 172, -1, -1, 175, -1, 177, -1, -1, 180, 181, 182, -1, -1, 185, -1, -1, -1, 189, 190, 191, 192, -1, -1, 195, -1, -1, 198, -1, -1, 201, -1, 203, 204, -1, -1, -1, 208, 209, 210, 211, 212, -1, -1, 215, 216, -1, -1, -1, 220, 221, -1, -1, 224, -1, -1, 227, 228, 229, 230, -1, -1, 233, -1, -1, 236, 237, 238, -1, -1, 241, -1, -1, 244, -1, 246, -1, -1, -1, 250, 251, 252, 253, 254, 255, -1, -1, 258, -1, -1, 261, 262, -1, -1, 265, -1, -1, 268, 269, 270, -1, -1, 273, -1, -1, 276, -1, 278, -1, -1, 281, -1, 283, 284, -1, -1, -1, -1, 289, 290, 291, 292, 293, 294, -1, 296, -1, -1, 299, 300, -1, -1, 303, 304, 305, -1, -1, 308, -1, -1, 311, -1, 313, -1, -1, 316, 317, 318, 319, -1, -1, -1, -1, 324, 325, -1, 327, 328, -1, -1, -1, 332, 333, -1, 335, -1, -1, 338, 339, -1, -1, -1, 343, 344, 345, -1, 347, 348, 349, -1, -1, 352, -1, -1, -1, 356, 357, 358, -1, 360, -1, -1, -1, 364, 365, -1, -1, -1, 369, 370, 371, -1, 373, -1, -1, -1, 377, 378, -1, 380, -1, -1, 383, -1, 385, -1, 387, -1, -1, 390, -1, 392, 393, 394, -1, -1, 397, -1, -1, 400, -1, -1, 403, 404, 405, -1, 407, 408, -1, 410, -1, 412, -1, 414, -1, -1, 417, 418, -1, -1, 421, -1, -1, 424, -1, -1, 427, 428, 429, -1, -1, 432, -1, -1, 435, -1, -1], "children_right": [288, 111, 48, 43, 10, 7, -1, 9, -1, -1, 20, 15, 14, -1, -1, 19, 18, -1, -1, -1, 34, 27, 24, -1, 26, -1, -1, 31, 30, -1, -1, 33, -1, -1, 36, -1, 40, 39, -1, -1, 42, -1, -1, 45, -1, 47, -1, -1, 98, 71, 70, 59, 58, 57, 56, -1, -1, -1, -1, 65, 64, 63, -1, -1, -1, 69, 68, -1, -1, -1, -1, 79, 78, 77, 76, -1, -1, -1, -1, 89, 88, 85, 84, -1, -1, 87, -1, -1, -1, 97, 94, 93, -1, -1, 96, -1, -1, -1, 106, 101, -1, 105, 104, -1, -1, -1, 110, 109, -1, -1, -1, 207, 142, 121, 116, -1, 118, -1, 120, -1, -1, 141, 138, 131, 128, 127, -1, -1, 130, -1, -1, 135, 134, -1, -1, 137, -1, -1, 140, -1, -1, -1, 164, 145, -1, 151, 148, -1, 150, -1, -1, 159, 156, 155, -1, -1, 158, -1, -1, 161, -1, 163, -1, -1, 188, 179, 174, 171, 170, -1, -1, 173, -1, -1, 176, -1, 178, -1, -1, 187, 184, 183, -1, -1, 186, -1, -1, -1, 200, 197, 194, 193, -1, -1, 196, -1, -1, 199, -1, -1, 202, -1, 206, 205, -1, -1, -1, 249, 226, 219, 214, 213, -1, -1, 218, 217, -1, -1, -1, 223, 222, -1, -1, 225, -1, -1, 248, 235, 232, 231, -1, -1, 234, -1, -1, 243, 240, 239, -1, -1, 242, -1, -1, 245, -1, 247, -1, -1, -1, 287, 280, 267, 260, 257, 256, -1, -1, 259, -1, -1, 264, 263, -1, -1, 266, -1, -1, 275, 272, 271, -1, -1, 274, -1, -1, 277, -1, 279, -1, -1, 282, -1, 286, 285, -1, -1, -1, -1, 402, 389, 342, 315, 298, 295, -1, 297, -1, -1, 302, 301, -1, -1, 310, 307, 306, -1, -1, 309, -1, -1, 312, -1, 314, -1, -1, 323, 322, 321, 320, -1, -1, -1, -1, 331, 326, -1, 330, 329, -1, -1, -1, 337, 334, -1, 336, -1, -1, 341, 340, -1, -1, -1, 368, 355, 346, -1, 354, 351, 350, -1, -1, 353, -1, -1, -1, 363, 362, 359, -1, 361, -1, -1, -1, 367, 366, -1, -1, -1, 376, 375, 372, -1, 374, -1, -1, -1, 382, 379, -1, 381, -1, -1, 384, -1, 386, -1, 388, -1, -1, 391, -1, 399, 396, 395, -1, -1, 398, -1, -1, 401, -1, -1, 426, 423, 406, -1, 416, 409, -1, 411, -1, 413, -1, 415, -1, -1, 420, 419, -1, -1, 422, -1, -1, 425, -1, -1, 434, 431, 430, -1, -1, 433, -1, -1, 436, -1, -1], "threshold": [0.3018285036087036, 0.21195600181818008, 0.12451599910855293, 1.499999996212864e-06, 0.06295699998736382, 0.05474649928510189, -2.0, 0.05559599958360195, -2.0, -2.0, 0.07121250033378601, 0.06765850260853767, 0.06511550024151802, -2.0, -2.0, 0.06996049731969833, 0.06861750036478043, -2.0, -2.0, -2.0, 0.09615850076079369, 0.08222699910402298, 0.07413899898529053, -2.0, 0.07518750056624413, -2.0, -2.0, 0.08923400193452835, 0.0875135026872158, -2.0, -2.0, 0.09418249875307083, -2.0, -2.0, 0.09768899902701378, -2.0, 0.10443500056862831, 0.1036980003118515, -2.0, -2.0, 0.11902900040149689, -2.0, -2.0, 0.09405399858951569, -2.0, 0.10523800179362297, -2.0, -2.0, 0.0004830000107176602, 0.159061998128891, 0.15777749568223953, 0.13925249874591827, 0.1379450038075447, 0.13693049550056458, 0.1341945007443428, -2.0, -2.0, -2.0, -2.0, 0.14428849518299103, 0.14329199492931366, 0.14043600112199783, -2.0, -2.0, -2.0, 0.15642650425434113, 0.15025299787521362, -2.0, -2.0, -2.0, -2.0, 0.1659270003437996, 0.16375300288200378, 0.16187400370836258, 0.16060249507427216, -2.0, -2.0, -2.0, -2.0, 0.17545799911022186, 0.17395300418138504, 0.16961699724197388, 0.16754200309515, -2.0, -2.0, 0.17109499871730804, -2.0, -2.0, -2.0, 3.5000000480067683e-06, 0.1823050007224083, 0.18101900070905685, -2.0, -2.0, 0.18407650291919708, -2.0, -2.0, -2.0, 0.17671500146389008, 0.0037400000728666782, -2.0, 0.15260300040245056, 0.03795449994504452, -2.0, -2.0, -2.0, 0.19546400010585785, 0.1841849982738495, -2.0, -2.0, -2.0, 2.5000000505315256e-06, 0.2869955003261566, 0.22182650119066238, 0.21385150402784348, -2.0, 0.2168169990181923, -2.0, 0.2187959998846054, -2.0, -2.0, 0.28282299637794495, 0.27347299456596375, 0.2516380101442337, 0.23034749925136566, 0.2279675006866455, -2.0, -2.0, 0.23684900254011154, -2.0, -2.0, 0.2604684978723526, 0.2575410008430481, -2.0, -2.0, 0.2711479961872101, -2.0, -2.0, 0.278549000620842, -2.0, -2.0, -2.0, 0.35493600368499756, 0.29082100093364716, -2.0, 0.30046750605106354, 0.2937455028295517, -2.0, 0.2968350052833557, -2.0, -2.0, 0.31835751235485077, 0.3107529878616333, 0.3068450093269348, -2.0, -2.0, 0.315590500831604, -2.0, -2.0, 0.3212829977273941, -2.0, 0.3357509970664978, -2.0, -2.0, 0.6014575064182281, 0.5067870020866394, 0.4452195018529892, 0.39825600385665894, 0.3938779979944229, -2.0, -2.0, 0.4309524893760681, -2.0, -2.0, 0.4501205086708069, -2.0, 0.4593230038881302, -2.0, -2.0, 0.5905230045318604, 0.5311314761638641, 0.5216194987297058, -2.0, -2.0, 0.5720059871673584, -2.0, -2.0, -2.0, 0.7546910047531128, 0.696076512336731, 0.6505079865455627, 0.6274175047874451, -2.0, -2.0, 0.6771920025348663, -2.0, -2.0, 0.7148550152778625, -2.0, -2.0, 0.8086659908294678, -2.0, 1.09221750497818, 0.8711130023002625, -2.0, -2.0, -2.0, 0.39778849482536316, 0.26763901114463806, 0.24346400052309036, 0.2237055003643036, 0.21826999634504318, -2.0, -2.0, 0.02737249992787838, 0.2309734970331192, -2.0, -2.0, -2.0, 0.2570534944534302, 0.003503000014461577, -2.0, -2.0, 0.262085497379303, -2.0, -2.0, 0.3885059952735901, 8.349999916390516e-05, 1.3500000022759195e-05, 5.500000042957254e-06, -2.0, -2.0, 0.3200024962425232, -2.0, -2.0, 0.0976249985396862, 0.013326500076800585, 0.29374800622463226, -2.0, -2.0, 0.2995550036430359, -2.0, -2.0, 0.3007104992866516, -2.0, 0.3593904972076416, -2.0, -2.0, -2.0, 1.5984699726104736, 0.914141982793808, 0.06451800093054771, 0.5135215222835541, 0.44900549948215485, 0.41690100729465485, -2.0, -2.0, 0.0013245000154711306, -2.0, -2.0, 0.7826434969902039, 0.001117000007070601, -2.0, -2.0, 0.830348014831543, -2.0, -2.0, 0.18435849994421005, 0.53176149725914, 0.4577084928750992, -2.0, -2.0, 0.09746649861335754, -2.0, -2.0, 0.4923339933156967, -2.0, 0.24502599984407425, -2.0, -2.0, 0.00036499999987427145, -2.0, 1.0995075106620789, 1.0147794485092163, -2.0, -2.0, -2.0, -2.0, 9.05263090133667, 0.9430265128612518, 2.2583510875701904, 0.3631249964237213, 0.14541249722242355, 0.08974400162696838, -2.0, 0.9212459921836853, -2.0, -2.0, 0.19328849762678146, 1.0735560059547424, -2.0, -2.0, 0.9024955034255981, 0.31436850130558014, 0.2948849946260452, -2.0, -2.0, 0.4729899913072586, -2.0, -2.0, 0.22764749825000763, -2.0, 1.117001473903656, -2.0, -2.0, 0.47525399923324585, 0.43539300560951233, 0.5634905099868774, 0.3658260107040405, -2.0, -2.0, -2.0, -2.0, 1.29322749376297, 0.3998565077781677, -2.0, 0.8209429979324341, 0.6778895258903503, -2.0, -2.0, -2.0, 1.8647044897079468, 0.4335609972476959, -2.0, 0.7381980121135712, -2.0, -2.0, 0.5899425148963928, 0.4716394990682602, -2.0, -2.0, -2.0, 0.46817000210285187, 0.2848000079393387, 0.12284249812364578, -2.0, 0.26531900465488434, 0.18703249841928482, 0.16551700234413147, -2.0, -2.0, 4.22128438949585, -2.0, -2.0, -2.0, 0.39890699088573456, 6.35178804397583, 2.5997079610824585, -2.0, 0.37003400921821594, -2.0, -2.0, -2.0, 0.43597249686717987, 0.4102095067501068, -2.0, -2.0, -2.0, 0.5717079937458038, 0.5432775020599365, 0.4933969974517822, -2.0, 0.5201790034770966, -2.0, -2.0, -2.0, 0.6879769861698151, 0.6110435128211975, -2.0, 4.608016014099121, -2.0, -2.0, 0.720525473356247, -2.0, 0.7596870064735413, -2.0, 0.8298069834709167, -2.0, -2.0, 0.6109354794025421, -2.0, 1.4646899700164795, 3.269036054611206, 1.5810239911079407, -2.0, -2.0, 1.0520464777946472, -2.0, -2.0, 3.203064441680908, -2.0, -2.0, 22.341514587402344, 0.88749098777771, 0.20462200045585632, -2.0, 13.126726150512695, 0.30390800535678864, -2.0, 0.38125699758529663, -2.0, 0.4653020054101944, -2.0, 0.5578109920024872, -2.0, -2.0, 0.41348300874233246, 0.34487248957157135, -2.0, -2.0, 0.652149498462677, -2.0, -2.0, 1.2483454942703247, -2.0, -2.0, 39.271095275878906, 0.5072130113840103, 0.4109790027141571, -2.0, -2.0, 0.7989974915981293, -2.0, -2.0, 0.8930605053901672, -2.0, -2.0], "feature": [0, 1, 1, 0, 1, 1, -2, 1, -2, -2, 1, 1, 1, -2, -2, 1, 1, -2, -2, -2, 1, 1, 1, -2, 1, -2, -2, 1, 1, -2, -2, 1, -2, -2, 1, -2, 1, 1, -2, -2, 1, -2, -2, 1, -2, 1, -2, -2, 0, 1, 1, 1, 1, 1, 1, -2, -2, -2, -2, 1, 1, 1, -2, -2, -2, 1, 1, -2, -2, -2, -2, 1, 1, 1, 1, -2, -2, -2, -2, 1, 1, 1, 1, -2, -2, 1, -2, -2, -2, 0, 1, 1, -2, -2, 1, -2, -2, -2, 1, 0, -2, 1, 0, -2, -2, -2, 1, 1, -2, -2, -2, 0, 1, 1, 1, -2, 1, -2, 1, -2, -2, 1, 1, 1, 1, 1, -2, -2, 1, -2, -2, 1, 1, -2, -2, 1, -2, -2, 1, -2, -2, -2, 1, 1, -2, 1, 1, -2, 1, -2, -2, 1, 1, 1, -2, -2, 1, -2, -2, 1, -2, 1, -2, -2, 1, 1, 1, 1, 1, -2, -2, 1, -2, -2, 1, -2, 1, -2, -2, 1, 1, 1, -2, -2, 1, -2, -2, -2, 1, 1, 1, 1, -2, -2, 1, -2, -2, 1, -2, -2, 1, -2, 1, 1, -2, -2, -2, 1, 1, 1, 1, 1, -2, -2, 0, 1, -2, -2, -2, 1, 0, -2, -2, 1, -2, -2, 1, 0, 0, 0, -2, -2, 1, -2, -2, 0, 0, 1, -2, -2, 1, -2, -2, 1, -2, 1, -2, -2, -2, 1, 1, 0, 1, 1, 1, -2, -2, 0, -2, -2, 1, 0, -2, -2, 1, -2, -2, 0, 1, 1, -2, -2, 0, -2, -2, 1, -2, 0, -2, -2, 0, -2, 1, 1, -2, -2, -2, -2, 0, 1, 0, 1, 1, 1, -2, 0, -2, -2, 1, 0, -2, -2, 0, 1, 1, -2, -2, 0, -2, -2, 1, -2, 0, -2, -2, 0, 0, 1, 0, -2, -2, -2, -2, 0, 1, -2, 1, 1, -2, -2, -2, 0, 1, -2, 1, -2, -2, 1, 1, -2, -2, -2, 1, 1, 1, -2, 1, 1, 1, -2, -2, 0, -2, -2, -2, 1, 0, 0, -2, 1, -2, -2, -2, 1, 1, -2, -2, -2, 1, 1, 1, -2, 1, -2, -2, -2, 1, 1, -2, 0, -2, -2, 1, -2, 1, -2, 1, -2, -2, 0, -2, 1, 0, 0, -2, -2, 1, -2, -2, 0, -2, -2, 0, 1, 1, -2, 0, 1, -2, 1, -2, 1, -2, 1, -2, -2, 1, 1, -2, -2, 1, -2, -2, 1, -2, -2, 0, 1, 1, -2, -2, 1, -2, -2, 1, -2, -2], "classes": [0, 1, 2], "value": [[8118.4747132009215, 8053.06212248398, 7954.522703338873], [2275.0428179027426, 6492.118284730783, 6003.976955956115], [494.7439004685728, 3689.9419976798317, 751.2438827974947], [66.22556148004523, 2025.321012840602, 185.19729913894543], [46.74745516238487, 1882.1018840754414, 137.40444774824994], [0.0, 452.80391215648336, 1.4935266059592394], [0.0, 300.9048361934464, 0.0], [0.0, 151.89907596303829, 1.4935266059592394], [0.0, 21.217648705948235, 1.4935266059592394], [0.0, 130.68142725709015, 0.0], [46.74745516238487, 1429.2979719189204, 135.9109211422907], [0.0, 166.36565462618475, 41.8187449668587], [0.0, 94.51498059922395, 16.428792665551633], [0.0, 39.541981679267174, 16.428792665551633], [0.0, 54.97299891995681, 0.0], [0.0, 71.85067402696109, 25.38995230130707], [0.0, 45.328613144525775, 19.41584587747011], [0.0, 22.664306572262888, 8.961159635755436], [0.0, 22.664306572262895, 10.454686241714676], [0.0, 26.52206088243529, 5.9741064238369574], [46.74745516238487, 1262.9323172927232, 94.09217617543203], [7.791242527064146, 549.2477699107942, 20.90937248342935], [7.791242527064146, 235.80523220928774, 14.935266059592394], [0.0, 64.13516540661627, 0.0], [7.791242527064146, 171.67006680267176, 14.935266059592394], [3.895621263532073, 22.18208728349134, 5.9741064238369574], [3.895621263532073, 149.48797951918064, 8.961159635755436], [0.0, 313.4425377015064, 5.9741064238369574], [0.0, 147.55910236409426, 4.480579817877718], [0.0, 110.9104364174566, 1.4935266059592394], [0.0, 36.648665946637855, 2.9870532119184787], [0.0, 165.88343533741332, 1.4935266059592394], [0.0, 111.39265570622821, 0.0], [0.0, 54.49077963118525, 1.4935266059592394], [38.956212635320725, 713.6845473818997, 73.18280369200272], [11.686863790596218, 31.82647305892235, 7.467633029796197], [27.269348844724504, 681.8580743229763, 65.71517066220653], [19.478106317660362, 174.0811632465295, 11.948212847673915], [3.895621263532073, 152.8635145405814, 10.454686241714676], [15.582485054128291, 21.21764870594824, 1.4935266059592394], [7.791242527064146, 507.7769110764396, 53.76695781453262], [7.791242527064146, 382.8821152846092, 31.364058725144027], [0.0, 124.89479579183157, 22.40289908938859], [19.478106317660362, 143.21912876515034, 47.79285139069566], [0.0, 89.69278771150839, 0.0], [19.478106317660362, 53.52634105364214, 47.79285139069566], [19.478106317660362, 19.770990839633587, 16.428792665551633], [0.0, 33.75535021400855, 31.364058725144027], [428.51833898852766, 1664.620984839455, 566.04658365855], [229.8416545483923, 1498.7375495020306, 477.92851390695523], [167.51171433187918, 691.9846793871791, 165.78145326147535], [128.55550169655842, 669.3203728149155, 150.84618720188297], [23.373727581192433, 289.8137925517011, 58.247537632410335], [23.373727581192433, 260.3984159366368, 56.754011026451096], [15.582485054128291, 235.80523220928782, 46.29932478473642], [15.582485054128291, 181.31445257810282, 41.8187449668587], [0.0, 54.49077963118527, 4.480579817877718], [7.791242527064146, 24.593183727349082, 10.454686241714676], [0.0, 29.41537661506459, 1.4935266059592394], [105.18177411536597, 379.50658026320826, 92.59864956947283], [81.80804653417351, 98.37273490939629, 23.89642569534783], [50.64307642591694, 81.49505980239206, 11.948212847673915], [23.373727581192433, 22.182087283491338, 8.961159635755436], [27.269348844724508, 59.31297251890076, 2.9870532119184787], [31.164970108256583, 16.877675107004283, 11.948212847673915], [23.373727581192437, 281.1338453538132, 68.70222387412502], [15.582485054128291, 258.46953878155045, 61.234590844328814], [11.686863790596218, 146.11244449777973, 44.80579817877718], [3.895621263532073, 112.35709428377127, 16.428792665551633], [7.791242527064146, 22.664306572262888, 7.467633029796197], [38.956212635320725, 22.66430657226289, 14.935266059592394], [62.32994021651315, 806.7528701148127, 312.14706064548045], [23.373727581192433, 99.819392775711, 49.2863779966549], [0.0, 68.47513900556025, 34.351111937062505], [0.0, 43.399735989439584, 31.364058725144027], [0.0, 19.770990839633583, 10.454686241714676], [0.0, 23.628745149805987, 20.90937248342935], [0.0, 25.075403016120635, 2.9870532119184787], [23.373727581192433, 31.344253770150797, 14.935266059592394], [38.956212635320725, 706.9334773390982, 262.86068264882556], [3.895621263532073, 157.20348813952526, 29.870532119184787], [3.895621263532073, 124.89479579183153, 29.870532119184787], [0.0, 57.86631465258609, 5.9741064238369574], [0.0, 25.075403016120642, 4.480579817877718], [0.0, 32.79091163646545, 1.4935266059592394], [3.895621263532073, 67.02848113924557, 23.89642569534783], [3.895621263532073, 16.395455818232733, 11.948212847673915], [0.0, 50.63302532101285, 11.948212847673915], [0.0, 32.3086923476939, 0.0], [35.060591371788654, 549.7299891995658, 232.990150529641], [19.478106317660362, 507.294691787668, 221.0419376819671], [3.895621263532073, 95.96163846553851, 29.870532119184787], [3.895621263532073, 72.33289331573259, 29.870532119184787], [0.0, 23.62874514980598, 0.0], [15.582485054128291, 411.33305332213064, 191.17140556278247], [0.0, 23.146525861034437, 34.351111937062505], [15.582485054128291, 388.1865274610965, 156.82029362572], [15.582485054128291, 42.435297411896485, 11.948212847673915], [198.67668444013574, 165.88343533741326, 88.1180697515951], [148.03360801421877, 85.3528141125645, 62.72811745028805], [15.582485054128291, 22.182087283491338, 20.90937248342935], [132.45112296009046, 63.1707268290732, 41.8187449668587], [46.74745516238487, 39.05976239049562, 13.441739453633154], [31.16497010825658, 19.77099083963358, 2.9870532119184787], [15.582485054128291, 19.288771550862034, 10.454686241714676], [85.7036677977056, 24.11096443857754, 28.377005513225548], [50.643076425916945, 80.53062122484896, 25.38995230130707], [35.060591371788654, 44.846393855754236, 8.961159635755436], [7.791242527064146, 22.18208728349133, 2.9870532119184787], [27.269348844724504, 22.664306572262888, 5.9741064238369574], [15.582485054128291, 35.68422736909475, 16.428792665551633], [1780.2989174341642, 2802.1762870515045, 5252.733073158621], [545.3869768944897, 1498.2553302132587, 3387.31834231554], [112.97301664243011, 666.4270570822862, 740.7891965557801], [7.791242527064146, 113.32153286131441, 65.71517066220653], [0.0, 14.948797951918078, 22.40289908938859], [7.791242527064146, 98.37273490939641, 43.31227157281794], [0.0, 41.47085883435337, 11.948212847673915], [7.791242527064146, 56.90187607504298, 31.364058725144027], [7.791242527064146, 18.806552262090484, 17.922319271510872], [0.0, 38.09532381295251, 13.441739453633154], [105.18177411536597, 553.1055242209674, 675.0740258935739], [85.7036677977056, 528.0301212048456, 637.7358607445931], [85.7036677977056, 466.78827153085837, 546.6307377810799], [31.164970108256576, 298.4937397495888, 343.51111937062416], [23.373727581192433, 90.17500700027999, 137.40444774824988], [7.791242527064146, 67.0284811392456, 89.6115963575543], [15.582485054128291, 23.14652586103444, 47.79285139069566], [7.791242527064146, 208.31873274930965, 206.1066716223748], [0.0, 69.92179687187488, 41.8187449668587], [7.791242527064146, 138.3969358774349, 164.2879266555162], [54.53869768944902, 168.294531781271, 203.1196184104562], [38.956212635320725, 61.241849673986984, 71.68927708604349], [19.478106317660362, 40.02420096803872, 55.260484420491856], [19.478106317660362, 21.21764870594824, 16.428792665551633], [15.582485054128291, 107.0526821072842, 131.430341324413], [3.895621263532073, 89.21056842273687, 112.01449544694287], [11.686863790596218, 17.842113684547385, 19.41584587747011], [0.0, 61.24184967398698, 91.1051229635136], [0.0, 28.450938037521492, 59.741064238369574], [0.0, 32.790911636465445, 31.364058725144027], [19.478106317660362, 25.07540301612064, 37.338165148980984], [432.4139602520597, 831.828273130936, 2646.5291457597605], [155.8248505412829, 319.71138845553673, 667.6063928637777], [0.0, 12.537701508060326, 53.76695781453262], [155.82485054128293, 307.1736869474766, 613.8394350492455], [35.060591371788654, 58.83075323012921, 79.15691011583965], [3.895621263532073, 24.593183727349096, 32.857585331103266], [31.164970108256583, 34.237569502780104, 46.29932478473642], [15.582485054128291, 17.359894395775836, 29.870532119184787], [15.582485054128291, 16.877675107004283, 16.428792665551633], [120.76425916949428, 248.342933717348, 534.6825249334062], [7.791242527064146, 82.45949837993513, 197.1455119866195], [7.791242527064146, 41.47085883435336, 122.46918168865761], [7.791242527064146, 30.86203448137924, 80.65043672179893], [0.0, 10.608824352974121, 41.8187449668587], [0.0, 40.988639545581826, 74.67633029796197], [0.0, 27.96871874874994, 38.83169175494022], [0.0, 13.019920796831876, 35.844638543021745], [112.97301664243012, 165.8834353374132, 337.53701294678723], [27.26934884472451, 20.25321012840514, 22.40289908938859], [85.7036677977056, 145.6302252090081, 315.1341138573988], [23.373727581192433, 61.72406896275854, 152.33971380784232], [62.32994021651315, 83.90615624624985, 162.79440004955688], [276.5891097107771, 512.1168846753836, 1978.9227528959836], [218.15479075779606, 398.7953518140703, 1412.8761692374346], [194.78106317660362, 282.09828393135604, 1127.6125874992213], [112.97301664243011, 190.476619064762, 809.4914204299048], [81.80804653417351, 126.82367294691768, 412.21334324474896], [66.22556148004523, 111.87487499499964, 395.7845505791974], [15.582485054128291, 14.948797951918081, 16.428792665551633], [31.164970108256583, 63.652946117844756, 397.27807718515686], [31.164970108256583, 50.63302532101287, 282.2765285262958], [0.0, 13.019920796831878, 115.00154865886142], [81.80804653417353, 91.62166486659457, 318.1211670693172], [23.373727581192437, 14.948797951918076, 31.364058725144027], [58.43431895298109, 76.67286691467656, 286.7571083441734], [0.0, 7.715508620344815, 59.741064238369574], [58.43431895298109, 68.95735829433178, 227.01604410580404], [23.373727581192437, 116.69706788271517, 285.26358173821427], [15.582485054128291, 101.74826993079711, 264.354209254785], [3.895621263532073, 40.02420096803872, 74.67633029796195], [3.895621263532073, 20.253210128405136, 32.857585331103266], [0.0, 19.770990839633583, 41.8187449668587], [11.686863790596218, 61.72406896275853, 189.67787895682312], [11.686863790596218, 51.59746389855596, 144.8720807780461], [0.0, 10.12660506420257, 44.80579817877718], [7.791242527064146, 14.94879795191808, 20.90937248342935], [58.43431895298109, 113.32153286131435, 566.0465836585503], [23.373727581192437, 63.17072682907318, 356.9528588242575], [23.373727581192437, 44.84639385575423, 195.65198538066016], [0.0, 25.07540301612064, 113.50802205290216], [0.0, 18.32433297331894, 62.72811745028805], [0.0, 6.7510700428017145, 50.77990460261414], [23.373727581192437, 19.77099083963358, 82.14396332775814], [15.582485054128291, 10.126605064202568, 46.29932478473642], [7.791242527064146, 9.644385775431019, 35.844638543021745], [0.0, 18.324332973318935, 161.30087344359777], [0.0, 5.304412176487059, 77.66338350988045], [0.0, 13.019920796831872, 83.6374899337174], [35.06059137178866, 50.15080603224129, 209.09372483429337], [27.26934884472451, 14.466578663146525, 64.2216440562473], [7.791242527064146, 35.68422736909477, 144.87208077804613], [0.0, 24.5931837273491, 110.52096884098367], [0.0, 11.573262930517224, 44.80579817877718], [0.0, 13.019920796831874, 65.71517066220653], [7.791242527064146, 11.091043641745673, 34.351111937062505], [1234.91194053967, 1303.9209568383096, 1865.4147308430822], [709.0030699628377, 604.2207688307539, 731.8280369200247], [315.5453223460978, 209.7653906156241, 222.5354642879264], [101.2861528518339, 118.14372574902985, 116.49507526482066], [85.70366779770559, 37.130885235409416, 44.80579817877718], [15.582485054128291, 16.39545581823273, 29.870532119184787], [70.12118274357731, 20.73542941717669, 14.935266059592394], [15.582485054128291, 81.01284051362049, 71.68927708604346], [0.0, 54.008560342413695, 40.32521836089946], [0.0, 21.699867994719796, 8.961159635755436], [0.0, 32.30869234769389, 31.364058725144027], [15.582485054128291, 27.00428017120684, 31.364058725144027], [214.259169494264, 91.62166486659461, 106.04038902310597], [144.13798675068668, 43.88195527821112, 43.31227157281794], [58.43431895298109, 25.07540301612064, 23.89642569534783], [85.70366779770562, 18.806552262090488, 19.41584587747011], [70.12118274357731, 47.73970958838353, 62.72811745028805], [15.582485054128291, 23.14652586103444, 41.8187449668587], [54.538697689449016, 24.59318372734909, 20.90937248342935], [393.457747616739, 394.45537821512653, 509.2925726320991], [327.23218613669394, 371.3088523540923, 479.42204051291446], [27.269348844724504, 65.58182327293093, 98.57275599330977], [27.26934884472451, 35.2020080803232, 49.2863779966549], [11.686863790596218, 12.055482219288773, 34.351111937062505], [15.582485054128291, 23.14652586103444, 14.935266059592394], [0.0, 30.37981519260769, 49.2863779966549], [0.0, 14.948797951918081, 25.38995230130707], [0.0, 15.43101724068963, 23.89642569534783], [299.9628372919695, 305.72702908116196, 380.84928451960513], [272.69348844724504, 246.8962758510333, 294.22474137396966], [120.76425916949428, 159.13236529461153, 167.2749798674347], [27.26934884472451, 34.71978879155167, 16.428792665551633], [93.49491032476976, 124.41257650306005, 150.84618720188314], [151.92922927775084, 87.7639105564222, 126.94976150653525], [42.85183389885279, 22.664306572262884, 61.234590844328814], [109.07739537889805, 65.0996039841594, 65.71517066220653], [27.269348844724504, 58.8307532301292, 86.6245431456359], [0.0, 19.770990839633583, 26.88347890726631], [27.269348844724504, 39.05976239049561, 59.741064238369574], [23.373727581192437, 23.14652586103444, 40.32521836089946], [3.895621263532073, 15.913236529461182, 19.41584587747011], [66.22556148004523, 23.146525861034444, 29.870532119184787], [525.9088705768294, 699.7001880075246, 1133.5866939230582], [475.26579415091254, 681.858074322976, 1126.119060893262], [440.20520277912397, 569.9831993279724, 1057.4168370191373], [249.3197608660526, 417.1196847873889, 776.6338350988017], [70.12118274357731, 182.27889115564577, 238.964256953478], [11.686863790596218, 86.31725269010757, 140.39150096016846], [0.0, 40.02420096803871, 38.83169175494022], [11.686863790596218, 46.293051722068874, 101.55980920522828], [58.43431895298108, 95.96163846553857, 98.57275599330978], [46.74745516238487, 40.98863954558182, 52.27343120857338], [11.686863790596218, 54.97299891995681, 46.29932478473642], [179.19857812247534, 234.84079363174445, 537.6695781453245], [128.55550169655845, 195.78103124124902, 476.4349873009959], [23.373727581192437, 99.33717348693936, 222.53546428792623], [105.181774115366, 96.44385775431012, 253.89952301307034], [50.643076425916945, 39.0597623904956, 61.234590844328814], [42.851833898852796, 17.842113684547385, 20.90937248342935], [7.791242527064146, 21.21764870594824, 40.32521836089946], [190.88544191307153, 152.8635145405814, 280.7830019203366], [167.51171433187912, 89.6927877115084, 164.28792665551617], [46.747455162384874, 40.98863954558182, 83.6374899337174], [46.747455162384874, 14.466578663146525, 38.83169175494022], [0.0, 26.5220608824353, 44.80579817877718], [120.76425916949425, 48.70414816592663, 80.65043672179894], [66.22556148004523, 15.431017240689632, 26.88347890726631], [54.53869768944902, 33.273130925237005, 53.76695781453262], [23.373727581192433, 63.170726829073175, 116.49507526482066], [7.791242527064146, 23.146525861034434, 16.428792665551633], [15.582485054128291, 40.0242009680387, 100.06628259926902], [15.582485054128291, 16.395455818232733, 53.76695781453262], [0.0, 23.628745149805987, 46.29932478473642], [35.060591371788654, 111.87487499499973, 68.70222387412501], [3.895621263532073, 29.41537661506459, 28.377005513225548], [31.16497010825658, 82.45949837993517, 40.32521836089946], [23.373727581192437, 43.399735989439556, 11.948212847673915], [11.686863790596218, 19.770990839633583, 10.454686241714676], [11.686863790596218, 23.628745149805997, 1.4935266059592394], [7.791242527064146, 39.059762390495614, 28.377005513225548], [50.643076425916945, 17.842113684547385, 7.467633029796197], [5843.431895298164, 1560.943837753566, 1950.5457473827585], [3295.6955889481587, 1338.1585263410948, 1801.1930867868355], [2672.39618678302, 1202.1726869075076, 1763.8549216378544], [1219.3294554855422, 704.5223808952411, 1121.6384810753846], [658.35999353692, 339.4823792951701, 370.3945982778903], [15.582485054128291, 66.54626185047402, 38.83169175494022], [0.0, 29.89759590383614, 0.0], [15.582485054128291, 36.64866594663785, 38.83169175494022], [3.895621263532073, 19.770990839633587, 10.454686241714676], [11.686863790596218, 16.877675107004283, 28.377005513225548], [642.7775084827919, 272.9361174446969, 331.5629065229504], [179.19857812247537, 42.917516700668045, 25.38995230130707], [148.03360801421874, 23.146525861034448, 10.454686241714676], [31.164970108256583, 19.77099083963358, 14.935266059592394], [463.57893036031624, 230.01860074402913, 306.17295422164347], [335.02342866375807, 108.98155926237045, 159.80734683763848], [206.4679269671999, 83.42393695747833, 123.96270829461682], [179.19857812247537, 64.13516540661628, 82.14396332775817], [27.269348844724508, 19.288771550862034, 41.8187449668587], [128.5555016965584, 25.557622304892195, 35.844638543021745], [105.18177411536597, 9.644385775431019, 25.38995230130707], [23.373727581192433, 15.91323652946118, 10.454686241714676], [128.5555016965584, 121.03704148165913, 146.36560738400541], [0.0, 31.34425377015079, 28.377005513225548], [128.5555016965584, 89.69278771150839, 117.98860187077986], [19.478106317660362, 27.96871874874995, 34.351111937062505], [109.07739537889802, 61.72406896275855, 83.6374899337174], [560.9694619486179, 365.04000160006206, 751.2438827974948], [155.82485054128296, 57.38409536381457, 129.93681471845377], [97.39053158830184, 45.32861314452578, 115.00154865886142], [46.747455162384874, 27.486499459978393, 76.16985690392119], [11.686863790596218, 17.359894395775836, 44.80579817877718], [35.060591371788654, 10.126605064202568, 31.364058725144027], [50.64307642591694, 17.842113684547382, 38.83169175494022], [58.43431895298109, 12.055482219288773, 14.935266059592394], [405.1446114073352, 307.65590623624803, 621.3070680790415], [155.82485054128293, 186.13664546581813, 370.3945982778906], [46.747455162384874, 23.146525861034434, 47.79285139069566], [109.07739537889803, 162.99011960478376, 322.6017468871952], [81.80804653417356, 151.41685667426674, 298.70532119184736], [70.12118274357731, 121.03704148165912, 189.67787895682324], [11.686863790596218, 30.379815192607694, 109.0274422350245], [27.269348844724508, 11.573262930517224, 23.89642569534783], [249.3197608660527, 121.5192607704307, 250.91246980115181], [206.46792696719996, 74.7439897595904, 141.88502756612758], [15.582485054128291, 20.253210128405144, 34.351111937062505], [190.8854419130716, 54.49077963118527, 107.53391562906518], [155.82485054128293, 36.166446657866324, 62.72811745028805], [35.060591371788654, 18.32433297331893, 44.80579817877718], [42.8518338988528, 46.77527101084043, 109.02744223502441], [27.26934884472451, 32.79091163646545, 43.31227157281794], [0.0, 18.806552262090488, 20.90937248342935], [27.26934884472451, 13.984359374374977, 22.40289908938859], [15.582485054128291, 13.984359374374977, 65.71517066220653], [1453.066731297468, 497.6503060122371, 642.2164405624707], [888.2016480853133, 332.7313092523685, 253.89952301307022], [249.31976086605255, 159.13236529461145, 98.57275599330978], [7.791242527064146, 19.288771550862037, 17.922319271510872], [241.52851833898848, 139.84359374374952, 80.65043672179891], [229.84165454839217, 115.25041001640054, 77.66338350988045], [112.97301664243011, 40.02420096803871, 32.857585331103266], [54.53869768944901, 23.628745149805987, 29.870532119184787], [58.43431895298109, 16.395455818232733, 2.9870532119184787], [116.86863790596223, 75.22620904836191, 44.80579817877718], [81.80804653417353, 28.933157326293042, 20.90937248342935], [35.06059137178865, 46.293051722068874, 23.89642569534783], [11.686863790596218, 24.593183727349096, 2.9870532119184787], [638.8818872192597, 173.5989439577578, 155.32676701976078], [498.6395217321047, 112.3570942837712, 94.0921761754321], [362.29277750848246, 96.92607704308163, 82.14396332775817], [89.59928906123768, 14.466578663146525, 2.9870532119184787], [272.69348844724504, 82.45949837993513, 79.15691011583968], [194.78106317660362, 67.99291971678869, 70.19575048008426], [77.91242527064145, 14.466578663146528, 8.961159635755436], [136.34674422362258, 15.431017240689627, 11.948212847673915], [140.24236548715461, 61.241849673986955, 61.234590844328814], [50.64307642591694, 39.541981679267145, 44.80579817877718], [46.74745516238487, 16.39545581823273, 16.428792665551633], [3.895621263532073, 23.146525861034448, 28.377005513225548], [89.59928906123767, 21.69986799471979, 16.428792665551633], [564.8650832121505, 164.91899675987003, 388.31691754940124], [105.18177411536597, 62.20628825153008, 146.3656073840054], [97.39053158830183, 50.63302532101283, 100.06628259926899], [50.64307642591693, 16.395455818232733, 41.8187449668587], [46.74745516238487, 34.23756950278011, 58.247537632410335], [15.582485054128291, 24.110964438577547, 28.377005513225548], [31.164970108256583, 10.12660506420257, 29.870532119184787], [7.791242527064146, 11.57326293051722, 46.29932478473642], [459.6833090967841, 102.71270850834024, 241.95131016539654], [241.52851833898856, 40.02420096803871, 61.234590844328814], [54.53869768944901, 13.984359374374977, 35.844638543021745], [186.98982064953952, 26.03984159366375, 25.38995230130707], [77.91242527064145, 13.984359374374979, 20.90937248342935], [109.07739537889803, 12.055482219288775, 4.480579817877718], [218.15479075779595, 62.6885075403016, 180.7167193210678], [19.478106317660362, 6.751070042801713, 59.741064238369574], [198.6766844401356, 55.93743749749987, 120.97565508269832], [74.01680400710937, 10.60882435297412, 13.441739453633154], [124.65988043302637, 45.32861314452577, 107.53391562906523], [35.06059137178865, 16.39545581823273, 59.741064238369574], [89.59928906123768, 28.933157326293042, 47.79285139069566], [623.2994021651316, 135.98583943357718, 37.338165148980984], [38.956212635320725, 22.664306572262895, 10.454686241714676], [584.3431895298107, 113.32153286131437, 26.88347890726631], [389.5621263532071, 86.79947197887914, 23.89642569534783], [179.19857812247534, 53.04412176487061, 19.41584587747011], [81.80804653417354, 30.86203448137925, 10.454686241714676], [97.39053158830184, 22.18208728349133, 8.961159635755436], [210.36354823073196, 33.75535021400856, 4.480579817877718], [77.91242527064146, 16.395455818232737, 1.4935266059592394], [132.4511229600905, 17.359894395775832, 2.9870532119184787], [194.78106317660365, 26.52206088243529, 2.9870532119184787], [124.65988043302632, 13.984359374374975, 0.0], [70.12118274357731, 12.537701508060323, 2.9870532119184787], [2547.736306349991, 222.785311412456, 149.35266059592388], [1336.1980933915054, 186.61886475458988, 144.87208077804613], [985.592179673616, 174.08116324652966, 128.44328811249454], [66.22556148004523, 15.91323652946118, 25.38995230130707], [919.3666181935699, 158.16792671706864, 103.05333581118744], [467.4745516238483, 89.21056842273687, 74.67633029796195], [89.59928906123768, 12.055482219288777, 2.9870532119184787], [377.87526256261077, 77.15508620344806, 71.6892770860435], [58.43431895298108, 15.91323652946118, 23.89642569534783], [319.4409436096297, 61.24184967398694, 47.79285139069566], [128.55550169655842, 17.359894395775832, 7.467633029796197], [190.8854419130716, 43.88195527821114, 40.32521836089946], [66.22556148004524, 17.359894395775832, 22.40289908938859], [124.65988043302633, 26.522060882435294, 17.922319271510872], [451.8920665697202, 68.95735829433178, 28.377005513225548], [175.30295685894328, 31.82647305892235, 19.41584587747011], [109.07739537889803, 18.324332973318935, 4.480579817877718], [66.22556148004523, 13.502140085603422, 14.935266059592394], [276.5891097107771, 37.1308852354094, 8.961159635755436], [202.57230570366775, 21.21764870594824, 4.480579817877718], [74.01680400710937, 15.91323652946118, 4.480579817877718], [350.60591371788644, 12.537701508060325, 16.428792665551633], [175.30295685894328, 7.233289331573265, 2.9870532119184787], [175.30295685894325, 5.304412176487061, 13.441739453633154], [1211.538212958478, 36.16644665786632, 4.480579817877718], [596.0300533204069, 33.27313092523701, 4.480579817877718], [222.05041202132813, 20.735429417176686, 0.0], [124.65988043302634, 9.16216648665947, 0.0], [97.39053158830181, 11.573262930517222, 0.0], [373.9796412990787, 12.537701508060326, 4.480579817877718], [206.4679269671999, 4.822192887715509, 0.0], [167.51171433187915, 7.715508620344815, 4.480579817877718], [615.5081596380677, 2.893315732629305, 0.0], [249.3197608660527, 2.893315732629305, 0.0], [366.1883987720145, 0.0, 0.0]]}, {"children_left": [1, 2, 3, 4, 5, 6, 7, -1, 9, -1, 11, -1, -1, 14, 15, 16, 17, -1, -1, 20, -1, -1, 23, 24, -1, -1, -1, 28, 29, 30, -1, -1, -1, -1, 35, 36, 37, 38, -1, -1, 41, -1, 43, -1, -1, 46, 47, -1, 49, -1, -1, 52, 53, -1, -1, 56, -1, -1, -1, 60, 61, 62, 63, -1, 65, 66, -1, -1, 69, -1, -1, -1, 73, 74, 75, 76, -1, -1, -1, 80, -1, 82, -1, -1, -1, 86, -1, 88, -1, 90, -1, 92, 93, -1, -1, 96, -1, -1, 99, -1, 101, 102, 103, -1, 105, -1, -1, 108, -1, -1, 111, 112, -1, 114, -1, -1, -1, 118, 119, 120, 121, 122, 123, -1, -1, -1, -1, 128, 129, 130, 131, -1, -1, 134, -1, 136, -1, -1, -1, -1, 141, 142, 143, 144, 145, 146, -1, -1, -1, -1, 151, -1, 153, -1, 155, -1, -1, 158, 159, 160, 161, -1, -1, 164, -1, -1, 167, 168, -1, -1, -1, 172, -1, -1, 175, 176, 177, 178, 179, -1, -1, -1, 183, 184, -1, -1, 187, -1, -1, 190, 191, -1, 193, -1, -1, -1, 197, 198, -1, 200, -1, -1, 203, -1, 205, -1, -1, 208, 209, 210, 211, -1, 213, -1, -1, 216, -1, -1, 219, 220, -1, 222, -1, -1, -1, 226, 227, 228, -1, 230, 231, 232, -1, -1, 235, -1, -1, 238, 239, -1, -1, 242, -1, -1, 245, 246, 247, 248, -1, -1, -1, -1, 253, 254, 255, -1, -1, 258, -1, -1, -1, 262, 263, -1, 265, 266, -1, -1, -1, -1, 271, 272, 273, 274, -1, 276, 277, 278, 279, 280, -1, -1, -1, -1, 285, 286, -1, -1, 289, 290, -1, -1, -1, 294, -1, -1, 297, 298, 299, -1, -1, 302, 303, 304, -1, 306, -1, -1, -1, 310, 311, -1, -1, 314, 315, -1, -1, 318, -1, -1, 321, 322, 323, -1, -1, -1, 327, 328, -1, -1, 331, 332, -1, -1, -1, 336, 337, 338, 339, -1, -1, -1, 343, -1, -1, 346, -1, -1, 349, 350, 351, -1, -1, 354, -1, -1, 357, 358, -1, 360, 361, -1, 363, 364, 365, -1, -1, -1, 369, -1, -1, -1, 373, 374, -1, -1, 377, -1, -1], "children_right": [270, 117, 98, 59, 34, 13, 8, -1, 10, -1, 12, -1, -1, 27, 22, 19, 18, -1, -1, 21, -1, -1, 26, 25, -1, -1, -1, 33, 32, 31, -1, -1, -1, -1, 58, 45, 40, 39, -1, -1, 42, -1, 44, -1, -1, 51, 48, -1, 50, -1, -1, 55, 54, -1, -1, 57, -1, -1, -1, 85, 72, 71, 64, -1, 68, 67, -1, -1, 70, -1, -1, -1, 84, 79, 78, 77, -1, -1, -1, 81, -1, 83, -1, -1, -1, 87, -1, 89, -1, 91, -1, 95, 94, -1, -1, 97, -1, -1, 100, -1, 110, 107, 104, -1, 106, -1, -1, 109, -1, -1, 116, 113, -1, 115, -1, -1, -1, 207, 140, 127, 126, 125, 124, -1, -1, -1, -1, 139, 138, 133, 132, -1, -1, 135, -1, 137, -1, -1, -1, -1, 174, 157, 150, 149, 148, 147, -1, -1, -1, -1, 152, -1, 154, -1, 156, -1, -1, 171, 166, 163, 162, -1, -1, 165, -1, -1, 170, 169, -1, -1, -1, 173, -1, -1, 196, 189, 182, 181, 180, -1, -1, -1, 186, 185, -1, -1, 188, -1, -1, 195, 192, -1, 194, -1, -1, -1, 202, 199, -1, 201, -1, -1, 204, -1, 206, -1, -1, 225, 218, 215, 212, -1, 214, -1, -1, 217, -1, -1, 224, 221, -1, 223, -1, -1, -1, 261, 244, 229, -1, 237, 234, 233, -1, -1, 236, -1, -1, 241, 240, -1, -1, 243, -1, -1, 252, 251, 250, 249, -1, -1, -1, -1, 260, 257, 256, -1, -1, 259, -1, -1, -1, 269, 264, -1, 268, 267, -1, -1, -1, -1, 348, 335, 296, 275, -1, 293, 284, 283, 282, 281, -1, -1, -1, -1, 288, 287, -1, -1, 292, 291, -1, -1, -1, 295, -1, -1, 320, 301, 300, -1, -1, 309, 308, 305, -1, 307, -1, -1, -1, 313, 312, -1, -1, 317, 316, -1, -1, 319, -1, -1, 326, 325, 324, -1, -1, -1, 330, 329, -1, -1, 334, 333, -1, -1, -1, 345, 342, 341, 340, -1, -1, -1, 344, -1, -1, 347, -1, -1, 356, 353, 352, -1, -1, 355, -1, -1, 372, 359, -1, 371, 362, -1, 368, 367, 366, -1, -1, -1, 370, -1, -1, -1, 376, 375, -1, -1, 378, -1, -1], "threshold": [0.3018285036087036, 0.2130429968237877, 0.0002589999930933118, 0.1252094954252243, 0.09415850043296814, 0.06081249937415123, 0.05474649928510189, -2.0, 0.05616199970245361, -2.0, 0.058675000444054604, -2.0, -2.0, 0.07971049845218658, 0.07124599814414978, 0.0684254989027977, 0.06555500254034996, -2.0, -2.0, 0.0699784979224205, -2.0, -2.0, 0.0782185010612011, 0.07520299777388573, -2.0, -2.0, -2.0, 0.08927449956536293, 0.0875140018761158, 0.08496399968862534, -2.0, -2.0, -2.0, -2.0, 4.999999987376214e-07, 0.10408749803900719, 0.09663999825716019, 0.09493250027298927, -2.0, -2.0, 0.09768899902701378, -2.0, 0.09978700056672096, -2.0, -2.0, 0.11266699805855751, 0.1048320010304451, -2.0, 0.10739600285887718, -2.0, -2.0, 0.11507749930024147, 0.11399650201201439, -2.0, -2.0, 0.1190045028924942, -2.0, -2.0, -2.0, 0.17951299995183945, 0.1663619950413704, 0.16502100229263306, 0.12650899589061737, -2.0, 0.13008300215005875, 0.1278975009918213, -2.0, -2.0, 0.13186099380254745, -2.0, -2.0, -2.0, 0.17812350392341614, 0.17321350425481796, 0.1716654971241951, 0.17043449729681015, -2.0, -2.0, -2.0, 0.17457450181245804, -2.0, 0.17598500102758408, -2.0, -2.0, -2.0, 0.18117249757051468, -2.0, 0.18260200321674347, -2.0, 0.1842464953660965, -2.0, 0.19497050344944, 0.19161149859428406, -2.0, -2.0, 0.21062899380922318, -2.0, -2.0, 0.08988650143146515, -2.0, 0.0291569996625185, 0.17160149663686752, 0.13606850057840347, -2.0, 0.15377800166606903, -2.0, -2.0, 0.004042499931529164, -2.0, -2.0, 0.1891690045595169, 0.10659350082278252, -2.0, 0.19695249944925308, -2.0, -2.0, -2.0, 4.999999987376214e-07, 0.2697480022907257, 0.223408505320549, 0.22101400047540665, 0.21859700232744217, 0.21516750007867813, -2.0, -2.0, -2.0, -2.0, 0.26673199236392975, 0.264615997672081, 0.22752449661493301, 0.225320003926754, -2.0, -2.0, 0.22930900007486343, -2.0, 0.2590859979391098, -2.0, -2.0, -2.0, -2.0, 0.3558010011911392, 0.31690850853919983, 0.2947949916124344, 0.29210399091243744, 0.28891149163246155, 0.27362899482250214, -2.0, -2.0, -2.0, -2.0, 0.2983824908733368, -2.0, 0.3014184981584549, -2.0, 0.3043449968099594, -2.0, -2.0, 0.3464525043964386, 0.3334895074367523, 0.3262535035610199, 0.3229745030403137, -2.0, -2.0, 0.33024200797080994, -2.0, -2.0, 0.34224800765514374, 0.33851249516010284, -2.0, -2.0, -2.0, 0.3501549959182739, -2.0, -2.0, 0.6521799862384796, 0.5193665027618408, 0.39693500101566315, 0.39214250445365906, 0.3860594928264618, -2.0, -2.0, -2.0, 0.45994600653648376, 0.4054955095052719, -2.0, -2.0, 0.49089398980140686, -2.0, -2.0, 0.6274175047874451, 0.5310530066490173, -2.0, 0.5974449813365936, -2.0, -2.0, -2.0, 0.7644190192222595, 0.6948740184307098, -2.0, 0.7148550152778625, -2.0, -2.0, 0.8209640085697174, -2.0, 1.0009049773216248, -2.0, -2.0, 0.267645999789238, 0.245449498295784, 0.0046940001193434, 1.9499999325489625e-05, -2.0, 0.2276020050048828, -2.0, -2.0, 0.03369449824094772, -2.0, -2.0, 0.26407550275325775, 0.2518025040626526, -2.0, 0.25809450447559357, -2.0, -2.0, -2.0, 0.9182915091514587, 0.5563935041427612, 0.2719095051288605, -2.0, 0.37282249331474304, 0.3074759989976883, 0.2841455042362213, -2.0, -2.0, 2.5000000505315256e-06, -2.0, -2.0, 0.5254850089550018, 0.41064099967479706, -2.0, -2.0, 0.5337429940700531, -2.0, -2.0, 0.001117000007070601, 0.824906975030899, 0.7606329917907715, 0.7016069889068604, -2.0, -2.0, -2.0, -2.0, 0.23378100246191025, 0.13716299831867218, 0.0019539999775588512, -2.0, -2.0, 0.6773705184459686, -2.0, -2.0, -2.0, 1.555606484413147, 0.9757085144519806, -2.0, 1.2515380382537842, 1.0790050029754639, -2.0, -2.0, -2.0, -2.0, 9.97410774230957, 0.9446159899234772, 0.4816635102033615, 0.07837549969553947, -2.0, 0.45828500390052795, 0.40248049795627594, 0.3952075093984604, 0.3897224962711334, 0.3833464980125427, -2.0, -2.0, -2.0, -2.0, 1.2915650010108948, 0.42466901242733, -2.0, -2.0, 0.4333205074071884, 0.4200659990310669, -2.0, -2.0, -2.0, 2.807083010673523, -2.0, -2.0, 3.742320418357849, 0.5184555053710938, 0.997248500585556, -2.0, -2.0, 0.681179016828537, 0.6454015076160431, 0.5368030071258545, -2.0, 0.5553745031356812, -2.0, -2.0, -2.0, 0.7171249985694885, 1.6107319593429565, -2.0, -2.0, 0.969870001077652, 0.47585248947143555, -2.0, -2.0, 0.833220511674881, -2.0, -2.0, 0.5948190093040466, 6.49120569229126, 0.5320069789886475, -2.0, -2.0, -2.0, 0.7003960013389587, 5.858086585998535, -2.0, -2.0, 7.229567527770996, 5.521490097045898, -2.0, -2.0, -2.0, 4.794262647628784, 1.2826794981956482, 1.1540129780769348, 1.0545539855957031, -2.0, -2.0, -2.0, 1.4402145147323608, -2.0, -2.0, 7.128832101821899, -2.0, -2.0, 0.3317994922399521, 16.6556453704834, 12.845698833465576, -2.0, -2.0, 20.51853656768799, -2.0, -2.0, 26.805108070373535, 0.40016549825668335, -2.0, 1.3360934853553772, 0.4364999979734421, -2.0, 19.880574226379395, 0.877100020647049, 0.7137750089168549, -2.0, -2.0, -2.0, 0.6016855239868164, -2.0, -2.0, -2.0, 39.09780311584473, 30.317419052124023, -2.0, -2.0, 0.8066005110740662, -2.0, -2.0], "feature": [0, 1, 0, 1, 1, 1, 1, -2, 1, -2, 1, -2, -2, 1, 1, 1, 1, -2, -2, 1, -2, -2, 1, 1, -2, -2, -2, 1, 1, 1, -2, -2, -2, -2, 0, 1, 1, 1, -2, -2, 1, -2, 1, -2, -2, 1, 1, -2, 1, -2, -2, 1, 1, -2, -2, 1, -2, -2, -2, 1, 1, 1, 1, -2, 1, 1, -2, -2, 1, -2, -2, -2, 1, 1, 1, 1, -2, -2, -2, 1, -2, 1, -2, -2, -2, 1, -2, 1, -2, 1, -2, 1, 1, -2, -2, 1, -2, -2, 1, -2, 0, 1, 1, -2, 1, -2, -2, 0, -2, -2, 1, 0, -2, 0, -2, -2, -2, 0, 1, 1, 1, 1, 1, -2, -2, -2, -2, 1, 1, 1, 1, -2, -2, 1, -2, 1, -2, -2, -2, -2, 1, 1, 1, 1, 1, 1, -2, -2, -2, -2, 1, -2, 1, -2, 1, -2, -2, 1, 1, 1, 1, -2, -2, 1, -2, -2, 1, 1, -2, -2, -2, 1, -2, -2, 1, 1, 1, 1, 1, -2, -2, -2, 1, 1, -2, -2, 1, -2, -2, 1, 1, -2, 1, -2, -2, -2, 1, 1, -2, 1, -2, -2, 1, -2, 1, -2, -2, 1, 1, 0, 0, -2, 1, -2, -2, 0, -2, -2, 1, 1, -2, 1, -2, -2, -2, 1, 1, 1, -2, 1, 1, 1, -2, -2, 0, -2, -2, 1, 1, -2, -2, 1, -2, -2, 0, 1, 1, 1, -2, -2, -2, -2, 0, 0, 0, -2, -2, 1, -2, -2, -2, 1, 1, -2, 1, 1, -2, -2, -2, -2, 0, 1, 1, 1, -2, 1, 1, 1, 1, 1, -2, -2, -2, -2, 0, 1, -2, -2, 1, 1, -2, -2, -2, 0, -2, -2, 0, 1, 0, -2, -2, 1, 1, 1, -2, 1, -2, -2, -2, 1, 0, -2, -2, 0, 0, -2, -2, 1, -2, -2, 1, 0, 1, -2, -2, -2, 1, 0, -2, -2, 0, 0, -2, -2, -2, 0, 1, 1, 1, -2, -2, -2, 0, -2, -2, 0, -2, -2, 1, 0, 0, -2, -2, 0, -2, -2, 0, 1, -2, 1, 1, -2, 0, 1, 1, -2, -2, -2, 1, -2, -2, -2, 0, 0, -2, -2, 1, -2, -2], "classes": [0, 1, 2], "value": [[8285.986427532798, 7973.978159125421, 8135.239422659939], [2150.3829374697148, 6422.678707147672, 6216.057734002326], [541.4913556309577, 3653.7755510219654, 828.9072663073749], [284.38035223784124, 3371.1950478018657, 725.8539304961879], [89.59928906123768, 1902.8373134926208, 182.21024592702702], [7.791242527064146, 1106.2110484419638, 62.72811745028805], [0.0, 416.155246209846, 2.9870532119184787], [0.0, 306.69146765870505, 0.0], [0.0, 109.46377855114203, 2.9870532119184787], [0.0, 22.182087283491335, 1.4935266059592394], [0.0, 87.28169126765069, 1.4935266059592394], [0.0, 51.59746389855594, 0.0], [0.0, 35.68422736909476, 1.4935266059592394], [7.791242527064146, 690.0558022320934, 59.741064238369574], [7.791242527064146, 366.4866594663765, 52.27343120857338], [0.0, 201.56766270650758, 37.338165148980984], [0.0, 149.00576023040887, 16.428792665551633], [0.0, 81.97727909116361, 14.935266059592394], [0.0, 67.02848113924556, 1.4935266059592394], [0.0, 52.561902476099014, 20.90937248342935], [0.0, 28.933157326293042, 16.428792665551633], [0.0, 23.62874514980599, 4.480579817877718], [7.791242527064146, 164.91899675987014, 14.935266059592394], [7.791242527064146, 131.64586583463327, 5.9741064238369574], [7.791242527064146, 67.51070042801715, 4.480579817877718], [0.0, 64.13516540661627, 1.4935266059592394], [0.0, 33.273130925237005, 8.961159635755436], [0.0, 323.5691427657091, 7.467633029796197], [0.0, 210.72982919316712, 7.467633029796197], [0.0, 183.24332973318894, 4.480579817877718], [0.0, 110.9104364174566, 4.480579817877718], [0.0, 72.33289331573263, 0.0], [0.0, 27.48649945997839, 2.9870532119184787], [0.0, 112.83931357254279, 0.0], [81.80804653417354, 796.6262650506101, 119.4821284767391], [62.329940216513165, 776.8552742109754, 104.54686241714674], [11.686863790596218, 257.9873194927789, 52.27343120857338], [0.0, 54.9729989199568, 2.9870532119184787], [0.0, 25.075403016120635, 2.9870532119184787], [0.0, 29.897595903836145, 0.0], [11.686863790596218, 203.01432057282236, 49.2863779966549], [7.791242527064146, 31.344253770150797, 5.9741064238369574], [3.895621263532073, 171.6700668026717, 43.31227157281794], [0.0, 51.597463898555944, 17.922319271510872], [3.895621263532073, 120.07260290411604, 25.38995230130707], [50.64307642591695, 518.8679547181854, 52.27343120857338], [15.582485054128291, 235.8052322092876, 13.441739453633154], [7.791242527064146, 21.69986799471979, 1.4935266059592394], [7.791242527064146, 214.105364214568, 11.948212847673915], [3.895621263532073, 67.51070042801713, 7.467633029796197], [3.895621263532073, 146.59466378655117, 4.480579817877718], [35.060591371788654, 283.06272250889947, 38.83169175494022], [19.478106317660362, 48.221928877155115, 17.922319271510872], [0.0, 29.897595903836155, 7.467633029796197], [19.478106317660362, 18.324332973318935, 10.454686241714676], [15.582485054128291, 234.8407936317448, 20.90937248342935], [3.895621263532073, 94.99719988799544, 0.0], [11.686863790596218, 139.84359374374958, 20.90937248342935], [19.478106317660362, 19.770990839633583, 14.935266059592394], [194.78106317660368, 1468.3577343094232, 543.6436845691616], [171.40733559541124, 983.2451298052083, 267.34126246670337], [151.92922927775086, 766.7286691467733, 222.5354642879264], [124.65988043302634, 740.6888275531089, 218.05488447004865], [3.895621263532073, 18.32433297331894, 13.441739453633154], [120.76425916949428, 722.3644945797893, 204.61314501641556], [0.0, 63.17072682907317, 8.961159635755436], [0.0, 25.075403016120642, 0.0], [0.0, 38.0953238129525, 8.961159635755436], [120.76425916949428, 659.1937677507129, 195.65198538066016], [23.373727581192437, 26.522060882435294, 11.948212847673915], [97.39053158830183, 632.6717068682763, 183.70377253298625], [27.269348844724508, 26.03984159366375, 4.480579817877718], [19.478106317660362, 216.51646065842564, 44.80579817877718], [7.791242527064146, 195.78103124124917, 38.83169175494022], [7.791242527064146, 107.05268210728423, 26.88347890726631], [0.0, 84.87059482379289, 14.935266059592394], [0.0, 63.652946117844685, 8.961159635755436], [0.0, 21.217648705948243, 5.9741064238369574], [7.791242527064146, 22.182087283491338, 11.948212847673915], [0.0, 88.72834913396531, 11.948212847673915], [0.0, 28.933157326293035, 1.4935266059592394], [0.0, 59.795191807672346, 10.454686241714676], [0.0, 31.826473058922353, 4.480579817877718], [0.0, 27.968718748749943, 5.9741064238369574], [11.686863790596218, 20.735429417176693, 5.9741064238369574], [23.373727581192437, 485.112604504177, 276.3024221024589], [0.0, 17.359894395775832, 28.377005513225548], [23.373727581192437, 467.7527101084013, 247.92541658923344], [7.791242527064146, 25.557622304892192, 4.480579817877718], [15.582485054128291, 442.19508780350947, 243.4448367713557], [0.0, 18.32433297331893, 29.870532119184787], [15.582485054128291, 423.8707548301906, 213.5743046521709], [3.895621263532073, 162.99011960478376, 53.76695781453262], [3.895621263532073, 101.74826993079706, 47.79285139069566], [0.0, 61.241849673986984, 5.9741064238369574], [11.686863790596218, 260.880635225408, 159.80734683763853], [11.686863790596218, 221.3386535461411, 147.85913398996462], [0.0, 39.541981679267174, 11.948212847673915], [257.1110033931168, 282.58050322012764, 103.05333581118751], [0.0, 62.68850754030161, 0.0], [257.1110033931168, 219.89199567982652, 103.05333581118751], [74.01680400710937, 124.89479579183156, 59.741064238369574], [62.329940216513165, 64.13516540661627, 41.8187449668587], [11.686863790596218, 27.00428017120684, 22.40289908938859], [50.64307642591694, 37.13088523540941, 19.41584587747011], [23.373727581192433, 16.87767510700429, 5.9741064238369574], [27.269348844724508, 20.253210128405133, 13.441739453633154], [11.686863790596218, 60.7596303852154, 17.922319271510872], [7.791242527064146, 36.64866594663786, 4.480579817877718], [3.895621263532073, 24.11096443857754, 13.441739453633154], [183.0941993860075, 94.99719988799545, 43.31227157281794], [163.61609306834708, 67.02848113924557, 35.844638543021745], [112.97301664243012, 28.933157326293045, 16.428792665551633], [50.64307642591694, 38.0953238129525, 19.41584587747011], [19.478106317660362, 20.25321012840514, 2.9870532119184787], [31.164970108256583, 17.842113684547382, 16.428792665551633], [19.478106317660362, 27.968718748749946, 7.467633029796197], [1608.8915818387534, 2768.903156126273, 5387.150467694952], [409.0402326708673, 1383.4871394856218, 3396.279501951295], [70.12118274357731, 517.9035161406429, 589.9430093538977], [7.791242527064146, 122.96591863674536, 85.13101653967664], [3.895621263532073, 94.51498059922393, 76.1698569039212], [3.895621263532073, 64.13516540661628, 43.31227157281794], [0.0, 23.628745149805994, 26.88347890726631], [3.895621263532073, 40.50642025681026, 16.428792665551633], [0.0, 30.37981519260771, 32.857585331103266], [3.895621263532073, 28.450938037521492, 8.961159635755436], [62.32994021651316, 394.93759750389785, 504.8119928142214], [62.32994021651316, 372.2732909316352, 495.850833178466], [62.32994021651316, 358.7711508460319, 454.0320882116075], [0.0, 33.273130925237, 68.70222387412501], [0.0, 14.948797951918078, 38.83169175494022], [0.0, 18.324332973318935, 29.870532119184787], [62.32994021651316, 325.4980199207952, 385.32986433748283], [19.478106317660362, 19.77099083963359, 19.41584587747011], [42.851833898852796, 305.7270290811618, 365.9140184600127], [38.956212635320725, 254.12956518260637, 325.5888000991134], [3.895621263532073, 51.597463898555915, 40.32521836089946], [0.0, 13.502140085603429, 41.8187449668587], [0.0, 22.664306572262877, 8.961159635755436], [338.91904992729013, 865.5836233449448, 2806.3364925973983], [112.9730166424301, 390.59762390495393, 849.816638790804], [19.478106317660362, 240.62742509700306, 492.86377996654744], [11.686863790596218, 128.75255010200394, 322.60174688719496], [11.686863790596218, 117.17928717148672, 270.3283156786218], [3.895621263532073, 102.23048921956868, 253.89952301307022], [0.0, 19.770990839633583, 73.18280369200272], [3.895621263532073, 82.45949837993517, 180.71671932106773], [7.791242527064146, 14.948797951918081, 16.428792665551633], [0.0, 11.573262930517222, 52.27343120857338], [7.791242527064146, 111.87487499499963, 170.26203307935305], [0.0, 20.253210128405133, 13.441739453633154], [7.791242527064146, 91.62166486659457, 156.82029362571996], [7.791242527064146, 16.395455818232733, 38.83169175494022], [0.0, 75.22620904836194, 117.98860187077983], [0.0, 21.217648705948235, 14.935266059592394], [0.0, 54.008560342413716, 103.05333581118747], [93.49491032476973, 149.9701988079521, 356.9528588242573], [54.538697689449016, 113.80375215008596, 282.2765285262957], [46.747455162384874, 62.20628825153009, 141.88502756612763], [27.26934884472451, 36.648665946637855, 101.5598092052283], [27.26934884472451, 21.217648705948232, 59.741064238369574], [0.0, 15.431017240689627, 41.8187449668587], [19.478106317660362, 25.55762230489219, 40.32521836089946], [7.791242527064146, 14.466578663146528, 11.948212847673915], [11.686863790596218, 11.09104364174567, 28.377005513225548], [7.791242527064146, 51.59746389855594, 140.39150096016846], [0.0, 32.79091163646545, 104.54686241714671], [0.0, 12.055482219288773, 50.77990460261414], [0.0, 20.735429417176686, 53.76695781453262], [7.791242527064146, 18.806552262090484, 35.844638543021745], [38.956212635320725, 36.166446657866295, 74.67633029796195], [38.956212635320725, 8.679947197887916, 28.377005513225548], [0.0, 27.486499459978393, 46.29932478473642], [225.94603328486022, 474.9859994399746, 1956.5198538065954], [194.78106317660362, 406.0286411456435, 1523.397138078418], [167.51171433187915, 277.7583103324123, 1197.8083379793054], [81.80804653417353, 114.2859714388575, 421.1745028805046], [62.329940216513165, 94.99719988799546, 395.7845505791976], [62.329940216513165, 78.11952478099121, 322.6017468871952], [0.0, 16.87767510700428, 73.18280369200272], [19.478106317660362, 19.288771550862037, 25.38995230130707], [85.7036677977056, 163.47233889355533, 776.6338350988016], [27.269348844724508, 95.9616384655385, 489.876726754629], [0.0, 9.644385775431019, 86.6245431456359], [27.269348844724508, 86.31725269010757, 403.2521836089936], [58.43431895298109, 67.5107004280171, 286.7571083441735], [54.538697689449016, 43.39973598943958, 155.32676701976084], [3.895621263532073, 24.110964438577543, 131.430341324413], [27.269348844724508, 128.27033081323242, 325.58880009911354], [11.686863790596218, 121.03704148165916, 274.8088954964996], [0.0, 16.877675107004276, 16.428792665551633], [11.686863790596218, 104.15936637465491, 258.3801028309481], [7.791242527064146, 69.92179687187486, 201.62609180449712], [3.895621263532073, 34.237569502780104, 56.754011026451096], [15.582485054128291, 7.233289331573263, 50.77990460261414], [31.164970108256583, 68.95735829433177, 433.12271572817826], [7.791242527064146, 32.79091163646544, 255.3930496190296], [7.791242527064146, 14.948797951918074, 92.59864956947283], [0.0, 17.842113684547385, 162.7944000495569], [0.0, 3.375535021400856, 73.18280369200272], [0.0, 14.466578663146528, 89.6115963575543], [23.373727581192433, 36.16644665786631, 177.72966610914946], [15.582485054128291, 14.94879795191808, 25.38995230130707], [7.791242527064146, 21.217648705948243, 152.33971380784237], [0.0, 7.715508620344816, 104.54686241714674], [7.791242527064146, 13.502140085603425, 47.79285139069566], [1199.8513491678818, 1385.4160166407082, 1990.8709657436577], [311.6497010825658, 213.140925637025, 207.60019822833402], [105.18177411536598, 130.6814272570901, 115.00154865886141], [19.478106317660362, 75.70842833713347, 59.741064238369574], [0.0, 30.379815192607698, 7.467633029796197], [19.478106317660362, 45.328613144525775, 52.27343120857338], [15.582485054128291, 13.984359374374979, 20.90937248342935], [3.895621263532073, 31.3442537701508, 31.364058725144027], [85.7036677977056, 54.97299891995681, 55.260484420491856], [50.64307642591694, 23.14652586103444, 20.90937248342935], [35.060591371788654, 31.82647305892235, 34.351111937062505], [206.46792696719987, 82.45949837993516, 92.5986495694728], [140.24236548715461, 70.88623544941797, 79.15691011583968], [77.91242527064145, 22.664306572262884, 25.38995230130707], [62.32994021651315, 48.22192887715509, 53.76695781453262], [15.582485054128291, 16.395455818232733, 28.377005513225548], [46.747455162384874, 31.82647305892235, 25.38995230130707], [66.22556148004523, 11.573262930517222, 13.441739453633154], [888.2016480853138, 1172.275091003669, 1783.2707675153245], [794.7067377605433, 1063.293531741289, 1726.5167564888736], [580.4475682662784, 761.9064762590565, 1029.0398315059122], [3.895621263532073, 12.537701508060323, 44.80579817877718], [576.5519470027464, 749.3687747509958, 984.234033327135], [299.9628372919695, 350.09120364814424, 382.34281112556437], [93.49491032476976, 122.00148005920224, 188.18435235086403], [62.32994021651316, 36.64866594663786, 47.79285139069566], [31.164970108256583, 85.3528141125645, 140.3915009601685], [206.46792696719982, 228.08972358894297, 194.15845877470093], [3.895621263532073, 21.699867994719785, 7.467633029796197], [202.57230570366775, 206.38985559422332, 186.6908257449047], [276.58910971077717, 399.2775711028419, 601.8912222015717], [206.46792696719982, 339.0001600063985, 530.2019451155285], [97.39053158830184, 95.479419176767, 170.2620330793532], [109.07739537889805, 243.52074082963244, 359.93991203617594], [70.12118274357731, 60.27741109644388, 71.68927708604349], [38.956212635320725, 17.842113684547382, 14.935266059592394], [31.164970108256583, 42.43529741189647, 56.754011026451096], [214.25916949426392, 301.387055482218, 697.4769249829624], [27.269348844724508, 108.49933997359891, 265.84773586074414], [27.26934884472451, 98.85495419816783, 219.54841107600794], [11.686863790596218, 83.90615624624978, 206.1066716223748], [11.686863790596218, 71.36845473818956, 143.37855417208692], [0.0, 12.537701508060323, 62.72811745028805], [15.582485054128291, 14.948797951918081, 13.441739453633154], [0.0, 9.644385775431019, 46.29932478473642], [186.98982064953944, 192.88771550861978, 431.6291891222191], [186.98982064953955, 177.93891755670194, 379.3557579136459], [128.55550169655842, 151.8990759630383, 322.60174688719496], [35.06059137178866, 15.913236529461182, 26.88347890726631], [93.49491032476976, 135.98583943357718, 295.7182679799289], [58.43431895298109, 26.039841593663738, 56.754011026451096], [15.582485054128291, 13.019920796831876, 29.870532119184787], [42.8518338988528, 13.019920796831878, 26.88347890726631], [0.0, 14.94879795191808, 52.27343120857338], [93.49491032476976, 108.98155926237042, 56.754011026451096], [50.64307642591694, 88.24612984519374, 55.260484420491856], [35.060591371788654, 19.288771550862034, 5.9741064238369574], [15.582485054128291, 68.95735829433178, 49.2863779966549], [11.686863790596218, 44.84639385575423, 43.31227157281794], [11.686863790596218, 23.14652586103444, 25.38995230130707], [0.0, 21.699867994719792, 17.922319271510872], [3.895621263532073, 24.110964438577543, 5.9741064238369574], [42.851833898852796, 20.73542941717669, 1.4935266059592394], [6135.603490063073, 1551.299451978135, 1919.1816886576141], [3486.58103086123, 1384.933797351937, 1822.1024592702645], [2746.412990790129, 1262.9323172927259, 1742.945549154425], [1827.0463725965503, 863.1725269010868, 906.5706498172548], [0.0, 30.379815192607698, 0.0], [1827.0463725965494, 832.7927117084788, 906.5706498172548], [1690.6996283729263, 800.0018000720104, 875.2065910921111], [1608.8915818387522, 685.2336093443781, 763.1920956451684], [1519.2922927775141, 669.8025921036881, 745.2697763736578], [1515.3966715139818, 652.9249169966818, 722.8668772842694], [1433.5886249798077, 644.7271890875662, 698.9704515889217], [81.80804653417353, 8.197727909116365, 23.89642569534783], [3.895621263532073, 16.877675107004283, 22.40289908938859], [89.5992890612377, 15.43101724068963, 17.922319271510872], [81.80804653417354, 114.76819072762898, 112.0144954469429], [3.895621263532073, 34.71978879155167, 40.32521836089946], [3.895621263532073, 14.948797951918078, 25.38995230130707], [0.0, 19.77099083963358, 14.935266059592394], [77.91242527064145, 80.04840193607741, 71.68927708604348], [35.060591371788654, 53.044121764870596, 49.2863779966549], [27.269348844724504, 33.75535021400855, 28.377005513225548], [7.791242527064146, 19.288771550862034, 20.90937248342935], [42.851833898852796, 27.00428017120685, 22.40289908938859], [136.34674422362255, 32.79091163646545, 31.364058725144027], [42.851833898852796, 18.806552262090488, 19.41584587747011], [93.49491032476976, 13.984359374374975, 11.948212847673915], [919.3666181935705, 399.7597903916134, 836.374899337171], [455.787687833252, 288.8493539741577, 625.7876478969192], [23.373727581192433, 37.61310452418098, 98.57275599330977], [0.0, 13.984359374374979, 37.338165148980984], [23.373727581192433, 23.62874514980599, 61.234590844328814], [432.41396025205955, 251.23624944997727, 527.2148919036098], [276.58910971077717, 138.87915516620646, 243.4448367713556], [190.88544191307162, 114.76819072762902, 210.58725144025254], [42.851833898852796, 17.842113684547382, 20.90937248342935], [148.03360801421877, 96.9260770430817, 189.67787895682318], [15.582485054128291, 18.324332973318928, 52.27343120857338], [132.4511229600905, 78.60174406976276, 137.40444774824994], [85.70366779770559, 24.110964438577543, 32.857585331103266], [155.8248505412829, 112.35709428377116, 283.77005513225487], [11.686863790596218, 15.43101724068963, 94.09217617543209], [11.686863790596218, 5.786631465258612, 53.76695781453262], [0.0, 9.64438577543102, 40.32521836089946], [144.13798675068668, 96.92607704308159, 189.67787895682312], [58.43431895298109, 28.450938037521496, 100.06628259926902], [35.060591371788654, 10.608824352974123, 22.40289908938859], [23.373727581192433, 17.842113684547385, 77.66338350988045], [85.70366779770562, 68.47513900556021, 89.61159635755433], [66.22556148004523, 36.64866594663786, 74.67633029796195], [19.478106317660362, 31.826473058922343, 14.935266059592394], [463.5789303603163, 110.91043641745664, 210.5872514402524], [85.7036677977056, 48.70414816592663, 85.13101653967661], [54.53869768944901, 28.933157326293045, 35.844638543021745], [23.373727581192433, 12.055482219288773, 22.40289908938859], [31.164970108256576, 16.877675107004283, 13.441739453633154], [31.164970108256576, 19.77099083963359, 49.2863779966549], [377.87526256261077, 62.206288251530076, 125.45623490057602], [210.3635482307319, 18.324332973318935, 41.8187449668587], [85.70366779770559, 6.268850754030162, 31.364058725144027], [124.65988043302636, 12.055482219288775, 10.454686241714676], [167.51171433187912, 43.881955278211116, 83.63748993371738], [97.39053158830183, 26.522060882435284, 68.702223874125], [66.22556148004523, 17.84211368454738, 32.857585331103266], [31.164970108256583, 8.679947197887916, 35.844638543021745], [70.12118274357732, 17.35989439577584, 14.935266059592394], [740.1680400710943, 122.00148005920217, 79.15691011583968], [459.6833090967842, 100.30161206448254, 70.19575048008423], [241.52851833898848, 58.34853394135764, 64.2216440562473], [186.98982064953944, 39.54198167926717, 29.870532119184787], [77.91242527064145, 24.593183727349096, 26.88347890726631], [109.07739537889803, 14.948797951918083, 2.9870532119184787], [54.538697689449016, 18.806552262090488, 34.351111937062505], [218.154790757796, 41.95307812312493, 5.9741064238369574], [66.22556148004523, 23.62874514980599, 1.4935266059592394], [151.92922927775086, 18.32433297331894, 4.480579817877718], [280.48473097430923, 21.699867994719792, 8.961159635755436], [136.34674422362258, 13.984359374374979, 4.480579817877718], [144.1379867506867, 7.715508620344815, 4.480579817877718], [2649.0224592018244, 166.3656546261847, 97.07922938735057], [303.85845855550156, 53.52634105364215, 40.32521836089946], [85.70366779770562, 35.2020080803232, 28.377005513225548], [70.12118274357732, 16.395455818232733, 13.441739453633154], [15.582485054128291, 18.806552262090488, 14.935266059592394], [218.15479075779606, 18.32433297331893, 11.948212847673915], [101.2861528518339, 8.679947197887918, 8.961159635755436], [116.86863790596219, 