{"classes": [0, 1, 2], "dtrees": [{"children_left": [1, 2, 3, 4, 5, 6, 7, 8, -1, -1, 11, -1, 13, -1, 15, -1, -1, 18, 19, 20, -1, 22, -1, -1, -1, 26, 27, 28, -1, -1, -1, 32, -1, 34, -1, -1, 37, -1, 39, 40, 41, -1, -1, -1, 45, 46, 47, -1, -1, 50, -1, -1, 53, -1, -1, 56, -1, 58, -1, -1, 61, 62, 63, 64, 65, 66, 67, -1, -1, 70, -1, -1, 73, -1, -1, 76, -1, -1, 79, -1, -1, 82, 83, -1, -1, 86, 87, 88, 89, -1, -1, -1, -1, 94, -1, -1, 97, 98, 99, -1, -1, 102, -1, -1, -1, 106, 107, 108, 109, -1, 111, -1, -1, 114, 115, 116, 117, 118, -1, -1, -1, 122, -1, 124, -1, -1, 127, -1, 129, -1, -1, -1, 133, 134, 135, -1, 137, 138, -1, -1, 141, 142, -1, -1, 145, -1, -1, 148, 149, -1, -1, 152, 153, 154, -1, -1, 157, -1, -1, -1, 161, 162, 163, 164, 165, -1, -1, -1, 169, -1, 171, -1, -1, 174, 175, 176, -1, -1, -1, 180, 181, -1, -1, -1, 185, 186, -1, 188, -1, 190, -1, -1, 193, -1, 195, -1, -1, 198, 199, 200, 201, 202, 203, -1, -1, 206, -1, -1, 209, 210, 211, -1, -1, -1, -1, 216, 217, 218, 219, -1, -1, 222, -1, -1, 225, -1, 227, -1, -1, 230, -1, 232, -1, 234, -1, -1, 237, 238, 239, 240, -1, 242, -1, -1, 245, -1, 247, -1, -1, 250, 251, 252, -1, -1, 255, -1, -1, 258, -1, 260, -1, -1, 263, 264, 265, -1, -1, -1, -1, -1, 271, 272, 273, 274, 275, -1, 277, 278, -1, 280, -1, -1, 283, 284, 285, -1, -1, 288, -1, -1, 291, 292, -1, -1, -1, 296, 297, 298, 299, 300, -1, -1, -1, 304, 305, -1, -1, 308, -1, -1, -1, 312, -1, 314, -1, -1, 317, -1, 319, 320, -1, 322, 323, 324, -1, -1, -1, 328, 329, -1, -1, -1, 333, 334, 335, 336, -1, -1, 339, -1, -1, -1, 343, 344, -1, -1, -1, 348, 349, 350, -1, -1, -1, 354, 355, -1, 357, -1, -1, -1, 361, 362, 363, 364, 365, -1, -1, -1, 369, -1, 371, -1, 373, 374, -1, -1, -1, 378, -1, -1, 381, 382, -1, -1, 385, -1, 387, -1, 389, -1, -1], "children_right": [270, 105, 60, 55, 36, 17, 10, 9, -1, -1, 12, -1, 14, -1, 16, -1, -1, 25, 24, 21, -1, 23, -1, -1, -1, 31, 30, 29, -1, -1, -1, 33, -1, 35, -1, -1, 38, -1, 44, 43, 42, -1, -1, -1, 52, 49, 48, -1, -1, 51, -1, -1, 54, -1, -1, 57, -1, 59, -1, -1, 96, 81, 78, 75, 72, 69, 68, -1, -1, 71, -1, -1, 74, -1, -1, 77, -1, -1, 80, -1, -1, 85, 84, -1, -1, 93, 92, 91, 90, -1, -1, -1, -1, 95, -1, -1, 104, 101, 100, -1, -1, 103, -1, -1, -1, 197, 132, 113, 110, -1, 112, -1, -1, 131, 126, 121, 120, 119, -1, -1, -1, 123, -1, 125, -1, -1, 128, -1, 130, -1, -1, -1, 160, 147, 136, -1, 140, 139, -1, -1, 144, 143, -1, -1, 146, -1, -1, 151, 150, -1, -1, 159, 156, 155, -1, -1, 158, -1, -1, -1, 184, 173, 168, 167, 166, -1, -1, -1, 170, -1, 172, -1, -1, 179, 178, 177, -1, -1, -1, 183, 182, -1, -1, -1, 192, 187, -1, 189, -1, 191, -1, -1, 194, -1, 196, -1, -1, 269, 236, 215, 208, 205, 204, -1, -1, 207, -1, -1, 214, 213, 212, -1, -1, -1, -1, 229, 224, 221, 220, -1, -1, 223, -1, -1, 226, -1, 228, -1, -1, 231, -1, 233, -1, 235, -1, -1, 262, 249, 244, 241, -1, 243, -1, -1, 246, -1, 248, -1, -1, 257, 254, 253, -1, -1, 256, -1, -1, 259, -1, 261, -1, -1, 268, 267, 266, -1, -1, -1, -1, -1, 360, 347, 316, 295, 276, -1, 282, 279, -1, 281, -1, -1, 290, 287, 286, -1, -1, 289, -1, -1, 294, 293, -1, -1, -1, 311, 310, 303, 302, 301, -1, -1, -1, 307, 306, -1, -1, 309, -1, -1, -1, 313, -1, 315, -1, -1, 318, -1, 332, 321, -1, 327, 326, 325, -1, -1, -1, 331, 330, -1, -1, -1, 342, 341, 338, 337, -1, -1, 340, -1, -1, -1, 346, 345, -1, -1, -1, 353, 352, 351, -1, -1, -1, 359, 356, -1, 358, -1, -1, -1, 380, 377, 368, 367, 366, -1, -1, -1, 370, -1, 372, -1, 376, 375, -1, -1, -1, 379, -1, -1, 384, 383, -1, -1, 386, -1, 388, -1, 390, -1, -1], "threshold": [0.3018285036087036, 0.21195600181818008, 0.12449700012803078, 1.499999996212864e-06, 0.09615850076079369, 0.06397899985313416, 0.05474649928510189, 0.032793499529361725, -2.0, -2.0, 0.05613099969923496, -2.0, 0.06081249937415123, -2.0, 0.061982499435544014, -2.0, -2.0, 0.07649650052189827, 0.07531649991869926, 0.06514449790120125, -2.0, 0.07438850030303001, -2.0, -2.0, -2.0, 0.08922050148248672, 0.08737599849700928, 0.08495650067925453, -2.0, -2.0, -2.0, 0.09417099878191948, -2.0, 0.09500999748706818, -2.0, -2.0, 0.09768350049853325, -2.0, 0.1009029969573021, 0.09958500042557716, 0.09848150238394737, -2.0, -2.0, -2.0, 0.1213115006685257, 0.11562500149011612, 0.11476000025868416, -2.0, -2.0, 0.11802500113844872, -2.0, -2.0, 0.12346899881958961, -2.0, -2.0, 0.08993550017476082, -2.0, 0.0003149999974993989, -2.0, -2.0, 0.0037400000728666782, 0.18028300255537033, 0.17711549997329712, 7.500000037907739e-06, 0.17352750152349472, 0.17048799991607666, 0.13050050288438797, -2.0, -2.0, 0.17160950601100922, -2.0, -2.0, 0.1751450002193451, -2.0, -2.0, 0.1606849953532219, -2.0, -2.0, 0.17853199690580368, -2.0, -2.0, 0.18424049764871597, 0.18230050057172775, -2.0, -2.0, 6.499999926745659e-06, 0.2099585011601448, 0.20803149789571762, 0.18526750057935715, -2.0, -2.0, -2.0, -2.0, 0.2005155012011528, -2.0, -2.0, 0.15481449663639069, 0.1686680018901825, 0.03579150140285492, -2.0, -2.0, 0.02973650023341179, -2.0, -2.0, -2.0, 2.5000000505315256e-06, 0.2647404968738556, 0.2188510000705719, 0.2144479975104332, -2.0, 0.21644650399684906, -2.0, -2.0, 0.26269200444221497, 0.25392600893974304, 0.22920049726963043, 0.22745300084352493, 0.2210185006260872, -2.0, -2.0, -2.0, 0.23216550052165985, -2.0, 0.2513194978237152, -2.0, -2.0, 0.25594599545001984, -2.0, 0.2596929967403412, -2.0, -2.0, -2.0, 0.3981900066137314, 0.31669650971889496, 0.26673199236392975, -2.0, 0.2723030000925064, 0.2694139927625656, -2.0, -2.0, 0.31101299822330475, 0.2958804965019226, -2.0, -2.0, 0.31358949840068817, -2.0, -2.0, 0.3236755132675171, 0.32083000242710114, -2.0, -2.0, 0.3936145007610321, 0.3608645051717758, 0.33620600402355194, -2.0, -2.0, 0.38606899976730347, -2.0, -2.0, -2.0, 0.63833948969841, 0.44383499026298523, 0.41982199251651764, 0.4159940034151077, 0.40560300648212433, -2.0, -2.0, -2.0, 0.4247885048389435, -2.0, 0.4291379898786545, -2.0, -2.0, 0.4963050037622452, 0.4871799945831299, 0.44951750338077545, -2.0, -2.0, -2.0, 0.6214430034160614, 0.5640735030174255, -2.0, -2.0, -2.0, 0.7546910047531128, 0.668020486831665, -2.0, 0.6941660046577454, -2.0, 0.7148160040378571, -2.0, -2.0, 0.8250634968280792, -2.0, 1.0001579821109772, -2.0, -2.0, 1.5611109733581543, 0.3701480031013489, 0.000534999999217689, 0.27683550119400024, 0.24700500071048737, 0.22752050310373306, -2.0, -2.0, 5.3499999921768904e-05, -2.0, -2.0, 0.348534494638443, 0.3197930008172989, 0.30634599924087524, -2.0, -2.0, -2.0, -2.0, 0.01714950054883957, 0.005714500090107322, 0.0024205000372603536, 0.31683801114559174, -2.0, -2.0, 0.2949715107679367, -2.0, -2.0, 0.008030999917536974, -2.0, 0.012923500034958124, -2.0, -2.0, 0.028068499639630318, -2.0, 0.2274864986538887, -2.0, 0.2314705029129982, -2.0, -2.0, 0.9968050122261047, 0.001663499977439642, 1.3500000022759195e-05, 0.4898325055837631, -2.0, 0.6105994880199432, -2.0, -2.0, 2.4500000108673703e-05, -2.0, 0.5342840254306793, -2.0, -2.0, 0.20926199853420258, 0.15828300267457962, 0.1402594968676567, -2.0, -2.0, 0.1847279965877533, -2.0, -2.0, 0.23452650010585785, -2.0, 0.27731451392173767, -2.0, -2.0, 0.07236150279641151, 1.2154330015182495, 1.0607295036315918, -2.0, -2.0, -2.0, -2.0, -2.0, 9.971939086914062, 0.942936509847641, 2.33906090259552, 0.35436300933361053, 0.09334100037813187, -2.0, 0.17770999670028687, 0.8128415048122406, -2.0, 0.1464874967932701, -2.0, -2.0, 0.23886100202798843, 0.21025500446558, 1.2022625207901, -2.0, -2.0, 0.9136860072612762, -2.0, -2.0, 0.3399295061826706, 0.28726600110530853, -2.0, -2.0, -2.0, 1.876173496246338, 1.7311294674873352, 0.5807540118694305, 0.7459859848022461, 0.36474500596523285, -2.0, -2.0, -2.0, 0.959185004234314, 0.7203410267829895, -2.0, -2.0, 1.109531044960022, -2.0, -2.0, -2.0, 0.5027875006198883, -2.0, 2.0745614767074585, -2.0, -2.0, 2.4202054738998413, -2.0, 5.244316577911377, 0.13925299793481827, -2.0, 0.4689984917640686, 0.43597249686717987, 0.37641750276088715, -2.0, -2.0, -2.0, 0.7494525015354156, 0.6951475143432617, -2.0, -2.0, -2.0, 0.600913017988205, 0.5120289921760559, 6.458859443664551, 5.681138038635254, -2.0, -2.0, 6.907565593719482, -2.0, -2.0, -2.0, 0.7847189903259277, 6.601993083953857, -2.0, -2.0, -2.0, 2.842237949371338, 1.3085705041885376, 1.0680245161056519, -2.0, -2.0, -2.0, 6.849431991577148, 1.0678609609603882, -2.0, 4.3307061195373535, -2.0, -2.0, -2.0, 23.139212608337402, 0.9099439978599548, 13.049163341522217, 0.47941701114177704, 0.3558940142393112, -2.0, -2.0, -2.0, 14.161449909210205, -2.0, 15.652576923370361, -2.0, 21.36327075958252, 0.427154004573822, -2.0, -2.0, -2.0, 15.08897590637207, -2.0, -2.0, 0.5077800154685974, 0.4129204899072647, -2.0, -2.0, 32.14653205871582, -2.0, 0.8200560212135315, -2.0, 55.79911422729492, -2.0, -2.0], "feature": [0, 1, 1, 0, 1, 1, 1, 1, -2, -2, 1, -2, 1, -2, 1, -2, -2, 1, 1, 1, -2, 1, -2, -2, -2, 1, 1, 1, -2, -2, -2, 1, -2, 1, -2, -2, 1, -2, 1, 1, 1, -2, -2, -2, 1, 1, 1, -2, -2, 1, -2, -2, 1, -2, -2, 1, -2, 0, -2, -2, 0, 1, 1, 0, 1, 1, 1, -2, -2, 1, -2, -2, 1, -2, -2, 1, -2, -2, 1, -2, -2, 1, 1, -2, -2, 0, 1, 1, 1, -2, -2, -2, -2, 1, -2, -2, 0, 1, 0, -2, -2, 0, -2, -2, -2, 0, 1, 1, 1, -2, 1, -2, -2, 1, 1, 1, 1, 1, -2, -2, -2, 1, -2, 1, -2, -2, 1, -2, 1, -2, -2, -2, 1, 1, 1, -2, 1, 1, -2, -2, 1, 1, -2, -2, 1, -2, -2, 1, 1, -2, -2, 1, 1, 1, -2, -2, 1, -2, -2, -2, 1, 1, 1, 1, 1, -2, -2, -2, 1, -2, 1, -2, -2, 1, 1, 1, -2, -2, -2, 1, 1, -2, -2, -2, 1, 1, -2, 1, -2, 1, -2, -2, 1, -2, 1, -2, -2, 1, 1, 0, 1, 1, 1, -2, -2, 0, -2, -2, 1, 1, 1, -2, -2, -2, -2, 0, 0, 0, 1, -2, -2, 1, -2, -2, 0, -2, 0, -2, -2, 0, -2, 1, -2, 0, -2, -2, 1, 0, 0, 1, -2, 1, -2, -2, 0, -2, 1, -2, -2, 0, 0, 0, -2, -2, 0, -2, -2, 0, -2, 0, -2, -2, 0, 1, 1, -2, -2, -2, -2, -2, 0, 1, 0, 1, 1, -2, 1, 0, -2, 1, -2, -2, 1, 1, 0, -2, -2, 0, -2, -2, 1, 1, -2, -2, -2, 0, 0, 0, 1, 0, -2, -2, -2, 0, 0, -2, -2, 0, -2, -2, -2, 1, -2, 0, -2, -2, 0, -2, 0, 1, -2, 1, 1, 1, -2, -2, -2, 1, 1, -2, -2, -2, 1, 1, 0, 0, -2, -2, 0, -2, -2, -2, 1, 0, -2, -2, -2, 0, 1, 1, -2, -2, -2, 0, 1, -2, 0, -2, -2, -2, 0, 1, 0, 1, 1, -2, -2, -2, 0, -2, 0, -2, 0, 1, -2, -2, -2, 0, -2, -2, 1, 1, -2, -2, 0, -2, 1, -2, 0, -2, -2], "classes": [0, 1, 2], "value": [[8017.3960222751275, 8079.98273501079, 8065.266942252237], [2088.1444709626135, 6484.648647574968, 6137.671176249493], [496.99379474940366, 3656.2942985848554, 778.0146561443037], [134.84327764518696, 1939.8685876446657, 138.01039709382437], [77.05330151153542, 1832.2315889742642, 112.22823499937368], [23.115990453460622, 1091.7467007997632, 42.46473756733058], [0.0, 389.22307554920485, 4.549793310785419], [0.0, 231.1312337520584, 0.0], [0.0, 29.792383560556456, 0.0], [0.0, 201.3388501915021, 0.0], [0.0, 158.09184179714615, 4.549793310785419], [0.0, 22.104026512670924, 3.0331955405236126], [0.0, 135.98781528447546, 1.5165977702618063], [0.0, 74.00043658589834, 0.0], [0.0, 61.98737869857719, 1.5165977702618063], [0.0, 25.46768272112084, 1.5165977702618063], [0.0, 36.51969597745631, 0.0], [23.115990453460622, 702.5236252505468, 37.914944256545155], [19.263325377883852, 258.04048341965773, 21.232368783665287], [3.85266507557677, 236.4169792224798, 18.199173243141676], [0.0, 22.10402651267091, 6.066391081047225], [3.85266507557677, 214.31295270980894, 12.13278216209445], [0.0, 189.80631461967397, 12.13278216209445], [3.85266507557677, 24.506638090135144, 0.0], [15.41066030230708, 21.623504197178065, 3.0331955405236126], [3.85266507557677, 444.4831418308828, 16.68257547287987], [3.85266507557677, 291.67704550415687, 15.165977702618063], [3.85266507557677, 254.19630489571477, 7.5829888513090316], [3.85266507557677, 188.84526998868824, 7.5829888513090316], [0.0, 65.3510349070271, 0.0], [0.0, 37.480740608441984, 7.5829888513090316], [0.0, 152.8060963267251, 1.5165977702618063], [0.0, 107.15647635490485, 0.0], [0.0, 45.649619971820385, 1.5165977702618063], [0.0, 20.662459566192375, 1.5165977702618063], [0.0, 24.987160405627993, 0.0], [53.93731105807478, 740.4848881744825, 69.76349743204308], [11.557995226730311, 27.870294298585065, 4.549793310785419], [42.37931583134447, 712.6145938758964, 65.21370412125765], [0.0, 92.26028457462652, 21.232368783665287], [0.0, 53.3379770197059, 3.0331955405236126], [0.0, 23.0650711436566, 3.0331955405236126], [0.0, 30.272905876049293, 0.0], [0.0, 38.92230755492052, 18.199173243141676], [42.37931583134447, 620.3543093012676, 43.981335337592384], [34.67398568019093, 557.405885971703, 33.365150945759744], [34.67398568019093, 406.04135659145453, 25.782162094450708], [15.41066030230708, 382.49576313230506, 25.782162094450708], [19.263325377883852, 23.545593459149448, 0.0], [0.0, 151.36452938024652, 7.5829888513090316], [0.0, 58.143200174634416, 0.0], [0.0, 93.2213292056122, 7.5829888513090316], [7.70533015115354, 62.94842332956284, 10.616184391832643], [7.70533015115354, 37.480740608441984, 10.616184391832643], [0.0, 25.467682721120827, 0.0], [57.78997613365156, 107.6369986703977, 25.782162094450708], [0.0, 57.182155543648676, 0.0], [57.78997613365156, 50.45484312674884, 25.78216209445071], [38.526650755767704, 19.70141493520668, 6.066391081047225], [19.263325377883852, 30.753428191542145, 19.715771013403483], [362.15051710421665, 1716.425710940485, 640.0042590504805], [204.19124900556878, 1603.5029667996619, 556.5913816860816], [161.81193317422432, 1069.1621519715986, 303.31955405236084], [138.6959427207637, 1020.6293981068196, 292.70336966052827], [127.13794749403343, 970.6550772955625, 259.3382187147687], [127.13794749403343, 912.0313548054331, 253.27182763372144], [119.43261734287988, 861.5765116786827, 216.87348114743813], [11.557995226730311, 103.31229783096207, 47.014530878116005], [107.87462211614957, 758.2642138477191, 169.8589502693222], [7.70533015115354, 50.454843126748834, 36.398346486283366], [0.0, 21.62350419717807, 24.265564324188905], [7.70533015115354, 28.831338929570762, 12.13278216209445], [0.0, 58.62372249012724, 6.066391081047225], [0.0, 37.48074060844199, 1.5165977702618063], [0.0, 21.142981881685216, 4.549793310785419], [11.557995226730311, 49.97432081125599, 33.36515094575974], [11.557995226730311, 33.63656208449922, 18.199173243141676], [0.0, 16.337758726756764, 15.165977702618061], [23.115990453460622, 48.53275386477748, 10.616184391832643], [15.41066030230708, 20.66245956619238, 4.549793310785419], [7.70533015115354, 27.870294298585062, 6.066391081047225], [42.37931583134447, 534.3408148280446, 253.27182763372144], [0.0, 63.428945645055684, 53.08092195916323], [0.0, 35.07812903097775, 16.68257547287987], [0.0, 28.35081661407791, 36.39834648628335], [42.37931583134447, 470.91186918298837, 200.19090567455834], [23.115990453460622, 415.6518029013109, 185.0249279719403], [23.115990453460622, 381.5347185013191, 181.9917324314167], [23.115990453460622, 362.31382588160506, 157.72616810722786], [3.85266507557677, 23.545593459149444, 1.5165977702618063], [19.263325377883852, 338.76823242245575, 156.20957033696604], [0.0, 19.220892619713837, 24.265564324188905], [0.0, 34.11708439999207, 3.0331955405236126], [19.263325377883852, 55.260066281677304, 15.165977702618065], [19.263325377883852, 31.71447282252783, 7.5829888513090316], [0.0, 23.545593459149448, 7.5829888513090316], [157.95926809864756, 112.92274414081895, 83.41287736439934], [80.90596658711216, 88.8966283661766, 62.180508580734056], [57.789976133651564, 36.5196959774563, 40.94813979706876], [34.67398568019093, 21.623504197178068, 15.165977702618063], [23.115990453460622, 14.896191780278228, 25.782162094450708], [23.115990453460622, 52.37693238872021, 21.232368783665287], [3.85266507557677, 22.104026512670917, 12.13278216209445], [19.263325377883852, 30.272905876049283, 9.099586621570838], [77.05330151153541, 24.0261157746423, 21.23236878366529], [1591.1506762132099, 2828.3543489908134, 5359.656520105192], [412.2351630867148, 1560.7364807207987, 3491.2080671426584], [46.231980906921244, 535.7823817745241, 529.2926218213692], [0.0, 84.57192752674099, 56.11411749968683], [0.0, 28.350816614077907, 34.88174871602155], [0.0, 56.22111091266301, 21.23236878366529], [0.0, 29.79238356055644, 6.066391081047225], [0.0, 26.42872735210652, 15.165977702618063], [46.231980906921244, 451.210454247782, 473.17850432168274], [46.231980906921244, 429.58695005060383, 465.5955154703736], [46.231980906921244, 364.2359151435765, 362.4668670925711], [7.70533015115354, 97.06550772955502, 127.3942127019917], [7.70533015115354, 84.09140521124813, 81.89627959413754], [0.0, 23.54559345914945, 31.848553175497933], [7.70533015115354, 60.54581175209863, 50.04772641863961], [0.0, 12.974102518306843, 45.49793310785419], [38.526650755767704, 267.1704074140217, 235.0726543905799], [3.85266507557677, 44.68857534083468, 19.715771013403483], [34.67398568019093, 222.48183207318726, 215.35688337717647], [26.96865552903739, 202.78041713798078, 204.7406989853438], [7.70533015115354, 19.70141493520668, 10.616184391832643], [0.0, 65.3510349070271, 103.12864837780285], [0.0, 16.81828104224961, 36.39834648628335], [0.0, 48.53275386477745, 66.73030189151946], [0.0, 29.79238356055645, 28.815357634974326], [0.0, 18.740370304221, 37.914944256545155], [0.0, 21.62350419717806, 7.5829888513090316], [366.0031821797933, 1024.9540989462555, 2961.9154453212914], [204.1912490055688, 617.4711754083099, 1358.8716021545724], [30.82132060461416, 297.4433132900707, 589.9565326318415], [0.0, 11.532535571828303, 47.01453087811599], [30.82132060461416, 285.91077771824246, 542.9420017537257], [0.0, 40.36387450139907, 45.49793310785418], [0.0, 16.337758726756768, 31.848553175497933], [0.0, 24.026115774642292, 13.649379932356258], [30.82132060461416, 245.54690321684356, 497.44406864587177], [30.82132060461416, 209.50772955488046, 453.46273330827967], [30.82132060461416, 129.74102518306864, 274.50419641738677], [0.0, 79.76670437181252, 178.95853689089313], [0.0, 36.03917366196345, 43.98133533759239], [0.0, 18.740370304220995, 15.165977702618061], [0.0, 17.29880335774245, 28.81535763497432], [173.36992840095465, 320.02786211823496, 768.9150695227331], [42.37931583134447, 19.220892619713833, 72.7966929725667], [15.41066030230708, 9.610446309856917, 39.43154202680696], [26.96865552903739, 9.61044630985692, 33.36515094575974], [130.99061256961016, 300.80696949852125, 696.1183765501667], [115.57995226730309, 285.43025540275, 676.4026055367633], [80.90596658711218, 178.75430136333858, 351.8506827007384], [11.557995226730311, 63.428945645055656, 144.07678817487164], [69.34797136038186, 115.32535571828323, 207.77389452586732], [34.67398568019093, 106.67595403941196, 324.5519228360263], [34.67398568019093, 80.24722668730536, 232.03945885005623], [0.0, 26.428727352106524, 92.51246398597017], [15.41066030230708, 15.376714095771073, 19.715771013403486], [161.81193317422432, 407.48292353793335, 1603.0438431667212], [146.40127287191726, 328.6772637971063, 1161.7138920205384], [26.96865552903739, 79.76670437181251, 461.0457221595882], [26.96865552903739, 47.571709233791765, 218.39007891770004], [7.70533015115354, 36.519695977456294, 172.8921458098459], [3.85266507557677, 13.935147149292533, 81.89627959413754], [3.85266507557677, 22.584548828163758, 90.99586621570839], [19.263325377883852, 11.052013256335458, 45.49793310785419], [0.0, 32.194995138020666, 242.65564324188892], [0.0, 4.80522315492846, 57.63071526994863], [0.0, 27.389771983092214, 185.02492797194031], [0.0, 10.090968625349765, 47.014530878116], [0.0, 17.298803357742457, 138.0103970938244], [119.43261734287988, 248.91055942529326, 700.6681698609519], [80.90596658711219, 101.87073088448345, 235.07265439057974], [46.23198090692125, 87.45506141969803, 198.6743079042965], [23.115990453460622, 9.129923994364075, 25.78216209445071], [23.115990453460622, 78.3251374253339, 172.8921458098459], [34.67398568019093, 14.415669464785378, 36.39834648628335], [38.526650755767704, 147.03982854081087, 465.59551547037375], [23.115990453460622, 131.66311444503992, 441.329951146185], [3.85266507557677, 87.93558373519089, 245.6888387824125], [19.263325377883852, 43.727530709848985, 195.64111236377298], [15.41066030230708, 15.376714095771073, 24.2655643241889], [15.41066030230708, 78.80565974082677, 441.32995114618495], [0.0, 33.63656208449922, 276.0207941876488], [0.0, 3.363656208449921, 74.31329074282851], [0.0, 30.27290587604929, 201.7075034448202], [0.0, 12.013057887321146, 51.564324188901416], [0.0, 18.259847988728147, 150.1431792559188], [0.0, 5.285745470421304, 78.86308405361392], [0.0, 12.974102518306841, 71.28009520230489], [15.41066030230708, 45.16909765632752, 165.30915695853687], [11.557995226730311, 23.54559345914946, 37.91494425654515], [3.85266507557677, 21.62350419717807, 127.39421270199175], [0.0, 12.013057887321153, 86.44607290492296], [3.85266507557677, 9.610446309856918, 40.94813979706876], [1178.9155131264936, 1267.6178682701518, 1868.4484529625354], [1124.9782020684183, 1251.7606318588873, 1866.9318551922736], [562.4891010342086, 509.3536544224162, 605.1225103344589], [119.43261734287988, 172.02698894643862, 145.5933859451333], [96.31662688941925, 79.28618205631969, 66.73030189151946], [23.115990453460622, 46.1301422873132, 28.815357634974323], [19.263325377883852, 15.37671409577107, 12.13278216209445], [3.85266507557677, 30.753428191542138, 16.682575472879872], [73.20063643595864, 33.15603976900638, 37.914944256545155], [30.82132060461416, 14.896191780278228, 27.298759864712515], [42.37931583134448, 18.259847988728144, 10.616184391832643], [23.115990453460622, 92.74080689011937, 78.86308405361393], [7.70533015115354, 77.36409279434827, 65.21370412125765], [7.70533015115354, 42.7664860788633, 48.53112864837778], [0.0, 29.79238356055645, 27.298759864712515], [7.70533015115354, 12.974102518306843, 21.232368783665287], [0.0, 34.59760671548491, 16.682575472879872], [15.41066030230708, 15.376714095771073, 13.649379932356258], [443.0564836913287, 337.32666547597756, 459.52912438932646], [250.42322991249, 138.87094917743264, 194.12451459351124], [111.72728719172636, 93.70185152110513, 125.87761493172992], [100.16929196499605, 57.18215554364869, 75.8298885130903], [53.93731105807478, 37.96126292393483, 56.11411749968684], [46.231980906921244, 19.220892619713837, 19.715771013403486], [11.557995226730311, 36.51969597745631, 50.04772641863961], [11.557995226730311, 17.7793256732353, 34.88174871602154], [0.0, 18.740370304220992, 15.165977702618065], [138.69594272076375, 45.16909765632754, 68.24689966178127], [65.4953062848051, 12.493580202813996, 16.68257547287987], [73.20063643595863, 32.67551745351353, 51.564324188901416], [26.96865552903739, 19.220892619713837, 37.91494425654517], [46.23198090692125, 13.454624833799688, 13.649379932356256], [192.63325377883848, 198.4557162985451, 265.404609795816], [0.0, 30.272905876049293, 25.78216209445071], [192.6332537788385, 168.18281042249598, 239.62244770136522], [38.526650755767704, 15.37671409577107, 16.68257547287987], [154.10660302307082, 152.80609632672503, 222.9398722284854], [115.57995226730311, 130.7020698140542, 203.2241012150819], [38.526650755767704, 22.10402651267091, 19.71577101340348], [562.4891010342088, 742.4069774364541, 1261.8093448578168], [535.5204455051714, 656.8740052787251, 1226.9275961417954], [146.40127287191726, 239.7806354309296, 494.41087310534806], [38.526650755767704, 50.93536544224169, 71.28009520230485], [7.70533015115354, 18.740370304220995, 40.94813979706877], [30.82132060461416, 32.19499513802067, 30.331955405236133], [19.263325377883852, 14.89619178027823, 13.649379932356258], [11.557995226730311, 17.298803357742454, 16.682575472879872], [107.87462211614957, 188.84526998868822, 423.13077790304334], [0.0, 14.415669464785381, 57.630715269948624], [107.87462211614957, 174.42960052390296, 365.50006263309507], [77.05330151153541, 92.26028457462651, 165.30915695853693], [30.82132060461416, 82.16931594927676, 200.19090567455822], [389.11917263325404, 417.09336984778946, 732.5167230364499], [369.8558472553701, 370.9632275604759, 627.8714768883859], [339.0345266507558, 320.50838443372777, 591.4731304021027], [335.18186157517897, 309.9368934928852, 547.4917950645106], [3.85266507557677, 10.571490940842613, 43.98133533759238], [30.82132060461416, 50.454843126748834, 36.39834648628336], [19.263325377883852, 25.467682721120838, 13.649379932356256], [11.557995226730311, 24.987160405627993, 22.748966553927097], [19.263325377883852, 46.13014228731324, 104.64524614806463], [0.0, 12.974102518306843, 42.464737567330566], [19.263325377883852, 33.15603976900637, 62.18050858073405], [15.41066030230708, 24.026115774642303, 19.715771013403483], [3.85266507557677, 9.129923994364074, 42.46473756733057], [26.96865552903739, 85.53297215772666, 34.88174871602155], [7.70533015115354, 64.38999027604137, 28.815357634974323], [3.85266507557677, 37.96126292393484, 22.748966553927097], [3.85266507557677, 18.25984798872815, 6.066391081047225], [0.0, 19.701414935206685, 16.682575472879872], [3.85266507557677, 26.42872735210652, 6.066391081047225], [19.263325377883852, 21.14298188168522, 6.066391081047225], [53.93731105807478, 15.85723641126392, 1.5165977702618063], [5929.251551312588, 1595.3340874362837, 1927.595766002746], [3467.3985680190876, 1410.332995971533, 1822.9505198546822], [2766.2135242641198, 1285.8777162588815, 1765.319804584734], [1279.0848050914885, 745.7706336449035, 1105.5997745208522], [693.4797136038186, 361.83330356611253, 348.81748716021497], [0.0, 25.948205036613693, 0.0], [693.4797136038192, 335.88509852949875, 348.81748716021514], [215.7492442322991, 64.38999027604139, 54.59751972942502], [130.99061256961022, 25.948205036613682, 9.099586621570838], [84.75863166268897, 38.4417852394277, 45.49793310785417], [30.82132060461416, 21.142981881685227, 28.815357634974326], [53.93731105807478, 17.298803357742457, 16.68257547287987], [477.7304693715198, 271.49510825345715, 294.2199674307903], [61.64264120922834, 86.49401678871234, 112.22823499937368], [53.93731105807478, 59.104244805620034, 48.531128648377795], [26.96865552903739, 38.44178523942768, 39.431542026806966], [26.96865552903739, 20.66245956619238, 9.099586621570838], [7.70533015115354, 27.389771983092217, 63.69710635099584], [7.70533015115354, 12.493580202813991, 28.815357634974323], [0.0, 14.896191780278226, 34.88174871602155], [416.0878281622913, 185.0010914647454, 181.99173243141666], [331.3291964996023, 164.81915421404616, 168.34235249906044], [181.0752585521082, 67.75364648449131, 47.01453087811598], [150.25393794749402, 97.06550772955498, 121.32782162094452], [84.75863166268896, 20.181937250699534, 13.649379932356258], [585.6050914876696, 383.9373300787835, 756.7822873606387], [543.225775656325, 331.0798753745702, 632.4212701991713], [485.43579952267345, 310.41741580837794, 617.2552924965536], [208.04391408114554, 92.74080689011942, 195.641112363773], [200.338583929992, 79.76670437181252, 153.17637479644245], [42.37931583134448, 24.987160405627993, 68.24689966178126], [157.95926809864756, 54.77954396618445, 84.92947513466116], [7.70533015115354, 12.974102518306843, 42.46473756733059], [277.39188544152745, 217.6766089182587, 421.6141801327816], [69.34797136038186, 101.3902085689906, 209.2904922961292], [50.084645982498024, 40.36387450139906, 86.44607290492297], [19.263325377883852, 61.026334067591485, 122.84441939120634], [208.04391408114552, 116.2864003492689, 212.32368783665288], [84.75863166268896, 31.71447282252782, 30.331955405236137], [123.28528241845663, 84.57192752674098, 181.9917324314167], [57.78997613365156, 20.66245956619238, 15.165977702618065], [42.37931583134447, 52.85745470421307, 124.36101716146817], [3.85266507557677, 29.79238356055645, 25.782162094450708], [38.526650755767704, 23.065071143656606, 98.57885506701744], [3.85266507557677, 14.896191780278228, 47.014530878115984], [34.67398568019093, 8.16887936337838, 51.5643241889014], [1487.1287191726362, 540.1070826139601, 659.7200300638842], [80.90596658711218, 12.974102518306841, 9.099586621570838], [1406.2227525855237, 527.1329800956526, 650.6204434423134], [739.7116945107406, 323.8720406421782, 403.4150068896398], [15.41066030230708, 18.740370304220995, 34.88174871602155], [724.3010342084331, 305.1316703379566, 368.5332581736185], [458.46714399363594, 203.7414617689662, 163.79255918827508], [385.26650755767736, 188.84526998868836, 159.24276587748957], [354.445186953063, 157.13079716616076, 112.22823499937373], [30.82132060461416, 31.714472822527824, 47.01453087811599], [73.20063643595864, 14.89619178027823, 4.549793310785419], [265.8338902147971, 101.39020856899064, 204.74069898534373], [161.81193317422432, 77.84461510984111, 168.34235249906044], [150.25393794749402, 66.31207953801278, 119.81122385068268], [11.557995226730311, 11.532535571828303, 48.5311286483778], [104.02195704057279, 23.545593459149448, 36.39834648628335], [666.5110580747818, 203.26093945347353, 247.20543655267426], [435.35115354017523, 158.09184179714617, 194.12451459351112], [400.67716785998425, 141.7540830703896, 148.62658148565697], [96.31662688941927, 52.857454704213076, 48.5311286483778], [73.20063643595864, 21.142981881685223, 16.68257547287987], [23.115990453460622, 31.714472822527828, 31.848553175497937], [304.3605409705648, 88.89662836617659, 100.09545283727925], [100.16929196499603, 7.207834732392688, 24.2655643241889], [204.19124900556875, 81.68879363378389, 75.82988851309035], [34.67398568019093, 16.337758726756764, 45.49793310785419], [231.15990453460617, 45.169097656327544, 53.08092195916321], [188.78058870326166, 27.870294298585062, 25.782162094450708], [100.16929196499602, 10.090968625349769, 21.232368783665287], [88.61129673826572, 17.7793256732353, 4.549793310785419], [42.37931583134448, 17.298803357742457, 27.298759864712515], [701.1850437549728, 124.45527971264733, 57.63071526994864], [285.09721559268104, 75.92252584786972, 43.981335337592384], [154.10660302307076, 48.052231549284606, 42.46473756733057], [104.02195704057281, 18.740370304220992, 24.265564324188905], [50.084645982498024, 29.3118612450636, 18.199173243141676], [130.99061256961022, 27.87029429858507, 1.5165977702618063], [416.0878281622913, 48.532753864777455, 13.649379932356256], [238.86523468575965, 38.92230755492053, 4.549793310785419], [50.08464598249801, 14.41566946478538, 1.5165977702618063], [188.78058870326169, 24.506638090135144, 3.0331955405236126], [96.31662688941927, 9.610446309856922, 0.0], [92.4639618138425, 14.896191780278226, 3.0331955405236126], [177.2225934765314, 9.61044630985692, 9.099586621570838], [2461.85298329356, 185.00109146474534, 104.64524614806461], [1229.0001591089908, 148.96191780278227, 101.61205060754102], [889.9656324582339, 129.74102518306861, 87.96267067518473], [308.21320604614164, 53.818499335198794, 45.49793310785418], [208.04391408114552, 33.63656208449922, 18.19917324314168], [73.20063643595863, 20.662459566192375, 3.0331955405236126], [134.84327764518696, 12.974102518306843, 15.165977702618061], [100.16929196499603, 20.181937250699526, 27.29875986471252], [581.7524264120925, 75.92252584786972, 42.46473756733057], [134.843277645187, 11.052013256335457, 0.0], [446.9091487669055, 64.87051259153421, 42.46473756733057], [65.49530628480511, 17.298803357742454, 15.165977702618065], [381.41384248210034, 47.57170923379174, 27.29875986471252], [323.62386634844864, 31.23395050703499, 21.232368783665294], [123.28528241845669, 14.41566946478538, 13.649379932356256], [200.33858392999204, 16.81828104224961, 7.5829888513090316], [57.789976133651564, 16.337758726756764, 6.066391081047225], [339.0345266507559, 19.220892619713844, 13.649379932356258], [223.4545743834526, 12.974102518306843, 0.0], [115.57995226730307, 6.246790101406997, 13.649379932356258], [1232.8528241845665, 36.03917366196346, 3.0331955405236126], [258.1285600636435, 22.104026512670913, 0.0], [154.10660302307076, 7.207834732392688, 0.0], [104.0219570405728, 14.896191780278228, 0.0], [974.7242641209235, 13.935147149292531, 3.0331955405236126], [261.98122513922027, 10.090968625349763, 3.0331955405236126], [712.7430389817027, 3.8441785239427673, 0.0], [188.7805887032617, 2.883133892957076, 0.0], [523.9624502784411, 0.9610446309856919, 0.0], [181.07525855210818, 0.9610446309856919, 0.0], [342.88719172633256, 0.0, 0.0]]}, {"children_left": [1, 2, 3, 4, 5, 6, 7, -1, 9, -1, -1, 12, 13, 14, 15, -1, -1, -1, 19, -1, -1, 22, -1, 24, -1, -1, 27, 28, -1, -1, -1, 32, 33, 34, 35, 36, 37, -1, -1, -1, 41, 42, -1, -1, 45, -1, -1, -1, 49, -1, -1, 52, 53, 54, 55, 56, -1, -1, -1, -1, -1, 62, 63, 64, 65, -1, -1, -1, 69, -1, 71, -1, -1, 74, 75, 76, -1, -1, -1, 80, -1, 82, -1, -1, 85, -1, 87, 88, 89, -1, -1, 92, 93, -1, -1, 96, -1, -1, 99, -1, -1, 102, 103, 104, 105, 106, -1, 108, -1, 110, -1, -1, -1, 114, 115, 116, 117, -1, -1, 120, -1, 122, -1, -1, 125, 126, -1, -1, 129, -1, -1, -1, 133, 134, 135, 136, -1, 138, 139, -1, -1, 142, -1, -1, 145, -1, -1, 148, -1, 150, -1, 152, -1, -1, 155, 156, 157, 158, 159, -1, -1, 162, -1, -1, 165, 166, -1, -1, 169, -1, -1, -1, 173, 174, 175, -1, 177, -1, -1, 180, -1, -1, -1, 184, 185, 186, -1, -1, 189, 190, -1, 192, -1, -1, 195, 196, -1, 198, -1, 200, -1, -1, 203, 204, 205, -1, -1, 208, -1, -1, 211, 212, -1, -1, -1, 216, 217, 218, 219, 220, 221, -1, -1, -1, 225, 226, -1, -1, 229, -1, -1, 232, 233, 234, -1, -1, 237, -1, -1, 240, -1, 242, -1, -1, 245, 246, -1, 248, -1, -1, -1, -1, 253, 254, 255, 256, 257, -1, 259, 260, 261, 262, -1, -1, 265, -1, -1, 268, 269, -1, -1, -1, 273, -1, 275, -1, -1, 278, 279, -1, 281, -1, 283, -1, 285, -1, -1, 288, 289, -1, -1, 292, 293, 294, -1, -1, -1, 298, -1, -1, 301, 302, 303, 304, 305, -1, -1, -1, 309, 310, 311, -1, -1, 314, -1, -1, -1, -1, 319, 320, 321, 322, -1, 324, -1, -1, -1, 328, -1, -1, 331, 332, -1, 334, -1, -1, 337, -1, -1, 340, 341, -1, -1, 344, 345, -1, -1, 348, -1, -1, 351, 352, 353, 354, -1, -1, 357, -1, -1, 360, 361, 362, -1, 364, -1, -1, -1, 368, 369, -1, -1, 372, 373, -1, -1, -1, 377, 378, -1, -1, 381, 382, -1, -1, 385, -1, 387, -1, -1], "children_right": [252, 101, 84, 31, 26, 11, 8, -1, 10, -1, -1, 21, 18, 17, 16, -1, -1, -1, 20, -1, -1, 23, -1, 25, -1, -1, 30, 29, -1, -1, -1, 51, 48, 47, 40, 39, 38, -1, -1, -1, 44, 43, -1, -1, 46, -1, -1, -1, 50, -1, -1, 61, 60, 59, 58, 57, -1, -1, -1, -1, -1, 73, 68, 67, 66, -1, -1, -1, 70, -1, 72, -1, -1, 79, 78, 77, -1, -1, -1, 81, -1, 83, -1, -1, 86, -1, 98, 91, 90, -1, -1, 95, 94, -1, -1, 97, -1, -1, 100, -1, -1, 183, 132, 113, 112, 107, -1, 109, -1, 111, -1, -1, -1, 131, 124, 119, 118, -1, -1, 121, -1, 123, -1, -1, 128, 127, -1, -1, 130, -1, -1, -1, 154, 147, 144, 137, -1, 141, 140, -1, -1, 143, -1, -1, 146, -1, -1, 149, -1, 151, -1, 153, -1, -1, 172, 171, 164, 161, 160, -1, -1, 163, -1, -1, 168, 167, -1, -1, 170, -1, -1, -1, 182, 179, 176, -1, 178, -1, -1, 181, -1, -1, -1, 215, 188, 187, -1, -1, 194, 191, -1, 193, -1, -1, 202, 197, -1, 199, -1, 201, -1, -1, 210, 207, 206, -1, -1, 209, -1, -1, 214, 213, -1, -1, -1, 251, 244, 231, 224, 223, 222, -1, -1, -1, 228, 227, -1, -1, 230, -1, -1, 239, 236, 235, -1, -1, 238, -1, -1, 241, -1, 243, -1, -1, 250, 247, -1, 249, -1, -1, -1, -1, 350, 339, 300, 277, 258, -1, 272, 267, 264, 263, -1, -1, 266, -1, -1, 271, 270, -1, -1, -1, 274, -1, 276, -1, -1, 287, 280, -1, 282, -1, 284, -1, 286, -1, -1, 291, 290, -1, -1, 297, 296, 295, -1, -1, -1, 299, -1, -1, 318, 317, 308, 307, 306, -1, -1, -1, 316, 313, 312, -1, -1, 315, -1, -1, -1, -1, 330, 327, 326, 323, -1, 325, -1, -1, -1, 329, -1, -1, 336, 333, -1, 335, -1, -1, 338, -1, -1, 343, 342, -1, -1, 347, 346, -1, -1, 349, -1, -1, 376, 359, 356, 355, -1, -1, 358, -1, -1, 367, 366, 363, -1, 365, -1, -1, -1, 371, 370, -1, -1, 375, 374, -1, -1, -1, 380, 379, -1, -1, 384, 383, -1, -1, 386, -1, 388, -1, -1], "threshold": [0.30156050622463226, 0.21301300078630447, 0.00025949999690055847, 0.09766750037670135, 0.09416649863123894, 0.062126001343131065, 0.05474649928510189, -2.0, 0.05598150007426739, -2.0, -2.0, 0.07649650052189827, 0.07424899935722351, 0.06871049851179123, 0.06765900179743767, -2.0, -2.0, -2.0, 0.07527150213718414, -2.0, -2.0, 0.08737599849700928, -2.0, 0.08923400193452835, -2.0, -2.0, 0.09620749950408936, 0.09487299993634224, -2.0, -2.0, -2.0, 0.15814900398254395, 4.999999987376214e-07, 0.15647300332784653, 0.10443500056862831, 0.1033410020172596, 0.10132599994540215, -2.0, -2.0, -2.0, 0.12522399425506592, 0.10707250237464905, -2.0, -2.0, 0.1266609951853752, -2.0, -2.0, -2.0, 0.12564349919557571, -2.0, -2.0, 0.16619300097227097, 0.16375750303268433, 0.1618800014257431, 0.16051949560642242, 0.15908949822187424, -2.0, -2.0, -2.0, -2.0, -2.0, 0.1791679933667183, 0.1713235005736351, 0.16923899948596954, 0.16792700439691544, -2.0, -2.0, -2.0, 0.17284449934959412, -2.0, 0.17403100430965424, -2.0, -2.0, 0.18424049764871597, 0.1822895035147667, 0.1810235008597374, -2.0, -2.0, -2.0, 0.18580400198698044, -2.0, 0.1873985007405281, -2.0, -2.0, 0.08896850049495697, -2.0, 0.1931915059685707, 0.13645249605178833, 0.11031350120902061, -2.0, -2.0, 0.16171499341726303, 0.01126849977299571, -2.0, -2.0, 0.012201500125229359, -2.0, -2.0, 0.20067549496889114, -2.0, -2.0, 4.999999987376214e-07, 0.2647625058889389, 0.22319450229406357, 0.22146400064229965, 0.21518749743700027, -2.0, 0.2177179977297783, -2.0, 0.21974999457597733, -2.0, -2.0, -2.0, 0.26246950030326843, 0.25169000029563904, 0.2285045012831688, 0.22551050037145615, -2.0, -2.0, 0.2310900017619133, -2.0, 0.240494005382061, -2.0, -2.0, 0.25739800930023193, 0.2543189972639084, -2.0, -2.0, 0.2603065073490143, -2.0, -2.0, -2.0, 0.35169650614261627, 0.33620600402355194, 0.32919248938560486, 0.2669675052165985, -2.0, 0.2891805022954941, 0.28363949060440063, -2.0, -2.0, 0.292310506105423, -2.0, -2.0, 0.3318199962377548, -2.0, -2.0, 0.3395310044288635, -2.0, 0.34224800765514374, -2.0, 0.34869299829006195, -2.0, -2.0, 0.6521799862384796, 0.6282574832439423, 0.5105379819869995, 0.4457555115222931, 0.4171140044927597, -2.0, -2.0, 0.44962701201438904, -2.0, -2.0, 0.5960019826889038, 0.5772804915904999, -2.0, -2.0, 0.6074624955654144, -2.0, -2.0, -2.0, 1.007510483264923, 0.7646590173244476, 0.684053510427475, -2.0, 0.7373950183391571, -2.0, -2.0, 0.8654150068759918, -2.0, -2.0, -2.0, 0.35319049656391144, 0.22368700057268143, 0.21826999634504318, -2.0, -2.0, 0.24336150288581848, 0.2309734970331192, -2.0, 0.2367824986577034, -2.0, -2.0, 0.2643645107746124, 0.0004360000020824373, -2.0, 0.25016050040721893, -2.0, 0.25894199311733246, -2.0, -2.0, 0.3043625056743622, 0.0012789999600499868, 0.2789449989795685, -2.0, -2.0, 0.2950429916381836, -2.0, -2.0, 0.09839550033211708, 0.04446300119161606, -2.0, -2.0, -2.0, 1.5648710131645203, 0.9625850021839142, 0.0717644989490509, 2.5000000505315256e-06, 0.5572654902935028, 0.4273589998483658, -2.0, -2.0, -2.0, 0.050278499722480774, 0.044215500354766846, -2.0, -2.0, 0.05800499953329563, -2.0, -2.0, 0.20776449888944626, 0.524838000535965, 0.4576990008354187, -2.0, -2.0, 0.11473200097680092, -2.0, -2.0, 0.43717949092388153, -2.0, 0.626910001039505, -2.0, -2.0, 0.07416500151157379, 0.00042699999175965786, -2.0, 1.1088169813156128, -2.0, -2.0, -2.0, -2.0, 8.58841323852539, 0.9775049984455109, 0.3742389976978302, 0.2467080056667328, 0.10612200200557709, -2.0, 3.8007140159606934, 0.20607950538396835, 0.8139009773731232, 0.5668365061283112, -2.0, -2.0, 0.14530349522829056, -2.0, -2.0, 1.7941074967384338, 0.5431770086288452, -2.0, -2.0, -2.0, 0.17007050663232803, -2.0, 0.2085075005888939, -2.0, -2.0, 2.662327527999878, 0.25825950503349304, -2.0, 0.26955750584602356, -2.0, 0.2823510020971298, -2.0, 0.3070414960384369, -2.0, -2.0, 0.29693399369716644, 0.2747264951467514, -2.0, -2.0, 0.3409164994955063, 5.608896493911743, 0.3207090049982071, -2.0, -2.0, -2.0, 0.3499299883842468, -2.0, -2.0, 2.8087304830551147, 2.566919445991516, 0.47525399923324585, 0.40345948934555054, 0.5634905099868774, -2.0, -2.0, -2.0, 2.371999502182007, 1.8511459827423096, 1.5828195214271545, -2.0, -2.0, 0.49682600796222687, -2.0, -2.0, -2.0, -2.0, 0.6060999929904938, 0.541364997625351, 6.9080810546875, 0.4066220074892044, -2.0, 0.4415545016527176, -2.0, -2.0, -2.0, 0.5710009932518005, -2.0, -2.0, 5.669010877609253, 0.6933494806289673, -2.0, 0.791233479976654, -2.0, -2.0, 0.7546539902687073, -2.0, -2.0, 1.116342008113861, 1.0531709790229797, -2.0, -2.0, 1.4416685104370117, 2.252686023712158, -2.0, -2.0, 2.2865625619888306, -2.0, -2.0, 23.436861038208008, 0.40017999708652496, 0.28783200681209564, 0.2153405025601387, -2.0, -2.0, 13.104738235473633, -2.0, -2.0, 12.421629428863525, 0.88749098777771, 0.4780534952878952, -2.0, 0.5655165016651154, -2.0, -2.0, -2.0, 15.941354274749756, 0.727358490228653, -2.0, -2.0, 0.7962484955787659, 0.5936740040779114, -2.0, -2.0, -2.0, 0.4709479957818985, 0.40278099477291107, -2.0, -2.0, 36.87521934509277, 0.7722710072994232, -2.0, -2.0, 0.8930605053901672, -2.0, 58.802886962890625, -2.0, -2.0], "feature": [0, 1, 0, 1, 1, 1, 1, -2, 1, -2, -2, 1, 1, 1, 1, -2, -2, -2, 1, -2, -2, 1, -2, 1, -2, -2, 1, 1, -2, -2, -2, 1, 0, 1, 1, 1, 1, -2, -2, -2, 1, 1, -2, -2, 1, -2, -2, -2, 1, -2, -2, 1, 1, 1, 1, 1, -2, -2, -2, -2, -2, 1, 1, 1, 1, -2, -2, -2, 1, -2, 1, -2, -2, 1, 1, 1, -2, -2, -2, 1, -2, 1, -2, -2, 1, -2, 1, 1, 1, -2, -2, 1, 0, -2, -2, 0, -2, -2, 1, -2, -2, 0, 1, 1, 1, 1, -2, 1, -2, 1, -2, -2, -2, 1, 1, 1, 1, -2, -2, 1, -2, 1, -2, -2, 1, 1, -2, -2, 1, -2, -2, -2, 1, 1, 1, 1, -2, 1, 1, -2, -2, 1, -2, -2, 1, -2, -2, 1, -2, 1, -2, 1, -2, -2, 1, 1, 1, 1, 1, -2, -2, 1, -2, -2, 1, 1, -2, -2, 1, -2, -2, -2, 1, 1, 1, -2, 1, -2, -2, 1, -2, -2, -2, 1, 1, 1, -2, -2, 1, 1, -2, 1, -2, -2, 1, 0, -2, 1, -2, 1, -2, -2, 1, 0, 1, -2, -2, 1, -2, -2, 0, 0, -2, -2, -2, 1, 1, 0, 0, 1, 1, -2, -2, -2, 0, 0, -2, -2, 0, -2, -2, 0, 1, 1, -2, -2, 0, -2, -2, 1, -2, 1, -2, -2, 0, 0, -2, 1, -2, -2, -2, -2, 0, 1, 1, 1, 1, -2, 0, 1, 0, 0, -2, -2, 1, -2, -2, 0, 0, -2, -2, -2, 1, -2, 1, -2, -2, 0, 1, -2, 1, -2, 1, -2, 1, -2, -2, 1, 1, -2, -2, 1, 0, 1, -2, -2, -2, 1, -2, -2, 0, 0, 0, 0, 1, -2, -2, -2, 0, 0, 0, -2, -2, 1, -2, -2, -2, -2, 1, 1, 0, 1, -2, 1, -2, -2, -2, 1, -2, -2, 0, 1, -2, 1, -2, -2, 1, -2, -2, 1, 1, -2, -2, 1, 0, -2, -2, 1, -2, -2, 0, 1, 1, 1, -2, -2, 0, -2, -2, 0, 1, 1, -2, 1, -2, -2, -2, 0, 1, -2, -2, 1, 1, -2, -2, -2, 1, 1, -2, -2, 0, 1, -2, -2, 1, -2, 0, -2, -2], "classes": [0, 1, 2], "value": [[8337.167223548, 8038.177293562897, 8071.333333333284], [2369.3890214797193, 6462.0640987468405, 6084.59025429033], [527.8151153540181, 3601.514754618685, 776.4980583740424], [288.94988066825783, 3351.1626282469447, 647.5872479017894], [26.96865552903739, 1088.3830445913145, 31.84855317549794], [15.41066030230708, 997.083804647671, 28.815357634974326], [0.0, 320.9889067492206, 1.5165977702618063], [0.0, 204.22198408445894, 0.0], [0.0, 116.76692266476181, 1.5165977702618063], [0.0, 22.584548828163765, 1.5165977702618063], [0.0, 94.18237383659798, 0.0], [15.41066030230708, 676.0948978984393, 27.29875986471252], [15.41066030230708, 278.70294298584986, 21.232368783665287], [0.0, 230.65071143656536, 15.165977702618063], [0.0, 123.49423508166166, 15.165977702618063], [0.0, 101.87073088448352, 6.066391081047225], [0.0, 21.623504197178065, 9.099586621570838], [0.0, 107.15647635490485, 0.0], [15.41066030230708, 48.05223154928463, 6.066391081047225], [15.41066030230708, 19.701414935206685, 3.0331955405236126], [0.0, 28.350816614077903, 3.0331955405236126], [0.0, 397.3919549125832, 6.066391081047225], [0.0, 245.06638090135064, 0.0], [0.0, 152.32557401123216, 6.066391081047225], [0.0, 42.766486078863295, 6.066391081047225], [0.0, 109.55908793236905, 0.0], [11.557995226730311, 91.2992399436408, 3.0331955405236126], [11.557995226730311, 54.77954396618447, 0.0], [3.85266507557677, 32.19499513802068, 0.0], [7.70533015115354, 22.584548828163758, 0.0], [0.0, 36.519695977456294, 3.0331955405236126], [261.9812251392203, 2262.779583655829, 615.7386947262917], [188.7805887032617, 1368.5275545236523, 254.78842540398324], [157.95926809864756, 1317.1116667659157, 242.65564324188878], [138.69594272076372, 1283.4751046814154, 235.07265439057974], [30.82132060461416, 155.68923021968212, 34.88174871602154], [15.41066030230708, 135.02677065348993, 24.2655643241889], [15.41066030230708, 81.68879363378396, 21.23236878366529], [0.0, 53.337977019705946, 3.0331955405236126], [15.41066030230708, 20.662459566192375, 10.616184391832643], [107.87462211614958, 1127.7858744617276, 200.1909056745583], [34.67398568019093, 510.7952213688948, 65.21370412125765], [0.0, 74.961481216884, 6.066391081047225], [34.67398568019093, 435.83374015201116, 59.147313040210435], [73.20063643595866, 616.9906530928176, 134.97720155330077], [0.0, 26.909249667599376, 18.199173243141676], [73.20063643595866, 590.0814034252171, 116.7780283101591], [19.263325377883852, 33.63656208449922, 7.5829888513090316], [30.821320604614165, 51.41588775773451, 12.13278216209445], [30.821320604614165, 18.740370304220992, 4.549793310785419], [0.0, 32.67551745351353, 7.5829888513090316], [73.20063643595864, 894.2520291321982, 360.95026932230905], [38.526650755767704, 143.19565001686811, 53.080921959163206], [3.85266507557677, 103.79282014645483, 50.0477264186396], [3.85266507557677, 72.5588696394198, 43.98133533759238], [3.85266507557677, 48.53275386477745, 18.199173243141676], [0.0, 20.662459566192375, 13.649379932356258], [3.85266507557677, 27.87029429858507, 4.549793310785419], [0.0, 24.0261157746423, 25.782162094450708], [0.0, 31.23395050703498, 6.066391081047225], [34.67398568019093, 39.40282987041338, 3.0331955405236126], [34.67398568019093, 751.0563791153255, 307.8693473631463], [7.70533015115354, 206.62459566192348, 60.663910810472224], [3.85266507557677, 65.83155722251999, 36.39834648628335], [0.0, 43.24700839435617, 12.13278216209445], [0.0, 24.987160405627986, 6.066391081047225], [0.0, 18.259847988728147, 6.066391081047225], [3.85266507557677, 22.58454882816375, 24.2655643241889], [3.85266507557677, 140.79303843940394, 24.265564324188905], [0.0, 26.909249667599365, 1.5165977702618063], [3.85266507557677, 113.88378877180459, 22.7489665539271], [0.0, 21.142981881685227, 9.099586621570838], [3.85266507557677, 92.74080689011939, 13.649379932356258], [26.96865552903739, 544.4317834533952, 247.20543655267434], [0.0, 75.92252584786978, 59.147313040210435], [0.0, 53.33797701970594, 25.78216209445071], [0.0, 25.46768272112084, 22.748966553927097], [0.0, 27.87029429858506, 3.0331955405236126], [0.0, 22.584548828163758, 33.365150945759744], [26.96865552903739, 468.5092576055241, 188.05812351246396], [3.85266507557677, 32.675517453513535, 1.5165977702618063], [23.115990453460622, 435.83374015201053, 186.5415257422021], [0.0, 22.104026512670913, 27.29875986471252], [23.115990453460622, 413.7297136393396, 159.24276587748972], [238.86523468575965, 250.35212637177227, 128.9108104722536], [0.0, 32.675517453513514, 0.0], [238.86523468575965, 217.67660891825886, 128.9108104722536], [223.4545743834526, 158.57236411263918, 97.06225729675562], [50.08464598249802, 54.77954396618446, 47.014530878115984], [42.37931583134447, 25.467682721120827, 7.5829888513090316], [7.70533015115354, 29.311861245063604, 39.431542026806966], [173.36992840095462, 103.79282014645479, 50.04772641863961], [96.31662688941925, 34.11708439999206, 21.23236878366529], [46.231980906921244, 19.701414935206692, 13.649379932356256], [50.084645982498024, 14.415669464785378, 7.5829888513090316], [77.0533015115354, 69.67573574646269, 28.815357634974326], [7.70533015115354, 33.63656208449921, 13.649379932356256], [69.34797136038186, 36.03917366196345, 15.165977702618065], [15.41066030230708, 59.104244805620084, 31.848553175497933], [3.85266507557677, 20.66245956619238, 22.748966553927094], [11.557995226730311, 38.44178523942768, 9.099586621570838], [1841.5739061257004, 2860.549344128821, 5308.092195916291], [493.1411296738271, 1496.3464904447549, 3284.950770387054], [73.20063643595866, 518.0030561012883, 467.1121132406352], [23.115990453460622, 118.20848961124027, 63.69710635099586], [7.70533015115354, 96.58498541406215, 57.63071526994864], [3.85266507557677, 20.66245956619238, 21.232368783665287], [3.85266507557677, 75.92252584786971, 36.39834648628335], [3.85266507557677, 31.71447282252783, 6.066391081047225], [0.0, 44.20805302534183, 30.33195540523613], [0.0, 22.584548828163754, 21.232368783665287], [0.0, 21.62350419717806, 9.099586621570838], [15.41066030230708, 21.623504197178075, 6.066391081047225], [50.08464598249802, 399.7945664900477, 403.41500688963964], [50.08464598249802, 376.72949534639105, 394.3154202680688], [19.263325377883852, 296.00174634359263, 301.80295628209893], [3.85266507557677, 50.45484312674885, 72.79669297256669], [0.0, 31.23395050703499, 31.848553175497937], [3.85266507557677, 19.220892619713844, 40.94813979706877], [15.41066030230708, 245.54690321684373, 229.0062633095326], [0.0, 31.714472822527835, 12.13278216209445], [15.41066030230708, 213.83243039431602, 216.87348114743813], [11.557995226730311, 107.63699867039763, 90.99586621570839], [3.85266507557677, 106.19543172391904, 125.87761493172994], [30.821320604614165, 80.72774900279818, 92.51246398597014], [23.115990453460622, 44.20805302534185, 43.98133533759238], [11.557995226730311, 15.376714095771073, 25.782162094450708], [11.557995226730311, 28.831338929570755, 18.199173243141676], [7.70533015115354, 36.5196959774563, 48.53112864837781], [0.0, 17.298803357742454, 22.7489665539271], [7.70533015115354, 19.22089261971384, 25.782162094450708], [0.0, 23.065071143656606, 9.099586621570838], [419.940493237868, 978.3434343434492, 2817.838657146421], [181.07525855210815, 448.80784267031856, 899.3424777652483], [107.87462211614957, 377.6905399773771, 771.9482650632574], [107.87462211614957, 354.6254688337204, 690.0519854691203], [0.0, 10.571490940842613, 45.49793310785418], [107.87462211614957, 344.0539778928777, 644.554052361266], [19.263325377883852, 137.42938223095413, 257.8216209445069], [19.263325377883852, 113.88378877180472, 186.54152574220214], [0.0, 23.54559345914946, 71.28009520230489], [88.61129673826572, 206.62459566192325, 386.73243141676016], [23.115990453460622, 23.065071143656603, 19.715771013403483], [65.4953062848051, 183.55952451826678, 367.0166604033567], [0.0, 23.0650711436566, 81.89627959413754], [0.0, 9.610446309856917, 40.94813979706878], [0.0, 13.454624833799688, 40.94813979706876], [73.20063643595863, 71.11730269294124, 127.39421270199179], [26.96865552903739, 17.779325673235302, 19.715771013403486], [46.23198090692125, 53.33797701970592, 107.67844168858824], [3.85266507557677, 9.129923994364074, 39.43154202680696], [42.37931583134448, 44.20805302534184, 68.24689966178126], [26.96865552903739, 26.428727352106527, 50.04772641863961], [15.41066030230708, 17.779325673235306, 18.199173243141676], [238.8652346857597, 529.5355916731169, 1918.4961793811744], [215.74924423229908, 472.83395844496033, 1516.5977702617984], [192.63325377883848, 467.54821297453896, 1478.6828260052534], [184.92792362768495, 345.9760671548483, 1163.2304897907998], [80.90596658711218, 238.8195907999437, 843.2283602655607], [65.4953062848051, 191.7284038816451, 576.3071526994845], [15.41066030230708, 47.091186918298895, 266.9212075660775], [104.02195704057281, 107.15647635490481, 320.0021295252407], [26.96865552903739, 9.129923994364074, 31.848553175497933], [77.05330151153541, 98.02655236054072, 288.15357634974293], [7.70533015115354, 121.57214581969022, 315.4523362144554], [0.0, 83.6108828957553, 241.13904547162716], [0.0, 71.5978250084341, 188.05812351246394], [0.0, 12.013057887321152, 53.08092195916322], [7.70533015115354, 37.96126292393483, 74.31329074282849], [7.70533015115354, 15.37671409577107, 27.298759864712515], [0.0, 22.584548828163758, 47.014530878116], [23.115990453460622, 5.285745470421304, 37.91494425654517], [23.115990453460622, 56.701633228155835, 401.8984091193781], [7.70533015115354, 48.53275386477744, 360.9502693223095], [7.70533015115354, 26.428727352106527, 257.82162094450695], [0.0, 11.052013256335458, 40.94813979706877], [7.70533015115354, 15.376714095771073, 216.87348114743818], [3.85266507557677, 14.41566946478538, 131.94400601277712], [3.85266507557677, 0.9610446309856919, 84.92947513466116], [0.0, 22.104026512670917, 103.1286483778028], [0.0, 13.935147149292531, 39.431542026806966], [0.0, 8.16887936337838, 63.69710635099586], [15.41066030230708, 8.16887936337838, 40.948139797068784], [1348.432776451872, 1364.2028536842172, 2023.1414255292389], [624.1317422434373, 497.8211188505888, 576.3071526994851], [100.16929196499603, 33.15603976900638, 33.365150945759744], [23.115990453460622, 15.376714095771069, 27.298759864712515], [77.05330151153541, 17.7793256732353, 6.066391081047225], [523.962450278441, 464.6650790815819, 542.9420017537255], [19.263325377883852, 78.32513742533398, 66.73030189151947], [3.85266507557677, 34.11708439999208, 13.649379932356256], [15.41066030230708, 44.20805302534184, 53.08092195916322], [15.41066030230708, 22.584548828163754, 22.748966553927097], [0.0, 21.623504197178065, 30.331955405236126], [504.69912490055736, 386.3399416562477, 476.21169986220616], [154.1066030230708, 74.00043658589836, 74.31329074282849], [30.82132060461416, 32.19499513802067, 27.298759864712515], [123.28528241845665, 41.805441447877605, 47.014530878115984], [46.231980906921244, 12.013057887321152, 9.099586621570838], [77.05330151153542, 29.792383560556456, 37.914944256545155], [26.96865552903739, 16.337758726756768, 27.298759864712515], [50.08464598249802, 13.45462483379969, 10.616184391832643], [350.59252187748615, 312.3395050703493, 401.89840911937796], [107.8746221161496, 124.45527971264738, 210.80709006639108], [0.0, 58.1432001746344, 86.44607290492293], [0.0, 24.50663809013514, 25.78216209445071], [0.0, 33.63656208449921, 60.66391081047226], [107.87462211614958, 66.31207953801278, 124.36101716146811], [104.02195704057281, 48.0522315492846, 86.44607290492296], [3.85266507557677, 18.25984798872815, 37.91494425654515], [242.71789976133647, 187.88422535770272, 191.09131905298761], [223.45457438345267, 160.49445337461057, 145.59338594513343], [161.8119331742243, 146.55930622531827, 122.84441939120636], [61.64264120922832, 13.935147149292536, 22.748966553927094], [19.263325377883852, 27.389771983092217, 45.49793310785419], [724.3010342084333, 866.3817348336116, 1446.834272829756], [681.921718377089, 849.5634537913625, 1445.3176750594946], [674.2163882259349, 767.8746601575758, 1387.686959789546], [427.6458233890217, 578.068345537896, 1090.433796818234], [7.70533015115354, 52.857454704213076, 89.47926844544656], [3.85266507557677, 34.597606715484886, 45.49793310785419], [0.0, 16.818281042249605, 24.2655643241889], [3.85266507557677, 17.779325673235302, 21.23236878366529], [3.85266507557677, 18.259847988728147, 43.98133533759238], [419.94049323786834, 525.2108908336811, 1000.954528372788], [404.5298329355611, 500.7042527435452, 920.5748465489129], [381.41384248210045, 484.3664940167885, 909.9586621570802], [23.115990453460622, 16.33775872675676, 10.616184391832643], [15.41066030230708, 24.506638090135148, 80.37968182387573], [7.70533015115354, 7.207834732392689, 50.047726418639606], [7.70533015115354, 17.298803357742457, 30.33195540523613], [246.5705648369132, 189.80631461967405, 297.25316297131377], [219.60190930787581, 118.20848961124022, 212.32368783665282], [84.75863166268896, 52.37693238872022, 122.84441939120633], [80.90596658711219, 35.5586513464706, 81.89627959413752], [3.85266507557677, 16.81828104224961, 40.94813979706877], [134.84327764518696, 65.83155722251995, 89.47926844544656], [92.46396181384247, 28.35081661407791, 39.431542026806966], [42.37931583134447, 37.480740608442, 50.04772641863961], [26.96865552903739, 71.59782500843409, 84.92947513466116], [11.557995226730311, 18.25984798872815, 15.165977702618061], [15.41066030230708, 53.33797701970593, 69.76349743204307], [0.0, 30.753428191542145, 33.36515094575974], [15.41066030230708, 22.584548828163758, 36.39834648628335], [7.70533015115354, 81.68879363378392, 57.63071526994864], [0.0, 66.3120795380128, 34.881748716021555], [0.0, 21.623504197178065, 18.199173243141676], [0.0, 44.688575340834696, 16.68257547287987], [0.0, 22.10402651267091, 6.066391081047225], [0.0, 22.584548828163758, 10.616184391832643], [7.70533015115354, 15.376714095771074, 22.748966553927097], [42.37931583134448, 16.81828104224961, 1.5165977702618063], [5967.778202068353, 1576.1131948165685, 1986.743079042956], [3320.9972951471736, 1349.7871842194318, 1794.1351622197078], [2712.276213206047, 1232.5397392391733, 1748.637229111854], [1386.9594272076388, 616.0296084618305, 624.8382813478621], [450.7618138424825, 301.2874918140138, 257.82162094450695], [11.557995226730311, 38.922307554920515, 13.649379932356258], [439.2038186157522, 262.36518425909316, 244.17224101215066], [389.11917263325404, 203.2609394534735, 180.47513466115493], [285.0972155926809, 134.06572602250418, 95.54565952649381], [138.69594272076372, 38.922307554920515, 16.682575472879872], [61.64264120922833, 19.701414935206685, 13.649379932356258], [77.05330151153542, 19.22089261971384, 3.0331955405236126], [146.40127287191726, 95.14341846758366, 78.86308405361389], [30.82132060461416, 21.62350419717807, 39.431542026806966], [115.5799522673031, 73.51991427040548, 39.43154202680696], [104.02195704057279, 69.19521343096989, 84.92947513466116], [61.64264120922834, 44.68857534083468, 72.79669297256669], [30.82132060461416, 19.70141493520668, 19.715771013403483], [30.82132060461416, 24.987160405627975, 53.08092195916321], [42.37931583134448, 24.50663809013514, 12.13278216209445], [50.084645982498024, 59.10424480562008, 63.69710635099586], [11.557995226730311, 17.298803357742457, 31.848553175497937], [38.526650755767704, 41.8054414478776, 31.848553175497937], [15.41066030230708, 19.220892619713844, 7.5829888513090316], [23.115990453460622, 22.584548828163758, 24.2655643241889], [936.1976133651556, 314.7421166478133, 367.0166604033564], [485.4357995226734, 203.74146176896633, 268.4378053363394], [53.93731105807479, 21.62350419717807, 4.549793310785419], [431.4984884645985, 182.11795757178848, 263.8880120255542], [7.70533015115354, 18.259847988728144, 22.748966553927094], [423.7931583134449, 163.85810958306052, 241.1390454716271], [73.20063643595864, 13.935147149292536, 16.68257547287987], [350.5925218774861, 149.92296243376802, 224.4564699987473], [61.64264120922833, 40.363874501399046, 83.41287736439936], [288.9498806682578, 109.559087932369, 141.04359263434802], [450.76181384248235, 111.00065487884756, 98.57885506701741], [169.51726332537785, 32.67551745351353, 22.748966553927097], [77.05330151153541, 16.337758726756768, 16.68257547287987], [92.4639618138425, 16.33775872675676, 6.066391081047225], [281.24455051710413, 78.32513742533395, 75.82988851309032], [127.13794749403345, 44.20805302534184, 45.49793310785418], [61.64264120922833, 26.90924966759936, 31.848553175497937], [46.231980906921244, 11.532535571828305, 10.616184391832643], [15.41066030230708, 15.376714095771074, 21.232368783665287], [65.4953062848051, 17.298803357742454, 13.649379932356258], [154.10660302307082, 34.11708439999207, 30.33195540523613], [88.61129673826574, 12.493580202813995, 12.13278216209445], [65.4953062848051, 21.623504197178075, 18.199173243141672], [1325.3167859984114, 616.5101307773248, 1123.7989477639937], [681.9217183770886, 390.18412018019086, 787.1142427658747], [681.9217183770885, 372.40479450695494, 743.1329074282828], [173.36992840095462, 61.026334067591456, 125.87761493172994], [88.61129673826572, 36.039173661963446, 100.09545283727921], [11.557995226730311, 21.14298188168522, 57.63071526994864], [77.0533015115354, 14.896191780278228, 42.46473756733058], [84.75863166268896, 24.98716040562799, 25.782162094450708], [508.5517899761341, 311.3784604393637, 617.2552924965537], [450.76181384248247, 294.5601793971139, 591.4731304021032], [416.08782816229143, 244.58585858585775, 495.9274708756097], [308.21320604614164, 220.07922049572278, 423.1307779030432], [107.8746221161496, 24.506638090135144, 72.7966929725667], [34.67398568019093, 49.974320811256014, 95.54565952649381], [3.85266507557677, 25.948205036613686, 27.29875986471252], [30.82132060461416, 24.02611577464229, 68.24689966178127], [57.78997613365156, 16.81828104224961, 25.78216209445071], [0.0, 17.779325673235302, 43.981335337592384], [643.3950676213213, 226.32601059713008, 336.6847049981206], [300.50787589498793, 143.67617233236098, 207.77389452586743], [265.83389021479707, 113.88378877180459, 147.10998371539517], [254.27589498806677, 99.948641622512, 121.32782162094453], [88.61129673826571, 19.701414935206685, 24.2655643241889], [165.6645982498011, 80.24722668730534, 97.06225729675562], [19.263325377883852, 28.350816614077917, 31.848553175497933], [146.40127287191726, 51.89641007322738, 65.21370412125766], [11.557995226730311, 13.935147149292533, 25.78216209445071], [34.67398568019093, 29.79238356055645, 60.66391081047224], [0.0, 15.85723641126392, 40.94813979706877], [34.67398568019093, 13.935147149292536, 19.715771013403483], [342.8871917263327, 82.6498382647696, 128.9108104722536], [150.25393794749402, 59.10424480562008, 90.99586621570839], [77.05330151153541, 19.220892619713837, 28.815357634974326], [73.20063643595864, 39.88335218590622, 62.18050858073404], [19.263325377883852, 11.052013256335458, 34.88174871602155], [53.93731105807478, 28.831338929570745, 27.298759864712515], [192.63325377883848, 23.545593459149455, 37.91494425654516], [138.69594272076372, 9.61044630985692, 13.649379932356258], [53.93731105807479, 13.935147149292535, 24.2655643241889], [608.7210819411299, 117.24744498025457, 45.49793310785419], [258.12856006364353, 28.3508166140779, 13.649379932356256], [123.28528241845666, 19.70141493520668, 7.5829888513090316], [134.84327764518696, 8.649401678871227, 6.066391081047225], [350.5925218774863, 88.89662836617659, 31.848553175497933], [119.43261734287988, 48.052231549284606, 31.848553175497933], [34.67398568019093, 24.026115774642296, 21.232368783665294], [84.75863166268896, 24.026115774642296, 10.616184391832643], [231.1599045346061, 40.8443968168919, 0.0], [181.07525855210812, 24.506638090135148, 0.0], [50.08464598249802, 16.337758726756764, 0.0], [2646.7809069212462, 226.3260105971299, 192.60791682324935], [1437.044073190137, 196.05310472108064, 189.57472128272576], [373.70851233094675, 88.89662836617659, 89.47926844544656], [238.86523468575965, 45.169097656327516, 34.88174871602154], [115.57995226730313, 22.10402651267092, 28.815357634974326], [123.28528241845663, 23.06507114365661, 6.066391081047225], [134.84327764518693, 43.72753070984899, 54.597519729425024], [53.93731105807479, 25.948205036613682, 39.431542026806966], [80.90596658711216, 17.779325673235302, 15.165977702618063], [1063.3355608591892, 107.1564763549048, 100.09545283727923], [431.4984884645984, 60.54581175209863, 54.59751972942502], [315.91853619729517, 51.41588775773453, 47.014530878116], [88.61129673826574, 19.22089261971384, 4.549793310785419], [227.30723945902935, 32.194995138020666, 42.46473756733057], [119.43261734287988, 8.16887936337838, 24.2655643241889], [107.87462211614957, 24.026115774642296, 18.199173243141676], [115.57995226730311, 9.129923994364074, 7.5829888513090316], [631.8370723945907, 46.610664602806075, 45.49793310785418], [281.2445505171042, 18.740370304220995, 7.5829888513090316], [111.72728719172636, 8.649401678871227, 4.549793310785419], [169.51726332537785, 10.090968625349767, 3.0331955405236126], [350.5925218774862, 27.87029429858506, 37.914944256545155], [211.89657915672228, 22.58454882816376, 9.099586621570838], [77.05330151153541, 12.974102518306843, 9.099586621570838], [134.84327764518696, 9.610446309856918, 0.0], [138.69594272076372, 5.285745470421305, 28.81535763497432], [1209.7368337311057, 30.27290587604929, 3.0331955405236126], [208.04391408114552, 18.259847988728147, 0.0], [127.13794749403341, 7.207834732392688, 0.0], [80.90596658711218, 11.05201325633546, 0.0], [1001.6929196499606, 12.01305788732115, 3.0331955405236126], [369.85584725537007, 9.129923994364074, 3.0331955405236126], [173.36992840095462, 1.9220892619713839, 0.0], [196.48591885441525, 7.207834732392689, 3.0331955405236126], [631.8370723945908, 2.8831338929570753, 0.0], [188.78058870326166, 2.4026115774642296, 0.0], [443.05648369132865, 0.48052231549284596, 0.0], [208.0439140811455, 0.48052231549284596, 0.0], [235.0125696101829, 0.0, 0.0]]}, {"children_left": [1, 2, 3, 4, 5, 6, 7, 8, 9, -1, 11, -1, -1, 14, 15, -1, -1, 18, -1, -1, -1, 22, 23, 24, 25, -1, -1, -1, 29, -1, 31, -1, -1, -1, 35, -1, 37, 38, -1, -1, 41, 42, 43, -1, -1, 46, -1, -1, 49, 50, -1, -1, 53, -1, -1, 56, 57, 58, 59, 60, 61, -1, -1, 64, -1, -1, 67, -1, 69, -1, -1, 72, 73, -1, -1, -1, 77, 78, -1, -1, 81, 82, 83, -1, -1, -1, 87, 88, -1, -1, 91, -1, -1, 94, 95, 96, -1, -1, 99, -1, -1, -1, 103, -1, 105, -1, 107, 108, 109, 110, 111, -1, -1, -1, 115, -1, -1, 118, -1, -1, 121, 122, 123, 124, -1, -1, -1, -1, -1, 130, 131, 132, 133, 134, 135, 136, 137, -1, -1, 140, -1, -1, 143, 144, -1, -1, 147, -1, -1, 150, 151, -1, -1, 154, -1, -1, 157, -1, -1, 160, 161, -1, 163, 164, 165, -1, -1, -1, 169, 170, -1, -1, 173, -1, -1, 176, -1, 178, -1, -1, 181, 182, 183, 184, 185, 186, -1, -1, 189, -1, -1, 192, -1, 194, -1, -1, -1, 198, -1, 200, -1, 202, 203, -1, -1, 206, -1, -1, 209, 210, 211, -1, -1, -1, 215, 216, 217, 218, -1, -1, -1, -1, 223, -1, 225, -1, -1, 228, 229, 230, -1, -1, 233, 234, -1, -1, 237, 238, -1, 240, -1, -1, 243, 244, 245, -1, -1, -1, -1, 250, 251, 252, 253, 254, 255, -1, -1, 258, -1, -1, 261, -1, -1, 264, -1, -1, 267, 268, 269, -1, -1, 272, 273, -1, -1, 276, -1, -1, 279, 280, -1, -1, -1, 284, -1, -1, 287, 288, 289, 290, 291, -1, 293, 294, -1, 296, -1, -1, 299, 300, 301, -1, -1, 304, -1, -1, 307, -1, 309, -1, -1, 312, 313, 314, -1, -1, 317, 318, -1, -1, -1, 322, 323, -1, -1, 326, 327, 328, -1, -1, 331, -1, -1, 334, -1, 336, -1, -1, 339, 340, 341, -1, -1, -1, 345, 346, 347, -1, -1, -1, 351, 352, 353, 354, -1, -1, 357, -1, -1, -1, 361, 362, 363, -1, -1, 366, -1, -1, 369, -1, 371, -1, -1, 374, 375, -1, -1, 378, 379, 380, -1, -1, -1, 384, -1, -1, 387, 388, 389, 390, -1, 392, -1, -1, 395, -1, 397, -1, 399, 400, -1, -1, 403, -1, -1, 406, 407, -1, 409, 410, -1, -1, -1, -1, 415, 416, -1, -1, 419, 420, -1, -1, 423, -1, -1], "children_right": [286, 129, 102, 55, 34, 21, 20, 13, 10, -1, 12, -1, -1, 17, 16, -1, -1, 19, -1, -1, -1, 33, 28, 27, 26, -1, -1, -1, 30, -1, 32, -1, -1, -1, 36, -1, 40, 39, -1, -1, 48, 45, 44, -1, -1, 47, -1, -1, 52, 51, -1, -1, 54, -1, -1, 93, 76, 71, 66, 63, 62, -1, -1, 65, -1, -1, 68, -1, 70, -1, -1, 75, 74, -1, -1, -1, 80, 79, -1, -1, 86, 85, 84, -1, -1, -1, 90, 89, -1, -1, 92, -1, -1, 101, 98, 97, -1, -1, 100, -1, -1, -1, 104, -1, 106, -1, 120, 117, 114, 113, 112, -1, -1, -1, 116, -1, -1, 119, -1, -1, 128, 127, 126, 125, -1, -1, -1, -1, -1, 227, 180, 159, 156, 149, 142, 139, 138, -1, -1, 141, -1, -1, 146, 145, -1, -1, 148, -1, -1, 153, 152, -1, -1, 155, -1, -1, 158, -1, -1, 175, 162, -1, 168, 167, 166, -1, -1, -1, 172, 171, -1, -1, 174, -1, -1, 177, -1, 179, -1, -1, 208, 197, 196, 191, 188, 187, -1, -1, 190, -1, -1, 193, -1, 195, -1, -1, -1, 199, -1, 201, -1, 205, 204, -1, -1, 207, -1, -1, 214, 213, 212, -1, -1, -1, 222, 221, 220, 219, -1, -1, -1, -1, 224, -1, 226, -1, -1, 249, 232, 231, -1, -1, 236, 235, -1, -1, 242, 239, -1, 241, -1, -1, 248, 247, 246, -1, -1, -1, -1, 283, 266, 263, 260, 257, 256, -1, -1, 259, -1, -1, 262, -1, -1, 265, -1, -1, 278, 271, 270, -1, -1, 275, 274, -1, -1, 277, -1, -1, 282, 281, -1, -1, -1, 285, -1, -1, 386, 373, 338, 311, 292, -1, 298, 295, -1, 297, -1, -1, 306, 303, 302, -1, -1, 305, -1, -1, 308, -1, 310, -1, -1, 321, 316, 315, -1, -1, 320, 319, -1, -1, -1, 325, 324, -1, -1, 333, 330, 329, -1, -1, 332, -1, -1, 335, -1, 337, -1, -1, 344, 343, 342, -1, -1, -1, 350, 349, 348, -1, -1, -1, 360, 359, 356, 355, -1, -1, 358, -1, -1, -1, 368, 365, 364, -1, -1, 367, -1, -1, 370, -1, 372, -1, -1, 377, 376, -1, -1, 383, 382, 381, -1, -1, -1, 385, -1, -1, 414, 405, 394, 391, -1, 393, -1, -1, 396, -1, 398, -1, 402, 401, -1, -1, 404, -1, -1, 413, 408, -1, 412, 411, -1, -1, -1, -1, 418, 417, -1, -1, 422, 421, -1, -1, 424, -1, -1], "threshold": [0.30233000218868256, 0.21310050040483475, 4.999999987376214e-07, 0.12009549885988235, 0.09663999825716019, 0.07520299777388573, 0.07400700077414513, 0.058675000444054604, 0.05474649928510189, -2.0, 0.05615199916064739, -2.0, -2.0, 0.06996049731969833, 0.06397899985313416, -2.0, -2.0, 0.07129300013184547, -2.0, -2.0, -2.0, 0.09143799915909767, 0.0873669981956482, 0.08047899976372719, 0.07969550043344498, -2.0, -2.0, -2.0, 0.08825450018048286, -2.0, 0.09045799821615219, -2.0, -2.0, -2.0, 0.09768899902701378, -2.0, 0.09956400096416473, 0.09859799966216087, -2.0, -2.0, 0.10742000117897987, 0.10255200043320656, 0.10132799670100212, -2.0, -2.0, 0.10442750155925751, -2.0, -2.0, 0.11056399717926979, 0.1096464991569519, -2.0, -2.0, 0.11142950132489204, -2.0, -2.0, 0.20176299661397934, 0.1689084991812706, 0.16243550181388855, 0.14383000135421753, 0.14102700352668762, 0.13711649924516678, -2.0, -2.0, 0.14272649586200714, -2.0, -2.0, 0.1446629986166954, -2.0, 0.15777749568223953, -2.0, -2.0, 0.16625149548053741, 0.1642180010676384, -2.0, -2.0, -2.0, 0.17287850379943848, 0.17095199972391129, -2.0, -2.0, 0.1782114952802658, 0.17600150406360626, 0.1745239943265915, -2.0, -2.0, -2.0, 0.186537005007267, 0.18229249864816666, -2.0, -2.0, 0.19157549738883972, -2.0, -2.0, 0.21022599935531616, 0.20583850145339966, 0.2045070007443428, -2.0, -2.0, 0.20803149789571762, -2.0, -2.0, -2.0, 0.08993550017476082, -2.0, 0.1013454981148243, -2.0, 0.01195400021970272, 0.19492900371551514, 0.00038350000977516174, 5.9500000133994035e-05, 0.15926899760961533, -2.0, -2.0, -2.0, 0.16831599920988083, -2.0, -2.0, 0.00010450000263517722, -2.0, -2.0, 0.22502250224351883, 0.13680899888277054, 0.07409349828958511, 0.1769455000758171, -2.0, -2.0, -2.0, -2.0, -2.0, 1.499999996212864e-06, 0.32919248938560486, 0.2563214898109436, 0.2523369938135147, 0.2406964972615242, 0.2326044961810112, 0.22206800431013107, 0.2152865007519722, -2.0, -2.0, 0.2296840026974678, -2.0, -2.0, 0.23736350238323212, 0.23450899869203568, -2.0, -2.0, 0.23930149525403976, -2.0, -2.0, 0.24496249854564667, 0.2430020049214363, -2.0, -2.0, 0.24890800565481186, -2.0, -2.0, 0.2544710040092468, -2.0, -2.0, 0.3205364942550659, 0.2585870027542114, -2.0, 0.2886334955692291, 0.28347499668598175, 0.27421650290489197, -2.0, -2.0, -2.0, 0.3052544891834259, 0.29813049733638763, -2.0, -2.0, 0.3142479956150055, -2.0, -2.0, 0.32341350615024567, -2.0, 0.32643499970436096, -2.0, -2.0, 0.5815339982509613, 0.49470849335193634, 0.48084500432014465, 0.39156100153923035, 0.33963701128959656, 0.3310759961605072, -2.0, -2.0, 0.35055050253868103, -2.0, -2.0, 0.39511850476264954, -2.0, 0.3995884954929352, -2.0, -2.0, -2.0, 0.5058614909648895, -2.0, 0.5190989971160889, -2.0, 0.5454100072383881, 0.5320509970188141, -2.0, -2.0, 0.560173511505127, -2.0, -2.0, 0.6306190192699432, 0.618508517742157, 0.6028700172901154, -2.0, -2.0, -2.0, 0.7583620250225067, 0.7301460206508636, 0.6935455203056335, 0.6686800122261047, -2.0, -2.0, -2.0, -2.0, 0.8352234959602356, -2.0, 0.9880724847316742, -2.0, -2.0, 0.29022499918937683, 0.223688006401062, 0.2182064950466156, -2.0, -2.0, 0.234312005341053, 0.22902049869298935, -2.0, -2.0, 0.00043200000072829425, 7.500000037907739e-06, -2.0, 5.750000127591193e-05, -2.0, -2.0, 0.28321848809719086, 0.2687764912843704, 0.002185499994084239, -2.0, -2.0, -2.0, -2.0, 1.2382050156593323, 0.07174449786543846, 0.9577105045318604, 0.04799850098788738, 0.017657000571489334, 0.33900950849056244, -2.0, -2.0, 0.02069499995559454, -2.0, -2.0, 0.5192905068397522, -2.0, -2.0, 1.0629050135612488, -2.0, -2.0, 0.2164050042629242, 0.34179750084877014, 0.13317900151014328, -2.0, -2.0, 0.4033624976873398, 0.37916649878025055, -2.0, -2.0, 0.5390725135803223, -2.0, -2.0, 0.2800479978322983, 0.24960900098085403, -2.0, -2.0, -2.0, 1.4228684902191162, -2.0, -2.0, 8.58841323852539, 0.950269490480423, 2.3503899574279785, 0.36027349531650543, 0.10231699794530869, -2.0, 0.1717120036482811, 0.14231400191783905, -2.0, 1.0741965174674988, -2.0, -2.0, 0.2426619976758957, 1.192635953426361, 0.21144850552082062, -2.0, -2.0, 1.766906499862671, -2.0, -2.0, 0.253542497754097, -2.0, 0.3310974985361099, -2.0, -2.0, 0.5817075073719025, 0.3878310024738312, 0.33854950964450836, -2.0, -2.0, 0.4752814918756485, 0.43539300560951233, -2.0, -2.0, -2.0, 0.6732219755649567, 0.5487599968910217, -2.0, -2.0, 0.6452479958534241, 0.9926725029945374, 0.5298280119895935, -2.0, -2.0, 0.5947010219097137, -2.0, -2.0, 0.6837934851646423, -2.0, 0.8291665017604828, -2.0, -2.0, 0.22512150555849075, 0.18756499886512756, 0.15228750556707382, -2.0, -2.0, -2.0, 0.2873865067958832, 6.1866819858551025, 3.7304574251174927, -2.0, -2.0, -2.0, 0.5710304975509644, 0.5432775020599365, 0.41037799417972565, 0.3409164994955063, -2.0, -2.0, 0.4287790060043335, -2.0, -2.0, -2.0, 0.7819464802742004, 4.611311435699463, 3.584275960922241, -2.0, -2.0, 6.826661825180054, -2.0, -2.0, 0.8417100012302399, -2.0, 4.866765975952148, -2.0, -2.0, 1.1779595017433167, 1.3599879741668701, -2.0, -2.0, 1.2779420018196106, 4.90686559677124, 1.1427090167999268, -2.0, -2.0, -2.0, 2.5142290592193604, -2.0, -2.0, 23.436861038208008, 0.6034290194511414, 0.277273491024971, 0.19666600227355957, -2.0, 0.23430649936199188, -2.0, -2.0, 0.33492550253868103, -2.0, 0.3959135115146637, -2.0, 11.373348712921143, 0.48621849715709686, -2.0, -2.0, 0.49863898754119873, -2.0, -2.0, 1.6374254822731018, 0.6704354882240295, -2.0, 0.8822945058345795, 0.7958289980888367, -2.0, -2.0, -2.0, -2.0, 0.4999304860830307, 28.47788715362549, -2.0, -2.0, 39.00418663024902, 28.269323348999023, -2.0, -2.0, 62.336992263793945, -2.0, -2.0], "feature": [0, 1, 0, 1, 1, 1, 1, 1, 1, -2, 1, -2, -2, 1, 1, -2, -2, 1, -2, -2, -2, 1, 1, 1, 1, -2, -2, -2, 1, -2, 1, -2, -2, -2, 1, -2, 1, 1, -2, -2, 1, 1, 1, -2, -2, 1, -2, -2, 1, 1, -2, -2, 1, -2, -2, 1, 1, 1, 1, 1, 1, -2, -2, 1, -2, -2, 1, -2, 1, -2, -2, 1, 1, -2, -2, -2, 1, 1, -2, -2, 1, 1, 1, -2, -2, -2, 1, 1, -2, -2, 1, -2, -2, 1, 1, 1, -2, -2, 1, -2, -2, -2, 1, -2, 1, -2, 0, 1, 0, 0, 1, -2, -2, -2, 1, -2, -2, 0, -2, -2, 0, 0, 0, 1, -2, -2, -2, -2, -2, 0, 1, 1, 1, 1, 1, 1, 1, -2, -2, 1, -2, -2, 1, 1, -2, -2, 1, -2, -2, 1, 1, -2, -2, 1, -2, -2, 1, -2, -2, 1, 1, -2, 1, 1, 1, -2, -2, -2, 1, 1, -2, -2, 1, -2, -2, 1, -2, 1, -2, -2, 1, 1, 1, 1, 1, 1, -2, -2, 1, -2, -2, 1, -2, 1, -2, -2, -2, 1, -2, 1, -2, 1, 1, -2, -2, 1, -2, -2, 1, 1, 1, -2, -2, -2, 1, 1, 1, 1, -2, -2, -2, -2, 1, -2, 1, -2, -2, 1, 1, 1, -2, -2, 1, 1, -2, -2, 0, 0, -2, 0, -2, -2, 1, 1, 0, -2, -2, -2, -2, 1, 0, 1, 0, 0, 1, -2, -2, 0, -2, -2, 1, -2, -2, 1, -2, -2, 0, 1, 0, -2, -2, 1, 1, -2, -2, 1, -2, -2, 0, 0, -2, -2, -2, 1, -2, -2, 0, 1, 0, 1, 1, -2, 1, 1, -2, 0, -2, -2, 1, 0, 1, -2, -2, 0, -2, -2, 1, -2, 1, -2, -2, 0, 0, 0, -2, -2, 0, 0, -2, -2, -2, 0, 1, -2, -2, 1, 0, 1, -2, -2, 1, -2, -2, 1, -2, 1, -2, -2, 1, 1, 1, -2, -2, -2, 1, 0, 0, -2, -2, -2, 1, 1, 1, 1, -2, -2, 1, -2, -2, -2, 1, 0, 0, -2, -2, 0, -2, -2, 1, -2, 0, -2, -2, 0, 1, -2, -2, 1, 0, 1, -2, -2, -2, 0, -2, -2, 0, 1, 1, 1, -2, 1, -2, -2, 1, -2, 1, -2, 0, 1, -2, -2, 1, -2, -2, 1, 1, -2, 1, 1, -2, -2, -2, -2, 1, 0, -2, -2, 0, 0, -2, -2, 0, -2, -2], "classes": [0, 1, 2], "value": [[8040.5120127285745, 8111.69720783328, 7956.071902793387], [2068.8811455847313, 6510.59685261157, 6029.992734560906], [446.9091487669056, 3681.761981305969, 788.6308405361366], [188.78058870326169, 3264.6686114582435, 633.9378679694332], [46.231980906921244, 1691.9190728503493, 142.56019040460978], [19.263325377883852, 1054.7464825068134, 45.49793310785419], [19.263325377883852, 573.7436446984601, 33.36515094575974], [0.0, 552.1201405012815, 31.84855317549793], [0.0, 269.09249667599306, 3.0331955405236126], [0.0, 205.6635510309376, 0.0], [0.0, 63.42894564505569, 3.0331955405236126], [0.0, 24.0261157746423, 3.0331955405236126], [0.0, 39.40282987041339, 0.0], [0.0, 283.0276438252858, 28.81535763497432], [0.0, 214.79347502530172, 28.815357634974323], [0.0, 95.14341846758363, 7.5829888513090316], [0.0, 119.65005655771886, 21.232368783665287], [0.0, 68.23416879998418, 0.0], [0.0, 27.870294298585062, 0.0], [0.0, 40.36387450139905, 0.0], [19.263325377883852, 21.623504197178065, 1.5165977702618063], [0.0, 481.00283780833854, 12.13278216209445], [0.0, 355.10599114921285, 12.13278216209445], [0.0, 267.1704074140216, 4.549793310785419], [0.0, 110.52013256335476, 4.549793310785419], [0.0, 91.7797622591337, 1.5165977702618063], [0.0, 18.740370304220995, 3.0331955405236126], [0.0, 156.65027485066767, 0.0], [0.0, 87.93558373519095, 7.5829888513090316], [0.0, 22.104026512670906, 4.549793310785419], [0.0, 65.83155722251993, 3.0331955405236126], [0.0, 43.24700839435616, 0.0], [0.0, 22.58454882816376, 3.0331955405236126], [0.0, 125.89684665912579, 0.0], [26.96865552903739, 637.1725903435183, 97.0622572967556], [7.70533015115354, 29.311861245063607, 10.616184391832643], [19.263325377883852, 607.8607290984536, 86.44607290492294], [0.0, 58.62372249012723, 3.0331955405236126], [0.0, 25.94820503661369, 3.0331955405236126], [0.0, 32.675517453513535, 0.0], [19.263325377883852, 549.2370066083238, 83.41287736439934], [7.70533015115354, 212.39086344783755, 45.49793310785419], [3.85266507557677, 80.7277490027982, 9.099586621570838], [3.85266507557677, 46.13014228731324, 7.5829888513090316], [0.0, 34.59760671548491, 1.5165977702618063], [3.85266507557677, 131.66311444503995, 36.39834648628335], [3.85266507557677, 50.45484312674886, 19.715771013403483], [0.0, 81.20827131829105, 16.68257547287987], [11.557995226730311, 336.8461431604843, 37.914944256545155], [0.0, 84.57192752674099, 1.5165977702618063], [0.0, 58.14320017463439, 0.0], [0.0, 26.42872735210653, 1.5165977702618063], [11.557995226730311, 252.27421563374358, 36.39834648628335], [0.0, 23.54559345914945, 10.616184391832643], [11.557995226730311, 228.72862217459422, 25.782162094450705], [142.54860779634046, 1572.7495386081193, 491.3776775648243], [142.54860779634046, 1439.1643349011035, 392.7988224978072], [115.5799522673031, 943.7458276279626, 210.8070900663909], [92.46396181384247, 838.9919628505196, 203.22410121508193], [38.526650755767704, 478.11970391538216, 101.61205060754104], [38.526650755767704, 422.8596376337048, 100.09545283727923], [26.96865552903739, 345.976067154849, 69.7634974320431], [11.557995226730311, 76.88357047885542, 30.331955405236133], [0.0, 55.2600662816773, 1.5165977702618063], [0.0, 31.71447282252783, 0.0], [0.0, 23.545593459149448, 1.5165977702618063], [53.9373110580748, 360.8722589351268, 101.61205060754104], [11.557995226730311, 18.740370304220995, 7.5829888513090316], [42.37931583134448, 342.13188863090573, 94.02906175623201], [26.96865552903739, 259.0015280506433, 62.180508580734056], [15.41066030230708, 83.1303605802624, 31.848553175497933], [23.115990453460622, 104.75386477744054, 7.5829888513090316], [23.115990453460622, 59.104244805620084, 3.0331955405236126], [7.70533015115354, 29.311861245063607, 0.0], [15.41066030230708, 29.792383560556445, 3.0331955405236126], [0.0, 45.64961997182038, 4.549793310785419], [26.96865552903739, 495.4185072731245, 181.99173243141672], [7.70533015115354, 53.33797701970592, 37.914944256545155], [3.85266507557677, 27.389771983092224, 12.13278216209445], [3.85266507557677, 25.948205036613682, 25.782162094450705], [19.263325377883852, 442.0805302534182, 144.0767881748716], [0.0, 85.05244984223381, 7.5829888513090316], [0.0, 53.337977019705924, 7.5829888513090316], [0.0, 28.831338929570755, 3.0331955405236126], [0.0, 24.50663809013514, 4.549793310785419], [0.0, 31.71447282252783, 0.0], [19.263325377883852, 357.02808041118385, 136.4937993235626], [7.70533015115354, 117.72796729574742, 72.79669297256669], [0.0, 58.62372249012724, 18.19917324314168], [7.70533015115354, 59.10424480562009, 54.597519729425024], [11.557995226730311, 239.3001131154367, 63.697106350995846], [0.0, 70.6367803774484, 10.616184391832643], [11.557995226730311, 168.66333273798884, 53.08092195916321], [0.0, 133.58520370701143, 98.5788550670174], [0.0, 101.87073088448348, 92.51246398597019], [0.0, 53.818499335198794, 57.630715269948645], [0.0, 36.03917366196346, 28.815357634974323], [0.0, 17.779325673235302, 28.81535763497432], [0.0, 48.052231549284606, 34.88174871602154], [0.0, 22.584548828163758, 7.5829888513090316], [0.0, 25.467682721120827, 27.298759864712512], [0.0, 31.71447282252784, 6.066391081047225], [258.1285600636435, 417.09336984778935, 154.69297256670427], [0.0, 55.2600662816773, 0.0], [258.12856006364353, 361.83330356611276, 154.69297256670424], [50.08464598249801, 15.37671409577107, 15.165977702618065], [208.0439140811455, 346.45658947034116, 139.52699486408616], [65.4953062848051, 223.44287670417287, 86.44607290492296], [61.64264120922834, 163.85810958306052, 51.564324188901416], [46.23198090692125, 102.35125319997636, 13.649379932356258], [42.37931583134448, 72.07834732392695, 9.099586621570838], [15.41066030230708, 39.402829870413385, 3.0331955405236126], [26.96865552903739, 32.67551745351353, 6.066391081047225], [3.85266507557677, 30.2729058760493, 4.549793310785419], [15.41066030230708, 61.506856383084305, 37.91494425654516], [11.557995226730311, 37.00021829294915, 33.365150945759744], [3.85266507557677, 24.506638090135144, 4.549793310785419], [3.85266507557677, 59.58476712111291, 34.88174871602154], [0.0, 20.181937250699526, 22.748966553927097], [3.85266507557677, 39.40282987041337, 12.13278216209445], [142.54860779634046, 123.01371276616877, 53.08092195916321], [134.84327764518696, 98.98759699152635, 42.46473756733057], [80.90596658711218, 83.61088289575524, 39.431542026806966], [73.20063643595866, 58.14320017463439, 24.2655643241889], [30.82132060461416, 33.15603976900638, 21.232368783665287], [42.37931583134448, 24.987160405628003, 3.0331955405236126], [7.70533015115354, 25.46768272112084, 15.165977702618065], [53.93731105807478, 15.376714095771073, 3.0331955405236126], [7.70533015115354, 24.02611577464229, 10.616184391832643], [1621.9719968178242, 2828.834871306305, 5241.361894024772], [408.3824980111377, 1498.2685797067259, 3286.4673681573154], [161.81193317422432, 859.6544224167128, 1123.7989477639933], [50.084645982498024, 456.01567740271076, 445.8797444569702], [46.23198090692125, 410.36605743089035, 418.5809845922578], [38.526650755767704, 310.89793812387063, 282.08718526869563], [30.82132060461416, 213.83243039431596, 215.35688337717636], [7.70533015115354, 110.52013256335471, 89.47926844544656], [0.0, 22.584548828163765, 33.36515094575974], [7.70533015115354, 87.93558373519092, 56.11411749968683], [23.115990453460622, 103.31229783096204, 125.87761493172991], [23.115990453460622, 67.27312416899849, 92.51246398597019], [0.0, 36.039173661963446, 33.365150945759744], [7.70533015115354, 97.06550772955498, 66.73030189151947], [0.0, 59.584767121112904, 31.848553175497937], [0.0, 23.54559345914945, 18.199173243141676], [0.0, 36.03917366196346, 13.649379932356258], [7.70533015115354, 37.48074060844199, 34.881748716021555], [7.70533015115354, 18.740370304221003, 21.232368783665287], [0.0, 18.740370304220992, 13.649379932356258], [7.70533015115354, 99.46811930701925, 136.49379932356257], [3.85266507557677, 33.15603976900637, 71.28009520230489], [0.0, 20.181937250699534, 31.848553175497937], [3.85266507557677, 12.974102518306843, 39.431542026806966], [3.85266507557677, 66.31207953801278, 65.21370412125766], [0.0, 38.92230755492053, 22.748966553927097], [3.85266507557677, 27.38977198309222, 42.46473756733058], [3.85266507557677, 45.64961997182037, 27.298759864712515], [3.85266507557677, 24.026115774642296, 12.13278216209445], [0.0, 21.623504197178065, 15.165977702618063], [111.72728719172635, 403.63874501399016, 677.9192033070252], [65.4953062848051, 357.50860272667694, 602.0893147939354], [11.557995226730311, 13.935147149292536, 21.23236878366529], [53.93731105807479, 343.5734555773843, 580.8569460102702], [7.70533015115354, 184.52056914925265, 289.6701741200048], [7.70533015115354, 160.9749756901034, 239.6224477013653], [7.70533015115354, 95.14341846758369, 159.2427658774897], [0.0, 65.83155722251993, 80.37968182387573], [0.0, 23.545593459149455, 50.0477264186396], [46.231980906921244, 159.05288642813193, 291.1867718902665], [42.37931583134447, 80.24722668730534, 154.69297256670424], [23.115990453460622, 45.16909765632752, 107.67844168858826], [19.263325377883852, 35.078129030977756, 47.01453087811599], [3.85266507557677, 78.80565974082685, 136.4937993235626], [0.0, 55.74058859717017, 75.82988851309031], [3.85266507557677, 23.06507114365661, 60.66391081047224], [46.231980906921244, 46.13014228731323, 75.8298885130903], [34.67398568019093, 13.935147149292535, 24.265564324188905], [11.557995226730311, 32.19499513802067, 51.564324188901416], [0.0, 18.740370304220995, 22.7489665539271], [11.557995226730311, 13.45462483379969, 28.81535763497432], [246.5705648369132, 638.6141572899963, 2162.6684203933246], [223.4545743834526, 534.8213371435382, 1609.1102342477686], [211.8965791567223, 419.4959814252542, 1349.7720155330014], [173.36992840095465, 407.4829235379329, 1287.5915069522678], [84.75863166268896, 233.05332301402947, 585.406739321056], [0.0, 47.0911869182989, 106.16184391832645], [0.0, 11.532535571828307, 43.981335337592384], [0.0, 35.558651346470604, 62.18050858073404], [84.75863166268896, 185.96213609573098, 479.2448954027299], [42.37931583134448, 37.96126292393484, 84.92947513466116], [42.37931583134447, 148.0008731717965, 394.3154202680691], [88.61129673826572, 174.4296005239028, 702.1847676312137], [0.0, 7.207834732392687, 54.597519729425024], [88.61129673826572, 167.22176579151017, 647.5872479017892], [15.41066030230708, 14.896191780278226, 37.914944256545155], [73.20063643595864, 152.32557401123213, 609.6723036452443], [38.526650755767704, 12.01305788732115, 62.180508580734056], [11.557995226730311, 115.3253557182832, 259.33821871476863], [7.70533015115354, 25.948205036613682, 47.01453087811599], [3.85266507557677, 89.37715068166945, 212.32368783665277], [0.0, 17.298803357742454, 60.66391081047225], [3.85266507557677, 72.07834732392698, 151.6597770261806], [3.85266507557677, 35.55865134647061, 59.147313040210435], [0.0, 17.779325673235306, 37.91494425654516], [3.85266507557677, 17.7793256732353, 21.23236878366529], [0.0, 36.519695977456294, 92.51246398597019], [0.0, 12.013057887321152, 43.981335337592384], [0.0, 24.506638090135144, 48.531128648377795], [23.115990453460622, 103.79282014645482, 553.5581861455581], [3.85266507557677, 41.8054414478776, 144.0767881748716], [3.85266507557677, 26.90924966759936, 116.77802831015912], [3.85266507557677, 18.259847988728144, 68.24689966178127], [0.0, 8.649401678871227, 48.531128648377795], [0.0, 14.896191780278224, 27.298759864712515], [19.263325377883852, 61.987378698577174, 409.4813979706868], [19.263325377883852, 33.156039769006384, 265.4046097958158], [11.557995226730311, 28.831338929570766, 213.84028560691453], [11.557995226730311, 16.81828104224961, 116.77802831015912], [7.70533015115354, 6.246790101406996, 74.31329074282851], [3.85266507557677, 10.571490940842612, 42.46473756733058], [0.0, 12.01305788732115, 97.0622572967556], [7.70533015115354, 4.3247008394356135, 51.564324188901395], [0.0, 28.831338929570755, 144.07678817487164], [0.0, 14.415669464785378, 31.84855317549794], [0.0, 14.415669464785378, 112.22823499937365], [0.0, 5.76626778591415, 68.24689966178126], [0.0, 8.649401678871227, 43.981335337592384], [1213.5894988066834, 1330.5662915997166, 1954.8945258674578], [419.9404932378681, 275.3392867774, 332.1349116873353], [96.31662688941927, 37.00021829294914, 40.94813979706878], [34.67398568019093, 15.85723641126392, 30.33195540523613], [61.64264120922833, 21.142981881685223, 10.616184391832643], [323.62386634844864, 238.33906848445096, 291.1867718902665], [3.85266507557677, 47.57170923379177, 37.914944256545155], [0.0, 26.90924966759937, 13.649379932356258], [3.85266507557677, 20.662459566192382, 24.2655643241889], [319.7712012728719, 190.7673592506596, 253.27182763372153], [57.789976133651564, 76.40304816336257, 81.89627959413754], [34.67398568019093, 15.857236411263917, 27.298759864712515], [23.115990453460622, 60.54581175209861, 54.597519729425024], [0.0, 22.104026512670917, 12.13278216209445], [23.115990453460622, 38.44178523942769, 42.46473756733057], [261.98122513922027, 114.3643110872975, 171.3755480395841], [215.74924423229908, 92.74080689011934, 162.27596141801328], [184.92792362768495, 64.38999027604136, 107.67844168858824], [57.78997613365156, 10.571490940842613, 16.68257547287987], [127.13794749403344, 53.81849933519878, 90.99586621570839], [30.82132060461416, 28.350816614077903, 54.59751972942503], [46.231980906921244, 21.62350419717807, 9.099586621570838], [793.649005568815, 1055.2270048223074, 1622.7596141801246], [755.1223548130473, 1007.6552955885132, 1615.1766253288156], [477.7304693715199, 759.2252584787043, 1240.5769760741518], [477.7304693715199, 709.2509376674471, 1204.1786295878687], [462.31980906921274, 674.6533309519596, 1093.4669923587576], [354.445186953063, 566.0552876505744, 944.8404108731015], [84.75863166268896, 113.88378877180462, 133.46060378303895], [269.68655529037386, 452.1714988787682, 811.3798070900634], [107.87462211614957, 108.59804330138338, 148.62658148565706], [38.526650755767704, 14.415669464785381, 18.199173243141676], [69.34797136038188, 94.18237383659795, 130.42740824251538], [15.41066030230708, 34.59760671548491, 110.71163722911187], [0.0, 20.181937250699537, 66.73030189151946], [15.41066030230708, 14.415669464785386, 43.98133533759239], [0.0, 49.974320811255986, 36.398346486283344], [0.0, 31.71447282252783, 12.13278216209445], [0.0, 18.259847988728147, 24.265564324188905], [277.3918854415274, 248.4300371098008, 374.5996492546654], [250.42322991248997, 182.5984798872813, 279.0539897281721], [15.41066030230708, 35.078129030977756, 47.014530878116], [7.70533015115354, 19.70141493520668, 15.165977702618061], [7.70533015115354, 15.376714095771073, 31.848553175497933], [235.0125696101829, 147.52035085630374, 232.03945885005626], [65.49530628480511, 27.389771983092217, 31.848553175497937], [34.67398568019093, 15.857236411263921, 10.616184391832643], [30.82132060461416, 11.532535571828303, 21.23236878366529], [169.51726332537785, 120.13057887321165, 200.19090567455828], [26.96865552903739, 48.532753864777455, 81.89627959413755], [142.5486077963405, 71.59782500843411, 118.29462608042091], [26.96865552903739, 65.8315572225199, 95.54565952649381], [19.263325377883852, 52.37693238872023, 51.56432418890141], [11.557995226730311, 27.38977198309222, 42.46473756733058], [7.70533015115354, 24.987160405627986, 9.099586621570838], [7.70533015115354, 13.454624833799688, 43.981335337592384], [38.526650755767704, 47.571709233791765, 7.5829888513090316], [7.70533015115354, 24.987160405627982, 0.0], [30.82132060461416, 22.584548828163754, 7.5829888513090316], [5971.630867143927, 1601.1003552221969, 1926.079168232484], [3297.881304693712, 1385.8263578813958, 1734.9878491794973], [2746.950198886234, 1250.7995872279014, 1683.423524990597], [1325.316785998411, 747.212200591383, 1072.2346235750924], [712.7430389817031, 383.93733007878336, 348.817487160215], [0.0, 29.311861245063604, 15.165977702618065], [712.7430389817032, 354.62546883371976, 333.65150945759694], [165.66459824980106, 61.50685638308429, 37.91494425654516], [53.93731105807479, 31.71447282252783, 19.715771013403483], [111.72728719172635, 29.792383560556452, 18.19917324314168], [77.05330151153541, 15.85723641126392, 9.099586621570838], [34.67398568019093, 13.935147149292535, 9.099586621570838], [547.0784407319019, 293.1186124506355, 295.73656520105186], [111.72728719172635, 111.96169950983321, 97.06225729675562], [96.31662688941928, 64.87051259153425, 60.66391081047225], [57.78997613365156, 42.76648607886331, 18.199173243141676], [38.526650755767704, 22.10402651267091, 42.46473756733058], [15.41066030230708, 47.09118691829892, 36.39834648628336], [0.0, 28.350816614077914, 24.265564324188905], [15.41066030230708, 18.740370304220995, 12.13278216209445], [435.3511535401752, 181.1569129408028, 198.6743079042965], [57.78997613365157, 15.376714095771074, 3.0331955405236126], [377.5611774065235, 165.78019884503183, 195.6411123637729], [215.74924423229905, 122.05266813518303, 141.043592634348], [161.81193317422435, 43.727530709848985, 54.59751972942503], [612.5737470167066, 363.2748705125913, 723.4171364148791], [219.60190930787584, 88.89662836617657, 142.56019040460984], [65.49530628480511, 30.753428191542138, 71.28009520230489], [46.231980906921244, 16.337758726756768, 31.848553175497937], [19.263325377883852, 14.415669464785378, 39.431542026806966], [154.1066030230708, 58.14320017463438, 71.28009520230489], [111.72728719172635, 32.67551745351352, 34.88174871602155], [38.526650755767704, 17.779325673235302, 21.23236878366529], [73.20063643595863, 14.896191780278228, 13.649379932356258], [42.37931583134448, 25.467682721120845, 36.39834648628335], [392.9718377088308, 274.37824214641387, 580.8569460102705], [7.70533015115354, 28.831338929570762, 81.89627959413752], [0.0, 19.220892619713837, 28.815357634974326], [7.70533015115354, 9.610446309856918, 53.08092195916322], [385.2665075576772, 245.54690321684345, 498.96066641613317], [204.19124900556875, 163.8581095830604, 347.3008893899531], [11.557995226730311, 50.45484312674885, 83.41287736439935], [11.557995226730311, 29.792383560556445, 62.18050858073405], [0.0, 20.66245956619238, 21.23236878366529], [192.63325377883842, 113.4032664563119, 263.888012025554], [192.63325377883845, 97.5460300450479, 224.45646999874717], [0.0, 15.85723641126392, 39.431542026806966], [181.07525855210815, 81.68879363378392, 151.6597770261806], [53.93731105807479, 13.454624833799688, 12.13278216209445], [127.13794749403343, 68.23416879998419, 139.52699486408625], [80.90596658711219, 40.363874501399074, 118.29462608042091], [46.23198090692125, 27.87029429858507, 21.232368783665287], [1421.6334128878304, 503.587386636503, 611.1889014155062], [107.87462211614957, 81.68879363378389, 80.37968182387574], [100.16929196499603, 51.896410073227415, 53.080921959163206], [42.37931583134448, 26.90924966759938, 40.94813979706877], [57.789976133651564, 24.987160405627993, 12.13278216209445], [7.70533015115354, 29.792383560556438, 27.29875986471252], [1313.7587907716802, 421.8985930027184, 530.8092195916312], [223.45457438345258, 66.3120795380128, 19.715771013403483], [142.54860779634046, 53.81849933519876, 13.649379932356258], [115.57995226730309, 28.350816614077907, 7.5829888513090316], [26.96865552903739, 25.46768272112084, 6.066391081047225], [80.90596658711216, 12.493580202814, 6.066391081047225], [1090.3042163882267, 355.5865134647057, 511.0934485782277], [577.8997613365161, 247.46899247881507, 323.03532506576437], [577.8997613365158, 230.17018912107255, 289.670174120005], [385.2665075576773, 141.75408307038973, 138.01039709382437], [107.87462211614955, 63.90946796054852, 62.18050858073406], [277.3918854415274, 77.84461510984114, 75.8298885130903], [192.63325377883845, 88.41610605068375, 151.65977702618065], [0.0, 22.584548828163765, 24.2655643241889], [192.63325377883848, 65.83155722251992, 127.39421270199173], [0.0, 17.298803357742454, 33.365150945759744], [512.4044550517108, 108.11752098589051, 188.05812351246405], [416.08782816229115, 70.15625806195558, 113.7448327696355], [173.36992840095462, 36.03917366196344, 86.44607290492297], [130.9906125696102, 26.42872735210653, 50.04772641863959], [42.37931583134447, 9.61044630985692, 36.39834648628335], [242.71789976133644, 34.11708439999206, 27.298759864712515], [134.843277645187, 26.909249667599376, 16.682575472879872], [107.87462211614954, 7.207834732392688, 10.616184391832643], [96.31662688941924, 37.96126292393485, 74.3132907428285], [19.263325377883852, 12.493580202813995, 53.08092195916322], [77.05330151153542, 25.467682721120834, 21.23236878366529], [26.96865552903739, 13.935147149292536, 10.616184391832643], [50.08464598249802, 11.532535571828303, 10.616184391832643], [550.9311058074785, 135.02677065348988, 51.5643241889014], [84.75863166268894, 42.766486078863316, 24.2655643241889], [23.115990453460622, 27.389771983092214, 22.748966553927097], [61.64264120922833, 15.376714095771076, 1.5165977702618063], [466.17247414478953, 92.2602845746265, 27.298759864712515], [242.7178997613364, 56.221110912662986, 24.265564324188905], [138.69594272076372, 44.688575340834696, 16.68257547287987], [73.20063643595863, 30.75342819154214, 4.549793310785419], [65.4953062848051, 13.935147149292533, 12.13278216209445], [104.02195704057277, 11.532535571828303, 7.5829888513090316], [223.4545743834526, 36.03917366196345, 3.0331955405236126], [80.90596658711218, 18.259847988728144, 0.0], [142.5486077963405, 17.779325673235302, 3.0331955405236126], [2673.7495624502826, 215.2739973407944, 191.09131905298747], [1521.8027048528268, 182.59847988728117, 188.0581235124639], [843.7336515513134, 127.33841360560442, 147.10998371539526], [312.0658711217184, 35.07812903097774, 27.298759864712515], [92.46396181384247, 14.896191780278226, 18.199173243141672], [219.60190930787584, 20.181937250699534, 9.099586621570838], [134.843277645187, 7.207834732392688, 4.549793310785419], [84.75863166268896, 12.974102518306843, 4.549793310785419], [531.6677804295944, 92.26028457462651, 119.81122385068275], [30.82132060461416, 14.896191780278222, 34.88174871602155], [500.84645982498046, 77.36409279434825, 84.92947513466117], [104.0219570405728, 12.97410251830684, 39.43154202680695], [396.8245027844075, 64.38999027604137, 45.49793310785417], [119.43261734287988, 25.94820503661368, 33.365150945759744], [65.49530628480511, 16.818281042249613, 22.7489665539271], [53.93731105807479, 9.129923994364072, 10.616184391832643], [277.39188544152745, 38.44178523942768, 12.13278216209445], [196.48591885441522, 18.25984798872814, 7.5829888513090316], [80.90596658711218, 20.18193725069953, 4.549793310785419], [678.0690533015119, 55.260066281677304, 40.94813979706878], [500.84645982498057, 50.93536544224168, 40.94813979706876], [123.28528241845666, 8.16887936337838, 0.0], [377.56117740652365, 42.766486078863316, 40.94813979706877], [177.2225934765314, 26.428727352106527, 25.78216209445071], [104.02195704057279, 16.818281042249613, 4.549793310785419], [73.20063643595864, 9.61044630985692, 21.23236878366529], [200.33858392999198, 16.337758726756764, 15.165977702618061], [177.2225934765314, 4.3247008394356135, 0.0], [1151.9468575974545, 32.67551745351352, 3.0331955405236126], [277.39188544152734, 20.181937250699537, 0.0], [115.57995226730313, 12.974102518306841, 0.0], [161.8119331742243, 7.207834732392689, 0.0], [874.5549721559267, 12.493580202813998, 3.0331955405236126], [369.85584725537007, 10.090968625349767, 3.0331955405236126], [177.2225934765314, 2.4026115774642296, 1.5165977702618063], [192.63325377883845, 7.6883570478855345, 1.5165977702618063], [504.6991249005571, 2.4026115774642296, 0.0], [215.74924423229908, 2.4026115774642296, 0.0], [288.94988066825766, 0.0, 0.0]]}, {"children_left": [1, 2, 3, 4, 5, 6, -1, 8, -1, -1, 11, 12, -1, -1, 15, 16, 17, 18, -1, -1, -1, 22, 23, -1, -1, 26, -1, -1, 29, 30, 31, -1, -1, -1, 35, 36, -1, -1, 39, -1, -1, 42, 43, 44, 45, 46, 47, -1, -1, 50, -1, -1, 53, -1, 55, -1, -1, 58, -1, -1, 61, -1, -1, 64, 65, 66, -1, -1, -1, 70, 71, 72, -1, 74, -1, -1, -1, 78, -1, 80, 81, -1, -1, -1, 85, -1, 87, 88, 89, 90, 91, 92, -1, -1, -1, -1, -1, 98, -1, -1, 101, -1, 103, 104, -1, -1, -1, 108, 109, 110, 111, 112, 113, 114, 115, -1, -1, 118, -1, -1, -1, -1, -1, 124, -1, 126, 127, 128, -1, -1, 131, 132, -1, -1, -1, 136, 137, -1, -1, 140, -1, 142, -1, -1, 145, 146, 147, 148, -1, -1, 151, 152, 153, -1, -1, 156, -1, -1, 159, -1, 161, -1, -1, 164, 165, -1, -1, 168, 169, 170, -1, -1, -1, -1, 175, 176, 177, 178, 179, -1, -1, -1, 183, 184, -1, -1, 187, -1, -1, 190, 191, -1, -1, 194, 195, -1, -1, 198, -1, -1, 201, -1, 203, 204, 205, -1, -1, -1, 209, -1, 211, -1, -1, 214, 215, 216, 217, 218, 219, -1, 221, -1, -1, -1, 225, 226, 227, -1, -1, 230, -1, -1, 233, -1, -1, 236, -1, -1, 239, 240, 241, -1, -1, 244, 245, 246, -1, -1, -1, 250, -1, 252, -1, -1, -1, 256, 257, 258, 259, -1, 261, -1, 263, -1, -1, 266, 267, 268, -1, -1, 271, -1, -1, 274, 275, -1, -1, 278, -1, -1, 281, 282, 283, 284, -1, -1, -1, 288, -1, 