{"classes": [0, 1, 2], "dtrees": [{"children_left": [1, 2, 3, 4, 5, 6, 7, -1, 9, -1, -1, 12, 13, 14, 15, -1, -1, 18, -1, -1, 21, -1, -1, 24, 25, -1, -1, 28, -1, 30, -1, -1, 33, -1, 35, 36, 37, 38, -1, -1, -1, -1, 43, -1, 45, -1, 47, -1, -1, 50, 51, -1, 53, 54, 55, 56, -1, -1, 59, -1, -1, 62, -1, -1, 65, 66, -1, -1, -1, 70, 71, 72, -1, -1, -1, 76, -1, 78, -1, 80, 81, -1, -1, -1, 85, 86, -1, -1, 89, 90, 91, -1, 93, -1, -1, 96, 97, -1, -1, 100, 101, -1, -1, -1, -1, 106, 107, 108, 109, 110, -1, 112, 113, 114, -1, -1, 117, -1, -1, -1, -1, 122, 123, -1, -1, 126, 127, 128, 129, -1, -1, 132, -1, -1, -1, 136, -1, -1, 139, 140, 141, 142, 143, 144, -1, -1, -1, -1, -1, 150, 151, 152, 153, -1, -1, -1, 157, -1, 159, -1, -1, 162, -1, 164, 165, -1, -1, -1, 169, 170, 171, 172, 173, -1, -1, 176, -1, -1, -1, -1, 181, 182, 183, -1, 185, -1, -1, -1, 189, -1, 191, -1, -1, 194, 195, 196, 197, 198, -1, 200, 201, -1, -1, 204, -1, -1, 207, -1, -1, 210, -1, 212, -1, -1, 215, 216, 217, -1, 219, -1, -1, 222, 223, 224, -1, -1, 227, -1, -1, -1, 231, 232, 233, 234, -1, -1, -1, 238, 239, -1, -1, 242, -1, -1, 245, -1, -1, 248, 249, 250, 251, 252, -1, 254, -1, -1, 257, 258, -1, -1, 261, -1, -1, 264, 265, 266, -1, -1, 269, -1, -1, 272, 273, -1, -1, 276, -1, -1, 279, 280, -1, 282, -1, -1, -1, -1, 287, 288, 289, 290, -1, 292, 293, -1, -1, 296, 297, -1, 299, -1, -1, 302, -1, 304, 305, -1, -1, 308, -1, -1, 311, 312, -1, -1, 315, 316, 317, -1, -1, 320, 321, 322, -1, -1, -1, 326, 327, -1, -1, -1, 331, 332, -1, -1, 335, -1, -1, 338, 339, -1, 341, 342, -1, -1, 345, -1, -1, -1, 349, 350, -1, 352, 353, 354, 355, -1, 357, 358, -1, -1, -1, -1, 363, 364, 365, -1, -1, -1, 369, -1, -1, -1, 373, 374, -1, 376, -1, -1, 379, -1, -1], "children_right": [286, 105, 84, 49, 32, 11, 8, -1, 10, -1, -1, 23, 20, 17, 16, -1, -1, 19, -1, -1, 22, -1, -1, 27, 26, -1, -1, 29, -1, 31, -1, -1, 34, -1, 42, 41, 40, 39, -1, -1, -1, -1, 44, -1, 46, -1, 48, -1, -1, 69, 52, -1, 64, 61, 58, 57, -1, -1, 60, -1, -1, 63, -1, -1, 68, 67, -1, -1, -1, 75, 74, 73, -1, -1, -1, 77, -1, 79, -1, 83, 82, -1, -1, -1, 88, 87, -1, -1, 104, 95, 92, -1, 94, -1, -1, 99, 98, -1, -1, 103, 102, -1, -1, -1, -1, 193, 138, 121, 120, 111, -1, 119, 116, 115, -1, -1, 118, -1, -1, -1, -1, 125, 124, -1, -1, 135, 134, 131, 130, -1, -1, 133, -1, -1, -1, 137, -1, -1, 168, 149, 148, 147, 146, 145, -1, -1, -1, -1, -1, 161, 156, 155, 154, -1, -1, -1, 158, -1, 160, -1, -1, 163, -1, 167, 166, -1, -1, -1, 180, 179, 178, 175, 174, -1, -1, 177, -1, -1, -1, -1, 188, 187, 184, -1, 186, -1, -1, -1, 190, -1, 192, -1, -1, 247, 214, 209, 206, 199, -1, 203, 202, -1, -1, 205, -1, -1, 208, -1, -1, 211, -1, 213, -1, -1, 230, 221, 218, -1, 220, -1, -1, 229, 226, 225, -1, -1, 228, -1, -1, -1, 244, 237, 236, 235, -1, -1, -1, 241, 240, -1, -1, 243, -1, -1, 246, -1, -1, 285, 278, 263, 256, 253, -1, 255, -1, -1, 260, 259, -1, -1, 262, -1, -1, 271, 268, 267, -1, -1, 270, -1, -1, 275, 274, -1, -1, 277, -1, -1, 284, 281, -1, 283, -1, -1, -1, -1, 348, 337, 310, 291, -1, 295, 294, -1, -1, 301, 298, -1, 300, -1, -1, 303, -1, 307, 306, -1, -1, 309, -1, -1, 314, 313, -1, -1, 330, 319, 318, -1, -1, 325, 324, 323, -1, -1, -1, 329, 328, -1, -1, -1, 334, 333, -1, -1, 336, -1, -1, 347, 340, -1, 344, 343, -1, -1, 346, -1, -1, -1, 372, 351, -1, 371, 362, 361, 356, -1, 360, 359, -1, -1, -1, -1, 368, 367, 366, -1, -1, -1, 370, -1, -1, -1, 378, 375, -1, 377, -1, -1, 380, -1, -1], "threshold": [0.3693000078201294, 0.20193250477313995, 3.5000000480067683e-06, 0.13025449961423874, 0.09615850076079369, 0.06212200038135052, 0.05869000032544136, -2.0, 0.06050749868154526, -2.0, -2.0, 0.07667649909853935, 0.07438850030303001, 0.07144000008702278, 0.06765850260853767, -2.0, -2.0, 0.0729990005493164, -2.0, -2.0, 0.07535500079393387, -2.0, -2.0, 0.08049900084733963, 0.07890449836850166, -2.0, -2.0, 0.0875135026872158, -2.0, 0.0883299969136715, -2.0, -2.0, 0.09724099934101105, -2.0, 0.10740900039672852, 0.10670549795031548, 0.1054225005209446, 0.10406050086021423, -2.0, -2.0, -2.0, -2.0, 0.11055799946188927, -2.0, 0.11142950132489204, -2.0, 0.11902900040149689, -2.0, -2.0, 0.1791679933667183, 0.1317024976015091, -2.0, 0.1739480048418045, 0.17048799991607666, 0.1547819972038269, 0.15307600051164627, -2.0, -2.0, 0.15890199691057205, -2.0, -2.0, 0.17244750261306763, -2.0, -2.0, 0.17711549997329712, 0.1751220002770424, -2.0, -2.0, -2.0, 0.18398799747228622, 0.18234450370073318, 0.18065500259399414, -2.0, -2.0, -2.0, 0.18526750057935715, -2.0, 0.1873999983072281, -2.0, 0.19903450459241867, 0.19740299880504608, -2.0, -2.0, -2.0, 0.09247050061821938, 0.0006935000128578395, -2.0, -2.0, 0.19333350658416748, 0.1365320011973381, 0.1102520003914833, -2.0, 0.11911550164222717, -2.0, -2.0, 0.16171499341726303, 0.0013775000115856528, -2.0, -2.0, 0.04642099887132645, 0.17530149966478348, -2.0, -2.0, -2.0, -2.0, 2.5000000505315256e-06, 0.2806524932384491, 0.2237345054745674, 0.2210185006260872, 0.20415150374174118, -2.0, 0.21918249875307083, 0.2147969976067543, 0.21070749312639236, -2.0, -2.0, 0.21687550097703934, -2.0, -2.0, -2.0, -2.0, 0.22848249971866608, 0.22666849941015244, -2.0, -2.0, 0.27435949444770813, 0.2715980112552643, 0.2453795000910759, 0.2422875016927719, -2.0, -2.0, 0.24891050159931183, -2.0, -2.0, -2.0, 0.27754050493240356, -2.0, -2.0, 0.3697185069322586, 0.29484300315380096, 0.29231299459934235, 0.2893190085887909, 0.28646500408649445, 0.2831214964389801, -2.0, -2.0, -2.0, -2.0, -2.0, 0.3162444978952408, 0.3052544891834259, 0.30285149812698364, 0.2972225099802017, -2.0, -2.0, -2.0, 0.3102319985628128, -2.0, 0.3128120005130768, -2.0, -2.0, 0.32152800261974335, -2.0, 0.36496950685977936, 0.3608604967594147, -2.0, -2.0, -2.0, 0.6521799862384796, 4.999999987376214e-07, 0.6274175047874451, 0.4457555115222931, 0.4228540062904358, -2.0, -2.0, 0.5425255000591278, -2.0, -2.0, -2.0, -2.0, 0.7652460038661957, 0.720912516117096, 0.685531497001648, -2.0, 0.704070508480072, -2.0, -2.0, -2.0, 0.8208535015583038, -2.0, 1.00753253698349, -2.0, -2.0, 0.4033000022172928, 0.2676284909248352, 0.24601250141859055, 0.07118599861860275, 0.21190399676561356, -2.0, 0.2260340005159378, 0.21853449940681458, -2.0, -2.0, 0.00011799999992945231, -2.0, -2.0, 0.22677499800920486, -2.0, -2.0, 0.0004360000020824373, -2.0, 0.25830650329589844, -2.0, -2.0, 0.3161199986934662, 0.0012635000166483223, 0.2784769982099533, -2.0, 0.3009060025215149, -2.0, -2.0, 0.13618549704551697, 0.29541049897670746, 0.2838660031557083, -2.0, -2.0, 0.30340999364852905, -2.0, -2.0, -2.0, 0.1748344972729683, 0.3345414996147156, 0.32866349816322327, 0.001216499978909269, -2.0, -2.0, -2.0, 0.3515170067548752, 0.001375499996356666, -2.0, -2.0, 0.36550650000572205, -2.0, -2.0, 0.28625600039958954, -2.0, -2.0, 1.536661982536316, 0.9155110120773315, 0.07187600061297417, 0.5604524910449982, 1.250000013897079e-05, -2.0, 0.5250274837017059, -2.0, -2.0, 0.004317500162869692, 0.0007309999782592058, -2.0, -2.0, 0.04376300051808357, -2.0, -2.0, 0.19550149887800217, 0.5518184900283813, 0.48451700806617737, -2.0, -2.0, 0.6106114983558655, -2.0, -2.0, 0.6053949892520905, 0.2834630012512207, -2.0, -2.0, 0.28908200562000275, -2.0, -2.0, 0.05657400004565716, 0.00017249999655177817, -2.0, 0.008048499934375286, -2.0, -2.0, -2.0, -2.0, 8.583586692810059, 0.9750305116176605, 0.4090825021266937, 0.09021249786019325, -2.0, 0.1425665020942688, 0.11234600096940994, -2.0, -2.0, 0.1897919997572899, 1.5365794897079468, -2.0, 0.15935149788856506, -2.0, -2.0, 0.2007870003581047, -2.0, 5.3912694454193115, 0.4383249878883362, -2.0, -2.0, 0.2799689918756485, -2.0, -2.0, 0.43304699659347534, 2.047509551048279, -2.0, -2.0, 5.366400480270386, 0.4748380035161972, 0.42401599884033203, -2.0, -2.0, 1.011761486530304, 0.8133969902992249, 0.6769649982452393, -2.0, -2.0, -2.0, 5.016175031661987, 3.6839369535446167, -2.0, -2.0, -2.0, 0.6103295087814331, 0.4970120042562485, -2.0, -2.0, 0.7819284796714783, -2.0, -2.0, 1.8045450448989868, 1.0280759930610657, -2.0, 1.1715965270996094, 1.0531709790229797, -2.0, -2.0, 1.3076260089874268, -2.0, -2.0, -2.0, 22.94102191925049, 0.2240080013871193, -2.0, 1.6374254822731018, 13.116070747375488, 0.88749098777771, 9.29384994506836, -2.0, 11.53312349319458, 0.5955735146999359, -2.0, -2.0, -2.0, -2.0, 0.7148769795894623, 0.45329049229621887, 16.869340896606445, -2.0, -2.0, -2.0, 0.9436115026473999, -2.0, -2.0, -2.0, 39.09754753112793, 27.335832595825195, -2.0, 30.663785934448242, -2.0, -2.0, 0.9289059937000275, -2.0, -2.0], "feature": [0, 1, 0, 1, 1, 1, 1, -2, 1, -2, -2, 1, 1, 1, 1, -2, -2, 1, -2, -2, 1, -2, -2, 1, 1, -2, -2, 1, -2, 1, -2, -2, 1, -2, 1, 1, 1, 1, -2, -2, -2, -2, 1, -2, 1, -2, 1, -2, -2, 1, 1, -2, 1, 1, 1, 1, -2, -2, 1, -2, -2, 1, -2, -2, 1, 1, -2, -2, -2, 1, 1, 1, -2, -2, -2, 1, -2, 1, -2, 1, 1, -2, -2, -2, 1, 0, -2, -2, 1, 1, 1, -2, 1, -2, -2, 1, 0, -2, -2, 0, 1, -2, -2, -2, -2, 0, 1, 1, 1, 1, -2, 1, 1, 1, -2, -2, 1, -2, -2, -2, -2, 1, 1, -2, -2, 1, 1, 1, 1, -2, -2, 1, -2, -2, -2, 1, -2, -2, 1, 1, 1, 1, 1, 1, -2, -2, -2, -2, -2, 1, 1, 1, 1, -2, -2, -2, 1, -2, 1, -2, -2, 1, -2, 1, 1, -2, -2, -2, 1, 0, 1, 1, 1, -2, -2, 1, -2, -2, -2, -2, 1, 1, 1, -2, 1, -2, -2, -2, 1, -2, 1, -2, -2, 1, 1, 1, 0, 1, -2, 1, 1, -2, -2, 0, -2, -2, 1, -2, -2, 0, -2, 1, -2, -2, 1, 0, 1, -2, 1, -2, -2, 0, 1, 1, -2, -2, 1, -2, -2, -2, 0, 1, 1, 0, -2, -2, -2, 1, 0, -2, -2, 1, -2, -2, 0, -2, -2, 1, 1, 0, 1, 0, -2, 1, -2, -2, 0, 0, -2, -2, 0, -2, -2, 0, 1, 1, -2, -2, 1, -2, -2, 1, 0, -2, -2, 0, -2, -2, 0, 0, -2, 0, -2, -2, -2, -2, 0, 1, 1, 1, -2, 1, 1, -2, -2, 1, 0, -2, 1, -2, -2, 1, -2, 0, 0, -2, -2, 1, -2, -2, 1, 0, -2, -2, 0, 0, 0, -2, -2, 0, 1, 1, -2, -2, -2, 0, 0, -2, -2, -2, 1, 1, -2, -2, 1, -2, -2, 1, 0, -2, 1, 1, -2, -2, 1, -2, -2, -2, 0, 1, -2, 1, 0, 1, 0, -2, 0, 1, -2, -2, -2, -2, 1, 1, 0, -2, -2, -2, 1, -2, -2, -2, 0, 0, -2, 0, -2, -2, 1, -2, -2], "classes": [0, 1, 2], "value": [[8017.467323481225, 8048.505571474053, 7973.3428822719325], [2207.077832512328, 6651.808022922726, 6233.0991330571105], [462.7743842364528, 3560.2846227317245, 735.4421409724795], [193.8114942528735, 3241.5461636422265, 587.1431084307046], [67.2407224958949, 2042.3226679400734, 177.05088578967207], [15.821346469622332, 1193.4718242597735, 59.01696192989069], [0.0, 446.2338427252487, 1.5132554340997613], [0.0, 390.6343521171612, 0.0], [0.0, 55.599490608086526, 1.5132554340997613], [0.0, 22.04807386182744, 1.5132554340997613], [0.0, 33.55141674625912, 0.0], [15.821346469622332, 747.2379815345425, 57.50370649579093], [15.821346469622332, 307.23511620503064, 46.9109184570926], [0.0, 253.55284941101561, 42.371152154793315], [0.0, 204.18433619866295, 40.85789672069355], [0.0, 120.78510028653311, 12.10604347279809], [0.0, 83.39923591212988, 28.751853247895465], [0.0, 49.3685132123527, 1.5132554340997613], [0.0, 28.758357211079268, 0.0], [0.0, 20.610156001273477, 1.5132554340997613], [15.821346469622332, 53.682266794014595, 4.539766302299284], [11.866009852216749, 25.882521489971346, 0.0], [3.955336617405583, 27.799745304043302, 4.539766302299284], [0.0, 440.00286532951446, 10.592788038698329], [0.0, 75.73034065584204, 6.053021736399045], [0.0, 43.137535816618865, 0.0], [0.0, 32.59280483922316, 6.053021736399045], [0.0, 364.2725246736714, 4.539766302299284], [0.0, 168.23638968481387, 0.0], [0.0, 196.0361349888571, 4.539766302299284], [0.0, 28.27905125756129, 3.0265108681995225], [0.0, 167.75708373129578, 1.5132554340997613], [51.41937602627258, 848.8508436803567, 118.03392385978138], [7.910673234811166, 17.734320280165555, 10.592788038698329], [43.50870279146142, 831.1165234001918, 107.44113582108305], [15.821346469622332, 286.14565425023903, 52.963940193491645], [7.910673234811166, 265.0561922954474, 43.884407588893076], [7.910673234811166, 211.37392550143272, 42.371152154793315], [0.0, 176.38459089461966, 27.238597813795703], [7.910673234811166, 34.989334606813095, 15.132554340997613], [0.0, 53.6822667940146, 1.5132554340997613], [7.910673234811166, 21.08946195479146, 9.079532604598567], [27.68735632183908, 544.9708691499535, 54.477195627591406], [0.0, 91.54743712193569, 0.0], [27.687356321839083, 453.4234320280179, 54.477195627591406], [7.910673234811166, 18.213626233683538, 7.5662771704988065], [19.776683087027916, 435.20980579433416, 46.9109184570926], [15.821346469622332, 206.1015600127349, 9.079532604598567], [3.955336617405583, 229.10824578159827, 37.83138585249403], [126.57077175697866, 1199.2234957019884, 410.0922226410341], [118.66009852216749, 883.3608723336494, 240.60761402186205], [7.910673234811166, 18.692932187201528, 15.132554340997613], [110.74942528735632, 864.6679401464484, 225.47505968086443], [106.79408866995074, 785.1031518624638, 216.39552707626586], [106.79408866995074, 739.5690862782546, 189.15692926247016], [43.50870279146142, 474.51289398281017, 128.6267118984797], [43.50870279146142, 449.5889843998746, 111.98090212338234], [0.0, 24.923909582935362, 16.645809775097373], [63.28538587848932, 265.0561922954472, 60.53021736399045], [31.642692939244665, 70.93728112066216, 12.10604347279809], [31.642692939244665, 194.1189111747852, 48.42417389119236], [0.0, 45.53406558420881, 27.238597813795703], [0.0, 23.485991722381403, 18.159065209197134], [0.0, 22.04807386182744, 9.079532604598567], [3.955336617405583, 79.56478828398596, 9.079532604598567], [0.0, 54.64087870105056, 3.0265108681995225], [0.0, 23.00668576886341, 1.5132554340997613], [0.0, 31.63419293218719, 1.5132554340997613], [3.955336617405583, 24.92390958293537, 6.053021736399045], [7.910673234811166, 315.86262336835426, 169.48460861917326], [0.0, 62.30977395733836, 54.477195627591406], [0.0, 46.97198344476278, 19.672320643296896], [0.0, 21.568767908309454, 15.132554340997613], [0.0, 25.403215536453356, 4.539766302299284], [0.0, 15.33779051257562, 34.80487498429451], [7.910673234811166, 253.55284941101561, 115.00741299158186], [0.0, 25.403215536453352, 0.0], [7.910673234811166, 228.14963387456226, 115.00741299158186], [0.0, 28.758357211079268, 31.778364116094988], [7.910673234811166, 199.39127666348307, 83.22904887548687], [0.0, 162.96402419611601, 69.60974996858901], [0.0, 134.68497293855472, 63.556728232189975], [0.0, 28.279051257561285, 6.053021736399045], [7.910673234811166, 36.42725246736707, 13.619298906897852], [268.96288998357954, 318.73845908946237, 148.2990325417766], [0.0, 84.35784781916583, 4.539766302299284], [0.0, 25.882521489971342, 4.539766302299284], [0.0, 58.47532632919448, 0.0], [268.9628899835795, 234.38061127029604, 143.7592662394773], [265.0075533661739, 205.62225405921683, 118.03392385978138], [51.41937602627257, 70.45797516714418, 48.42417389119236], [31.642692939244665, 20.13085004775549, 9.079532604598567], [19.776683087027916, 50.32712511938868, 39.34464128659379], [0.0, 16.29640241961159, 22.69883151149642], [19.776683087027916, 34.03072269977714, 16.645809775097373], [213.5881773399014, 135.16427889207276, 69.60974996858901], [130.52610837438422, 53.202960840496615, 22.69883151149642], [23.732019704433498, 23.96529767589939, 6.053021736399045], [106.79408866995075, 29.237663164597254, 16.645809775097373], [83.06206896551724, 81.96131805157594, 46.9109184570926], [35.598029556650246, 58.47532632919448, 34.80487498429451], [7.910673234811166, 24.444603629417383, 24.21208694559618], [27.68735632183908, 34.03072269977713, 10.592788038698329], [47.464039408867, 23.485991722381403, 12.10604347279809], [3.955336617405583, 28.758357211079268, 25.72534237969594], [1744.3034482758706, 3091.523400191084, 5497.65699208459], [435.08702791461377, 1743.2357529448675, 3478.9742429954113], [75.15139573070607, 760.1792422795274, 768.733760522673], [35.598029556650246, 270.32855778414506, 180.0773966578716], [35.598029556650246, 233.90130531677804, 175.5376303555723], [15.821346469622332, 24.923909582935366, 25.72534237969594], [19.776683087027916, 208.97739573384268, 149.81228797587636], [19.776683087027916, 188.84654568608724, 121.0604347279809], [0.0, 134.20566698503674, 96.84834778238472], [0.0, 84.35784781916587, 74.1495162708883], [0.0, 49.847819165870696, 22.69883151149642], [19.776683087027916, 54.64087870105058, 24.21208694559618], [19.776683087027916, 25.403215536453356, 12.10604347279809], [0.0, 29.237663164597247, 12.10604347279809], [0.0, 20.13085004775549, 28.751853247895465], [0.0, 36.42725246736707, 4.539766302299284], [39.55336617405583, 489.85068449538574, 588.6563638648037], [15.821346469622332, 42.17892390958291, 72.63626083678854], [0.0, 27.79974530404329, 46.9109184570926], [15.821346469622332, 14.379178605539638, 25.72534237969594], [23.732019704433498, 447.671760585802, 516.0201030280165], [23.732019704433498, 395.4274116523413, 472.13569543912377], [19.776683087027916, 384.8826806749455, 435.81756502072983], [7.910673234811166, 171.59153135943953, 219.4220379444654], [3.955336617405583, 146.66762177650432, 154.35205427817564], [3.955336617405583, 24.92390958293537, 65.06998366628973], [11.866009852216749, 213.29114931550447, 216.39552707626586], [0.0, 32.592804839223156, 12.10604347279809], [11.866009852216749, 180.6983444762815, 204.28948360346777], [3.955336617405583, 10.544730977395735, 36.31813041839427], [0.0, 52.24434893346064, 43.884407588893076], [0.0, 31.154886978669214, 19.672320643296896], [0.0, 21.089461954791467, 24.21208694559618], [359.9356321839078, 983.0565106653894, 2710.240482472697], [201.72216748768466, 458.695797516716, 877.6881517778544], [3.955336617405583, 74.29242279528806, 180.0773966578716], [3.955336617405583, 61.83046800382036, 125.60020103028019], [0.0, 43.13753581661887, 105.92788038698329], [0.0, 34.03072269977712, 68.09649453448925], [0.0, 20.13085004775549, 36.31813041839427], [0.0, 13.899872652021653, 31.778364116094988], [0.0, 9.10681311684177, 37.83138585249403], [3.955336617405583, 18.692932187201528, 19.672320643296896], [0.0, 12.461954791467688, 54.477195627591406], [197.76683087027908, 384.4033747214273, 697.6107551199854], [35.598029556650246, 135.16427889207273, 190.67018469656992], [35.598029556650246, 69.49936326010821, 115.00741299158186], [19.776683087027916, 55.599490608086555, 84.74230430958663], [11.866009852216749, 15.817096466093606, 24.21208694559618], [7.910673234811166, 39.78239414199297, 60.53021736399045], [15.821346469622332, 13.899872652021651, 30.265108681995226], [0.0, 65.66491563196429, 75.66277170498806], [0.0, 30.196275071633234, 25.72534237969594], [0.0, 35.468640560331096, 49.93742932529212], [0.0, 16.296402419611592, 19.672320643296896], [0.0, 19.172238140719518, 30.265108681995226], [162.16880131362888, 249.2390958293536, 506.9405704234182], [35.598029556650246, 17.255014326647565, 45.39766302299284], [126.57077175697866, 231.98408150270606, 461.5429074004257], [106.79408866995074, 204.66364215218087, 429.764543284331], [102.83875205254516, 187.8879337790513, 369.2343259203409], [3.955336617405583, 16.77570837312958, 60.53021736399045], [19.776683087027916, 27.3204393505253, 31.778364116094988], [158.2134646962233, 524.3607131486816, 1832.5523306948085], [154.25812807881772, 443.3580070041407, 1395.2215102399744], [154.25812807881772, 412.2031200254712, 1358.903379821579], [130.52610837438422, 406.9307545367734, 1304.4261841939872], [47.464039408867, 161.04680038204415, 631.0275160195964], [43.50870279146142, 125.57815982171302, 422.1982661138318], [3.955336617405583, 35.46864056033109, 208.82924990576706], [83.06206896551724, 245.8839541547277, 673.3986681743908], [79.10673234811166, 162.96402419611601, 413.1187335092336], [3.955336617405583, 82.9199299586119, 260.2799346651589], [23.732019704433498, 5.272365488697866, 54.477195627591406], [0.0, 31.1548869786692, 36.31813041839427], [3.955336617405583, 81.00270614453994, 437.33082045482973], [0.0, 29.23766316459725, 282.9787661766552], [0.0, 19.6515440942375, 217.90878251036563], [0.0, 9.10681311684177, 69.60974996858901], [0.0, 10.544730977395737, 148.2990325417766], [0.0, 5.751671442215855, 63.556728232189975], [0.0, 4.793059535179879, 84.74230430958663], [0.0, 9.586119070359759, 65.06998366628973], [3.955336617405583, 51.765042979942656, 154.35205427817564], [0.0, 16.296402419611596, 25.72534237969594], [3.955336617405583, 35.468640560331096, 128.6267118984797], [0.0, 20.610156001273474, 90.79532604598568], [3.955336617405583, 14.858484559057628, 37.83138585249403], [1309.2164203612508, 1348.287647246074, 2018.6827490890842], [783.1566502463047, 672.9455587392539, 759.6542279180745], [328.29293924466316, 231.02546959567036, 178.56414122377183], [166.12413793103443, 161.52610633556208, 119.54717929388114], [67.24072249589491, 126.05746577523098, 81.7157934413871], [0.0, 30.67558102515122, 9.079532604598567], [67.24072249589491, 95.38188475007965, 72.63626083678854], [51.41937602627258, 36.42725246736706, 21.185576077396657], [27.68735632183908, 15.337790512575618, 16.645809775097373], [23.732019704433498, 21.089461954791467, 4.539766302299284], [15.821346469622332, 58.95463228271245, 51.45068475939188], [0.0, 26.361827443489332, 9.079532604598567], [15.821346469622332, 32.59280483922316, 42.371152154793315], [98.88341543513957, 35.4686405603311, 37.83138585249403], [75.15139573070607, 18.21362623368354, 15.132554340997611], [23.732019704433498, 17.255014326647565, 22.69883151149642], [162.16880131362888, 69.49936326010815, 59.01696192989069], [35.598029556650246, 27.320439350525305, 13.619298906897852], [126.57077175697864, 42.1789239095829, 45.39766302299284], [67.24072249589491, 11.503342884431714, 27.238597813795703], [59.330049261083744, 30.675581025151224, 18.159065209197134], [454.86371100164166, 441.9200891435866, 581.0900866943056], [94.928078817734, 187.4086278255333, 207.3159944716673], [3.955336617405583, 68.54075135307221, 54.477195627591406], [3.955336617405583, 27.7997453040433, 9.079532604598567], [0.0, 40.741006049028954, 45.39766302299284], [0.0, 18.213626233683545, 27.238597813795703], [0.0, 22.527379815345434, 18.159065209197134], [90.9727422003284, 118.86787647246108, 152.83879884407588], [90.97274220032843, 81.48201209805798, 110.46764668928257], [71.1960591133005, 39.78239414199298, 66.58323910038949], [15.821346469622332, 20.13085004775549, 42.371152154793315], [55.374712643678166, 19.651544094237508, 24.21208694559618], [19.776683087027916, 41.69961795606491, 43.884407588893076], [3.955336617405583, 17.255014326647565, 24.21208694559618], [15.821346469622332, 24.44460362941738, 19.672320643296896], [0.0, 37.38586437440304, 42.371152154793315], [359.9356321839078, 254.51146131805137, 373.77409222264], [245.23087027914602, 220.00143266475632, 305.67759768815137], [94.92807881773399, 53.68226679401458, 59.01696192989069], [35.598029556650246, 41.22031200254692, 40.85789672069355], [27.687356321839083, 23.485991722381403, 9.079532604598567], [7.910673234811166, 17.73432028016556, 31.778364116094988], [59.330049261083744, 12.461954791467688, 18.159065209197134], [150.3027914614121, 166.31916587074173, 246.6606357582611], [15.821346469622332, 49.36851321235273, 63.556728232189975], [0.0, 16.77570837312958, 34.80487498429451], [15.821346469622332, 32.59280483922317, 28.751853247895465], [134.4814449917898, 116.95065265838915, 183.1039075260711], [55.37471264367816, 19.651544094237508, 49.93742932529212], [79.10673234811165, 97.29910856415157, 133.16647820077898], [114.70476190476188, 34.51002865329511, 68.09649453448925], [67.2407224958949, 23.485991722381407, 30.265108681995226], [47.464039408866995, 11.024036930913724, 37.83138585249403], [526.0597701149421, 675.3420885068452, 1259.028521170997], [462.7743842364528, 655.2112384590895, 1254.4887548686975], [442.9977011494249, 563.184495383637, 1187.9055157683053], [245.23087027914602, 400.2204711875213, 858.0158311345587], [146.34745484400656, 228.1496338745622, 404.0392009046352], [43.50870279146142, 15.337790512575618, 45.39766302299284], [102.83875205254513, 212.8118433619866, 358.6415378816427], [55.374712643678166, 172.55014326647563, 292.05829878125365], [47.464039408866995, 40.26170009551096, 66.58323910038949], [98.88341543513955, 172.07083731295762, 453.9766302299269], [11.866009852216749, 109.2817574021013, 263.30644553335844], [0.0, 79.56478828398593, 142.24601080537755], [11.866009852216749, 29.716969118115234, 121.0604347279809], [87.01740558292282, 62.789079910856344, 190.67018469656992], [79.10673234811166, 53.682266794014595, 130.13996733257946], [7.910673234811166, 9.106813116841773, 60.53021736399045], [197.76683087027908, 162.96402419611587, 329.8896846337475], [166.12413793103445, 91.54743712193573, 174.02437492147254], [35.598029556650246, 38.34447628143901, 83.22904887548687], [35.598029556650246, 18.692932187201528, 60.53021736399045], [0.0, 19.651544094237508, 22.69883151149642], [130.5261083743842, 53.202960840496594, 90.79532604598568], [71.19605911330049, 11.024036930913722, 16.645809775097373], [59.330049261083744, 42.17892390958289, 74.1495162708883], [31.64269293924466, 71.41658707418016, 155.8653097122754], [3.955336617405583, 46.01337153772679, 101.388114084684], [0.0, 27.799745304043295, 37.83138585249403], [3.955336617405583, 18.21362623368354, 63.556728232189975], [27.68735632183908, 25.403215536453356, 54.477195627591406], [7.910673234811166, 12.461954791467688, 33.291619550194746], [19.776683087027916, 12.941260744985678, 21.185576077396657], [19.776683087027916, 92.02674307545377, 66.58323910038949], [3.955336617405583, 62.78907991085634, 52.963940193491645], [0.0, 18.21362623368354, 4.539766302299284], [3.955336617405583, 44.57545367717285, 48.42417389119236], [3.955336617405583, 20.13085004775549, 31.778364116094988], [0.0, 24.44460362941738, 16.645809775097373], [15.821346469622332, 29.23766316459725, 13.619298906897852], [63.285385878489336, 20.13085004775549, 4.539766302299284], [5810.389490968846, 1396.6975485513883, 1740.2437492147278], [3160.3139573070744, 1169.027220630357, 1581.3519286342514], [2654.0308702791563, 1072.6867239732494, 1528.3879884407572], [1510.9385878489365, 586.6704871060182, 632.5407714536971], [0.0, 22.52737981534543, 0.0], [1510.9385878489365, 564.1431072906729, 632.5407714536971], [79.10673234811166, 45.05475963069083, 65.06998366628973], [63.28538587848932, 16.296402419611592, 27.238597813795703], [15.821346469622332, 28.758357211079264, 37.83138585249403], [1431.8318555008238, 519.0883476599831, 567.4707877874079], [209.6328407224958, 75.73034065584204, 34.80487498429451], [138.4367816091954, 26.361827443489332, 6.053021736399045], [71.19605911330049, 49.36851321235271, 28.751853247895465], [43.50870279146141, 20.130850047755494, 12.10604347279809], [27.68735632183908, 29.237663164597254, 16.645809775097373], [1222.1990147783263, 443.35800700414063, 532.6659128031137], [3.955336617405583, 14.85848455905763, 36.31813041839427], [1218.2436781609204, 428.49952244508273, 496.34778238471955], [1004.6555008210171, 372.4207258834778, 461.5429074004256], [27.68735632183908, 20.61015600127348, 37.83138585249403], [976.968144499178, 351.8105698822037, 423.71152154793197], [213.58817733990142, 56.078796561604506, 34.80487498429451], [11.866009852216749, 24.923909582935362, 9.079532604598567], [201.72216748768466, 31.1548869786692, 25.72534237969594], [1143.0922824302136, 486.01623686724184, 895.8472169870516], [15.821346469622332, 48.88920725883471, 102.90136951878377], [3.955336617405583, 19.6515440942375, 68.09649453448925], [11.866009852216749, 29.237663164597254, 34.80487498429451], [1127.2709359605915, 437.127029608407, 792.9458474682691], [783.1566502463047, 378.6517032792115, 668.8589018720896], [110.74942528735632, 26.361827443489332, 21.185576077396657], [59.330049261083744, 11.024036930913724, 13.619298906897852], [51.41937602627258, 15.337790512575616, 7.5662771704988065], [672.4072249589485, 352.2898758357221, 647.6733257946934], [87.01740558292283, 87.23368354027384, 198.23646186706873], [63.28538587848933, 71.89589302769815, 181.59065209197135], [59.330049261083744, 53.68226679401459, 115.00741299158186], [3.955336617405583, 18.21362623368354, 66.58323910038949], [23.732019704433498, 15.337790512575616, 16.645809775097373], [585.3898193760258, 265.0561922954472, 449.43686392762737], [569.5684729064035, 254.0321553645336, 410.0922226410339], [419.2656814449915, 208.97739573384277, 348.0487498429442], [150.30279146141214, 45.05475963069081, 62.043472798090214], [15.821346469622332, 11.024036930913722, 39.34464128659379], [344.11428571428553, 58.47532632919447, 124.08694559618043], [118.6600985221675, 36.427252467367076, 54.477195627591406], [79.10673234811166, 10.065425023877747, 27.238597813795703], [39.553366174055824, 26.361827443489325, 27.238597813795703], [225.45418719211807, 22.048073861827437, 69.60974996858901], [170.07947454844003, 11.024036930913724, 33.291619550194746], [55.374712643678166, 11.024036930913724, 36.31813041839427], [506.2830870279142, 96.34049665711561, 52.963940193491645], [363.89096880131336, 81.00270614453993, 52.963940193491645], [35.598029556650246, 17.734320280165548, 12.10604347279809], [328.29293924466316, 63.268385864374316, 40.85789672069355], [213.5881773399014, 37.865170327921014, 13.619298906897852], [71.19605911330049, 19.651544094237504, 10.592788038698329], [142.39211822660099, 18.21362623368354, 3.0265108681995225], [114.70476190476191, 25.40321553645335, 27.238597813795703], [47.464039408866995, 9.586119070359759, 19.672320643296896], [67.24072249589491, 15.817096466093606, 7.5662771704988065], [142.39211822660096, 15.337790512575618, 0.0], [2650.0755336617494, 227.6703279210442, 158.89182058047493], [1522.8045977011543, 190.7637695001591, 155.8653097122754], [90.97274220032843, 28.75835721107927, 33.291619550194746], [1431.8318555008245, 162.00541228908, 122.57369016208067], [1222.1990147783265, 160.08818847500808, 122.57369016208067], [569.5684729064035, 98.25772047118755, 72.63626083678854], [407.3996715927748, 87.2336835402738, 65.06998366628973], [43.50870279146141, 18.692932187201524, 10.592788038698329], [363.89096880131336, 68.54075135307221, 54.477195627591406], [300.6055829228241, 45.05475963069082, 45.39766302299284], [185.9008210180623, 30.675581025151224, 42.371152154793315], [114.70476190476191, 14.379178605539641, 3.0265108681995225], [63.28538587848933, 23.485991722381407, 9.079532604598567], [162.16880131362888, 11.024036930913724, 7.566277170498806], [652.6305418719206, 61.830468003820364, 49.93742932529212], [427.17635467980256, 45.53406558420881, 15.132554340997613], [233.36486042692928, 32.113498885705184, 13.619298906897852], [138.4367816091954, 12.46195479146769, 4.539766302299284], [94.92807881773398, 19.651544094237508, 9.079532604598567], [193.8114942528735, 13.420566698503661, 1.5132554340997613], [225.45418719211807, 16.29640241961159, 34.80487498429451], [154.25812807881772, 7.668895256287807, 19.672320643296896], [71.19605911330049, 8.627507163323784, 15.132554340997613], [209.6328407224958, 1.9172238140719515, 0.0], [1127.2709359605917, 36.90655842088506, 3.0265108681995225], [609.1218390804593, 32.11349888570519, 3.0265108681995225], [312.4715927750409, 8.627507163323784, 0.0], [296.6502463054186, 23.48599172238141, 3.0265108681995225], [170.07947454844003, 10.065425023877747, 3.0265108681995225], [126.57077175697866, 13.420566698503663, 0.0], [518.149096880131, 4.7930595351798795, 0.0], [138.43678160919538, 4.313753581661891, 0.0], [379.71231527093573, 0.4793059535179879, 0.0]]}, {"children_left": [1, 2, 3, 4, 5, 6, 7, -1, 9, -1, -1, 12, 13, 14, 15, -1, -1, 18, -1, -1, 21, -1, -1, 24, 25, -1, -1, 28, 29, -1, -1, -1, 33, 34, 35, 36, 37, -1, -1, 40, -1, -1, 43, -1, -1, 46, -1, -1, -1, 50, 51, 52, 53, 54, 55, -1, -1, 58, -1, -1, 61, -1, 63, -1, -1, 66, 67, 68, -1, -1, -1, 72, 73, -1, -1, 76, -1, -1, -1, 80, 81, 82, 83, 84, -1, -1, 87, -1, -1, 90, -1, 92, -1, -1, 95, -1, -1, 98, -1, -1, 101, 102, -1, -1, 105, 106, 107, 108, -1, -1, -1, -1, 113, -1, 115, 116, -1, -1, -1, 120, 121, 122, 123, 124, 125, 126, 127, -1, -1, -1, -1, -1, 133, -1, 135, -1, -1, -1, 139, 140, 141, 142, 143, 144, -1, -1, 147, -1, -1, 150, -1, -1, 153, 154, 155, -1, -1, -1, 159, 160, -1, -1, -1, -1, 165, 166, 167, 168, 169, -1, -1, 172, -1, -1, 175, -1, 177, -1, -1, 180, 181, -1, 183, -1, -1, 186, -1, -1, 189, 190, -1, -1, -1, 194, 195, -1, 197, 198, 199, -1, -1, -1, 203, 204, -1, 206, -1, 208, -1, -1, 211, -1, 213, -1, 215, -1, -1, 218, 219, 220, 221, -1, 223, -1, 225, -1, -1, 228, 229, 230, -1, -1, -1, 234, 235, -1, -1, 238, -1, -1, 241, -1, 243, -1, 245, 246, -1, -1, 249, -1, -1, 252, 253, 254, -1, -1, -1, -1, 259, 260, 261, 262, -1, 264, 265, 266, 267, -1, 269, -1, -1, 272, -1, 274, -1, -1, 277, 278, -1, -1, 281, 282, -1, -1, 285, -1, -1, 288, -1, 290, 291, 292, -1, -1, 295, -1, -1, 298, -1, 300, -1, -1, 303, 304, 305, -1, -1, 308, 309, 310, 311, -1, -1, 314, -1, -1, -1, -1, 319, 320, 321, 322, -1, -1, -1, 326, 327, -1, -1, -1, 331, -1, 333, 334, -1, -1, -1, 338, 339, 340, 341, -1, -1, -1, -1, 346, -1, -1, 349, 350, -1, 352, 353, 354, -1, 356, -1, 358, -1, 360, -1, -1, 363, 364, 365, -1, 367, -1, -1, 370, -1, -1, -1, -1, 375, 376, -1, 378, 379, -1, -1, -1, 383, -1, 385, -1, -1], "children_right": [258, 119, 100, 49, 32, 11, 8, -1, 10, -1, -1, 23, 20, 17, 16, -1, -1, 19, -1, -1, 22, -1, -1, 27, 26, -1, -1, 31, 30, -1, -1, -1, 48, 45, 42, 39, 38, -1, -1, 41, -1, -1, 44, -1, -1, 47, -1, -1, -1, 79, 78, 65, 60, 57, 56, -1, -1, 59, -1, -1, 62, -1, 64, -1, -1, 71, 70, 69, -1, -1, -1, 75, 74, -1, -1, 77, -1, -1, -1, 97, 94, 89, 86, 85, -1, -1, 88, -1, -1, 91, -1, 93, -1, -1, 96, -1, -1, 99, -1, -1, 104, 103, -1, -1, 112, 111, 110, 109, -1, -1, -1, -1, 114, -1, 118, 117, -1, -1, -1, 193, 138, 137, 132, 131, 130, 129, 128, -1, -1, -1, -1, -1, 134, -1, 136, -1, -1, -1, 164, 163, 152, 149, 146, 145, -1, -1, 148, -1, -1, 151, -1, -1, 158, 157, 156, -1, -1, -1, 162, 161, -1, -1, -1, -1, 188, 179, 174, 171, 170, -1, -1, 173, -1, -1, 176, -1, 178, -1, -1, 185, 182, -1, 184, -1, -1, 187, -1, -1, 192, 191, -1, -1, -1, 217, 196, -1, 202, 201, 200, -1, -1, -1, 210, 205, -1, 207, -1, 209, -1, -1, 212, -1, 214, -1, 216, -1, -1, 251, 240, 227, 222, -1, 224, -1, 226, -1, -1, 233, 232, 231, -1, -1, -1, 237, 236, -1, -1, 239, -1, -1, 242, -1, 244, -1, 248, 247, -1, -1, 250, -1, -1, 257, 256, 255, -1, -1, -1, -1, 348, 337, 302, 263, -1, 287, 276, 271, 268, -1, 270, -1, -1, 273, -1, 275, -1, -1, 280, 279, -1, -1, 284, 283, -1, -1, 286, -1, -1, 289, -1, 297, 294, 293, -1, -1, 296, -1, -1, 299, -1, 301, -1, -1, 318, 307, 306, -1, -1, 317, 316, 313, 312, -1, -1, 315, -1, -1, -1, -1, 330, 325, 324, 323, -1, -1, -1, 329, 328, -1, -1, -1, 332, -1, 336, 335, -1, -1, -1, 345, 344, 343, 342, -1, -1, -1, -1, 347, -1, -1, 374, 351, -1, 373, 362, 355, -1, 357, -1, 359, -1, 361, -1, -1, 372, 369, 366, -1, 368, -1, -1, 371, -1, -1, -1, -1, 382, 377, -1, 381, 380, -1, -1, -1, 384, -1, 386, -1, -1], "threshold": [0.33731450140476227, 0.21882949769496918, 0.00047050000284798443, 0.12555349618196487, 0.09282850101590157, 0.0629584975540638, 0.05869000032544136, -2.0, 0.060631999745965004, -2.0, -2.0, 0.07144000008702278, 0.06821100041270256, 0.06555550172924995, 0.06428399682044983, -2.0, -2.0, 0.06719549745321274, -2.0, -2.0, 0.06978050246834755, -2.0, -2.0, 0.07445750012993813, 0.07317249849438667, -2.0, -2.0, 0.09141900017857552, 0.08047899976372719, -2.0, -2.0, -2.0, 4.999999987376214e-07, 0.12313099950551987, 0.12009549885988235, 0.11507749930024147, 0.11431349813938141, -2.0, -2.0, 0.11736949905753136, -2.0, -2.0, 0.12154150009155273, -2.0, -2.0, 0.12411550059914589, -2.0, -2.0, -2.0, 0.17718300223350525, 1.250000013897079e-05, 0.1453224942088127, 0.14205550402402878, 0.13874050229787827, 0.13419999927282333, -2.0, -2.0, 0.14035199582576752, -2.0, -2.0, 0.14331049472093582, -2.0, 0.1442519947886467, -2.0, -2.0, 0.15643099695444107, 0.15500899404287338, 0.150067500770092, -2.0, -2.0, -2.0, 0.15858950465917587, 0.15741799771785736, -2.0, -2.0, 0.1716884970664978, -2.0, -2.0, -2.0, 3.5000000480067683e-06, 0.2152319997549057, 0.20516249537467957, 0.1842454969882965, 0.18229249864816666, -2.0, -2.0, 0.19200550019741058, -2.0, -2.0, 0.207396000623703, -2.0, 0.2099585011601448, -2.0, -2.0, 0.21681349724531174, -2.0, -2.0, 4.9000000217347406e-05, -2.0, -2.0, 0.09345600008964539, 0.05860050022602081, -2.0, -2.0, 0.03065249975770712, 0.20086299628019333, 0.008848000317811966, 0.16074849665164948, -2.0, -2.0, -2.0, -2.0, 0.14204100519418716, -2.0, 0.19346600025892258, 0.1702904999256134, -2.0, -2.0, -2.0, 5.500000042957254e-06, 0.28080999851226807, 4.999999987376214e-07, 0.2712099999189377, 0.26888149976730347, 0.2648940086364746, 0.2625660002231598, 0.2406964972615242, -2.0, -2.0, -2.0, -2.0, -2.0, 0.2748184949159622, -2.0, 0.27754050493240356, -2.0, -2.0, -2.0, 0.3852420002222061, 0.37841950356960297, 0.31669650971889496, 0.3087729960680008, 0.3011865019798279, 0.28899599611759186, -2.0, -2.0, 0.30295100808143616, -2.0, -2.0, 0.31218649446964264, -2.0, -2.0, 0.32978999614715576, 0.3265564888715744, 0.32327699661254883, -2.0, -2.0, -2.0, 0.37104499340057373, 0.3500254899263382, -2.0, -2.0, -2.0, -2.0, 4.999999987376214e-07, 0.6558879911899567, 0.4697044938802719, 0.4094740003347397, 0.3937544971704483, -2.0, -2.0, 0.4452214986085892, -2.0, -2.0, 0.4753884971141815, -2.0, 0.6285879909992218, -2.0, -2.0, 0.7646590173244476, 0.685531497001648, -2.0, 0.7165065109729767, -2.0, -2.0, 0.8552825152873993, -2.0, -2.0, 0.735848993062973, 0.501554012298584, -2.0, -2.0, -2.0, 0.40324150025844574, 0.22668850421905518, -2.0, 0.2441454976797104, 0.02713449951261282, 0.23419499397277832, -2.0, -2.0, -2.0, 0.15126999467611313, 0.25006699562072754, -2.0, 1.1500000255182385e-05, -2.0, 8.499999967170879e-05, -2.0, -2.0, 0.20003149658441544, -2.0, 0.2401444986462593, -2.0, 0.3336475044488907, -2.0, -2.0, 0.9561784863471985, 0.06462100148200989, 0.4495149999856949, 0.00011750000339816324, -2.0, 0.41690100729465485, -2.0, 0.0036799999652430415, -2.0, -2.0, 0.5424419939517975, 0.5255254805088043, 0.0006464999751187861, -2.0, -2.0, -2.0, 0.5752755105495453, 0.0009664999961387366, -2.0, -2.0, 0.0005319999763742089, -2.0, -2.0, 0.08116650208830833, -2.0, 0.09889199957251549, -2.0, 0.18435849994421005, 0.7053354978561401, -2.0, -2.0, 0.680678516626358, -2.0, -2.0, 0.11051050201058388, 1.2960389852523804, 1.0653150081634521, -2.0, -2.0, -2.0, -2.0, 7.174637079238892, 0.9429084956645966, 0.3766555041074753, 0.09021249786019325, -2.0, 0.2468390017747879, 1.6064975261688232, 0.1934184953570366, 0.14231400191783905, -2.0, 0.16663799434900284, -2.0, -2.0, 0.6129150092601776, -2.0, 0.21369749307632446, -2.0, -2.0, 2.3380500078201294, 1.9090415239334106, -2.0, -2.0, 3.817213535308838, 0.1618264988064766, -2.0, -2.0, 5.8103861808776855, -2.0, -2.0, 0.2549135088920593, -2.0, 3.856191039085388, 0.2875654995441437, 0.269723504781723, -2.0, -2.0, 0.30044400691986084, -2.0, -2.0, 0.3056180030107498, -2.0, 0.34571050107479095, -2.0, -2.0, 2.7868064641952515, 0.4752814918756485, 0.39293399453163147, -2.0, -2.0, 2.5837604999542236, 2.3687455654144287, 0.8082499802112579, 0.6940569877624512, -2.0, -2.0, 1.1630975008010864, -2.0, -2.0, -2.0, -2.0, 0.5935289859771729, 0.46299849450588226, 0.4343785047531128, 0.4100479930639267, -2.0, -2.0, -2.0, 0.5428335070610046, 4.332455635070801, -2.0, -2.0, -2.0, 0.6826844811439514, -2.0, 4.867067098617554, 0.7701795101165771, -2.0, -2.0, -2.0, 1.2892014980316162, 1.16821950674057, 3.3193999528884888, 1.0676295161247253, -2.0, -2.0, -2.0, -2.0, 1.6820119619369507, -2.0, -2.0, 19.592988967895508, 0.2153405025601387, -2.0, 1.6259130239486694, 9.971939086914062, 0.2883629947900772, -2.0, 7.870821952819824, -2.0, 8.427985191345215, -2.0, 9.427392959594727, -2.0, -2.0, 16.869340896606445, 13.021543025970459, 10.6294584274292, -2.0, 0.5668639838695526, -2.0, -2.0, 14.607743263244629, -2.0, -2.0, -2.0, -2.0, 39.09754753112793, 0.4285459965467453, -2.0, 0.8695825040340424, 0.4999304860830307, -2.0, -2.0, -2.0, 0.9289059937000275, -2.0, 1.8242860436439514, -2.0, -2.0], "feature": [0, 1, 0, 1, 1, 1, 1, -2, 1, -2, -2, 1, 1, 1, 1, -2, -2, 1, -2, -2, 1, -2, -2, 1, 1, -2, -2, 1, 1, -2, -2, -2, 0, 1, 1, 1, 1, -2, -2, 1, -2, -2, 1, -2, -2, 1, -2, -2, -2, 1, 0, 1, 1, 1, 1, -2, -2, 1, -2, -2, 1, -2, 1, -2, -2, 1, 1, 1, -2, -2, -2, 1, 1, -2, -2, 1, -2, -2, -2, 0, 1, 1, 1, 1, -2, -2, 1, -2, -2, 1, -2, 1, -2, -2, 1, -2, -2, 0, -2, -2, 1, 1, -2, -2, 0, 1, 0, 1, -2, -2, -2, -2, 1, -2, 1, 1, -2, -2, -2, 0, 1, 0, 1, 1, 1, 1, 1, -2, -2, -2, -2, -2, 1, -2, 1, -2, -2, -2, 1, 1, 1, 1, 1, 1, -2, -2, 1, -2, -2, 1, -2, -2, 1, 1, 1, -2, -2, -2, 1, 1, -2, -2, -2, -2, 0, 1, 1, 1, 1, -2, -2, 1, -2, -2, 1, -2, 1, -2, -2, 1, 1, -2, 1, -2, -2, 1, -2, -2, 1, 1, -2, -2, -2, 1, 1, -2, 1, 0, 1, -2, -2, -2, 0, 1, -2, 0, -2, 0, -2, -2, 0, -2, 0, -2, 1, -2, -2, 1, 0, 1, 0, -2, 1, -2, 0, -2, -2, 1, 1, 0, -2, -2, -2, 1, 0, -2, -2, 0, -2, -2, 0, -2, 0, -2, 0, 1, -2, -2, 1, -2, -2, 0, 1, 1, -2, -2, -2, -2, 0, 1, 1, 1, -2, 1, 0, 1, 1, -2, 1, -2, -2, 0, -2, 1, -2, -2, 0, 0, -2, -2, 0, 1, -2, -2, 0, -2, -2, 1, -2, 0, 1, 1, -2, -2, 1, -2, -2, 1, -2, 1, -2, -2, 0, 0, 0, -2, -2, 0, 0, 1, 1, -2, -2, 0, -2, -2, -2, -2, 1, 1, 1, 1, -2, -2, -2, 1, 0, -2, -2, -2, 1, -2, 0, 1, -2, -2, -2, 1, 1, 0, 1, -2, -2, -2, -2, 0, -2, -2, 0, 1, -2, 1, 0, 1, -2, 0, -2, 0, -2, 0, -2, -2, 0, 0, 0, -2, 1, -2, -2, 0, -2, -2, -2, -2, 0, 1, -2, 1, 1, -2, -2, -2, 1, -2, 1, -2, -2], "classes": [0, 1, 2], "value": [[8084.708045977106, 8047.546959567038, 7950.644050760428], [2195.2118226601083, 6599.0843680357475, 6146.843573313418], [458.81904761904724, 3835.8855460046198, 888.280939816553], [181.94548440065677, 3572.267271569688, 780.8398039954716], [51.41937602627258, 1981.9301177968111, 149.81228797587636], [3.955336617405583, 1128.2862145813338, 51.45068475939188], [0.0, 452.94412607450045, 1.5132554340997613], [0.0, 381.04823304680156, 0.0], [0.0, 71.8958930276982, 1.5132554340997613], [0.0, 23.485991722381403, 1.5132554340997613], [0.0, 48.40990130531674, 0.0], [3.955336617405583, 675.3420885068456, 49.93742932529212], [0.0, 173.50875517351164, 37.83138585249403], [0.0, 111.19898121617328, 10.592788038698329], [0.0, 45.054759630690825, 9.079532604598567], [0.0, 19.6515440942375, 4.539766302299284], [0.0, 25.403215536453352, 4.539766302299284], [0.0, 66.14422158548227, 1.5132554340997613], [0.0, 40.26170009551095, 0.0], [0.0, 25.88252148997134, 1.5132554340997613], [0.0, 62.30977395733837, 27.238597813795703], [0.0, 30.675581025151217, 22.69883151149642], [0.0, 31.634192932187183, 4.539766302299284], [3.955336617405583, 501.8333333333352, 12.10604347279809], [3.955336617405583, 52.7236548869786, 3.0265108681995225], [0.0, 32.113498885705184, 0.0], [3.955336617405583, 20.610156001273477, 3.0265108681995225], [0.0, 449.1096784463563, 9.079532604598567], [0.0, 418.4340974212048, 6.053021736399045], [0.0, 146.18831582298645, 4.539766302299284], [0.0, 272.2457815982172, 1.5132554340997613], [0.0, 30.67558102515122, 3.0265108681995225], [47.464039408867, 853.6439032155347, 98.36160321648448], [35.598029556650246, 820.5717924227944, 81.7157934413871], [23.732019704433498, 761.6171601400824, 80.20253800728734], [23.732019704433498, 708.4141992995862, 63.556728232189975], [23.732019704433498, 574.6878382680685, 57.50370649579093], [15.821346469622332, 550.2432346386514, 52.963940193491645], [7.910673234811166, 24.444603629417376, 4.539766302299284], [0.0, 133.7263610315187, 6.053021736399045], [0.0, 64.22699777141031, 0.0], [0.0, 69.49936326010818, 6.053021736399045], [0.0, 53.202960840496615, 16.645809775097373], [0.0, 23.965297675899397, 10.592788038698329], [0.0, 29.237663164597254, 6.053021736399045], [11.866009852216749, 58.954632282712446, 1.5132554340997613], [11.866009852216749, 29.237663164597254, 0.0], [0.0, 29.716969118115234, 1.5132554340997613], [11.866009852216749, 33.07211079274115, 16.645809775097373], [130.52610837438422, 1590.3371537726412, 631.0275160195965], [110.7494252873563, 976.3462273161373, 295.08480964945306], [106.79408866995074, 948.5464820120942, 272.38597813795684], [63.28538587848933, 392.0722699777155, 125.60020103028019], [27.68735632183908, 320.6556829035345, 111.98090212338234], [19.776683087027916, 261.2217446673035, 81.7157934413871], [19.776683087027916, 164.40194205666998, 63.556728232189975], [0.0, 96.81980261063362, 18.159065209197134], [7.910673234811166, 59.433938236230475, 30.265108681995226], [3.955336617405583, 24.92390958293537, 19.672320643296896], [3.955336617405583, 34.51002865329512, 10.592788038698329], [35.598029556650246, 71.41658707418014, 13.619298906897852], [11.866009852216749, 25.40321553645335, 9.079532604598567], [23.732019704433498, 46.01337153772682, 4.539766302299284], [7.910673234811166, 23.485991722381403, 1.5132554340997613], [15.821346469622332, 22.527379815345427, 3.0265108681995225], [43.50870279146142, 556.4742120343856, 146.78577710767684], [0.0, 242.04950652658403, 45.39766302299284], [0.0, 210.41531359439688, 45.39766302299284], [0.0, 125.09885386819509, 18.159065209197134], [0.0, 85.31645972620186, 27.238597813795703], [0.0, 31.634192932187194, 0.0], [43.50870279146142, 314.42470550780064, 101.388114084684], [7.910673234811166, 40.74100604902894, 27.238597813795703], [7.910673234811166, 22.048073861827444, 7.566277170498806], [0.0, 18.69293218720153, 19.672320643296896], [35.598029556650246, 273.68369945877123, 74.1495162708883], [31.64269293924466, 193.1602992677492, 60.53021736399045], [3.955336617405583, 80.52340019102198, 13.619298906897852], [3.955336617405583, 27.799745304043284, 22.69883151149642], [19.776683087027916, 613.9909264565432, 335.9427063701461], [0.0, 568.456860872335, 305.67759768815125], [0.0, 521.4848774275731, 295.084809649453], [0.0, 409.32728430436265, 202.776228169368], [0.0, 97.77841451766956, 71.12300540268878], [0.0, 76.20964660936004, 39.34464128659379], [0.0, 21.56876790830945, 31.778364116094988], [0.0, 311.5488697866931, 131.65322276667922], [0.0, 119.34718242597917, 39.34464128659379], [0.0, 192.2016873607131, 92.30858148008544], [0.0, 112.15759312320925, 92.30858148008544], [0.0, 20.610156001273474, 33.291619550194746], [0.0, 91.54743712193573, 59.01696192989069], [0.0, 26.84113339700732, 24.21208694559618], [0.0, 64.70630372492832, 34.80487498429451], [0.0, 46.971983444762785, 10.592788038698329], [0.0, 25.882521489971335, 4.539766302299284], [0.0, 21.089461954791467, 6.053021736399045], [19.776683087027916, 45.53406558420882, 30.265108681995226], [19.776683087027916, 20.61015600127348, 21.185576077396657], [0.0, 24.92390958293537, 9.079532604598567], [276.8735632183907, 263.6182744348933, 107.44113582108305], [0.0, 56.078796561604534, 1.5132554340997613], [0.0, 29.237663164597258, 0.0], [0.0, 26.84113339700731, 1.5132554340997613], [276.87356321839064, 207.53947787328875, 105.92788038698329], [75.15139573070608, 107.84383954154741, 46.9109184570926], [75.15139573070608, 80.04409423750397, 39.34464128659379], [63.285385878489336, 51.76504297994265, 22.69883151149642], [43.50870279146141, 23.00668576886342, 10.592788038698329], [19.776683087027916, 28.758357211079264, 12.10604347279809], [11.866009852216749, 28.27905125756128, 16.645809775097373], [0.0, 27.79974530404328, 7.5662771704988065], [201.7221674876847, 99.69563833174152, 59.01696192989069], [31.642692939244665, 28.279051257561278, 31.778364116094988], [170.07947454844006, 71.41658707418013, 27.238597813795703], [134.48144499178983, 45.534065584208804, 9.079532604598567], [55.37471264367816, 23.965297675899393, 3.0265108681995225], [79.10673234811166, 21.568767908309454, 6.053021736399045], [35.598029556650246, 25.882521489971342, 18.159065209197134], [1736.3927750410585, 2763.1988220312214, 5258.562633496802], [458.8190476190473, 1576.9165870741406, 3404.824726724514], [39.55336617405583, 577.563673989176, 655.2396029651925], [35.598029556650246, 551.2018465456872, 643.1335594923946], [35.598029556650246, 498.4781916587088, 552.3382334464101], [35.598029556650246, 469.2405284941115, 531.1526573690137], [31.642692939244665, 444.31661891117596, 484.24173891192174], [31.642692939244665, 419.8720152817585, 473.64895087322355], [11.866009852216749, 227.670327921044, 230.01482598316372], [19.776683087027916, 192.2016873607132, 243.63412489006157], [0.0, 24.44460362941738, 10.592788038698329], [3.955336617405583, 24.92390958293537, 46.9109184570926], [0.0, 29.237663164597265, 21.185576077396657], [0.0, 52.72365488697863, 90.79532604598568], [0.0, 12.461954791467688, 39.34464128659379], [0.0, 40.26170009551096, 51.45068475939188], [0.0, 20.610156001273477, 19.672320643296896], [0.0, 19.6515440942375, 31.778364116094988], [3.955336617405583, 26.36182744348933, 12.10604347279809], [419.2656814449914, 999.3529130850003, 2749.585123759293], [225.45418719211807, 506.1470869149972, 1032.0402060560286], [221.4988505747125, 468.2819165870759, 1010.8546299786319], [43.50870279146141, 202.74641833810892, 410.09222264103397], [43.50870279146141, 153.85721107927412, 354.10177157934334], [27.68735632183908, 115.03342884431714, 286.00527704485467], [11.866009852216749, 40.26170009551094, 124.08694559618043], [15.821346469622332, 74.77172874880607, 161.91833144867445], [15.821346469622332, 38.82378223495699, 68.09649453448925], [11.866009852216749, 16.29640241961159, 13.619298906897852], [3.955336617405583, 22.527379815345427, 54.477195627591406], [0.0, 48.88920725883473, 55.99045106169117], [0.0, 25.88252148997135, 16.645809775097373], [0.0, 23.00668576886341, 39.34464128659379], [177.99014778325116, 265.53549824896544, 600.762407337602], [79.10673234811166, 65.66491563196429, 119.54717929388114], [51.41937602627258, 49.36851321235273, 101.388114084684], [47.464039408866995, 33.55141674625915, 55.99045106169117], [3.955336617405583, 15.817096466093604, 45.39766302299284], [27.68735632183908, 16.296402419611592, 18.159065209197134], [98.88341543513957, 199.87058261700105, 481.2152280437224], [87.01740558292283, 189.80515759312334, 407.0657117728347], [67.24072249589491, 87.71298949379174, 213.36901620806634], [19.776683087027916, 102.09216809933147, 193.69669556476944], [11.866009852216749, 10.065425023877747, 74.1495162708883], [3.955336617405583, 37.86517032792103, 21.185576077396657], [193.8114942528735, 493.2058261700117, 1717.5449177032322], [174.03481116584558, 426.5822986310107, 1594.9712275411482], [162.16880131362885, 355.6450175103481, 1263.5682874732956], [67.24072249589491, 158.17096466093605, 712.7433094609827], [23.732019704433498, 58.954632282712446, 196.72320643296896], [3.955336617405583, 20.13085004775549, 99.87485865058424], [19.776683087027916, 38.823782234957015, 96.84834778238472], [43.50870279146142, 99.21633237822353, 516.0201030280166], [19.776683087027916, 61.35116205030239, 337.45596180424616], [23.732019704433498, 37.86517032792102, 178.56414122377183], [94.92807881773399, 197.4740528494109, 550.8249780123105], [19.776683087027916, 13.899872652021651, 27.238597813795703], [75.15139573070608, 183.5741801973893, 523.586380198515], [51.41937602627258, 176.86389684813747, 472.13569543912365], [23.732019704433498, 6.710283349251831, 51.45068475939188], [11.866009852216749, 70.93728112066216, 331.40294006784706], [3.955336617405583, 36.42725246736706, 213.36901620806634], [0.0, 15.337790512575618, 48.42417389119236], [3.955336617405583, 21.08946195479147, 164.94484231687397], [3.955336617405583, 9.10681311684177, 98.36160321648448], [0.0, 11.9826488379497, 66.58323910038949], [7.910673234811166, 34.5100286532951, 118.03392385978138], [3.955336617405583, 18.69293218720153, 42.371152154793315], [3.955336617405583, 15.817096466093604, 75.66277170498806], [19.776683087027916, 66.62352753900025, 122.57369016208067], [7.910673234811166, 51.28573702642468, 96.84834778238472], [7.910673234811166, 22.527379815345434, 55.99045106169117], [0.0, 28.758357211079268, 40.85789672069355], [11.866009852216749, 15.337790512575616, 25.72534237969594], [1277.573727422005, 1186.2822349570042, 1853.7379067722122], [743.6032840722489, 554.5569882203134, 729.3891192360803], [51.41937602627258, 26.361827443489325, 6.053021736399045], [692.1839080459764, 528.1951607768248, 723.3360974996814], [19.776683087027916, 49.84781916587069, 74.1495162708883], [0.0, 36.427252467367055, 36.31813041839427], [0.0, 19.651544094237504, 15.132554340997613], [0.0, 16.775708373129582, 21.185576077396657], [19.776683087027916, 13.420566698503665, 37.83138585249403], [672.4072249589485, 478.34734161095435, 649.1865812287941], [620.987848932676, 407.4100604902912, 531.1526573690139], [59.330049261083744, 13.420566698503663, 19.672320643296896], [561.6577996715923, 393.98949379178777, 511.48033672571734], [47.464039408866995, 20.130850047755487, 13.619298906897852], [514.1937602627254, 373.858643744032, 497.86103781881957], [27.68735632183908, 44.09614772365484, 84.74230430958663], [486.50640394088634, 329.7624960203766, 413.1187335092335], [51.41937602627259, 70.93728112066216, 118.03392385978138], [0.0, 21.08946195479147, 36.31813041839427], [51.41937602627258, 49.847819165870696, 81.7157934413871], [23.732019704433498, 17.73432028016555, 13.619298906897852], [27.68735632183908, 32.11349888570518, 68.09649453448925], [7.910673234811166, 19.651544094237508, 31.778364116094988], [19.776683087027916, 12.461954791467686, 36.31813041839427], [533.9704433497533, 631.725246736709, 1124.3487875361152], [474.6403940886696, 545.9294810569902, 1083.490890815421], [261.0522167487684, 382.00684495383763, 771.760271390873], [7.910673234811166, 71.89589302769811, 134.67973363487874], [0.0, 11.503342884431712, 42.371152154793315], [7.910673234811166, 60.392550143266405, 92.30858148008544], [3.955336617405583, 22.527379815345434, 24.21208694559618], [3.955336617405583, 37.865170327921014, 68.09649453448925], [0.0, 14.85848455905763, 42.371152154793315], [3.955336617405583, 23.00668576886342, 25.72534237969594], [253.14154351395717, 310.1109519261385, 637.0805377559955], [126.57077175697866, 117.42995861190711, 166.45809775097374], [71.19605911330049, 97.29910856415155, 145.27252167357707], [59.33004926108375, 36.42725246736706, 40.85789672069355], [11.866009852216749, 60.87185609678441, 104.41462495288353], [55.37471264367816, 20.13085004775549, 21.185576077396657], [126.57077175697863, 192.68099331423116, 470.62244000502403], [0.0, 26.841133397007308, 102.90136951878377], [0.0, 14.379178605539641, 27.238597813795703], [0.0, 12.461954791467688, 75.66277170498806], [126.57077175697863, 165.83985991722392, 367.72107048624116], [15.821346469622332, 68.0614453995542, 133.16647820077898], [110.74942528735632, 97.7784145176696, 234.554592285463], [213.58817733990142, 163.92263610315192, 311.73061942455047], [63.285385878489336, 11.503342884431712, 22.69883151149642], [150.30279146141214, 152.4192932187202, 289.03178791305425], [0.0, 18.692932187201528, 49.93742932529212], [150.30279146141208, 133.72636103151873, 239.0943585877623], [114.70476190476188, 54.64087870105059, 102.90136951878377], [63.28538587848933, 38.34447628143901, 81.7157934413871], [51.41937602627258, 16.296402419611592, 21.185576077396657], [35.598029556650246, 79.08548233046797, 136.1929890689785], [35.598029556650246, 62.78907991085637, 77.17602713908782], [0.0, 16.296402419611592, 59.01696192989069], [59.330049261083744, 85.79576567971985, 40.85789672069355], [15.821346469622332, 66.62352753900024, 31.778364116094988], [0.0, 46.971983444762785, 27.238597813795703], [0.0, 28.27905125756128, 6.053021736399045], [0.0, 18.692932187201524, 21.185576077396657], [15.821346469622332, 19.651544094237504, 4.539766302299284], [43.50870279146142, 19.17223814071952, 9.079532604598567], [5889.496223316968, 1448.4625915313272, 1803.800477446918], [3029.7878489326886, 1168.0686087233223, 1569.2458851614522], [2519.54942528737, 1054.4730977395673, 1510.2289232315597], [1380.4124794745512, 543.0536453358819, 552.3382334464102], [0.0, 24.444603629417383, 1.5132554340997613], [1380.4124794745517, 518.609041706465, 550.8249780123107], [510.23842364531976, 249.23909582935372, 234.554592285463], [320.38226600985206, 117.42995861190717, 107.44113582108305], [209.63284072249584, 55.59949060808655, 46.9109184570926], [35.598029556650246, 22.52737981534543, 30.265108681995223], [174.03481116584564, 33.07211079274115, 16.645809775097373], [102.83875205254516, 14.85848455905763, 4.539766302299284], [71.19605911330048, 18.21362623368354, 12.10604347279809], [110.74942528735632, 61.83046800382037, 60.53021736399045], [39.553366174055824, 29.237663164597247, 13.619298906897852], [71.19605911330049, 32.592804839223156, 46.9109184570926], [51.41937602627259, 18.692932187201528, 22.69883151149642], [19.776683087027916, 13.899872652021653, 24.21208694559618], [189.85615763546787, 131.80913721744687, 127.11345646437995], [23.732019704433498, 41.220312002546926, 40.85789672069355], [11.866009852216749, 17.255014326647565, 10.592788038698329], [11.866009852216749, 23.965297675899397, 30.265108681995226], [166.12413793103443, 90.5888252148998, 86.25555974368639], [106.79408866995072, 38.34447628143901, 27.238597813795703], [51.41937602627259, 14.858484559057628, 22.69883151149642], [55.374712643678166, 23.485991722381407, 4.539766302299284], [59.330049261083744, 52.24434893346063, 59.01696192989069], [27.68735632183908, 34.989334606813095, 40.85789672069355], [31.642692939244665, 17.255014326647572, 18.159065209197134], [870.1740558292274, 269.3699458771094, 316.2703857268494], [134.48144499178983, 11.503342884431714, 6.053021736399045], [735.6926108374378, 257.86660299267743, 310.2173639904505], [537.9257799671589, 200.829194524037, 282.97876617665514], [134.48144499178977, 42.658229863100885, 28.751853247895465], [15.821346469622332, 20.610156001273484, 18.159065209197134], [118.66009852216749, 22.048073861827444, 10.592788038698329], [403.44433497536915, 158.17096466093622, 254.2269129287599], [59.330049261083744, 20.13085004775549, 75.66277170498806], [344.1142857142855, 138.0401146131807, 178.56414122377183], [197.76683087027908, 57.03740846864052, 27.238597813795703], [55.374712643678166, 25.882521489971346, 12.10604347279809], [142.39211822660096, 31.15488697866921, 15.132554340997613], [94.92807881773399, 14.85848455905763, 6.053021736399045], [47.464039408866995, 16.296402419611592, 9.079532604598567], [1139.1369458128083, 511.4194524036957, 957.8906897851408], [518.1490968801309, 335.51416746259207, 677.9384344766888], [142.39211822660093, 48.88920725883471, 72.63626083678854], [39.55336617405583, 24.444603629417376, 52.963940193491645], [102.83875205254513, 24.44460362941738, 19.672320643296896], [375.7569786535301, 286.62496020375664, 605.3021736399011], [375.7569786535301, 272.24578159821687, 572.0105540897067], [328.29293924466316, 261.221744667303, 546.2852117100111], [284.7842364532018, 229.58755173511616, 512.9935921598168], [261.05221674876833, 196.51544094237485, 414.6319889433334], [23.732019704433498, 33.07211079274116, 98.36160321648448], [43.50870279146141, 31.63419293218718, 33.291619550194746], [31.642692939244665, 15.337790512575616, 16.645809775097373], [11.866009852216749, 16.29640241961159, 16.645809775097373], [47.46403940886699, 11.024036930913724, 25.72534237969594], [0.0, 14.37917860553964, 33.291619550194746], [620.987848932676, 175.9052849411017, 279.95225530845573], [296.6502463054186, 110.24036930913736, 183.1039075260711], [213.58817733990134, 62.309773957338386, 66.58323910038949], [110.7494252873563, 49.847819165870696, 52.963940193491645], [98.88341543513957, 27.320439350525312, 31.778364116094988], [11.866009852216749, 22.527379815345423, 21.185576077396657], [102.83875205254516, 12.461954791467688, 13.619298906897852], [83.06206896551724, 47.93059535179875, 116.52066842568162], [63.28538587848932, 31.634192932187194, 63.556728232189975], [43.50870279146141, 10.065425023877749, 21.185576077396657], [19.776683087027916, 21.568767908309454, 42.371152154793315], [19.776683087027916, 16.296402419611592, 52.963940193491645], [324.33760262725764, 65.66491563196428, 96.84834778238472], [150.30279146141214, 17.734320280165555, 7.5662771704988065], [174.0348111658456, 47.93059535179876, 89.28207061188591], [43.50870279146141, 31.63419293218718, 54.477195627591406], [31.642692939244665, 14.379178605539641, 30.265108681995226], [11.866009852216749, 17.255014326647572, 24.21208694559618], [130.52610837438422, 16.29640241961159, 34.80487498429451], [510.23842364531976, 113.59551098376325, 59.01696192989069], [257.0968801313628, 81.96131805157594, 52.963940193491645], [237.3201970443349, 60.392550143266405, 21.185576077396657], [106.79408866995074, 40.74100604902894, 15.132554340997613], [79.10673234811166, 23.006685768863413, 7.5662771704988065], [27.687356321839083, 17.734320280165555, 7.566277170498806], [130.52610837438422, 19.651544094237508, 6.053021736399045], [19.776683087027916, 21.568767908309454, 31.778364116094988], [253.14154351395717, 31.63419293218718, 6.053021736399045], [71.19605911330049, 14.85848455905763, 1.5132554340997613], [181.94548440065677, 16.775708373129575, 4.539766302299284], [2859.708374384247, 280.39398280802294, 234.554592285463], [1467.4298850574753, 223.83588029290016, 213.36901620806634], [43.50870279146142, 23.485991722381403, 24.21208694559618], [1423.9211822660138, 200.34988857051883, 189.15692926247016], [1253.8417077175716, 194.59821712830296, 189.15692926247016], [474.64039408866967, 95.8611907035976, 105.92788038698329], [106.79408866995074, 10.544730977395735, 6.053021736399045], [367.84630541871894, 85.31645972620186, 99.87485865058424], [166.12413793103445, 20.130850047755494, 31.778364116094988], [201.7221674876847, 65.18560967844628, 68.09649453448925], [35.598029556650246, 18.692932187201528, 22.69883151149642], [166.12413793103445, 46.49267749124478, 45.39766302299284], [122.61543513957304, 27.32043935052529, 21.185576077396657], [43.50870279146142, 19.172238140719514, 24.21208694559618], [779.2013136288991, 98.73702642470556, 83.22904887548687], [680.3178981937597, 73.8131168417701, 63.556728232189975], [308.51625615763527, 47.45128939828075, 37.83138585249403], [130.52610837438422, 7.668895256287806, 6.053021736399045], [177.9901477832512, 39.782394141992974, 31.778364116094988], [138.43678160919538, 25.882521489971342, 16.645809775097373], [39.553366174055824, 13.899872652021651, 15.132554340997611], [371.8016420361245, 26.361827443489332, 25.72534237969594], [197.76683087027908, 8.148201209805796, 6.053021736399045], [174.0348111658456, 18.21362623368354, 19.672320643296896], [98.88341543513958, 24.923909582935366, 19.672320643296896], [170.07947454844003, 5.751671442215855, 0.0], [1392.2784893267694, 56.55810251512253, 21.185576077396657], [814.7993431855493, 50.327125119388704, 21.185576077396657], [185.90082101806232, 20.130850047755498, 9.079532604598567], [628.8985221674872, 30.196275071633227, 12.10604347279809], [466.7297208538584, 20.130850047755494, 3.0265108681995225], [142.39211822660093, 9.586119070359757, 1.5132554340997613], [324.33760262725764, 10.544730977395735, 1.5132554340997613], [162.16880131362885, 10.065425023877747, 9.079532604598567], [577.4791461412146, 6.230977395733843, 0.0], [162.1688013136289, 5.751671442215855, 0.0], [415.31034482758594, 0.4793059535179879, 0.0], [237.32019704433486, 0.0, 0.0], [177.99014778325113, 0.4793059535179879, 0.0]]}, {"children_left": [1, 2, 3, 4, 5, 6, -1, 8, -1, 10, 11, -1, -1, 14, -1, -1, 17, 18, -1, -1, 21, 22, 23, 24, -1, -1, 27, -1, -1, 30, 31, -1, -1, 34, -1, -1, 37, -1, 39, 40, -1, -1, 43, -1, -1, 46, 47, -1, -1, 50, -1, -1, 53, 54, 55, 56, 57, 58, 59, -1, -1, 62, -1, -1, 65, 66, -1, -1, 69, -1, -1, -1, 73, -1, -1, 76, 77, 78, 79, 80, -1, -1, -1, -1, 85, 86, 87, -1, -1, 90, -1, -1, 93, -1, 95, -1, -1, 98, -1, 100, -1, -1, 103, 104, -1, 106, -1, -1, -1, 110, 111, 112, 113, 114, -1, 116, -1, -1, 119, -1, -1, 122, 123, 124, 125, 126, -1, -1, 129, -1, -1, 132, -1, 134, -1, -1, 137, 138, 139, -1, -1, 142, -1, -1, -1, -1, 147, 148, 149, 150, 151, 152, -1, -1, 155, -1, -1, 158, 159, -1, -1, 162, -1, -1, 165, -1, 167, -1, -1, -1, 171, 172, 173, 174, 175, -1, -1, 178, -1, -1, 181, -1, 183, -1, -1, 186, 187, 188, -1, -1, -1, 192, 193, -1, -1, 196, -1, -1, 199, -1, 201, -1, -1, 204, 205, 206, 207, 208, 209, -1, -1, 212, -1, -1, 215, -1, 217, 218, -1, -1, -1, 222, 223, -1, 225, -1, -1, 228, -1, 230, -1, 232, -1, -1, -1, 236, 237, 238, -1, 240, 241, -1, -1, 244, 245, -1, -1, -1, 249, 250, 251, -1, -1, 254, 255, -1, -1, 258, -1, -1, 261, 262, -1, -1, 265, -1, 267, -1, -1, 270, 271, -1, -1, -1, 275, 276, 277, 278, 279, 280, -1, -1, 283, 284, 285, -1, -1, 288, 289, -1, -1, -1, 293, -1, 295, 296, -1, -1, 299, -1, -1, 302, 303, 304, -1, -1, -1, 308, 309, 310, -1, 312, -1, -1, -1, 316, 317, -1, 319, -1, -1, 322, 323, -1, -1, 326, -1, -1, 329, 330, -1, 332, -1, -1, 335, 336, -1, 338, -1, 340, 341, -1, -1, 344, -1, -1, 347, -1, 349, -1, 351, 352, -1, -1, 355, -1, -1, 358, 359, 360, 361, -1, -1, -1, -1, 366, 367, -1, -1, -1, 371, 372, 373, 374, -1, -1, -1, 378, 379, 380, 381, 382, 383, -1, -1, -1, -1, -1, -1, 390, -1, -1, 393, 394, -1, 396, -1, -1, 399, 400, 401, -1, -1, -1, 405, -1, 407, 408, -1, -1, -1], "children_right": [274, 109, 52, 45, 16, 7, -1, 9, -1, 13, 12, -1, -1, 15, -1, -1, 20, 19, -1, -1, 36, 29, 26, 25, -1, -1, 28, -1, -1, 33, 32, -1, -1, 35, -1, -1, 38, -1, 42, 41, -1, -1, 44, -1, -1, 49, 48, -1, -1, 51, -1, -1, 102, 75, 72, 71, 64, 61, 60, -1, -1, 63, -1, -1, 68, 67, -1, -1, 70, -1, -1, -1, 74, -1, -1, 97, 84, 83, 82, 81, -1, -1, -1, -1, 92, 89, 88, -1, -1, 91, -1, -1, 94, -1, 96, -1, -1, 99, -1, 101, -1, -1, 108, 105, -1, 107, -1, -1, -1, 203, 146, 121, 118, 115, -1, 117, -1, -1, 120, -1, -1, 145, 136, 131, 128, 127, -1, -1, 130, -1, -1, 133, -1, 135, -1, -1, 144, 141, 140, -1, -1, 143, -1, -1, -1, -1, 170, 169, 164, 157, 154, 153, -1, -1, 156, -1, -1, 161, 160, -1, -1, 163, -1, -1, 166, -1, 168, -1, -1, -1, 198, 185, 180, 177, 176, -1, -1, 179, -1, -1, 182, -1, 184, -1, -1, 191, 190, 189, -1, -1, -1, 195, 194, -1, -1, 197, -1, -1, 200, -1, 202, -1, -1, 235, 234, 221, 214, 211, 210, -1, -1, 213, -1, -1, 216, -1, 220, 219, -1, -1, -1, 227, 224, -1, 226, -1, -1, 229, -1, 231, -1, 233, -1, -1, -1, 269, 248, 239, -1, 243, 242, -1, -1, 247, 246, -1, -1, -1, 260, 253, 252, -1, -1, 257, 256, -1, -1, 259, -1, -1, 264, 263, -1, -1, 266, -1, 268, -1, -1, 273, 272, -1, -1, -1, 370, 357, 328, 301, 282, 281, -1, -1, 292, 287, 286, -1, -1, 291, 290, -1, -1, -1, 294, -1, 298, 297, -1, -1, 300, -1, -1, 307, 306, 305, -1, -1, -1, 315, 314, 311, -1, 313, -1, -1, -1, 321, 318, -1, 320, -1, -1, 325, 324, -1, -1, 327, -1, -1, 334, 331, -1, 333, -1, -1, 346, 337, -1, 339, -1, 343, 342, -1, -1, 345, -1, -1, 348, -1, 350, -1, 354, 353, -1, -1, 356, -1, -1, 365, 364, 363, 362, -1, -1, -1, -1, 369, 368, -1, -1, -1, 392, 377, 376, 375, -1, -1, -1, 389, 388, 387, 386, 385, 384, -1, -1, -1, -1, -1, -1, 391, -1, -1, 398, 395, -1, 397, -1, -1, 404, 403, 402, -1, -1, -1, 406, -1, 410, 409, -1, -1, -1], "threshold": [0.14308450371026993, 0.20915349572896957, 0.12449949979782104, 1.499999996212864e-06, 0.06765850260853767, 0.06081249937415123, -2.0, 0.06216900050640106, -2.0, 0.0650784969329834, 0.06324150040745735, -2.0, -2.0, 0.06627549976110458, -2.0, -2.0, 0.06996449828147888, 0.0689065009355545, -2.0, -2.0, 0.09615850076079369, 0.07667100057005882, 0.07413899898529053, 0.07124999910593033, -2.0, -2.0, 0.07521549984812737, -2.0, -2.0, 0.08051050081849098, 0.07967149838805199, -2.0, -2.0, 0.0873669981956482, -2.0, -2.0, 0.0972215011715889, -2.0, 0.10441049933433533, 0.101842500269413, -2.0, -2.0, 0.10710100084543228, -2.0, -2.0, 0.09250599890947342, 0.04061749950051308, -2.0, -2.0, 0.1103999987244606, -2.0, -2.0, 0.0004675000091083348, 0.1675340011715889, 0.16375750303268433, 0.16187400370836258, 0.15655700117349625, 0.14426549524068832, 0.1433509960770607, -2.0, -2.0, 0.14661099761724472, -2.0, -2.0, 0.15927699953317642, 0.15814900398254395, -2.0, -2.0, 0.16081449389457703, -2.0, -2.0, -2.0, 0.1658169999718666, -2.0, -2.0, 0.20176299661397934, 0.1873999983072281, 0.18603800237178802, 0.1842464953660965, 0.1822509989142418, -2.0, -2.0, -2.0, -2.0, 0.19597800076007843, 0.193013496696949, 0.19157549738883972, -2.0, -2.0, 0.1946759968996048, -2.0, -2.0, 0.19735900312662125, -2.0, 0.20033250004053116, -2.0, -2.0, 0.20405399799346924, -2.0, 0.20557449758052826, -2.0, -2.0, 0.19584399461746216, 0.15308600664138794, -2.0, 0.00792049989104271, -2.0, -2.0, -2.0, 3.5000000480067683e-06, 0.28325100243091583, 0.22004400193691254, 0.21450450271368027, 0.2106354981660843, -2.0, 0.2126315012574196, -2.0, -2.0, 0.21729150414466858, -2.0, -2.0, 4.999999987376214e-07, 0.26148249208927155, 0.25003600120544434, 0.240494005382061, 0.23650600016117096, -2.0, -2.0, 0.24597400426864624, -2.0, -2.0, 0.253867506980896, -2.0, 0.2575410008430481, -2.0, -2.0, 0.28058649599552155, 0.26673249900341034, 0.2644695043563843, -2.0, -2.0, 0.2717195004224777, -2.0, -2.0, -2.0, -2.0, 0.37160949409008026, 0.36782650649547577, 0.3531154990196228, 0.31690850853919983, 0.3033895045518875, 0.28605949878692627, -2.0, -2.0, 0.3068450093269348, -2.0, -2.0, 0.3234355002641678, 0.32053498923778534, -2.0, -2.0, 0.3415815085172653, -2.0, -2.0, 0.35843950510025024, -2.0, 0.36127300560474396, -2.0, -2.0, -2.0, 4.999999987376214e-07, 0.44291549921035767, 0.41963300108909607, 0.3939104974269867, 0.38523849844932556, -2.0, -2.0, 0.3995579928159714, -2.0, -2.0, 0.4261070042848587, -2.0, 0.43373000621795654, -2.0, -2.0, 0.5410125255584717, 0.5320004820823669, 0.522321492433548, -2.0, -2.0, -2.0, 0.630152016878128, 0.5534645020961761, -2.0, -2.0, 0.6598424911499023, -2.0, -2.0, 0.48872949182987213, -2.0, 0.6945585012435913, -2.0, -2.0, 0.3724230080842972, 0.36279550194740295, 0.27585600316524506, 0.24568749964237213, 0.22746650129556656, 0.21759499609470367, -2.0, -2.0, 0.0006834999949205667, -2.0, -2.0, 0.0001405000002705492, -2.0, 0.2641109973192215, 0.25557050108909607, -2.0, -2.0, -2.0, 0.30324000120162964, 0.28867049515247345, -2.0, 0.29512499272823334, -2.0, -2.0, 0.31130799651145935, -2.0, 1.5999999959603883e-05, -2.0, 0.31937800347805023, -2.0, -2.0, -2.0, 0.9577105045318604, 0.5216664969921112, 1.049999991664663e-05, -2.0, 5.249999958323315e-05, 0.4335455000400543, -2.0, -2.0, 0.09741799905896187, 0.004263999871909618, -2.0, -2.0, -2.0, 0.009170500095933676, 0.5800899863243103, 8.95000011951197e-05, -2.0, -2.0, 0.6467554867267609, 0.6049439907073975, -2.0, -2.0, 0.6982854902744293, -2.0, -2.0, 0.022719500586390495, 0.6303294897079468, -2.0, -2.0, 0.5911725163459778, -2.0, 0.04999700002372265, -2.0, -2.0, 1.3276789784431458, 1.078893005847931, -2.0, -2.0, -2.0, 8.53200626373291, 0.9620414972305298, 2.2025229930877686, 0.29523199796676636, 0.10457699745893478, 0.07796650007367134, -2.0, -2.0, 0.18658050149679184, 0.14452700316905975, 0.12023400142788887, -2.0, -2.0, 1.07123601436615, 0.16272799670696259, -2.0, -2.0, -2.0, 0.2314705029129982, -2.0, 0.22662100195884705, 0.21369749307632446, -2.0, -2.0, 0.3477264940738678, -2.0, -2.0, 0.1985904946923256, 0.17587999999523163, 0.155068501830101, -2.0, -2.0, -2.0, 0.3022724986076355, 0.639849990606308, 0.22586850076913834, -2.0, 0.40541499853134155, -2.0, -2.0, -2.0, 0.3996945023536682, 0.30044400691986084, -2.0, 0.38828399777412415, -2.0, -2.0, 0.4339970052242279, 0.41956350207328796, -2.0, -2.0, 1.8701384663581848, -2.0, -2.0, 0.22512150555849075, 0.15115100145339966, -2.0, 0.18703249841928482, -2.0, -2.0, 0.39575450122356415, 0.2505819946527481, -2.0, 2.5409419536590576, -2.0, 3.119439482688904, 0.3259415030479431, -2.0, -2.0, 0.2802560031414032, -2.0, -2.0, 0.428383007645607, -2.0, 2.454082489013672, -2.0, 0.5665425062179565, 0.4790699928998947, -2.0, -2.0, 0.7596870064735413, -2.0, -2.0, 2.233386993408203, 1.5031994581222534, 1.1900324821472168, 1.0680245161056519, -2.0, -2.0, -2.0, -2.0, 5.093667984008789, 3.9899110794067383, -2.0, -2.0, -2.0, 16.774614334106445, 0.3317999988794327, 0.2692520022392273, 0.2153405025601387, -2.0, -2.0, -2.0, 0.88749098777771, 0.7715094983577728, 13.222562313079834, 11.555842399597168, 0.5461750030517578, 0.42605799436569214, -2.0, -2.0, -2.0, -2.0, -2.0, -2.0, 11.310484409332275, -2.0, -2.0, 21.57803440093994, 18.45301628112793, -2.0, 19.93728542327881, -2.0, -2.0, 29.05661678314209, 26.428091049194336, 0.47835248708724976, -2.0, -2.0, -2.0, 0.470770999789238, -2.0, 54.83552360534668, 36.19656944274902, -2.0, -2.0, -2.0], "feature": [0, 1, 1, 0, 1, 1, -2, 1, -2, 1, 1, -2, -2, 1, -2, -2, 1, 1, -2, -2, 1, 1, 1, 1, -2, -2, 1, -2, -2, 1, 1, -2, -2, 1, -2, -2, 1, -2, 1, 1, -2, -2, 1, -2, -2, 1, 1, -2, -2, 1, -2, -2, 0, 1, 1, 1, 1, 1, 1, -2, -2, 1, -2, -2, 1, 1, -2, -2, 1, -2, -2, -2, 1, -2, -2, 1, 1, 1, 1, 1, -2, -2, -2, -2, 1, 1, 1, -2, -2, 1, -2, -2, 1, -2, 1, -2, -2, 1, -2, 1, -2, -2, 1, 1, -2, 0, -2, -2, -2, 0, 1, 1, 1, 1, -2, 1, -2, -2, 1, -2, -2, 0, 1, 1, 1, 1, -2, -2, 1, -2, -2, 1, -2, 1, -2, -2, 1, 1, 1, -2, -2, 1, -2, -2, -2, -2, 1, 1, 1, 1, 1, 1, -2, -2, 1, -2, -2, 1, 1, -2, -2, 1, -2, -2, 1, -2, 1, -2, -2, -2, 0, 1, 1, 1, 1, -2, -2, 1, -2, -2, 1, -2, 1, -2, -2, 1, 1, 1, -2, -2, -2, 1, 1, -2, -2, 1, -2, -2, 1, -2, 1, -2, -2, 1, 1, 1, 1, 1, 1, -2, -2, 0, -2, -2, 0, -2, 1, 1, -2, -2, -2, 1, 1, -2, 1, -2, -2, 1, -2, 0, -2, 1, -2, -2, -2, 1, 1, 0, -2, 0, 1, -2, -2, 0, 0, -2, -2, -2, 0, 1, 0, -2, -2, 1, 1, -2, -2, 1, -2, -2, 0, 1, -2, -2, 1, -2, 0, -2, -2, 1, 1, -2, -2, -2, 0, 1, 0, 1, 1, 1, -2, -2, 1, 1, 1, -2, -2, 0, 1, -2, -2, -2, 0, -2, 1, 1, -2, -2, 0, -2, -2, 0, 0, 0, -2, -2, -2, 0, 1, 0, -2, 1, -2, -2, -2, 1, 1, -2, 1, -2, -2, 1, 1, -2, -2, 0, -2, -2, 1, 1, -2, 1, -2, -2, 1, 1, -2, 0, -2, 0, 1, -2, -2, 1, -2, -2, 1, -2, 0, -2, 1, 1, -2, -2, 1, -2, -2, 0, 1, 1, 1, -2, -2, -2, -2, 0, 0, -2, -2, -2, 0, 1, 1, 1, -2, -2, -2, 1, 1, 0, 0, 1, 1, -2, -2, -2, -2, -2, -2, 0, -2, -2, 0, 0, -2, 0, -2, -2, 0, 0, 1, -2, -2, -2, 1, -2, 0, 0, -2, -2, -2], "classes": [0, 1, 2], "value": [[8159.859441707824, 8044.671123845915, 7930.971730117138], [1795.722824302143, 6382.438077045626, 5723.132051765457], [387.62298850574683, 3617.322031200377, 761.1674833521744], [79.10673234811165, 2049.512257242842, 181.59065209197135], [51.41937602627258, 1943.585641515374, 152.83879884407588], [0.0, 567.0189430117811, 6.053021736399045], [0.0, 437.6063355619245, 0.0], [0.0, 129.41260744985695, 6.053021736399045], [0.0, 21.56876790830945, 4.539766302299284], [0.0, 107.84383954154738, 1.5132554340997613], [0.0, 56.5581025151225, 0.0], [0.0, 24.444603629417376, 0.0], [0.0, 32.11349888570518, 0.0], [0.0, 51.285737026424655, 1.5132554340997613], [0.0, 22.52737981534543, 1.5132554340997613], [0.0, 28.758357211079264, 0.0], [51.41937602627259, 1376.5666985036337, 146.78577710767684], [0.0, 51.285737026424655, 31.778364116094988], [0.0, 30.67558102515122, 13.619298906897852], [0.0, 20.610156001273484, 18.159065209197134], [51.41937602627259, 1325.2809614772127, 115.00741299158186], [11.866009852216749, 594.8186883158238, 25.72534237969594], [11.866009852216749, 132.7677491244828, 13.619298906897852], [0.0, 74.77172874880611, 1.5132554340997613], [0.0, 23.965297675899382, 1.5132554340997613], [0.0, 50.80643107290667, 0.0], [11.866009852216749, 57.99602037567647, 12.10604347279809], [11.866009852216749, 24.44460362941738, 6.053021736399045], [0.0, 33.551416746259136, 6.053021736399045], [0.0, 462.0509391913425, 12.10604347279809], [0.0, 88.19229544730975, 6.053021736399045], [0.0, 60.87185609678439, 0.0], [0.0, 27.320439350525305, 6.053021736399045], [0.0, 373.85864374403167, 6.053021736399045], [0.0, 165.36055396370588, 0.0], [0.0, 208.4980897803246, 6.053021736399045], [39.553366174055824, 730.4622731614132, 89.28207061188591], [11.866009852216749, 24.92390958293537, 6.053021736399045], [27.68735632183908, 705.5383635784779, 83.22904887548687], [0.0, 184.05348615090742, 33.291619550194746], [0.0, 120.78510028653305, 12.10604347279809], [0.0, 63.26838586437436, 21.185576077396657], [27.68735632183908, 521.4848774275729, 49.93742932529212], [0.0, 78.12687042343204, 4.539766302299284], [27.68735632183908, 443.3580070041407, 45.39766302299284], [27.68735632183908, 105.92661572747544, 28.751853247895465], [0.0, 67.58213944603624, 0.0], [0.0, 25.40321553645335, 0.0], [0.0, 42.17892390958289, 0.0], [27.687356321839083, 38.34447628143901, 28.751853247895465], [23.732019704433498, 22.04807386182744, 9.079532604598567], [3.955336617405583, 16.296402419611592, 19.672320643296896], [308.51625615763527, 1567.809773957295, 579.5768312602055], [162.16880131362888, 1449.9005093918786, 505.4273149893182], [138.4367816091954, 860.3541865647845, 220.93529337856515], [106.79408866995075, 799.0030245144839, 214.8822716421661], [106.79408866995075, 770.2446673034044, 214.8822716421661], [83.06206896551726, 671.9869468322185, 170.99786405327302], [75.15139573070608, 423.22715695638414, 115.00741299158186], [55.37471264367816, 401.1790830945566, 110.46764668928257], [19.776683087027916, 22.04807386182744, 4.539766302299284], [7.910673234811166, 248.75978987583554, 55.99045106169117], [0.0, 55.599490608086555, 6.053021736399045], [7.910673234811166, 193.1602992677491, 49.93742932529212], [23.732019704433498, 98.25772047118755, 43.884407588893076], [23.732019704433498, 43.137535816618865, 25.72534237969594], [11.866009852216749, 23.485991722381396, 9.079532604598567], [11.866009852216749, 19.651544094237508, 16.645809775097373], [0.0, 55.120184654568554, 18.159065209197134], [0.0, 38.82378223495701, 4.539766302299284], [0.0, 16.296402419611592, 13.619298906897852], [0.0, 28.75835721107927, 0.0], [31.642692939244665, 61.3511620503024, 6.053021736399045], [15.821346469622332, 29.237663164597244, 6.053021736399045], [15.821346469622332, 32.11349888570518, 0.0], [23.732019704433498, 589.5463228271265, 284.492021610755], [15.821346469622332, 499.4368035657452, 217.90878251036563], [7.910673234811166, 290.9387137854186, 151.32554340997612], [7.910673234811166, 273.204393505253, 130.13996733257946], [7.910673234811166, 236.77714103788585, 125.60020103028019], [7.910673234811166, 212.81184336198655, 98.36160321648448], [0.0, 23.965297675899393, 27.238597813795703], [0.0, 36.42725246736707, 4.539766302299284], [0.0, 17.734320280165555, 21.185576077396657], [7.910673234811166, 208.4980897803247, 66.58323910038949], [7.910673234811166, 127.01607768226691, 21.185576077396657], [7.910673234811166, 78.60617637694997, 18.159065209197134], [3.955336617405583, 59.91324418974842, 7.566277170498806], [3.955336617405583, 18.692932187201528, 10.592788038698329], [0.0, 48.40990130531674, 3.0265108681995225], [0.0, 25.882521489971342, 1.5132554340997613], [0.0, 22.527379815345427, 1.5132554340997613], [0.0, 81.48201209805796, 45.39766302299284], [0.0, 16.775708373129575, 24.21208694559618], [0.0, 64.70630372492829, 21.185576077396657], [0.0, 45.054759630690825, 10.592788038698329], [0.0, 19.651544094237497, 10.592788038698329], [7.910673234811166, 90.10951926138173, 66.58323910038949], [7.910673234811166, 32.113498885705184, 33.291619550194746], [0.0, 57.99602037567648, 33.291619550194746], [0.0, 24.92390958293536, 6.053021736399045], [0.0, 33.07211079274115, 27.238597813795703], [146.34745484400656, 117.90926456542512, 74.1495162708883], [142.39211822660096, 90.10951926138175, 66.58323910038949], [43.50870279146141, 33.07211079274116, 40.85789672069355], [98.88341543513957, 57.0374084686405, 25.72534237969594], [15.821346469622332, 21.56876790830946, 9.079532604598567], [83.06206896551724, 35.468640560331096, 16.645809775097373], [3.955336617405583, 27.799745304043288, 7.5662771704988065], [1408.099835796392, 2765.1160458452855, 4961.9645684132365], [458.81904761904724, 1695.784463546591, 3448.7091343134025], [79.10673234811163, 710.8107290671771, 770.2470159567733], [15.821346469622332, 131.3298312639288, 90.79532604598568], [0.0, 61.351162050302385, 63.556728232189975], [0.0, 16.77570837312958, 27.238597813795703], [0.0, 44.575453677172845, 36.31813041839427], [0.0, 26.84113339700732, 15.132554340997613], [0.0, 17.734320280165555, 21.185576077396657], [15.821346469622332, 69.97866921362616, 27.238597813795703], [15.821346469622332, 36.42725246736706, 12.10604347279809], [0.0, 33.551416746259136, 15.132554340997613], [63.28538587848934, 579.4808978032482, 679.4516899107886], [55.37471264367817, 553.5983763132778, 662.8058801356914], [55.37471264367817, 397.823941419931, 444.8970976253284], [31.642692939244665, 313.4660936007641, 370.74758135444074], [31.642692939244665, 222.87726838586426, 231.52808141726348], [19.776683087027916, 172.07083731295765, 202.776228169368], [11.866009852216749, 50.80643107290668, 28.751853247895465], [0.0, 90.58882521489971, 139.21949993717803], [0.0, 49.847819165870696, 92.30858148008544], [0.0, 40.74100604902895, 46.9109184570926], [23.732019704433498, 84.35784781916583, 74.1495162708883], [11.866009852216749, 28.75835721107926, 16.645809775097373], [11.866009852216749, 55.59949060808654, 57.50370649579093], [7.910673234811166, 25.882521489971342, 37.83138585249403], [3.955336617405583, 29.716969118115244, 19.672320643296896], [0.0, 155.77443489334615, 217.90878251036563], [0.0, 131.8091372174468, 202.776228169368], [0.0, 32.11349888570518, 71.12300540268878], [0.0, 19.172238140719514, 33.291619550194746], [0.0, 12.941260744985678, 37.83138585249403], [0.0, 99.69563833174158, 131.65322276667922], [0.0, 47.45128939828077, 36.31813041839427], [0.0, 52.24434893346062, 95.33509234828496], [0.0, 23.965297675899397, 15.132554340997613], [7.910673234811166, 25.88252148997133, 16.645809775097373], [379.7123152709357, 984.9737344794629, 2678.462118356603], [130.52610837438422, 434.25119388729877, 910.9797713280494], [130.52610837438422, 410.2858962113992, 892.8207061188527], [114.70476190476188, 356.12432346386623, 721.8228420655815], [27.68735632183908, 178.78112066220947, 358.6415378816425], [23.732019704433498, 106.88522763451141, 257.2534237969594], [0.0, 10.065425023877745, 42.371152154793315], [23.732019704433498, 96.81980261063367, 214.8822716421661], [3.955336617405583, 71.89589302769815, 101.388114084684], [3.955336617405583, 20.13085004775549, 18.159065209197134], [0.0, 51.765042979942635, 83.22904887548687], [87.01740558292282, 177.34320280165554, 363.1813041839419], [43.50870279146141, 34.9893346068131, 57.50370649579093], [15.821346469622332, 22.527379815345434, 34.80487498429451], [27.687356321839083, 12.461954791467686, 22.69883151149642], [43.50870279146141, 142.35386819484262, 305.6775976881515], [11.866009852216749, 87.71298949379184, 214.8822716421661], [31.642692939244665, 54.64087870105056, 90.79532604598568], [15.821346469622332, 54.16157274753258, 170.99786405327302], [0.0, 14.85848455905763, 77.17602713908782], [15.821346469622332, 39.30308818847498, 93.8218369141852], [15.821346469622332, 15.337790512575618, 21.185576077396657], [0.0, 23.965297675899397, 72.63626083678854], [0.0, 23.96529767589939, 18.159065209197134], [249.1862068965516, 550.7225405921705, 1767.4823470285228], [241.27553366174044, 484.5783190066879, 1684.253298153035], [71.1960591133005, 144.7503979624324, 629.5142605854974], [67.24072249589493, 108.3231454950653, 408.57896720693424], [15.821346469622332, 51.76504297994264, 220.93529337856515], [15.821346469622332, 34.03072269977712, 124.08694559618043], [0.0, 17.73432028016555, 96.84834778238472], [51.41937602627258, 56.55810251512252, 187.6436738283704], [31.64269293924466, 14.85848455905763, 33.291619550194746], [19.776683087027916, 41.699617956064934, 154.35205427817564], [3.955336617405583, 36.42725246736707, 220.93529337856515], [0.0, 9.586119070359759, 83.22904887548687], [3.955336617405583, 26.84113339700731, 137.70624450307827], [3.955336617405583, 11.50334288443171, 48.42417389119236], [0.0, 15.337790512575616, 89.28207061188591], [170.07947454844003, 339.82792104425397, 1054.739037567525], [114.7047619047619, 170.6329194524038, 431.2777987184304], [98.88341543513957, 150.50206940464827, 407.06571177283456], [98.88341543513957, 134.20566698503674, 354.10177157934316], [0.0, 16.296402419611592, 52.963940193491645], [15.821346469622332, 20.13085004775549, 24.21208694559618], [55.37471264367817, 169.19500159184983, 623.4612388490978], [0.0, 93.46466093600765, 266.3329564015579], [0.0, 11.9826488379497, 52.963940193491645], [0.0, 81.48201209805791, 213.36901620806634], [55.37471264367817, 75.73034065584204, 357.128282447543], [27.687356321839083, 4.313753581661891, 46.9109184570926], [27.68735632183908, 71.41658707418013, 310.21736399045085], [7.910673234811166, 66.1442215854823, 83.22904887548687], [7.910673234811166, 27.3204393505253, 28.751853247895465], [0.0, 38.823782234957, 54.477195627591406], [0.0, 20.61015600127348, 36.31813041839427], [0.0, 18.21362623368354, 18.159065209197134], [949.280788177339, 1069.3315822986244, 1513.2554340997604], [482.55106732348065, 442.3993950971042, 452.4633747958267], [439.04236453201935, 428.49952244508273, 435.81756502072983], [253.1415435139572, 188.84654568608724, 189.15692926247016], [71.19605911330049, 108.80245144858335, 104.41462495288353], [55.374712643678166, 57.516714422158486, 31.778364116094988], [7.910673234811166, 24.923909582935366, 21.185576077396657], [47.464039408866995, 32.59280483922318, 10.592788038698329], [15.821346469622332, 51.28573702642464, 72.63626083678854], [0.0, 16.775708373129582, 37.83138585249403], [15.821346469622332, 34.510028653295116, 34.80487498429451], [181.94548440065677, 80.04409423750397, 84.74230430958663], [67.24072249589491, 19.65154409423751, 6.053021736399045], [114.70476190476191, 60.392550143266426, 78.68928257318758], [47.464039408866995, 39.78239414199299, 40.85789672069355], [35.598029556650246, 14.858484559057628, 13.619298906897852], [11.866009852216749, 24.92390958293537, 27.238597813795703], [67.24072249589491, 20.610156001273474, 37.83138585249403], [185.90082101806235, 239.65297675899387, 246.6606357582611], [39.55336617405583, 74.29242279528809, 99.87485865058424], [15.821346469622332, 39.30308818847499, 27.238597813795703], [23.732019704433498, 34.989334606813095, 72.63626083678854], [19.776683087027916, 11.024036930913724, 39.34464128659379], [3.955336617405583, 23.965297675899393, 33.291619550194746], [146.34745484400653, 165.36055396370602, 146.78577710767684], [31.642692939244665, 29.71696911811524, 10.592788038698329], [114.70476190476188, 135.6435848455907, 136.1929890689785], [31.642692939244665, 21.089461954791467, 12.10604347279809], [83.06206896551723, 114.5541228907992, 124.08694559618043], [3.955336617405583, 21.08946195479147, 9.079532604598567], [79.10673234811165, 93.46466093600768, 115.00741299158186], [43.50870279146142, 13.899872652021651, 16.645809775097373], [466.7297208538584, 626.9321872015286, 1060.7920593039248], [403.44433497536915, 549.2846227316159, 1030.5269506219292], [118.66009852216747, 284.2284304361668, 410.09222264103397], [0.0, 11.503342884431714, 48.42417389119236], [118.66009852216747, 272.72508755173527, 361.66804874984206], [39.55336617405583, 27.3204393505253, 55.99045106169117], [11.866009852216749, 11.9826488379497, 25.72534237969594], [27.68735632183908, 15.337790512575616, 30.265108681995226], [79.10673234811166, 245.4046482012098, 305.6775976881513], [59.330049261083744, 226.23241006049048, 290.54504334715375], [47.464039408866995, 104.48869786692144, 146.78577710767684], [11.866009852216749, 121.74371219356898, 143.7592662394773], [19.776683087027916, 19.172238140719518, 15.132554340997613], [284.78423645320174, 265.0561922954474, 620.4347279808991], [98.88341543513955, 156.25374084686416, 372.26083678854053], [47.464039408866995, 48.40990130531674, 81.7157934413871], [39.55336617405583, 17.73432028016555, 25.72534237969594], [7.910673234811166, 30.675581025151217, 55.99045106169117], [51.41937602627258, 107.84383954154741, 290.54504334715386], [3.955336617405583, 35.94794651384907, 125.60020103028019], [3.955336617405583, 10.065425023877747, 59.01696192989069], [0.0, 25.882521489971346, 66.58323910038949], [47.464039408866995, 71.89589302769812, 164.94484231687397], [23.732019704433498, 20.130850047755494, 34.80487498429451], [23.732019704433498, 51.76504297994264, 130.13996733257946], [185.90082101806235, 108.8024514485833, 248.17389119236086], [98.88341543513957, 30.675581025151214, 69.60974996858901], [47.464039408867, 15.337790512575618, 54.477195627591406], [51.41937602627258, 15.337790512575618, 15.132554340997613], [87.01740558292282, 78.126870423432, 178.56414122377183], [55.37471264367816, 23.006685768863417, 36.31813041839427], [31.642692939244665, 55.12018465456857, 142.24601080537755], [0.0, 18.21362623368354, 57.50370649579093], [31.642692939244665, 36.90655842088505, 84.74230430958663], [63.28538587848933, 77.64756446991403, 30.265108681995226], [23.732019704433498, 57.5167144221585, 22.69883151149642], [23.732019704433498, 33.07211079274116, 13.619298906897852], [0.0, 24.44460362941737, 9.079532604598567], [39.55336617405583, 20.130850047755494, 7.5662771704988065], [6364.136617405642, 1662.2330468003336, 2207.839678351568], [3710.10574712645, 1428.3317414835706, 2039.8683251664847], [3089.1178981937705, 1315.6948424068512, 1988.4176404070906], [1629.5986863711043, 850.7680674944255, 1348.3105917828823], [609.1218390804593, 302.9213626233685, 251.20040206056038], [0.0, 41.22031200254693, 24.21208694559618], [0.0, 20.61015600127348, 0.0], [0.0, 20.610156001273477, 24.21208694559618], [609.1218390804593, 261.70105062082143, 226.9883151149642], [288.7395730706074, 88.19229544730976, 54.477195627591406], [39.55336617405583, 34.989334606813095, 33.291619550194746], [31.642692939244665, 17.25501432664757, 13.619298906897852], [7.910673234811166, 17.734320280165555, 19.672320643296896], [249.1862068965516, 53.202960840496594, 21.185576077396657], [205.67750410509024, 33.551416746259136, 10.592788038698329], [110.74942528735633, 13.899872652021653, 3.0265108681995225], [94.928078817734, 19.651544094237504, 7.5662771704988065], [43.50870279146141, 19.651544094237497, 10.592788038698329], [320.382266009852, 173.50875517351167, 172.51111948737278], [11.866009852216749, 25.882521489971342, 24.21208694559618], [308.51625615763527, 147.6262336835403, 148.2990325417766], [71.19605911330049, 57.99602037567645, 55.99045106169117], [67.24072249589491, 44.57545367717283, 25.72534237969594], [3.955336617405583, 13.420566698503666, 30.265108681995226], [237.32019704433486, 89.63021330786373, 92.30858148008544], [67.24072249589491, 17.25501432664757, 9.079532604598567], [170.07947454844003, 72.37519898121616, 83.22904887548687], [1020.4768472906394, 547.8467048710622, 1097.110189722321], [118.66009852216749, 54.161572747532595, 55.99045106169117], [51.41937602627257, 29.237663164597254, 43.884407588893076], [47.464039408866995, 11.503342884431712, 19.672320643296896], [3.955336617405583, 17.734320280165555, 24.21208694559618], [67.24072249589491, 24.92390958293537, 12.10604347279809], [901.816748768472, 493.68513212353, 1041.1197386606282], [31.642692939244665, 64.70630372492829, 157.37856514637517], [27.687356321839083, 55.12018465456854, 104.41462495288353], [15.821346469622332, 16.29640241961159, 19.672320643296896], [11.866009852216749, 38.823782234956994, 84.74230430958663], [11.866009852216749, 14.85848455905763, 37.83138585249403], [0.0, 23.96529767589939, 46.9109184570926], [3.955336617405583, 9.586119070359759, 52.963940193491645], [870.1740558292274, 428.97882839860057, 883.741173514254], [407.3996715927748, 147.62623368354036, 308.70410855635095], [23.732019704433498, 11.503342884431712, 42.371152154793315], [383.6676518883413, 136.12289079910872, 266.3329564015579], [324.3376026272576, 119.82648837949712, 246.6606357582611], [59.33004926108375, 16.296402419611592, 19.672320643296896], [462.7743842364528, 281.352594715059, 575.0370649579068], [15.821346469622332, 43.137535816618886, 68.09649453448925], [15.821346469622332, 25.403215536453345, 25.72534237969594], [0.0, 17.734320280165548, 42.371152154793315], [446.9530377668305, 238.21505889843993, 506.94057042341797], [419.26568144499146, 216.1669850366125, 434.30430958663], [27.68735632183908, 22.048073861827437, 72.63626083678854], [1459.519211822665, 464.92677491245007, 640.107048624195], [94.92807881773398, 76.20964660936002, 84.74230430958663], [19.776683087027916, 15.337790512575616, 42.371152154793315], [75.15139573070608, 60.871856096784384, 42.371152154793315], [59.33004926108375, 32.113498885705184, 15.132554340997613], [15.821346469622332, 28.75835721107927, 27.238597813795703], [1364.5911330049294, 388.71712830308934, 555.3647443146097], [688.2285714285707, 163.44333014963414, 154.35205427817564], [126.57077175697864, 13.899872652021653, 10.592788038698329], [561.6577996715923, 149.54345749761228, 143.7592662394773], [83.06206896551724, 14.85848455905763, 1.5132554340997613], [478.59573070607513, 134.6849729385548, 142.24601080537755], [67.2407224958949, 31.634192932187183, 34.80487498429451], [43.50870279146142, 15.817096466093604, 13.619298906897852], [23.732019704433498, 15.817096466093606, 21.185576077396657], [411.3550082101803, 103.05078000636748, 107.44113582108305], [31.64269293924466, 16.775708373129582, 13.619298906897852], [379.7123152709356, 86.27507163323781, 93.8218369141852], [676.3625615763541, 225.27379815345418, 401.01269003643586], [15.821346469622332, 38.82378223495699, 16.645809775097373], [660.5412151067318, 186.45001591849726, 384.3668802613385], [11.866009852216749, 12.461954791467688, 37.83138585249403], [648.675205254515, 173.98806112702957, 346.5354944088448], [181.94548440065677, 69.97866921362616, 140.7327553712778], [94.92807881773399, 24.92390958293536, 34.80487498429451], [87.01740558292283, 45.054759630690825, 105.92788038698329], [466.7297208538584, 104.00939191340349, 205.80273903756753], [348.069622331691, 63.74769181789232, 111.98090212338234], [118.6600985221675, 40.26170009551096, 93.8218369141852], [620.987848932676, 112.63689907672722, 51.45068475939188], [257.0968801313628, 69.0200573065902, 34.80487498429451], [126.57077175697866, 55.59949060808654, 33.291619550194746], [118.66009852216749, 35.46864056033108, 16.645809775097373], [71.19605911330049, 18.213626233683538, 4.539766302299284], [47.464039408866995, 17.25501432664756, 12.10604347279809], [7.910673234811166, 20.130850047755494, 16.645809775097373], [130.52610837438425, 13.420566698503665, 1.5132554340997613], [363.89096880131336, 43.61684177013686, 16.645809775097373], [245.23087027914602, 32.11349888570518, 15.132554340997613], [166.12413793103445, 17.25501432664757, 6.053021736399045], [79.10673234811165, 14.858484559057628, 9.079532604598567], [118.6600985221675, 11.503342884431712, 1.5132554340997613], [2654.0308702791535, 233.90130531677806, 167.9713531850735], [901.816748768472, 156.73304680038208, 133.16647820077898], [110.7494252873563, 52.244348933460635, 42.371152154793315], [90.9727422003284, 37.385864374403035, 21.185576077396657], [23.732019704433498, 19.651544094237504, 21.185576077396657], [67.24072249589491, 17.73432028016555, 0.0], [19.776683087027916, 14.858484559057628, 21.185576077396657], [791.0673234811159, 104.4886978669214, 90.79532604598568], [553.7471264367812, 84.83715377268382, 84.74230430958663], [514.1937602627254, 73.8131168417701, 57.50370649579093], [363.89096880131336, 64.7063037249283, 46.9109184570926], [320.38226600985206, 47.45128939828076, 36.31813041839427], [217.54351395730694, 35.46864056033108, 33.291619550194746], [138.43678160919538, 15.817096466093606, 7.5662771704988065], [79.10673234811166, 19.651544094237504, 25.72534237969594], [102.83875205254516, 11.982648837949698, 3.0265108681995225], [43.50870279146142, 17.25501432664757, 10.592788038698329], [150.3027914614121, 9.10681311684177, 10.592788038698329], [39.553366174055824, 11.024036930913724, 27.238597813795703], [237.32019704433486, 19.651544094237504, 6.053021736399045], [134.4814449917898, 7.668895256287807, 1.5132554340997613], [102.83875205254513, 11.982648837949698, 4.539766302299284], [1752.2141215106801, 77.168258516396, 34.80487498429451], [423.22101806239704, 33.07211079274115, 30.265108681995226], [209.63284072249587, 15.817096466093606, 6.053021736399045], [213.5881773399014, 17.25501432664757, 24.21208694559618], [79.10673234811166, 10.544730977395735, 12.10604347279809], [134.4814449917898, 6.71028334925183, 12.10604347279809], [1328.9931034482781, 44.09614772365484, 4.539766302299284], [423.22101806239704, 27.32043935052531, 4.539766302299284], [316.4269293924464, 17.25501432664757, 1.5132554340997613], [138.43678160919535, 11.503342884431714, 0.0], [177.9901477832512, 5.751671442215854, 1.5132554340997613], [106.79408866995071, 10.065425023877747, 3.0265108681995225], [905.7720853858776, 16.77570837312958, 0.0], [142.39211822660099, 10.065425023877745, 0.0], [763.3799671592768, 6.710283349251831, 0.0], [435.08702791461377, 6.7102833492518315, 0.0], [217.54351395730697, 1.9172238140719515, 0.0], [217.543513957307, 4.793059535179879, 0.0], [328.29293924466316, 0.0, 0.0]]}, {"children_left": [1, 2, 3, 4, 5, 6, -1, 8, -1, 10, -1, -1, 13, 14, 15, 16, 17, -1, -1, 20, -1, -1, 23, -1, 25, -1, -1, -1, 29, 30, 31, 32, -1, -1, -1, -1, 37, -1, -1, 40, 41, 42, 43, -1, 45, 46, -1, -1, 49, -1, -1, -1, 53, 54, -1, 56, -1, 58, -1, -1, 61, -1, 63, 64, -1, -1, 67, -1, -1, -1, 71, 72, 73, 74, 75, 76, 77, -1, -1, 80, -1, -1, 83, 84, -1, -1, 87, -1, -1, 90, -1, 92, 93, -1, -1, 96, -1, -1, 99, 100, -1, 102, -1, -1, -1, 106, 107, 108, 109, 110, -1, -1, -1, -1, -1, 116, 117, 118, -1, -1, 121, -1, 123, -1, -1, 126, -1, 128, 129, -1, -1, 132, -1, -1, 135, 136, -1, 138, 139, 140, 141, -1, -1, -1, -1, -1, 147, 148, -1, -1, -1, 152, 153, 154, 155, 156, -1, 158, -1, 160, -1, -1, 163, 164, 165, -1, -1, -1, 169, 170, -1, 172, -1, -1, -1, 176, 177, 178, 179, -1, 181, -1, -1, 184, -1, -1, 187, 188, 189, -1, -1, 192, -1, -1, 195, -1, 197, -1, -1, 200, -1, 202, 203, -1, -1, 206, -1, -1, 209, 210, 211, 212, 213, -1, -1, 216, -1, -1, 219, -1, -1, 222, -1, -1, 225, 226, 227, 228, 229, -1, -1, 232, -1, -1, 235, 236, -1, -1, 239, -1, -1, 242, -1, -1, 245, -1, 247, -1, -1, 250, 251, 252, 253, -1, -1, 256, 257, -1, -1, -1, 261, 262, -1, -1, 265, -1, -1, 268, 269, 270, 271, 272, 273, -1, -1, 276, -1, -1, 279, -1, 281, -1, -1, 284, -1, 286, 287, -1, -1, -1, 291, 292, 293, 294, -1, -1, -1, 298, 299, -1, -1, 302, -1, -1, 305, -1, -1, -1, 309, 310, 311, 312, -1, 314, 315, 316, 317, -1, 319, -1, -1, 322, -1, -1, 325, 326, 327, -1, -1, 330, -1, -1, 333, 334, -1, -1, -1, 338, 339, 340, 341, -1, -1, -1, 345, -1, 347, -1, -1, 350, 351, 352, -1, -1, -1, -1, 357, 358, 359, 360, 361, 362, -1, -1, -1, 366, -1, -1, -1, 370, 371, -1, -1, 374, 375, -1, -1, 378, 379, -1, -1, 382, -1, -1, 385, 386, 387, -1, -1, 390, -1, -1, 393, 394, -1, -1, 397, -1, -1, 400, 401, 402, -1, 404, -1, -1, -1, 408, 409, -1, -1, -1, 413, 414, 415, 416, 417, -1, -1, 420, -1, 422, -1, 424, -1, 426, -1, -1, -1, 430, 431, 432, -1, -1, 435, -1, -1, -1, 439, 440, -1, -1, 443, -1, 445, -1, 447, -1, -1], "children_right": [308, 151, 70, 39, 12, 7, -1, 9, -1, 11, -1, -1, 28, 27, 22, 19, 18, -1, -1, 21, -1, -1, 24, -1, 26, -1, -1, -1, 36, 35, 34, 33, -1, -1, -1, -1, 38, -1, -1, 69, 52, 51, 44, -1, 48, 47, -1, -1, 50, -1, -1, -1, 60, 55, -1, 57, -1, 59, -1, -1, 62, -1, 66, 65, -1, -1, 68, -1, -1, -1, 134, 105, 98, 89, 82, 79, 78, -1, -1, 81, -1, -1, 86, 85, -1, -1, 88, -1, -1, 91, -1, 95, 94, -1, -1, 97, -1, -1, 104, 101, -1, 103, -1, -1, -1, 115, 114, 113, 112, 111, -1, -1, -1, -1, -1, 125, 120, 119, -1, -1, 122, -1, 124, -1, -1, 127, -1, 131, 130, -1, -1, 133, -1, -1, 146, 137, -1, 145, 144, 143, 142, -1, -1, -1, -1, -1, 150, 149, -1, -1, -1, 249, 208, 175, 162, 157, -1, 159, -1, 161, -1, -1, 168, 167, 166, -1, -1, -1, 174, 171, -1, 173, -1, -1, -1, 199, 186, 183, 180, -1, 182, -1, -1, 185, -1, -1, 194, 191, 190, -1, -1, 193, -1, -1, 196, -1, 198, -1, -1, 201, -1, 205, 204, -1, -1, 207, -1, -1, 224, 221, 218, 215, 214, -1, -1, 217, -1, -1, 220, -1, -1, 223, -1, -1, 244, 241, 234, 231, 230, -1, -1, 233, -1, -1, 238, 237, -1, -1, 240, -1, -1, 243, -1, -1, 246, -1, 248, -1, -1, 267, 260, 255, 254, -1, -1, 259, 258, -1, -1, -1, 264, 263, -1, -1, 266, -1, -1, 307, 290, 283, 278, 275, 274, -1, -1, 277, -1, -1, 280, -1, 282, -1, -1, 285,